{"input_layer_size": 784, "hidden_layer_sizes": [16, 16], "output_layer_size": 10, "layer_sizes": [784, 16, 16, 10], "layer_count": 4, "weight_init_range": 1, "bias_init_range": 1, "alpha": 0.04, "inputs": [], "activations": [[0.0, 0.0, 0.0, 0.0, 0.0, 0.0, 0.0, 0.0, 0.0, 0.0, 0.0, 0.0, 0.0, 0.0, 0.0, 0.0, 0.0, 0.0, 0.0, 0.0, 0.0, 0.0, 0.0, 0.0, 0.0, 0.0, 0.0, 0.0, 0.0, 0.0, 0.0, 0.0, 0.0, 0.0, 0.0, 0.0, 0.0, 0.0, 0.0, 0.0, 0.0, 0.0, 0.0, 0.0, 0.0, 0.0, 0.0, 0.0, 0.0, 0.0, 0.0, 0.0, 0.0, 0.0, 0.0, 0.0, 0.0, 0.0, 0.0, 0.0, 0.0, 0.0, 0.0, 0.0, 0.0, 0.0, 0.0, 0.0, 0.0, 0.0, 0.0, 0.0, 0.0, 0.0, 0.0, 0.0, 0.0, 0.0, 0.0, 0.0, 0.0, 0.0, 0.0, 0.0, 0.0, 0.0, 0.0, 0.0, 0.0, 0.0, 0.0, 0.0, 0.0, 0.0, 0.0, 0.0, 0.0, 0.0, 0.0, 0.0, 0.0, 0.0, 0.0, 0.0, 0.0, 0.0, 0.0, 0.0, 0.0, 0.0, 0.0, 0.0, 0.0, 0.0, 0.0, 0.0, 0.0, 0.0, 0.0, 0.0, 0.0, 0.0, 0.0, 0.0, 0.0, 0.0, 0.0, 0.0, 0.0, 0.0, 0.0, 0.0, 0.0, 0.0, 0.0, 0.0, 0.0, 0.0, 0.0, 0.0, 0.0, 0.0, 0.0, 0.0, 0.0, 0.0, 0.0, 0.0, 0.0, 0.0, 0.0, 0.0, 0.0, 0.0, 0.0, 0.0, 0.0, 0.0, 0.0, 0.0, 0.0, 0.0, 0.0, 0.0, 0.0, 0.0, 0.0, 0.0, 0.0, 0.0, 0.0, 0.0, 0.0, 0.0, 0.0, 0.0, 0.0, 0.0, 0.0, 0.0, 0.0, 0.0, 0.027450980392156862, 0.23137254901960785, 0.6627450980392157, 0.8941176470588236, 0.7725490196078432, 0.29411764705882354, 0.0, 0.0, 0.0, 0.0, 0.0, 0.0, 0.0, 0.0, 0.0, 0.0, 0.0, 0.0, 0.0, 0.0, 0.0, 0.0, 0.0, 0.0, 0.0, 0.0, 0.0, 0.23137254901960785, 0.8196078431372549, 0.996078431372549, 0.996078431372549, 0.996078431372549, 0.996078431372549, 0.8705882352941177, 0.0, 0.0, 0.0, 0.0, 0.0, 0.0, 0.0, 0.0, 0.0, 0.0, 0.0, 0.0, 0.0, 0.0, 0.0, 0.0, 0.0, 0.0, 0.0, 0.011764705882352941, 0.3176470588235294, 0.9529411764705882, 0.9686274509803922, 0.6705882352941176, 0.3411764705882353, 0.34901960784313724, 0.996078431372549, 0.9098039215686274, 0.06274509803921569, 0.0, 0.0, 0.0, 0.0, 0.0, 0.0, 0.0, 0.0, 0.0, 0.0, 0.0, 0.0, 0.0, 0.0, 0.0, 0.0, 0.0, 0.06666666666666667, 0.5450980392156862, 0.996078431372549, 0.6941176470588235, 0.18823529411764706, 0.0, 0.0, 0.6196078431372549, 0.996078431372549, 0.8705882352941177, 0.0, 0.0, 0.0, 0.0, 0.0, 0.0, 0.0, 0.0, 0.0, 0.0, 0.0, 0.0, 0.0, 0.0, 0.0, 0.0, 0.0, 0.0, 0.5098039215686274, 0.996078431372549, 0.6470588235294118, 0.027450980392156862, 0.0, 0.0, 0.16862745098039217, 0.9921568627450981, 0.996078431372549, 0.592156862745098, 0.0, 0.0, 0.0, 0.0, 0.0, 0.0, 0.0, 0.0, 0.0, 0.0, 0.0, 0.0, 0.0, 0.0, 0.0, 0.0, 0.0, 0.26666666666666666, 0.9686274509803922, 0.5686274509803921, 0.0196078431372549, 0.0, 0.0, 0.0, 0.596078431372549, 1.0, 0.792156862745098, 0.19607843137254902, 0.0, 0.0, 0.0, 0.0, 0.0, 0.0, 0.0, 0.0, 0.0, 0.0, 0.0, 0.0, 0.0, 0.0, 0.0, 0.0, 0.1568627450980392, 0.8509803921568627, 0.3607843137254902, 0.0, 0.0, 0.0, 0.0, 0.0, 0.8274509803921568, 0.9882352941176471, 0.19215686274509805, 0.0, 0.0, 0.0, 0.0, 0.0, 0.0, 0.0, 0.0, 0.0, 0.0, 0.0, 0.0, 0.0, 0.0, 0.0, 0.0, 0.0, 0.4627450980392157, 0.7764705882352941, 0.011764705882352941, 0.0, 0.0, 0.0, 0.0, 0.0, 0.8352941176470589, 0.8431372549019608, 0.0, 0.0, 0.0, 0.0, 0.0, 0.0, 0.0, 0.0, 0.0, 0.0, 0.0, 0.0, 0.0, 0.0, 0.0, 0.0, 0.0, 0.023529411764705882, 0.6039215686274509, 0.12549019607843137, 0.0, 0.0, 0.0, 0.0, 0.0, 0.0392156862745098, 0.8352941176470589, 0.4470588235294118, 0.0, 0.0, 0.0, 0.0, 0.0, 0.0, 0.0, 0.0, 0.0, 0.0, 0.0, 0.0, 0.0, 0.0, 0.0, 0.0, 0.0, 0.13333333333333333, 0.7333333333333333, 0.09019607843137255, 0.0, 0.0, 0.0, 0.12941176470588237, 0.6431372549019608, 0.8588235294117647, 0.984313725490196, 0.4980392156862745, 0.0, 0.0, 0.0, 0.0, 0.0, 0.0, 0.0, 0.0, 0.0, 0.0, 0.0, 0.0, 0.0, 0.0, 0.0, 0.0, 0.0, 0.19215686274509805, 0.996078431372549, 0.19215686274509805, 0.0, 0.0, 0.29411764705882354, 0.7490196078431373, 0.996078431372549, 0.8, 0.9647058823529412, 0.4666666666666667, 0.0, 0.0, 0.0, 0.0, 0.0, 0.0, 0.0, 0.0, 0.0, 0.0, 0.0, 0.0, 0.0, 0.0, 0.0, 0.0, 0.0, 0.1450980392156863, 0.9647058823529412, 0.8431372549019608, 0.5725490196078431, 0.796078431372549, 0.9725490196078431, 0.996078431372549, 0.615686274509804, 0.08235294117647059, 0.7568627450980392, 0.6823529411764706, 0.0, 0.0, 0.0, 0.0, 0.0, 0.0, 0.0, 0.0, 0.0, 0.0, 0.0, 0.0, 0.0, 0.0, 0.0, 0.0, 0.0, 0.0, 0.30980392156862746, 0.7803921568627451, 0.996078431372549, 0.996078431372549, 0.5686274509803921, 0.29411764705882354, 0.011764705882352941, 0.0, 0.7137254901960784, 0.5529411764705883, 0.0, 0.0, 0.0, 0.0, 0.0, 0.0, 0.0, 0.0, 0.0, 0.0, 0.0, 0.0, 0.0, 0.0, 0.0, 0.0, 0.0, 0.0, 0.0, 0.09803921568627451, 0.3333333333333333, 0.3333333333333333, 0.08627450980392157, 0.0, 0.0, 0.0, 0.9372549019607843, 0.5411764705882353, 0.0, 0.0, 0.0, 0.0, 0.0, 0.0, 0.0, 0.0, 0.0, 0.0, 0.0, 0.0, 0.0, 0.0, 0.0, 0.0, 0.0, 0.0, 0.0, 0.0, 0.0, 0.0, 0.0, 0.0, 0.0, 0.0, 0.9372549019607843, 0.6235294117647059, 0.0, 0.0, 0.0, 0.0, 0.0, 0.0, 0.0, 0.0, 0.0, 0.0, 0.0, 0.0, 0.0, 0.0, 0.0, 0.0, 0.0, 0.0, 0.0, 0.0, 0.0, 0.0, 0.0, 0.0, 0.0, 0.11372549019607843, 0.9647058823529412, 0.3333333333333333, 0.0, 0.0, 0.0, 0.0, 0.0, 0.0, 0.0, 0.0, 0.0, 0.0, 0.0, 0.0, 0.0, 0.0, 0.0, 0.0, 0.0, 0.0, 0.0, 0.0, 0.0, 0.0, 0.0, 0.0, 0.0, 0.12941176470588237, 0.9686274509803922, 0.3333333333333333, 0.0, 0.0, 0.0, 0.0, 0.0, 0.0, 0.0, 0.0, 0.0, 0.0, 0.0, 0.0, 0.0, 0.0, 0.0, 0.0, 0.0, 0.0, 0.0, 0.0, 0.0, 0.0, 0.0, 0.0, 0.0, 0.39215686274509803, 0.9882352941176471, 0.3333333333333333, 0.0, 0.0, 0.0, 0.0, 0.0, 0.0, 0.0, 0.0, 0.0, 0.0, 0.0, 0.0, 0.0, 0.0, 0.0, 0.0, 0.0, 0.0, 0.0, 0.0, 0.0, 0.0, 0.0, 0.0, 0.0, 0.5725490196078431, 0.996078431372549, 0.3333333333333333, 0.0, 0.0, 0.0, 0.0, 0.0, 0.0, 0.0, 0.0, 0.0, 0.0, 0.0, 0.0, 0.0, 0.0, 0.0, 0.0, 0.0, 0.0, 0.0, 0.0, 0.0, 0.0, 0.0, 0.0, 0.0, 0.2901960784313726, 0.9803921568627451, 0.23137254901960785, 0.0, 0.0, 0.0, 0.0, 0.0, 0.0, 0.0, 0.0, 0.0, 0.0, 0.0, 0.0, 0.0, 0.0, 0.0, 0.0, 0.0, 0.0, 0.0, 0.0, 0.0, 0.0, 0.0, 0.0, 0.0, 0.0, 0.0, 0.0, 0.0, 0.0, 0.0, 0.0, 0.0, 0.0, 0.0, 0.0, 0.0, 0.0, 0.0, 0.0, 0.0, 0.0, 0.0, 0.0, 0.0, 0.0, 0.0, 0.0, 0.0, 0.0, 0.0, 0.0, 0.0, 0.0, 0.0, 0.0, 0.0, 0.0, 0.0, 0.0, 0.0, 0.0, 0.0, 0.0, 0.0, 0.0], [0.8287328117971811, 0.8338703515135876, 0.6568998538135954, 0.16958191648078533, 0.166984209536427, 0.14000886100453316, 0.3434034719797231, 0.0018428033721962472, 0.9272345802923606, 0.7740834229706555, 0.052326956246936736, 0.9964815372701252, 0.9923302000570903, 0.15834021724743272, 0.33549049017329496, 0.9995722683465572], [0.9649387125510838, 0.11203321768967547, 0.8472398396512518, 0.14324127595957195, 0.06057971515486557, 0.5792320644296669, 0.1559066355001228, 0.7454389847651347, 0.7664343181386587, 0.5337906424286191, 0.9029458595175274, 0.5295102795036724, 0.33036114604208344, 0.4098234056349285, 0.09102611546536378, 0.7089866250171764], [0.1241378700766365, 0.27532844440361914, 0.07603813935886614, 0.09261363412946964, 0.08498177795327018, 0.15036000830161814, 0.17628085031346477, 0.1833235526656399, 0.15474878145753748, 0.14313633173740187]], "costs": [0.007705105393581942, 0.0379028761488584, 0.0028908993185791736, 0.004288642613333632, 0.0036109512920494587, 0.011304066048231337, 0.015537469093619086, 0.016803762480975825, 0.011973592681296347, 0.36710767299421787], "weights": [[], [[0.7091910884327077, 0.07732820254434869, -0.41702560162236924, -0.4686215373914482, 0.7160405170871975, 0.7465390302881201, -0.003805107696491561, -0.6475320998963698, 0.6830735923954059, -0.4809638620342642, -0.6253598597402015, -0.9918236999437064, 0.3652844441508606, 0.34562620744180417, -0.006344659838965763, 0.9433831814540087, -0.3356671481992626, -0.25679344466169063, -0.4750458525250696, -0.5200111284189719, 0.154427139337719, -0.4489785915301565, -0.7937688564456791, 0.09830713853218143, 0.17276490642646403, 0.78683924503382, -0.2012644192108084, 0.18256126715806587, -0.07737342260914182, 0.5178486404884068, 0.23427964568253157, -0.8240881816834211, 0.405349122649566, 0.04680208455801199, -0.28141947791948557, -0.23396538434675712, 0.3616373111474184, 0.3813267321931695, 0.9657326542239307, -0.7890488904347672, -0.9239701214421117, 0.6282057244810738, -0.745928620230347, 0.8823450176726739, -0.6697127875557969, -0.17599557988408368, -0.47734634049865016, -0.5699270003778935, -0.26564467717347146, 0.49746794470954525, 0.37063470472642335, -0.4397957026915416, 0.5742752047525341, 0.8196040955463213, 0.3574081455141107, 0.49480313959128197, -0.45386078954960607, 0.43769346430642964, 0.19595046476268077, 0.019942007076785447, 0.4482749533297724, 0.016295407228297327, -0.5006725383146156, -0.9954387366807934, -0.5704448161718118, 0.972998338418679, 0.7793686910230989, 0.7553528339083603, 0.3410910864153548, -0.37223829142046844, 0.6859069377711242, 0.008495886038208245, 0.36503549100436683, -0.14061626141346933, -0.4491907883776181, -0.7013747301147697, 0.7485093586370674, 0.9158233997866619, 0.21926595691350506, -0.00392321335274821, -0.7380459094563309, 0.0658052067256304, -0.24577044266176262, -0.9602983539035348, 0.3942118495820699, -0.05044076860141611, 0.8764013653721036, -0.8249135414865864, -0.12211249064536882, 0.3232578762104511, -0.7589913714087267, -0.0004799234415870962, -0.8485446568395916, -0.1339964135847902, -0.5659078323163973, 0.5434650130476827, 0.03314270082477105, -0.3855347907936616, -0.05130318110639571, -0.03305139581951504, 0.5182087780553282, 0.5828274188977512, 0.4160546958213432, -0.1877953902538474, -0.28512859106100885, 0.44382195430719296, -0.4870953953042392, 0.36431314965053746, -0.24935649989493838, 0.6723815367525745, -0.9531505843739668, -0.44998168738832, 0.7561771148138381, -0.32621990080624286, 0.15230784628598185, -0.8892761144802696, 0.3902976636786871, 0.600290191846182, -0.9476142600770984, -0.37484190645982646, 0.4493803294156328, 0.13143838895115184, -0.11550140585014984, 0.19656521761522402, 0.18255794522327207, 0.9032507583200682, 0.9650890856390965, -0.10172043151670565, -0.6788591525723062, -0.8730433958906277, 0.4283672266230378, 0.17351776238631267, 0.4514084579935903, 0.19756684058996193, 0.379770235330665, 0.24839006975249606, -0.0016244644278464232, -0.9221543524731941, -0.049508199985364855, 0.48608140128816757, 0.6888922902090011, -0.29336005415672584, -0.10994857975342923, 0.9112547603499492, -0.33640344001117883, -0.7768377050800954, 0.6700993500776405, -0.7984248903102972, -0.7264111176967656, -0.3855731511738508, 0.23031575279740496, 0.011869321984220155, -0.5539920875094901, -0.8383729689356244, -0.3615609287419742, 0.19459715477127884, 0.2331766854361359, 0.8953430698217579, 0.9755265835170193, 0.15525047062422817, -0.7436804387336134, -0.20366480445222615, 0.09123747482695824, -0.5344213856776049, -0.27937576943189696, 0.8433767286792871, 0.3928764737435675, -0.5487456898050258, -0.3506494149408437, 0.3887423430793488, 0.6627995673826192, 0.10521527653577213, 0.4071903803916195, -0.6593578291431695, -0.9445926452039972, 0.38047265022505145, -0.6883654980057613, 0.7819259606723261, 0.7830711498639075, -0.9104766050673002, 0.2992607831931112, -0.20855721580711845, -0.7278853672786612, -0.3307373203476395, -0.20837907208106374, -0.6116184061299489, -0.11928466124116419, 0.3697779736012158, -0.25162971163622727, 0.29023830429762437, 0.06644830786740383, -0.4944849920983701, 0.5874917573514514, -0.21389070088303042, 0.06264181606811631, 0.25875946487950113, 0.7493099148789764, -0.3088798270216629, -0.16948418928675765, -0.6567760493688992, -0.5450395974177918, 0.4046306345748279, 0.8609919244470678, 0.9978733046274891, 0.5023676647539456, 0.33160510819265665, -0.5905914019776843, -0.5913687526374299, -0.5276749496143109, 0.854389492638276, -0.3976092404175359, -0.23989223083578207, 0.062099842240270875, 0.5407453087373117, 0.4978620468893732, -0.45940694918906194, -0.7132110783895312, 0.846906897464658, -0.4908715712802238, -0.8045593933790097, 0.816351589477444, 0.6068849599474991, -0.2544751533922951, -0.5665981947076817, -0.15466796923203602, 0.6182563429280282, -0.31532449179805383, 0.32615900600851594, 0.5101812023556068, -0.7120521817666127, 0.5247033778235084, 0.9567906043857686, 0.8188575925430777, 0.5080423182407052, -0.5399778052610719, -0.19305453307408796, -0.8656333324360501, -0.16531572367313202, 0.1531171196903026, 0.2712750543923199, -0.28260176134767406, 0.5459351239552146, -0.8359477045439193, 0.9081690107735466, 0.9392611565591762, -0.9665460155724814, -0.7224010875418692, -0.8249725880630859, 0.40630034575817997, -0.5805259271445126, 0.7898249083969049, 0.0637634771804556, 0.08236067456025334, -0.42502717317382116, 0.6677698788423811, -0.3945293511352313, 0.9559263518236987, -0.29994586687932556, -0.06271822936879005, 0.6339262793207168, -0.2511113167665457, 0.8040215995269134, 0.4216218151632709, -0.17994052432641885, 0.5182128800512102, -0.6301883328772755, -0.8725834005490627, -0.675685971395196, -0.15445212276084538, -0.11818157883371183, 0.1938221040450128, -0.40057956300314107, 0.5225566304439038, -0.25485204531024463, -0.2119799277288218, -0.15661274521340318, -0.4408419896928397, 0.1937165922138147, -0.3493642914775733, 0.21180687926087458, -0.1824998043390454, -0.14904373922399416, -0.05928663632990811, 0.7272971750693257, -0.74513605840366, -0.734013791439617, 0.009603045558737757, -0.8296585870804938, -0.034483644041611666, -0.3671453720127659, 0.3175774047556495, 0.8552679354246524, 0.06629727513489528, -0.8129229751634077, 0.27845400430120615, -0.6745860293346467, -0.6693234567314928, -0.8969850330087066, 0.649546369905467, 0.6731284211106512, -0.7831805066813848, 0.641476968387141, 0.8237187147823916, -0.6419345482475933, -0.028949539733392697, -0.784377070072122, -0.44343565554555736, -0.18162028268121996, -0.8569445068393927, 0.22208031474672815, -0.8168012829582324, 0.6199980231667889, 0.12710831458513497, 0.9035331287609155, -0.8766914342352425, 0.4127038589876612, 0.2812682268100987, 0.39718545701154423, 0.5429612321551325, -0.9185761325872798, 0.6764702178416364, -0.14512393415537442, -0.6151640957750671, -0.31231724169448677, -0.9977572465501373, -0.11423130939755259, -0.7664828382263498, 0.9641983036873862, -0.827037227792911, -0.9294028964462034, 0.9914690313455008, 0.3930841251197691, 0.16786619956249657, -0.16411180376900172, 0.06342135177438085, -0.40765909720069127, -0.2407526217093576, 0.12431085672442331, 0.7226086603640646, 0.7788192649191397, -0.5965579743548782, -0.5061416812800095, -0.3621361356386502, 0.2258101989807791, -0.4553558087599855, -0.05726560576946211, -0.693264493593527, 0.8138780884505631, 0.17762264632997807, 0.09261483451107451, 0.08963154565539141, -0.8237226426960113, 0.9787431300250413, 0.22213817782486517, -0.8693858538517992, 0.3306188813030933, 0.2088220777511344, 0.8102600134596608, 0.6927173934285311, -0.4840052425965307, -0.7815304248978804, 0.66441401535672, 0.8963666758335666, 0.5556219492180208, 0.01676560283004572, 0.00048247243369589556, 0.35071073646227036, 0.7312233839857845, -0.7217774446148776, 0.8982453026871473, 0.08265589427891692, 0.12882749942365834, 0.010086801004070882, -0.8690763671238676, -0.42872241583405096, -0.5153069274722301, -0.0006480366302983497, -0.26345464697257104, -0.445893859751827, 0.18221700065234414, -0.4445647139414457, 0.30679853652027816, -0.40312751685063175, -0.2898372497634977, 0.7618489000713067, -0.8467528141071284, 0.8543198389668106, -0.4289723148005317, -0.36530181941411716, -0.9372085411479044, -0.26299888560020085, 0.9430716463995918, -0.148719274413031, -0.47076318353454605, -0.28728366567459795, -0.3400405120094869, -0.7480027025060929, 0.750805127719172, 0.6142644172991366, 0.32575416052331035, 0.9100011283406968, 0.15184996640131582, 0.7059439703575768, -0.7895925600698236, -0.5191407752768605, -0.015646392911332452, -0.15617502466486644, 0.04792038873710986, 0.6484623004863086, -0.48753680161275903, 0.486578060953009, 0.3779194678193714, 0.44292300793038847, 0.5139885629088624, 0.7184859295297901, 0.7938293575433701, 0.8810883014634228, 0.8880464682094085, 0.9416271667447004, 0.328628502869518, 0.7592044787821393, 0.10079019148896373, -0.30992153524023225, -0.792961093821646, -0.07174060507030156, 0.7639568992387892, 0.7254622706420978, 0.13675468966013163, -0.903398132772945, 0.7992269719639998, 0.7083866862737624, -0.954615625693569, 0.31912936176017365, 0.7494127473995071, -0.3099961193005315, 0.017683384604880472, 0.6555376587783083, -0.0035330307723461466, 0.5164162781163076, -0.0976542120682248, -0.2616975976914853, -0.2780057951783021, 0.26566578920899553, 0.45155138708061826, -0.7139168212674365, 0.021730770937762697, -0.7242075153862755, 0.4078923316099231, -0.4310594797615106, 0.45383208039669765, 0.027892385471228843, 0.7222668304242459, 0.17555234070195969, -0.24762158659541386, -0.3224245996106179, 0.18567806663539502, 0.04389355555595716, 0.7587291630907416, 0.3118685779099927, -0.8181207041183438, 0.23096202284949796, 0.43100889561407135, -0.984203661448738, 0.19422824242428074, -0.08195066218639463, 0.15279712230048162, 0.711156647948673, -0.32632553943475484, 0.47785723903840777, 0.482253992961505, 0.010483584221930116, 0.5630801499066138, -0.8347685884622881, 0.4931034255727971, -0.6891387620409946, 0.7237946979438499, 0.9611351700977007, -0.4836640353472401, 0.19888294141531213, 0.7521069405313726, 0.007457854343451754, -0.0578425349155847, -0.8951168444219193, 0.5644709489015954, -0.135299924790976, 0.9462911804861392, 0.6671618986177585, 0.3019992171136084, -0.5250857408556556, 0.22228604905321409, 0.27588577205821735, 0.31181980858709785, 0.9424373434570092, -0.6877373496076162, 0.6870919814651016, 0.6882832268750898, -0.8112838909733141, 0.5831317968960918, 0.14091056181188683, -0.5030154469853015, 0.8320812927892626, -0.39464243911329333, -0.3226142404871812, 0.4265770120094783, 0.9852268930171386, 0.9992790661410657, -0.3034028523924216, 0.8077352015540465, -0.5944741030328123, 0.38641027509472403, 0.651573292458897, -0.5818153120126788, 0.25980842446266633, 0.19803521535715507, -0.5929634808381596, 0.24783662750604052, 0.3857053446094577, -0.6734087940394389, 0.3275616494402872, -0.20392686079223213, 0.48477747882124955, 0.6099740423973363, 0.871430454202809, -0.9253739473431929, -0.9457574751961031, 0.8268744045201698, -0.0339653450056449, -0.3231073600431561, -0.5326617756504746, 0.3962373952034479, -0.5701114835077838, -0.13894610155043377, -0.2573913471458509, 0.21145249151480805, -0.26266610734069856, -0.06006981569812938, -0.39854262516470984, -0.4185316462029087, 0.20041085467702863, -0.9489246454933485, 0.2286517845282492, 0.640315738090547, -0.9017283095776746, 0.7470614465421579, -0.8564487739893158, -0.8681939579838894, 0.3165849635850871, 0.9308171699117394, -0.8780029848281632, 0.3964469268427822, -0.8630282712473473, -0.9539091916617211, 0.7803626769870066, 0.04964499334189829, -0.9780885266449427, 0.8427092984687958, 0.13551270973261342, 0.6153905537299607, -0.13097629482962092, -0.9800547268310256, 0.8808272678558906, -0.7868076721063183, 0.42625795697640656, -0.011128356788690416, -0.7928816878850281, 0.6900776362644442, 0.30812496607990053, 0.9083803699300808, 0.5591481286192101, -0.051409282015215226, -0.9269455526941671, 0.06318886874181326, 0.32286300670954304, 0.5901322571759684, 0.4733564010570431, 0.5701353481253406, -0.3604822683945934, 0.5434352689967225, 0.9597876330910005, -0.4767331938899859, -0.24382437268284032, 0.11592968161317094, 0.4392137714753658, -0.7822615471076864, 0.15525445122995032, -0.8131008137330833, 0.9676304380449076, 0.4424517883459531, -0.21989821220890676, -0.0348121811734855, 0.7205946662585091, 0.08576319648726086, -0.8280849627299335, -0.05943821330632062, -0.6386918125212621, 0.5646894877676891, 0.8179799102926315, 0.1399880352466172, -0.1251994640573991, -0.8802577413457685, 0.5784493973334764, -0.0997657042143647, -0.946078901237211, 0.09931899317302152, 0.6655094342642156, 0.7090265553532021, 0.1617121114983997, 0.5817851223155307, -0.9941308847045561, -0.03074725056784303, 0.5395768343076108, 0.7030381462366219, -0.6474592161793271, -0.6864410063221634, 0.14557369900916994, 0.32489478699232943, 0.8880394921234529, -0.801703320870313, 0.02698495973649767, 0.7863461838617083, 0.46260665203549445, -0.8022493589154936, 0.21307359975487683, 0.6506729851953881, -0.9307641565384012, -0.41616336789151176, 0.127808373472895, 0.38674492677384076, -0.16309047858446638, 0.34994515145169114, -0.5222908770811326, 0.7683078079500542, 0.9318778939654291, 0.6297716147330974, 0.6086225042040316, -0.038003354709703646, 0.1756383935238503, -0.8425085734472467, 0.7218606365220647, -0.3353393979585419, -0.18006546432044382, -0.9917866921383306, -0.41861049759115904, -0.35824325326625883, -0.33295128694892817, -0.6600899379144136, -0.8316022761503248, 0.5893271052811688, 0.8384365836477633, 0.8135833028350732, 0.5352169108183638, -0.36039185429047255, -0.659441719709853, -0.256629685860831, 0.3966474614028485, 0.4362857476637687, -0.7991665777105726, 0.018505133963380892, 0.4277899719912121, 0.34716974985344545, -0.3588820686633034, 0.938608015275304, -0.17879692995899918, -0.11638637240622624, 0.45771311814917437, 0.9843215769310465, 0.9430976016034014, -0.7225066182149967, -0.5171576061932711, -0.8229426614334842, -0.9515119502883075, 0.03139656346100028, 0.9563925854531836, -0.9775582077130203, -0.8105150851517011, 0.7321922321025108, -0.6897558826409277, 0.3956604832843716, -0.15021704328239596, 0.6933909063840623, -0.29863890392937714, 0.5198395087260254, -0.47037874703618643, -0.7995398920255664, -0.2925147778398907, 0.4342952952696885, -0.6642330026725092, -0.3657518529291944, -0.21213981044099825, -0.8014143365071055, -0.4858694759129767, 0.12793944147352695, -0.08397033451092262, 0.9362478280020095, 0.6832968572084179, 0.042961729648318646, -0.21357066519762727, -0.7918643143176447, -0.9939976862000018, -0.32899279846818263, 0.6922774188610907, 0.20378046039434783, 0.3472523791753033, 0.06330738601938699, 0.9444861933549854, -0.0018750794524768281, 0.756869689489009, -0.6024332716245084, -0.9240909887375724, 0.8867977411684482, 0.7289813712005749, 0.19408551020907874, 0.4499947987871408, 0.29208464160343856, 0.6471864391689459, 0.21553328812152098, -0.02001136303543721, -0.7754102849619312, -0.589209654067035, 0.024992316027218513, 0.40975980246313753, 0.3571598347064407, 0.9172511591318515, 0.028435800225587626, 0.23492802286005285, 0.8253120742623383, 0.9784364298923139, -0.5018488996464145, -0.8379670860288035, 0.5590981898885135, 0.3305706802347097, 0.48578554149879816, 0.17555523637543397, 0.7453620104876472, -0.970494415137401, 0.2982658583760781, -0.2305200827855717, -0.5620678895951701, 0.7191081053472255, 0.6962559642818392, 0.3674016355613507, -0.39825606748345865, 0.28755119613102376, -0.1711662819669025, 0.3148621234244006, -0.2507728745012535, 0.3192944542570835, -0.21331035773813328, -0.7764355329986257, -0.21925639181758477, -0.7770551077951888, -0.9741126544723745, 0.5845219471083806, 0.6940954065367939, -0.27023270944040356, -0.7416844661835045, -0.7966675312293519, -0.36634831004334467, -0.5100167825309836, -0.504044759580347, -0.8067989239732085, 0.522903624306677, 0.05541200698351682, 0.24521524234231445, -0.9700976256619466, 0.7120981332743144, 0.9638193851180146, -0.8668442998701374, 0.5174409676675049, -0.7047403264691399, 0.36991880097829966, 0.4588577071029604, 0.5897855082616918, -0.23029415153015806, 0.4917049595399569, 0.9252493079719669, -0.09062716002132543, -0.3171469269957456, 0.008469235156365596, 0.7615931459203897, -0.04764537251035228, -0.9404837049318784, 0.6954593200386667, 0.7921238504542352], [-0.41923259775333244, 0.45773412393015067, 0.7818344957523824, 0.8478222740509451, -0.9151493569831437, -0.9763897156270696, 0.6540922901711161, -0.5652184235124158, 0.27601799191036247, -0.3530283298842154, -0.018291699190336352, -0.40083479912431197, -0.356044073832182, -0.8708757406344932, -0.519653391970425, -0.5927534940395256, -0.852124196945113, -0.23072881286349167, -0.5929034800771755, 0.5601237961506322, -0.8992161757860908, -0.027430966807252766, -0.5774302792177872, 0.7680954593648524, -0.3233700031503395, 0.12909252315283326, -0.9233098419890597, -0.9962803982074544, -0.4944333021271441, 0.4328177642067008, 0.5496970162374628, -0.9286525444884417, -0.8096784447122383, 0.695170076268543, 0.4740271399636765, -0.11534396287709867, 0.934207962968578, 0.7690886591840178, -0.34877417452841164, 0.4351156900414607, 0.3155514767402071, 0.669945604929912, 0.0405852898604577, -0.873392693286247, 0.5789805201650816, -0.4390765217225818, 0.4163153480674584, -0.10401674904328773, 0.23380966626316338, 0.575869841555314, -0.7638645653105004, 0.5875231464808081, -0.466806314499441, 0.14627892825092492, 0.5486776096217743, -0.49963187872870685, -0.48196522744155557, 0.28074784837018396, 0.6650954336154096, 0.54945746831111, -0.9058855173490498, 0.5824706447801571, -0.4245771316197352, -0.2036374488603226, -0.4623435684619876, 0.503122507810096, 0.7393627619260655, 0.09612818507173196, 0.9698436589493137, -0.7987657055606717, -0.5841539207315877, -0.06102264565037182, 0.7135877946167263, -0.13240172552683868, 0.8160956612408001, -0.2217263848220929, 0.1220039530338571, 0.6234658675086818, -0.2576546753242547, 0.1790705820717833, -0.5084115346887403, -0.48079682547205127, -0.8068372086107458, -0.01852566962490343, 0.11307844271918044, 0.15530360162382784, 0.8110187745659562, -0.04676329770280532, 0.7235026544208579, -0.47470626492264467, 0.3000747853380286, 0.9586723407615456, -0.333238894961376, 0.7822280969313004, 0.7429371549814138, -0.9870809117835577, 0.5781324044428653, -0.9004300530945293, -0.19902027488723215, -0.49990124097844685, -0.005863215691651074, -0.2704711266285711, -0.1370747709359872, -0.24203380634953148, 0.722015432897207, -0.030853764914447038, -0.9452793165496726, 0.3034744679890679, 0.4673895282741324, 0.30586172512836374, -0.9858721777762042, 0.18708904215861755, 0.7487064162317467, -0.42686885550391873, -0.7897864113289942, 0.7625244362809576, -0.20261923675589733, -0.3083462384729852, -0.6228043336662406, 0.4526357005977961, -0.5232189708792347, 0.8759253080729507, 0.5241506595770908, 0.5707755206801556, 0.9036184703503156, 0.9926998037125668, -0.5759229758191853, -0.9369209027718163, -0.3578898409131205, -0.13967199353266918, -0.2814574827997208, -0.1210059315730621, -0.4151025880983583, 0.7443352314056999, -0.19326946083206667, 0.25840027060825105, -0.19135118132956713, 0.21030157647104264, 0.32448228398721574, -0.6713378043103808, 0.859657726117125, 0.7829044980578697, 0.5658735570271384, 0.39151071690174705, 0.26024608774366814, 0.7855664208607025, -0.6221782827353254, -0.3084384085659504, 0.9620004273711417, -0.08250856724825185, 0.15196209113138062, 0.632255101378046, -0.2418615979954987, 0.1503744186055329, -0.9843870420411164, 0.04752253701745052, -0.5150423518492466, 0.16317160045946966, 0.3697854987326651, 0.1979011173430953, 0.6056817074778545, -0.9021198020095278, -0.6011307997831625, -0.5444253784407559, 0.7616789247905914, -0.7271696391055754, 0.8816029342852664, -0.8462826382418368, 0.01732107867219468, 0.8594020379096101, 0.8919400765485913, 0.797529045081199, 0.27576358507610266, -0.8971409091045048, 0.46072222093948195, -0.4234948840883366, 0.2093285196962938, -0.503263238493118, -0.9965241154706936, 0.9516783956773803, -0.4626203605541734, 0.1283095098409474, -0.3636817464684411, 0.22159753063765036, 0.12958587089339438, 0.29177481848656023, 0.7762068598681787, -0.721227445813431, -0.511611599949353, 0.2638957049242944, 0.35184081143091184, -0.41685868886805594, 0.5941001300906125, -0.3982520633092849, 0.28836155793057566, -0.059713445644640754, -0.3101508407158793, -0.09493759826617602, 0.9591495343743831, -0.8963265943839618, -0.058606930448185164, 0.7903299939335356, -0.8373677345034644, 0.13202822458628172, 0.4977265381083841, -0.5822421728905491, 0.32510832737136425, 0.49351556229835497, -0.18149667169672026, 0.0021156904265460306, 0.12947642675888976, 0.28164136883559476, 0.7109053132945947, -0.3654785907124445, -0.8889846053873329, -0.23819033661163774, -0.9340749867124643, -0.8798892683480506, -0.635185907913053, -0.2382598720472958, -0.845292304908964, 0.1099233805226175, -0.4972755913069459, -0.36971233420628685, 0.2934798891975185, -0.6207196159834354, 0.7923837173539083, 0.6079611082570009, 0.4024780747778139, -0.3896948486187466, -0.28444307370963073, -0.5822650601037028, 0.7926616113683806, 0.09846650990931705, 0.2794991232871313, 0.37660983065933945, 0.18129461790059273, -0.559794802534566, -0.32232049871286006, 0.9714066751933074, 0.9052012455984761, 0.8832412687321674, 0.5058836219873549, 0.6543116399149529, 0.6309216795106547, 0.285001700284109, 0.29625830467405123, -0.01659090161876453, -0.23395458999552424, 0.03341483513180421, 0.3823317804268897, 0.7359915601422411, 0.1059637870097162, 0.24497162409919826, -0.9133446028928673, 0.011895167347700577, 0.08109172592029099, -0.6332517707974633, 0.688935963811529, -0.7242140470473111, -0.8136599602262616, 0.1865464303845525, 0.6616981199626008, -0.0011714803049719597, 0.23198524338976295, 0.6701885622451256, -0.5873210440732918, 0.4189001093667348, -0.8764501510130267, -0.372547758102914, -0.37612650280292287, 0.03341521802827764, -0.037915328004708364, -0.6009643043601135, -0.3786475325226022, 0.9820058846106465, 0.9091790985423561, -0.2195670498160166, 0.5603838717377359, -0.31741590822889343, 0.7259036436934514, -0.18014785232612548, -0.05925252261824823, 0.3704330559646837, -0.26390477310375116, 0.541440211836056, 0.7777641309677095, 0.3161069337369414, 0.5828127916809444, 0.6474071541335674, -0.9167897032675205, 0.3071010526936896, 0.8438345586275673, 0.872275323505321, -0.3316411647120713, 0.784262182594935, 0.976940403429055, -0.4222909960713094, -0.19437162057685956, -0.10253213642599032, 0.27746758556810946, 0.0800403642800362, -0.06127194675592106, 0.8152587079458169, -0.3952973506622362, 0.7230408667094419, -0.8849513154337627, -0.6690505846376725, -0.40451566737978195, -0.350400897569902, -0.2268423003769006, 0.1293483371577, -0.3673452505577357, 0.14339966221933326, 0.39451223570413224, 0.3770358168503234, 0.7450099426379533, -0.27045448678202855, -0.02217101495733923, -0.3822862058097215, -0.4680374518968998, -0.6731699634358875, -0.6365787233523549, 0.8392304972083495, -0.6412428449500565, 0.05243929319501861, -0.310875845299548, -0.9431225319705966, -0.9095833808091462, -0.21070072498819625, -0.5304307984686599, 0.3786683799930036, -0.9636408281628808, -0.47821986825716906, 0.5456320191454397, -0.016620839205008165, 0.24184776429710161, -0.6602655864712009, -0.4762228106464479, -0.7790126645135261, 0.7534429950117243, -0.7209865063916026, 0.2405753310127788, 0.16636635807123296, 0.12218522480660035, 0.8417650007701097, 0.09334913800471512, 0.9935282115341334, 0.7517262472094324, -0.3608239184141088, 0.5791544662474467, 0.11725755974793678, 0.43410435256273, 0.9543249128977712, 0.8439683147529488, 0.9887811299051926, 0.5200477061560358, -0.1986613760118164, -0.5561907602993458, -0.2805401402180656, -0.07123119018123654, 0.7868316289424669, 0.6358485217232933, 0.3340819713068003, 0.8179156794259905, -0.3792721715156186, -0.3268759815180438, -0.11985596332442701, 0.12277647033654653, 0.64705214422085, 0.5521996177129296, -0.1720092856600038, 0.37583691625927157, 0.5111993706726787, 0.7715361232125958, 0.6076318663651729, -0.5604891189832615, 0.698931126190681, 0.990806620608474, 0.0783067815509127, -0.8874338500382878, 0.8166184096103348, 0.2786996241675798, 0.5725824528996099, 0.25677615747402677, 0.3924163635004828, -0.3968591170209898, -0.32666005853210267, 0.43119794334817785, 0.8510817567939816, -0.3433326527122248, -0.7521966498239194, 0.3763214504387087, -0.17838386388707758, 0.14739748023111718, 0.6578764709940631, -0.8941262858309549, 0.35231838620904515, 0.5115830342729469, -0.8721681492676108, -0.8906168397136631, -0.7603609616985267, 0.5235649136290109, -0.8951247717178029, -0.22025186844239492, -0.08898461655263408, -0.09370746393298983, -0.22945404151362955, -0.10549320691442643, 0.5968979010678347, 0.6831028982483478, -0.172186515522103, -0.19241363538289388, 0.9674254145165035, 0.4825385267465841, 0.7339359451458726, 0.13538907984757, 0.33151454700169286, 0.3497207551717622, -0.32326508823756656, -0.46778900498239717, -0.9081195788292384, 0.8979106328408527, -0.8016434470438253, 0.5142667691076352, 0.794809335772615, -0.233558290343165, 0.4252998049239882, 0.6151600921534969, 0.986924003372351, 0.12839881539457584, -0.939583175927322, 0.3142214116518833, 0.9543758916851756, 0.9787591581752395, -0.9304600275810039, 0.27529799355852114, -0.6963422515455223, 0.10414873256678349, 0.643169987348213, 0.6314939410863196, -0.9178743322029036, 0.19256699765185928, 0.9632007619000159, 0.5134234910975897, 0.4810396170998372, -0.23783495383239958, -0.9864466698643901, -0.20777795956531175, -0.022096805737017614, 0.7501428046655592, 0.46768101564385844, 0.419056738259621, 0.03291298927355171, 0.7183201378550654, 0.36281960452574014, 0.29617764029004173, -0.4931690657137358, -0.8120742596412852, -0.9063153478615509, -0.7612083596691119, 0.41613207760031473, -0.3640584154470333, 0.36825743127562865, -0.5321673776674612, -0.3966248424505441, -0.871041147263542, 0.3646314690129073, 0.8049446748578163, 0.7364030329640996, -0.4523923496753124, 0.6293406849548013, 0.23734197424297263, -0.14527766375894982, 0.23901169562574862, -0.008904526508508927, 0.500025585291622, 0.9329643957240791, -0.9976674236275931, -0.3902811414725329, -0.807888305401147, 0.5823931644273499, -0.4982298769878861, 0.4044963263091124, -0.77181560965184, -0.3352701754509146, 0.6711507183353648, -0.13425353557042913, -0.6589211203353338, -0.20991704694369173, 0.16253530406052086, 0.0003582643398824454, -0.18248813474881415, -0.39600788564641276, 0.7942813874502974, 0.42656437353595184, 0.5484684105827545, 0.38254227272058544, -0.06909187609527832, 0.7539389129639218, -0.631578792636658, -0.24536409723621894, -0.34631623770850795, 0.40770342649101904, 0.5426973430558709, -0.5650521303829297, 0.0874217446241004, -0.444998499663623, 0.11111960083810876, 0.3717489020642172, 0.2656006786547973, -0.25793347322751087, 0.2718392944711491, -0.4747529846712609, 0.694106518770386, 0.8475488706076505, 0.6439116249843565, -0.30690265111967674, 0.5136775412672485, 0.21355624001327617, 0.9926123733932607, 0.34794440084626765, -0.04291585566834056, -0.8812276051432539, -0.18086985051178614, -0.5515627878339183, -0.44635000233184935, 0.06311782207554086, 0.688376714577023, -0.24134379740634962, -0.36634247501797856, 0.7341760663884271, -0.19688098491454253, -0.03936378181880582, -0.38781006579257127, 0.08141707825749106, -0.5885829317546366, 0.6428967121604493, -0.4464537181823389, -0.5585019370831479, 0.7178271722049421, -0.7499304147060886, -0.44113209846875023, -0.03278165089096095, 0.9026289979541651, 0.20470740672106846, -0.29316603830994437, 0.30456047961072086, -0.2603536364834173, 0.36094728328844927, -0.5005895371759533, -0.7241038911882278, -0.12967531531007534, -0.9491681438524489, 0.7184201840329923, -0.2341553897890793, -0.6116335309240903, -0.19915317677837377, -0.4298405147923302, 0.29857246104611235, -0.53992496412514, 0.11111256737552297, -0.7456487806874571, -0.24022197549673346, -0.03519797302737361, 0.48201424946828875, -0.13974293322808096, 0.8373555248007937, 0.33360233522172206, 0.11447813166567163, 0.809765576614929, 0.2930153712752479, -0.7072160844351032, 0.1775654562302129, 0.057600921609322606, -0.912318540572084, -0.7588057101857848, 0.9808316371749818, -0.737237764313101, -0.3022898043564522, -0.6298345126029784, 0.7396545173677632, 0.4416305068951135, -0.016716658776673776, -0.5060146374679632, 0.6347555245257825, 0.41368081511547633, 0.8862759519675094, 0.4154665449264361, -0.3886855637049822, 0.6460916328263099, 0.9808927761853594, 0.30170247969638475, 0.24192338806122857, 0.19452668172508625, -0.6277311255280944, 0.19846462860220848, 0.28201148111462815, -0.9118387333281581, 0.9170941785718425, 0.9756898793606759, -0.13089292943761366, -0.8834723398157098, -0.25164253368156, 0.014721205986583412, -0.3566303905736385, 0.9294848475483419, 0.6295388075288094, 0.03733343238906889, -0.16020375796370745, 0.5422999429087075, 0.7956799004358193, -0.355643929145071, 0.022428252102268426, -0.524824099719839, 0.5029200779822406, 0.4125035006449065, -0.50531948838805, -0.4434827253970801, -0.5417952967718828, -0.37331662523595044, 0.5697144320312107, 0.6697198737029691, 0.35373786031834203, -0.9449541105148346, 0.013188028618206228, 0.5217798061084639, -0.5892004195600531, -0.848710759033757, -0.11007734523084738, 0.951996539374571, -0.633891860503353, -0.7913837862727683, 0.6960023142866346, -0.1776041651386691, 0.6292109538536099, -0.5737827650406674, 0.660991518574188, -0.008643594540642074, 0.553690788808563, -0.0019762153987318057, -0.2216150704777933, 0.6565788563392677, 0.2786373408468938, 0.8366209592894287, -0.6767762136287929, -0.5420096629255517, 0.34510743690214285, 0.5676132696760893, 0.9702475587575098, 0.47213901812634573, -0.1104511078204632, -0.9586581175403738, 0.37714420409414445, -0.8028040511575099, -0.6179314723846094, -0.4588624845465535, -0.18093243266324488, 0.839746126766647, -0.48393876867338287, -0.525319439106046, 0.04395077166743262, 0.5964050441852361, 0.7632477411347184, 0.0018070760566525823, 0.11466791353242699, -0.46942521507518753, 0.40796399201042705, 0.5627487473519622, -0.8774462381160759, 0.3813712452158251, 0.45629556187447906, -0.9346038778200587, 0.7216638202617705, 0.9424891293941002, -0.2610883034033434, 0.38325855396395164, -0.2816653051415393, 0.1396315581559852, 0.8103477340824188, -0.631380711424135, 0.6914890817300217, -0.40647352897281175, 0.4297099909703224, 0.9097463663112388, 0.4475892720164659, -0.5836984960653141, -0.0031686023287335083, 0.25766022246718945, -0.6205642961969602, -0.7226662726342268, -0.391989461355298, -0.2790808097675245, -0.6471666692804451, 0.6848030052155425, -0.8507926690933248, 0.19223923733191883, 0.6587973039207202, 0.9004365102228005, 0.10040289131951297, 0.5152676792340485, -0.5845863992171225, -0.5590053792950228, -0.9284028151047861, 0.09537848485121984, -0.5709352967486079, 0.8288116214150183, 0.4966875091287847, -0.2571591162080427, -0.9875733304708508, 0.8906461653053271, -0.7619737932352303, 0.549872015138411, -0.3813312974675616, 0.962459102745135, -0.9141957980914068, 0.4977951140319568, -0.38770495382877523, 0.07349221178166762, 0.9286858036661688, -0.9027603073076819, -0.5211183853955259, -0.11282292729972834, 0.5974568335936131, -0.7245093028512393, -0.24713993159539596, -0.41930837485842554, -0.02498751733994009, 0.7027443204269674, -0.29895604855504465, -0.7366849891619367, -0.5720134755270161, 0.10399114623799514, 0.4878167572999935, -0.27765143364459305, 0.06066163461382795, 0.3080997202568458, -0.982842711779989, -0.9675977071582129, -0.8299999508460623, 0.6594211751483741, 0.8957219137935968, -0.682235741587814, -0.15706666257247195, -0.41820301395202725, 0.41479004528342656, 0.4798607947416872, 0.5731460417623314, -0.9479195205519066, -0.13800536135920288, -0.7068078001549386, 0.1753033948048149, 0.04189669630694809, 0.740773910745717, -0.017021739126312996, 0.20294426995048864, -0.5046322576472073, -0.20961781297698967, 0.06041831603742742, -0.21212303348395656, 0.31510189751864903, 0.4169034289759405, -0.25920090380213673, 0.8350764497744815, 0.878935529180843, 0.25293060365807735, 0.06319047767494017, -0.7729650292398591, -0.03700407857480401, -0.5499101260043624, 0.03339565002253235, -0.4413621939637265, -0.8344153346305354, 0.519781147394185, 0.9134867888776416, -0.9298471719019902, 0.9102028408238096, 0.9707693622126988, 0.9977169522735172, -0.4178189874592029, -0.5676171531981302, -0.6526583353790951, -0.27632408779313256, -0.23190871269226898], [0.9626855185186696, 0.4446037448394624, 0.25510308746208765, 0.8936354880127493, -0.3408567579240258, -0.48973188835986714, 0.005016594983537903, 0.5562544115208832, 0.44909919364966244, -0.5494933642960245, 0.19371365135296603, 0.5480587072797096, 0.70245155119498, -0.8190039704307026, 0.22155636925690292, 0.7823334344902412, -0.2923333036668514, 0.49942101486462365, 0.128647046919387, -0.6860192533805789, 0.3745194468129134, -0.6675676106895219, -0.11909969434758594, 0.2916232374922896, 0.22766606960429892, 0.48579652723339817, -0.4591213230184963, 0.38667334552354804, 0.8032021908374214, -0.14792097129099324, -0.9896347029978234, 0.3622903002844775, 0.36215838154453195, -0.960566697544247, -0.7770859395052062, 0.5712247204909532, -0.9906320432197481, -0.5816940865305786, -0.21172541195251957, -0.48670882089422884, -0.8513465214959073, 0.026271026130503763, -0.2870852853820421, -0.2342143295995941, -0.3767317308221375, 0.7784770327789651, 0.9323464864622923, -0.47088668237083203, 0.844290714300671, 0.5473359200226535, 0.21285869438316626, 0.015185598590327318, -0.1508649771209678, -0.046991940378666275, -0.8099436693641766, -0.7393278379382593, 0.5297938483165634, -0.19465778915641208, -0.7900493933785464, -0.14396836306204414, 0.7998459663790916, -0.7671837080631512, -0.6708497198702934, 0.5768561944000834, 0.4268692864161215, 0.8578481514729557, -0.47188252087993565, -0.1821603893563187, 0.5354946988255492, 0.7915360000749705, -0.9018067774734151, 0.9675998675944784, 0.7795363975214991, -0.39885693897195085, 0.8829530312441012, -0.2659962113790654, -0.5173220752567627, -0.882005567284616, 0.8101651388829546, -0.0637097154261206, 0.42899845775260265, -0.677517482972569, -0.9058105540618693, -0.8505340566206441, -0.6907418715220608, 0.21586416271681697, 0.2791802330942282, -0.26069939683872045, -0.6209754025756854, 0.32565715538822665, 0.6285409593399828, 0.17460948203804433, -0.25025742266593376, 0.7081626135865148, 0.5435744224577352, 0.21533804201164583, 0.6058876382730519, 0.5230111455217192, 0.5976056918119448, -0.0027465682311823606, 0.6683581246663598, 0.6876544299246794, -0.6453226153676515, -0.1859510083906632, 0.8170679291628102, 0.8519999870971893, 0.1959460327464362, 0.1825039649365014, 0.18879541339386122, 0.21569797340750604, -0.7643999738372715, 0.10925249666172898, -0.04982933894262853, -0.2275812947788762, -0.6960196070811309, 0.133631208768861, 0.40975217925288004, -0.3788009420808305, 0.0982750681242634, -0.3166486957576865, -0.16211518514710174, 0.06600602992418084, -0.4869074657404608, -0.37088259012990454, 0.5308964649026626, 0.14470079157770382, -0.3135154833895602, 0.04851917340320139, -0.7579392845207267, -0.15760611475700742, -0.04245678684379134, -0.13826362742609788, -0.9400584042655102, -0.1178394152036601, 0.18047320460022895, -0.05491482406086015, -0.737659175090235, -0.25473830095969385, 0.7205033256465162, 0.920718559783744, 0.5184709005000465, 0.6916797949384614, -0.7170291074626465, 0.5841171210392149, -0.17620730421089176, 0.7765561757425302, 0.9137436103267997, -0.2998812126935188, 0.22242829364723388, 0.5059793277815803, -0.8220649895100207, 0.6286132668511926, 0.8820696618264959, 0.3122315856047679, -0.7223053332458189, 0.5978886393293972, 0.2905175017139185, 0.02866666723335076, 0.15460234133175918, -0.6125870532903055, -0.019631189957257985, -0.4373967117973827, 0.4246655841966464, -0.530733652463568, -0.9903880188057914, 0.3396814291338933, -0.6228306821817404, -0.05772223141038168, -0.8948054524561582, -0.13741979171630314, -0.6700127771752757, -0.8554979302372806, -0.8968816200059601, 0.3522721794248966, -0.8134788776767405, -0.8944366895767851, -0.2816335598368047, 0.05163956833105291, -0.5675120879767969, -0.1953189823296861, 0.3475873898047817, 0.19665951347323835, -0.43960843042453807, -0.22919222999503844, -0.6435411739983339, -0.22918323919030312, 0.7072924945568924, -0.3947220220121606, -0.09772762492190684, -0.7457962032066372, -0.6456175713499746, 0.7498295376710951, -0.6829863635576287, -0.3024913464867628, -0.9682576182616599, 0.7278733782473269, -0.41098406531400844, -0.6204989358939127, -0.8426606356061502, -0.8211456877258777, -0.5648896800698973, 0.5166627710841922, 0.07695314396392379, -0.12464645019035261, 0.8394775400790516, 0.5773336512878607, -0.3089014545940821, 0.9296823458339736, 0.306315022074774, -0.7567059225094054, 0.8392856839378767, 0.9149188949037083, 0.7755661315188966, -0.6644559588710649, -0.9002489219211509, 0.5907886184155025, 0.40575872875612906, -0.044054954926347534, -0.7645050829527384, 0.13697012791826899, 0.6222575054908784, 0.9858828023453405, -0.8682585882410305, -0.14201379475226314, 0.8895673614102579, -0.8457480708303561, -0.8876270691578545, 0.5713566491261958, 0.29076669837828495, -0.5584657353233909, 0.17013511312935256, -0.849545083004424, 0.358678915509039, 0.601572435306319, -0.32560173257107217, 0.5128911101478354, -0.47562900163775085, 0.8644182251441809, -0.06642664814673796, -0.371300075679464, 0.4487747422686962, -0.034346101558653176, 0.5325917407571162, 0.7241947944124787, -0.1306133951620962, -0.7683826164797029, -0.9931637531629669, 0.05462089291742082, -0.1928155955466508, 0.4397393790913034, 0.2767354334362772, 0.6971493262992201, -0.8955108887413482, 0.9075719186390735, -0.20714976674377097, 0.3308168186023414, -0.9256320037770841, 0.9379756395875389, -0.6193244318721013, -0.5260238910917173, -0.6552380981939753, 0.13183907512187215, -0.2519769356342176, -0.4826802434150368, -0.3954225799800877, -0.659698460181403, 0.10978453356140556, -0.08689719043164985, -0.09426256998237777, -0.27982517942638624, -0.8401144965574152, 0.5232327977435693, -0.22242603681897086, 0.24901938795902157, 0.018556013125437323, 0.28013379505404007, -0.5285767839269693, 0.461067730102692, 0.17290121261028712, 0.7058470014745588, 0.6302870961819759, 0.634909898598953, 0.30370334423379325, 0.5056641534089062, -0.6220343322696658, 0.8496721210110579, 0.3774112888082571, 0.15079338373166787, -0.9791090273080179, -0.4893290459700979, -0.2647573132451985, -0.6383523922571055, -0.6740911077118883, 0.2919291073902279, -0.5359994079619324, -0.8204350818377218, 0.6028508194694334, 0.3742688692628604, -0.7859181438944772, -0.4348023879926324, -0.6344257051589046, -0.34717839406066475, 0.268512718932748, 0.5516405208334798, -0.0989508195486256, 0.6058156611777556, -0.9180100067377567, 0.8982782001402974, -0.14812512846429163, 0.023430876924170105, -0.44000893053342727, 0.7336273352850409, -0.7826134771359339, 0.5783804798280987, 0.1861440434956223, -0.6885368978105318, -0.18273946725165838, -0.0029178630097841333, 0.01667197208095644, 0.5646780785567846, 0.1834929787399354, 0.11667600191393661, 0.793361591851823, 0.7343678994451797, -0.9882367396974605, 0.6519967197381494, -0.385193163293692, 0.518058693938493, -0.3782472497189738, 0.9685383909060604, 0.4499344466595993, -0.7744596022083914, 0.08323738502044258, -0.6646344242022836, -0.19330969916814253, 0.18535084394762671, 0.03795583025319621, 0.5566422225040341, -0.3684762491914559, -0.7170487783165346, -0.05801379704781788, -0.005660846235015306, -0.2258083035122925, 0.08135900598016857, -0.4821595511436043, 0.4828302031469089, 0.09849086491203547, 0.1428757590649878, -0.0201435319311407, 0.4650461722634422, 0.751092099811111, 0.14763798013891946, -0.2164510618088329, -0.34664446064338583, -0.2603569695494011, -0.9154381226410163, -0.27857326691237577, 0.24234462318170444, 0.059381797916389104, 0.030765250326022814, -0.8057865246893487, 0.6418607364392718, 0.9163257878832052, -0.2699443449794087, -0.7255551192577188, 0.1141563999085298, -0.7405942388472666, 0.005396202869462084, 0.052845539671185444, -0.6182428652947525, -0.7695623405010145, 0.09925571098409744, 0.9028894001848716, 0.43287334409658246, 0.012696781857564047, 0.41042413861163607, 0.03557503852814152, 0.51985697500769, -0.8951436175430627, -0.9032613635330132, 0.029727143663279876, 0.7200219456448478, 0.9779168394215954, -0.4575821815425695, -0.17445049722394856, 0.5695942424212576, -0.2125113229417902, -0.04995429750337109, -0.36065602038321554, 0.7928213002736415, 0.7862866643427244, 0.23202914770189614, 0.17384987053477774, 0.24073227442296669, 0.2603138136291759, 0.5553285244013064, -0.7744997707784105, 0.6915124756072909, 0.44833477759414847, 0.07094581314398614, -0.9507622882910575, 0.020701426171460924, -0.3474331312511524, 0.8475482130629212, 0.414665818025523, -0.5391086010079341, 0.15215102818699658, -0.08915045840898239, 0.612962955772279, -0.20116109200096935, -0.1161243589482946, -0.8574839606273349, 0.21134331002424264, -0.7883047433197091, -0.3286876183575989, 0.3319977154255997, 0.4203191675721736, 0.25580509935854634, -0.1278018282881703, 0.6859347996886078, 0.7701302460088681, 0.6965887572947078, -0.8696630617338035, -0.5559557359452679, -0.7664996077849918, 0.2319233277446303, 0.5198406060496831, -0.07631441273272259, -0.5942047530395526, 0.34174683294143954, -0.7252892588586378, -0.17680240140284528, -0.23771764214483618, 0.5055419895187065, -0.8176941314003032, 0.33441554953889946, 0.662870529418744, 0.17005886915697915, 0.2488342068666994, -0.6328361590614799, 0.6723020262137477, 0.9469054700953722, 0.2639042295182764, -0.8506601425860709, -0.25033444416775674, 0.17761562109029314, 0.5156288520697971, -0.3560397135465584, -0.705048306493673, 0.7878174696258579, -0.24747993683487302, 0.2295639107303875, 0.518287099765511, -0.025215916138042933, -0.2029177829078739, -0.6830693855923924, -0.7210477474208162, -0.21621703956690824, -0.03886961445504344, 0.1691364259222169, -0.22929949835430696, 0.8596158396462896, -0.07354032768770312, -0.3162786042952655, -0.2364105092250944, -0.8182502656057536, 0.30875395872527295, -0.8512334092088655, 0.8678984854108452, -0.6870836751169903, -0.2610070155800281, 0.9681627098949919, 0.827253357017637, 0.2871818072564136, -0.4396792807429792, -0.893622666786874, -0.5531340530487094, -0.5116035520488288, -0.676248783944474, 0.1569043087915435, 0.14634676016092293, -0.9139193945439886, 0.6819465554722094, 0.6535602362199348, -0.7364322634325571, 0.7077588980349865, -0.7941989807852287, 0.8003160606720167, -0.7408933581564986, 0.4772067412327724, 0.9742475030300143, -0.8140748586048577, -0.6027263437745113, -0.341897386559049, 0.5912141753023931, -0.7261335450220778, 0.8184838418089161, 0.12287672908541088, -0.4090300975467414, 0.8670184801397136, 0.943305397228671, -0.4314138657748166, 0.4024725441694605, -0.5260115424813495, 0.23820567899345335, -0.06756892264899432, 0.8137496045762265, -0.31618883910450674, -0.5012681604075145, 0.8203406915832799, 0.8565149668325545, -0.17983936389175956, -0.07560491999803937, 0.6560524429885739, -0.33374455598424824, 0.5985307542402176, -0.820287494232868, 0.662691985571561, -0.2925195080936793, 0.3072608908352268, -0.4053491889798333, -0.18959975917052277, -0.6405824318101004, 0.37992396276606044, 0.10685323395285558, -0.0111977536336305, -0.3844465874853517, 0.8237373879333407, -0.7866794462282584, 0.571017110998249, 0.528556722284189, 0.22217246711162184, 0.4683454166157539, -0.4431768225548818, 0.6625718592722896, -0.49672486993328985, 0.41757940073402844, 0.13140190035074956, 0.6607939164403065, -0.06024268784869639, -0.8710351034529814, -0.3013953133197587, 0.73432769349351, -0.5600257590517073, 0.5943227290165148, 0.1793296126987126, 0.32529830043850816, 0.7123800430718789, -0.5451212260944984, -0.9023801206106405, 0.11129130476690757, -0.2632963294596051, 0.0733842690507677, -0.21113352247556852, -0.27819851168978715, 0.21618101261108075, -0.22391655318860246, -0.04637610806773587, 0.8248835151843541, 0.8892181972287713, 0.06329571582850924, 0.06761587327293701, 0.7623125749357811, 0.44462969265146185, -0.4810548556082211, 0.5354493565219386, 0.6699586480649122, 0.9354623552266521, -0.699633181725183, -0.26575195636051546, -0.32114028422476404, -0.9576855073056361, 0.6784566989833776, 0.27908626440743206, 0.5049415361831445, 0.6377762092387383, -0.9398313455500971, 0.4313084967858227, -0.5236703142580812, -0.34397139667806303, 0.46745752663262685, -0.11377998203434139, 0.9877894649842093, -0.5433521457990722, -0.7463129771940603, -0.7667736719643543, -0.8957768874709436, -0.9340747722908189, -0.3635917716702892, 0.9097504850519498, 0.33150571421452407, -0.2897273921237842, -0.8921427272155653, 0.04367060540262482, 0.5450791501825998, 0.7967461146456607, 0.056676391023888995, -0.7941312205821152, -0.6611004618410559, 0.6886505818867101, -0.40789672272390215, -0.9835261389154504, -0.7033300966262266, -0.9235277855152219, 0.8239948197012041, -0.09578684309088344, -0.3783772268367409, 0.7087309030608931, -0.565281679075599, 0.34715467951389234, 0.20326027353992468, 0.6182654954076576, 0.9369948874508669, 0.5914662209113086, 0.7083256301155949, -0.9910246678487623, -0.4072557277909869, -0.4817209710872828, 0.10418494767752966, 0.07531628718894164, 0.3602448829262538, 0.6379108747098694, 0.008678801837412849, -0.446582740537596, -0.06389112391777835, 0.5306469176735854, 0.024329389236458953, -0.5298083147971286, 0.8352204910023684, -0.7282646585437826, 0.7406080010691682, -0.21132406382836177, 0.5164215231119854, 0.7328842999741975, 0.8590604757055453, -0.17147552253298848, 0.7834667350883138, 0.5471267363461563, 0.1657898010132072, -0.8761433887046978, 0.5144456752396805, 0.6825184284881548, 0.976312689968337, -0.1659469472865566, 0.5608949851295391, -0.7568897556604395, 0.2443083147990375, -0.0017908225451759721, 0.5640963806614363, -0.894032795758192, -0.7123637369727625, -0.718472764384521, 0.8481184412928673, -0.2790292813915354, 0.14376010342769555, -0.5224739303978244, -0.699658208769951, -0.2764689137008661, 0.7449000716604118, -0.2826425771598087, 0.8185608975667525, -0.7381789990311965, 0.5062771869845741, 0.08492425437396073, 0.7718196700112855, -0.4056571473522244, 0.3039873410179966, -0.866669506952849, -0.6223672389260038, -0.4717324993057567, -0.46966261418538924, -0.9358808436177652, 0.03412160924138363, 0.3561415459784878, 0.32866869669747795, -0.8864341858670162, -0.6380121815133921, 0.02990389314165716, 0.019555593943745734, -0.9333349818849426, -0.7623822535936353, 0.9844210798691692, 0.8565080694051916, 0.9272985181769967, -0.3815040993174283, 0.4185381660233002, 0.6672777725958529, 0.622728063572299, 0.9798688612641366, -0.9786497066757622, 0.006257567422983039, -0.05617272346377788, -0.5268203598533471, 0.3853629748985415, -0.8979626571157145, -0.7019098296203785, 0.7985581161258759, -0.4808419564753564, 0.5365734695324154, 0.38645737133374625, -0.6318511605737309, -0.9169975247380697, -0.04759813866440753, -0.5357784499503743, -0.9480104108675703, 0.9636089972989321, -0.3105011205920251, 0.6671108902275563, 0.6482991116415447, -0.7827676166022575, -0.3467215605181482, 0.843028446624631, -0.8245216244842768, -0.15353403963734208, 0.24953597448670792, -0.600740650965084, 0.5983735401652445, 0.7247904009508218, 0.3470735503109202, 0.5462623992501263, 0.27677784577098247, 0.18172217612403727, -0.4272747171140516, -0.8064766634870563, 0.9457479893749465, -0.1581361424801669, 0.5811456314536514, -0.4485473194033207, 0.2649241728720395, -0.22143930022210623, 0.2830801863097032, -0.25047564476628636, -0.4795376156623037, 0.4196280269407866, 0.8697039020550466, 0.44080444757804127, 0.8648118422679948, 0.8903344358230231, -0.10809729955492697, -0.7439183633661536, -0.4170018628519754, 0.20693603650240674, -0.18250524996408796, 0.5987404595570323, -0.4169156132500331, -0.2637890903766356, -0.48331285760649284, 0.9206065770381597, -0.1380362509968096, -0.6820685163220098, 0.757801824733082, 0.7728288583901477, 0.8281255175329701, -0.5977798867507662, -0.4145182882170688, -0.02502692802764872, 0.37563809718186403, 0.10531462088911758, 0.6928026847951085, 0.2743601303395411, 0.8801352107711309, -0.5005026762401604, -0.9774769292857959, -0.17945678853238145, 0.3759614344782823, -0.7835126800376282, -0.39010967708893063, -0.3577444749448487, 0.0069521785412160735, 0.4009087926897126, 0.071802734465353, 0.8170937933066101, -0.4656762865866708, -0.14643345498154767, -0.6035601340402668, -0.20502673617509443, -0.8780256940152679, -0.010237785513139133, -0.5296310903518309, 0.12085320744111476, 0.20272442030245674, -0.24865808270524825, -0.07981256438568529, -0.4170356903144077], [-0.28130210276213075, -0.8517221418745675, 0.2894263167542446, -0.9298550365847742, -0.4074057533691544, 0.9201857765092827, 0.4284831358622716, 0.05934349517674109, -0.7155586702856072, -0.006431490869855727, 0.8642339225663758, 0.6339446134929798, 0.6631910035995553, 0.051995784591197566, -0.38104780954795076, 0.13867061181555687, 0.17434807284468934, -0.49569583475842993, -0.35344682643060277, 0.7088256872181882, -0.6373136068158403, -0.9831486455611593, 0.0795867233880434, -0.35049606414504875, -0.4457432051485457, 0.23675036039403974, -0.8978101385368513, 0.8503487366571483, 0.21215212713768783, 0.2974098062615236, 0.15368832686675304, 0.5789490814167098, 0.8127497296419064, -0.5229482120134396, 0.14870515934265197, 0.06594145261563818, -0.9000552827553764, -0.7491785553512146, -0.6714873918668073, -0.8721144110993511, 0.682402734087953, -0.8492674013280049, 0.7879091355970642, -0.6293600848301705, 0.8936280847859519, -0.7340388828557811, -0.034765742012404746, -0.5128548186698623, 0.8224966019479687, -0.6977866527701324, 0.6636861401493896, -0.33963153488808, 0.45098770851043546, 0.7093304958556277, 0.5210143370206166, 0.6212219886614547, -0.884592236909238, -0.7623158184878727, 0.9761993186018505, 0.649787330666901, -0.8750532816550098, 0.011040844681485647, -0.5041438253179585, 0.9053217849343642, 0.8682150355808291, 0.18930579487361213, -0.745139600862108, 0.11979660405489584, -0.5949412260284187, -0.3396048853536456, 0.9846877795202077, -0.3348508531105689, -0.25508003382961336, -0.8386628951214192, -0.828618443621565, -0.054621672458182544, -0.011816019355184637, 0.8530920412305764, 0.9448674902112654, -0.8247739136670011, 0.4103553319651637, -0.37983302913842953, -0.9930729020390243, 0.37455886107776215, -0.2250907577561052, -0.11975462952112936, 0.5908267972107208, -0.9828823236942351, -0.495513387378089, -0.8143513565599697, -0.916887635507863, 0.3349880575734647, -0.29252914650487966, 0.12537247544762695, -0.39199619633340815, 0.5476253431045874, 0.38139519433009195, 0.8626569172095147, -0.042875254631896925, -0.700910535602007, -0.1085356081169385, 0.9268272010919435, 0.8515624014916077, -0.9213128215170926, -0.1480758915948982, -0.9182197006023016, 0.2550641077616616, -0.3068733452187276, -0.9374812396056904, -0.1456352248535526, 0.9579193485236417, -0.5000799198769288, 0.23458478527139914, 0.7668835748052891, -0.8203708149686691, 0.45177896724571626, 0.21423802422924915, 0.7520978986470475, -0.8885976446465208, -0.7669173628197252, -0.6692798496630875, 0.7193915397415447, -0.7786830161119317, 0.6260057713597204, 0.4542817222362145, -0.5540611433586698, -0.12816276176328484, 0.48147756309647693, -0.5080620284841693, -0.18263843203693683, -0.36547436342984274, -0.4216111087056505, -0.3709526762637462, 0.39221484129110323, -0.615214899017029, -0.45050280132934933, 0.8315064114672334, -0.529012519744993, -0.9627387021105749, -0.2930098743892864, -0.9952005347972737, 0.9603205272958313, 0.9218276847838107, -0.8411461590089234, 0.3209046670941457, -0.10004362583529575, -0.42911710065313774, 0.595028248460295, 0.9726186632802045, -0.937414860561729, 0.09960539797257141, -0.1632682732524038, -0.0957515187712591, -0.3683771295512919, 0.1223029707024641, 0.8156625204731548, -0.02953166566076443, -0.0029611666592339455, -0.2898032808331976, -0.048965824904463655, -0.6690242812227142, 0.6679186818229002, -0.9550447755860093, -0.6706674595260178, 0.4671691727592522, -0.6325327754183594, 0.13630091023550872, -0.31856993271852085, 0.6760519686543649, -0.0809006690106871, -0.3567674519390218, 0.6643726888068134, -0.1753621173562445, -0.36682376202232453, 0.04259234590653017, 0.861939471126443, -0.6584186657886213, 0.4842965967560629, -0.2599358841178819, -0.5041362082859404, 0.9148870582466669, -0.5215300726893078, -0.7230585311705955, -0.33158392492422273, -0.422004876798278, -0.034919641408575966, 0.6098339539418431, -0.02021996397713362, -0.21135635855980137, 0.9878874415775861, 0.2624756621821762, -0.06552166126871206, 0.887582698767467, 0.9797598693839807, 0.5040547592333929, 0.9835051730200246, 0.5834714222925597, -0.278576792652744, 0.4273565725058272, -0.9554881812320071, 0.6281473902611348, -0.8476433094726554, 0.7558205313291126, 0.6891157643678955, -0.5929815558649701, 0.23628519864845182, -0.7928342260238489, -0.4382099624215789, 0.18309352453248529, 0.6363089062805036, 0.6863493841341357, 0.04195013436829115, 0.5975762466526057, -0.020731966353548337, -0.33789320819244656, -0.8929861749974662, -0.24726244519399646, 0.0842730215067775, 0.016569718072943395, -0.8901720505326663, -0.38832216862397795, -0.47675127292648506, -0.05414975564695659, -0.787629995569813, -0.6553054074787479, 0.9902774649683584, 0.9622957533017094, 0.6827699617170914, -0.1565461794758658, -0.6453518896037432, 0.10541168206976, 0.5801655316700496, -0.5825220936223481, 0.5481983790922471, -0.17344120785966158, 0.4399653588061566, -0.44558493856642745, -0.2422832588303798, 0.9300842338548835, 0.45045133702144746, 0.07259560878693169, 0.09771096618726431, 0.7573694351855643, -0.3705393254478852, -0.19038233538529103, 0.2110683322157634, -0.8775516250972094, 0.63730045260744, -0.6355168041925993, -0.8085693662999673, -0.6858876361877478, -0.29742069499491214, 0.1717844749669717, -0.5443564368644641, -0.029000349314664182, 0.2049148537747299, 0.22812094050177356, -0.13552239005103797, -0.6137096925445449, -0.6415227019045903, -0.7485372842266577, -0.822249224949586, -0.048228046128336026, -0.025592238149919493, 0.3446475837592376, -0.13558414973000452, -0.3888972187635248, -0.11289946151407393, -0.4488864955514257, -0.2835305601374338, -0.6718424261785718, 0.8181185307940988, -0.9018313909121337, 0.5707726491068993, 0.36940523488829025, 0.8516771130021583, 0.8115579289054715, 0.013778321061045864, 0.05462086230216398, -0.7571746888416431, 0.006878442481842415, 0.7466123524498041, 0.9720930698296629, 0.8119968969047509, 0.1822994348550995, -0.3996538251423045, -0.017980992449333072, -0.9845323913941357, -0.9889065320657481, -0.652130339844161, 0.26970139379160163, 0.2307872919107684, 0.4383192046836389, 0.18460321048019532, 1.0006250416863423, 0.8956878601396262, 0.8187535495364339, 0.525125587465826, -0.8939381986606861, 0.23411203126415636, -0.40857916128445104, 0.5734330582941931, 0.47359559544570695, -0.21338366252612753, -0.5123594695264423, -0.5705921466968791, -0.4842407103741124, 0.7910059671550238, -0.3949275759861246, -0.1360576527791428, -0.49719574408502, 0.6503381903177354, -0.626831823324496, -0.2265365826852753, 0.9299454009410764, -0.4262443289890132, 0.755684171852914, -0.7764436647668276, -0.9723110945296807, -0.7452092459279659, 0.6936143605940517, 0.054679461468887386, 0.9213783371805727, -0.975504472169714, 0.9993969889254307, 0.34957086105239477, -0.6109488815231766, -0.4551600375416682, -0.2778375212742916, 0.07224973508367954, 0.7116320563980749, 0.3155451835124667, -0.19645374799064924, -0.5550008501897744, 0.042007328620428136, -0.08837907371320924, -0.32582380249118753, 0.2572476192457451, -0.48655133420482904, 0.6534309836837411, -0.43255745245096183, 0.8815995213301211, -0.7965216895165352, 0.6969244678389309, 0.6794578950364243, -0.40894691421289714, 0.539776747142886, -0.2839763809820872, 0.5035158816283981, -0.4079289149362364, -0.9763645292316152, -0.5335797264535806, -0.2968964848236742, 0.29718922290628524, 0.9824314148744471, 0.4016576458288303, 0.48977677089456356, -0.08349459257223316, -0.11285617964826422, -0.6966094677988258, 0.22544892249098278, 0.7447255769396802, -0.7689417765137174, 0.9185948079710231, 0.7362903112100343, 0.2814037380870778, 0.1384736600910271, -0.22969360705489378, -0.059907642317229566, -0.8993932265028088, -0.7386391216107445, 0.7715981691180002, -0.09311153975474887, 0.6485726750108373, -0.29064031176057026, -0.7876825008918663, 0.9058534786303655, -0.5205986022140145, 0.3918188695596401, -0.5701800017362848, -0.5585547533491435, 0.03172765781156941, 0.24227429830949285, 0.09269585112909054, -0.40635608720798944, -0.3998142268455348, 0.9023393099797756, -0.4526826607066735, 0.019236356216674796, 0.5138294950812267, -0.7842768506223927, 0.1415052785321542, 0.9449280046353998, 0.4795477530324174, 0.8944255983736509, -0.3303607695405445, 0.7429050845480157, -0.6236757807812731, -0.46265235512865277, 0.5508425053812609, -0.07242081254741464, -0.14200272690250315, -0.0867615345371651, -0.9408151087433932, -0.18290416993323386, 0.9992420696652411, -0.66139993204846, -0.8606742340483466, -0.9045721554670385, -0.29628818851436495, 0.7365040604586116, 0.05032253949918505, 0.12705051910126064, -0.9973226390178412, 0.44357515081071897, 0.8522788765789132, -0.03436083789514293, 0.8377377961206738, 0.778856544960956, -0.2555287732727182, 0.24294893856773458, -0.35762937512616744, -0.47514362061030263, 0.4026597198695149, 0.6885511472949923, -0.5332338864272953, 0.012652163830400371, 0.583689621908854, -0.20804467594027787, -0.1374697261321487, -0.6499473858698183, -0.6583084437194817, 0.6444205703812372, 0.5356166193788454, 0.5474857589577498, 0.43694991396010485, 0.17233171104630107, -0.7681188513314328, 0.07101416930404925, 0.2666530932240236, 0.5905321013555409, -0.12583915752831856, 0.6879582050428306, 0.7927628079993371, -0.9563064148577228, 0.551143817926175, 0.2600873018649091, -0.5910507463771494, -0.2560173756972368, -0.8397047066312519, -0.08036958484808723, 0.750572346487541, 0.9310912747394372, 0.27409784207994337, 0.20778295596304225, 0.8061076789397474, 0.6318113446198022, -0.7307814638025764, 0.4418610748142442, 0.42529713555192916, 0.22998664786716233, -0.42727484847431224, -0.7546306182382752, 0.3779343506983485, -0.7030381648966985, -0.3812585276253057, 0.09201537660787744, -0.9255501994579965, -0.9536741765277096, 0.372793573708506, -0.4811037647604405, 0.1756211783380316, 0.48628534415327523, 0.9812376351156022, 0.05980204752718062, 0.6438023983820531, 0.645641853134727, -0.5176313826364017, 0.9893439295300817, 0.6316124426738812, 0.062382199212449356, -0.5828134398906777, -0.16632875203145406, 0.11040261184535877, -0.0331612649434237, 0.3016462242804323, 0.4289822229399098, 0.13212280241436164, -0.5284700029880105, 0.0955182331552973, 0.8040656171558028, 0.408466970443007, -0.4946935084755591, 0.9888565190727434, 0.39745651065371923, -0.10051393797465423, -0.8450616010987557, 0.965983866777296, -0.44877436489027034, -0.6881961807191147, -0.08344387402659019, -0.9275579695577663, 0.8795527490079651, -0.8252888847433093, 0.03410264504080948, -0.26400675305412674, -0.33675210250633913, -0.11827724960401338, -0.5842049716540362, -0.06260456869809286, 0.7029071909563133, -0.49019060613378884, -0.22123839769235806, -0.6021633327132712, 0.14394651588275514, -0.939424219098, -0.6855446718402496, 0.11131148109316467, 0.21401091879754236, -0.6489194578634455, 0.687476801646077, -0.5464062763763298, -0.028016307600825092, -0.4595730147945681, 0.427825892426727, -0.4314625064226751, -0.7634490006435688, 0.002114762078428293, 0.9683231498079419, 0.9006038664469966, -0.36803714548545013, -0.4456542015060482, 0.7885503037381263, 0.8887767755163747, 0.3907249808638146, -0.21380122989758824, -0.3155548073372886, 0.6343493462578587, -0.2584531178577608, 0.08572899662133349, 0.7173195318178945, 0.8161138855402127, -0.7050930224113672, -0.2628252948850455, -0.9047171099457645, 0.22338186035392857, -0.2786014160418636, 0.6564841744649357, 0.0046629632654169315, -0.01466417559215273, -0.24222891756417148, -0.7981983882009609, -0.3025672351912088, -0.32612915433032663, 0.36738884566814606, -0.3856952791187826, 0.5834690760835795, 0.8023286104749581, 0.48616013173686384, -0.43046419172856654, -0.004088062596529607, -0.06752044617838962, -0.4598869094362805, -0.16390722574609676, 0.24422173021709453, 0.9114610125010639, 0.10516608873996953, -0.3878821055578945, 0.19145803602817443, -0.747613205728823, -0.14229302025997348, 0.20000722675942223, 0.8783387641153545, -0.5465902569395078, 0.4305939744621424, -0.7872536004814927, -0.7840727672434012, -0.476881031515371, 1.0053284688262634, 0.056261303688918164, 0.8024794160594855, 0.4566901995020278, -0.3742372156184564, 0.559028250367387, -0.3611429151530898, 0.4290553918845926, 0.32269648738063667, 0.9259017432572392, -0.880789359250353, 0.29295017608497564, -0.9007328167099687, -0.8439820397389002, 0.33262391567455357, 0.6946460533700313, 0.10822987495577967, -0.9075230799594121, -0.36196006028865674, -0.06914943864762127, -0.23678162148566656, 0.9240403198347201, -0.9547468714877497, -0.8322967623548475, -0.1429581654983332, 0.8049884683353319, -0.06489771003673449, -0.6013610072107557, 0.9792213717923282, -0.5351454603316114, 0.3968175455536588, 0.6486976621542379, 0.01576028783281079, -0.900158365259264, -0.24228134340706178, -0.28516678661960343, -0.9211325207061237, 0.7193429703326588, -0.7015362576304747, 0.14022511887867672, 0.4059709081616303, -0.3466227245984733, -0.4495546486395913, -0.655639710266223, 0.05088507346757278, -0.3499977646680928, 0.04192573151481379, 0.11665297028026692, -0.9863380281582704, -0.9675587366356717, -0.3799163951680536, -0.9645580899503424, 0.40658914513965005, -0.3562693024486481, 0.13513981832313557, 0.771206548422143, 0.15413663305800324, 0.2892096921245676, 0.7968042693603598, 0.47584163932648954, 0.827105377815534, -0.9946037549804881, 0.2737607074612835, -0.6010973221702459, 0.5534541395629576, 0.6869610049286337, 0.6543728303291554, 0.750744342010524, -0.8321642994427623, -0.6631013311497348, -0.8183979396873997, -0.8630440731054743, 0.5235437867029594, -0.31424268871329003, 0.22112946094038952, -0.18509581890901747, 0.8135558669324533, -0.8951560223966405, -0.38570134137977713, 0.935769916338362, 0.8576941085890963, -0.3513464144666973, -0.45606552548235274, 0.27945803918683193, -0.7860099768112145, -0.45762092461200604, -0.3705793542819725, 0.20947710281931506, 0.22436627844973156, -0.2771030779905805, 0.5585557306890083, -0.5613504675549718, -0.7073579735085451, -0.7694618092565477, -0.9286635114973638, -0.15725421440118903, -0.39801595147398544, -0.1973197045282742, -0.6902576647199906, -0.4945885340981274, 0.27024893462640387, -0.5072666487476006, -0.7532335298017444, 0.0180568578012388, -0.9841927035572348, -0.5102865424014569, -0.6094630880792096, -0.8337796719022988, 0.3784528843941685, 0.5857021802020592, 0.13955505409562707, 0.8852610392658481, 0.9492777097206699, -0.3577836256819055, -0.6333251885171445, 0.028119576182383088, -0.4924323276015491, -0.013292745151566157, 0.2502647316208585, 0.968246826807032, 0.07121419236600578, -0.5930767489858242, 0.08596225340843855, -0.8733001621963419, 0.6650425808150829, -0.27988850641498053, -0.01495729037022731, 0.5418935105440069, 0.5588224996673972, 0.644176168878984, 0.5254225704055411, -0.13336473845270921, -0.014961603112962248, -0.33507452207384025, -0.6010535936101895, -0.6434894032660072, 0.7682419321281152, -0.29963567306401345, -0.47513946739531937, 0.09596768452993477, 0.8938502838481085, 0.38942814711098256, 0.922019383149281, -0.8706239352338212, 0.8876225609732358, -0.47461706677074433, 0.9350532835940996, 0.14473797860953097, 0.757009692731964, -0.3213921642247586, -0.06049425482630899, 0.7026747232634984, -0.41401947460814137, -0.39449075943196577, 0.629637782909876, -0.09614389875787224, -0.5069254438368922, -0.19224681924931136, 0.2088080429911828, 0.061072929227653686, 0.49380329638853526, -0.04050924265352199, 0.4694203223286089, 0.9426540507805047, 0.2402111409056383, 0.355148314067416, 0.7689117709193706, 0.057591792077684695, -0.4405713974644565, 0.9422412834485171, -0.4876820141119245, -0.055043812929736306, 0.8868885044884314, 0.13509317171207785, 0.23901520869355733, -0.09117858239440578, -0.9114279425909806, 0.5524159030312545, 0.9808622266833078, 0.7168613658153036, 0.22376858909778896, -0.9293720163513446, 0.3490702113426769, -0.32512304908569545, -0.11835930218745765, 0.6553115041956937, -0.8699502097683466, -0.678923360450966, 0.8435301775055023, -0.6170982955807292, 0.9302949238414171, -0.20932507834857264, -0.8945277523098296, -0.40576846486416857, 0.01698528895756219, 0.488348271126273, -0.40306905462270315, 0.6787650989585002, -0.47035953483587967, -0.42796299680344074, 0.44369569276550963, -0.3865893702139024, -0.3419591020192281, -0.10867712840645072, -0.011197608932889125, 0.3860030677195705], [-0.8700386557742952, 0.7920036897148488, 0.8819728111543015, 0.49267357840447845, 0.18280122938592158, -0.9545973396290621, -0.5603978442083208, 0.29456361991069, -0.1818734295763682, 0.3483351400186454, 0.9584867180706211, 0.207783423636551, 0.2931440338256538, -0.17531852523016614, -0.8793652635550812, -0.5671454057935016, 0.9170911047514754, -0.20218603604061958, 0.11224920422177753, 0.7467972807860435, -0.571512699138105, 0.7070384970417907, 0.025120352157385728, -0.11184975686278809, -0.21156179665301766, -0.6933520251887475, -0.12781268226286668, -0.11238584425084874, -0.626690737975699, 0.597317028178739, -0.41488501377106957, -0.8601340535568092, 0.8948413576359369, 0.03757029734516042, -0.20092877634078724, -0.0853304866789832, -0.9286543522104028, -0.00555391942011196, -0.13866093209911917, -0.20353220064225516, -0.1794696197815018, -0.9843780917264352, -0.5946469492613743, -0.21182900620869485, -0.3369642035813302, 0.923164784287279, -0.08568398205666314, -0.48915370663492436, -0.41330207376120237, -0.03634712512960109, 0.07691127998173206, 0.659611290168348, 0.5882374386565072, 0.8324502240192795, 0.1054471301211295, 0.4554745238267941, -0.3297743751867064, 0.9278667289153157, -0.3338595144454259, -0.4146766844888068, 0.2750870079239749, -0.8029344312357783, -0.7617644031817606, -0.9097362598385674, -0.6067597159334757, -0.7727227921817468, 0.8874169289339765, -0.37857326970184424, -0.3330706644480984, 0.6592729291020023, 0.868135927575897, -0.1508152730649877, 0.9356659162776326, 0.3486814142866913, 0.49414625107150995, 0.43332890062736007, 0.08613406727614077, -0.444967486462383, 0.3619752782470399, 0.08743115500262146, -0.8961559984225845, 0.26240568824652905, -0.5257659049593657, -0.807542186964463, 0.1533702570301283, -0.25247055016290254, 0.5099106676850534, 0.6376570896415213, -0.1834106261665742, -0.48231131432920266, -0.2558527909529683, -0.4961149804262979, 0.056576448854579596, -0.4585200465671475, -0.5084875818645451, -0.6835410758221842, 0.14632833493478575, -0.4035336451971475, 0.33040972504641636, 0.24807066722475432, -0.28362951829137945, -0.2892989775427387, -0.9548731177364131, 0.15079011917743473, -0.02824609360859925, -0.09685956604498157, -0.6966216290897016, 0.9694722962329936, -0.5710467499627221, 0.019957146013137823, -0.716373434844377, -0.8894933064715407, -0.10073515113927178, -0.018846008156589697, 0.6021657600571331, -0.3725950228955549, 0.6361046094925326, 0.12155641224483349, -0.39299005244493335, 0.10634579968388387, -0.07483198017218971, 0.739800198706977, -0.14373020376464538, 0.9525475041007868, -0.08890823168381813, 0.991828919331754, 0.7038081890597113, 0.9878731460434559, -0.49991540803795936, 0.14923215387457503, -0.3075983048430537, -0.08647770235811983, -0.5091155959153925, -0.6491272264807127, 0.15985733177112638, 0.6221956822826786, -0.012141493144660004, 0.9322511809099359, 0.8980566657060668, 0.1710450962636414, -0.7455230295503821, 0.4041225365312635, 0.3395584766177001, -0.8162532430079865, -0.43381543214779644, -0.6158327096729239, -0.9527233608657407, -0.7602875912145328, -0.37697239700824864, 0.7377959694657782, -0.4146187885774411, 0.43763429476170174, -0.6898053168262871, -0.319414628482624, 0.8344262891919119, -0.5900599504916643, 0.2655863720956802, 0.04961026519261114, 0.6287803388949152, 0.4218917692075602, -0.3479573190557852, -0.693692474090229, -0.9877081098638837, -0.9122828642231623, 0.20617279985138562, -0.8601875653503446, -0.3845051497690141, 0.42587178481622123, 0.11811150437566931, -0.25434233973687476, 0.3048496496454818, 0.52459983566842, 0.9671209589763735, 0.0717310638972245, 0.32854399803703566, 0.4200305482721777, -0.29822864382320974, -0.5370308289864583, -0.5320979847293461, -0.890410358598403, -0.9878530853218785, 0.09788335484484702, -0.26758305171791047, -0.7428801447563012, 0.711198633414348, 0.1867276689220516, 0.39863058637079857, 0.5119216650892741, -0.39435275880417303, -0.9888855412734873, -0.5410228315448709, 0.6979090884341165, -0.4922281602470961, -0.9342348875969598, 0.3081461617056981, 0.4814659215551906, -0.5110701970071236, 0.5221447073725554, -0.9683673990611704, -0.7994871890223606, 0.8944685857229969, -0.8210735021996227, -0.0044011557716902286, -0.31403598687866174, 0.6093797760975918, 0.12264646977215111, 0.43392115082915383, 0.7264915204994515, -0.6075663832170922, 0.7145540837606534, -0.610785534459672, -0.1250145181442964, 0.6714723603764263, -0.9875659479801128, -0.14019559774753482, -0.8122093904066273, -0.17971868183929726, -0.26240432227162647, 0.5198952282943353, 0.9020209250900311, 0.7818622885255321, 0.5757421683205163, -0.38924308413236564, -0.9523697748378768, 0.9953145986841595, 0.39130641797407284, -0.7582972296524615, -0.7725803612416284, -0.7569783626202985, 0.2305044453719104, -0.513475875077037, -0.9835295352266847, 0.26856513493247414, -0.13122722782322133, 0.7000358280247737, -0.21910961160421855, -0.26473450685974387, 0.0893490138286115, 0.21681151235191456, 0.373949496399101, 0.055935681678589776, 0.16152841468220908, 0.5171183235574484, -0.19125354285731302, -0.06421912550088388, -0.7620357464021243, 0.6138867045928944, -0.5664497520756309, 0.8393787552423366, 0.8056123396787138, 0.8049892428598105, -0.1679676708916511, -0.3180452260780081, 0.6330274880395172, -0.9450692986401332, 0.8891593004581583, 0.005656999792604647, -0.22371959503214084, 0.10845266108234881, -0.15648266032709737, -0.08908248210118906, -0.3084365717677106, -0.5141318722567436, 0.9801769710831313, -0.5852703694858519, -0.16747725665462, 0.18819049919358055, 0.3158114078276551, 0.8299423036303093, 0.928004654937295, 0.5074105227723028, 0.7967921323229955, -0.822190631425329, -0.5710429567023817, 0.9786965093156245, 0.7717313402736532, -0.720888294596916, -0.7520837413678175, 0.9690758745546721, -0.28904976555129386, -0.38000815622331785, -0.6021659707746649, -0.7592145991063927, -0.18000928620626463, 0.060947676935756874, 0.0777441729605181, 0.47624243213300954, 0.9374276740781382, -0.9448753152441514, -0.2840964266464936, 0.3492173537391167, -0.32702324036133795, 0.7780076089796489, 0.9919360430712513, 0.7177059494140466, 0.022281283955567083, -0.0814508020936149, 0.8321155935146246, -0.7818572154922554, -0.48440139931895976, -0.7697593872581396, 0.3999522731690389, -0.7258007241196283, 0.3800262642792945, -0.5173362624083566, -0.7338694021661314, -0.5708650949187611, 0.13044493439128058, 0.7806182634497643, 0.11409181397088822, 0.26415716005059336, -0.0841095402151026, -0.9535648230935472, 0.5523769604432857, 0.10390651930557614, -0.7131201874339406, 0.5546529096209095, 0.7917651389372672, 0.28868773760824507, 0.15599265636387563, 0.28369760521247234, 0.6903158640906195, -0.700470684352229, 0.0044098267236090125, 0.47030555827667103, 0.6073416155765184, -0.700299048254849, -0.512492919073467, -0.7773205493264488, -0.6775503545463936, 0.6373217505384297, 0.8456566365705136, -0.3809641212633002, 0.13208501190544186, 0.27996855316950137, 0.9931262667215742, -0.41669208221906584, 0.7192950768719657, 0.9655581871615242, 0.43555269877390496, -0.18062241126096223, 0.5681968323875782, 0.30982316894445, -0.34728894435313745, 0.28921403544320895, -0.23790827144098015, 0.3589468859168884, -0.17184520010689636, 0.4910974213953511, 0.6340774268786417, -0.9213450267371279, -0.569478953911861, 0.5362844653676897, -0.12725729891144932, -0.9513348440246214, -0.7155973934805817, -0.46785612907273955, 0.7328995842337626, 0.30153565913358155, 0.5188161295003251, 0.5661420086300524, 0.7578605163669017, -0.4991016127975014, -0.4435700521144987, 0.5449162595237232, -0.6578945848850816, 0.3750936985864474, 0.1623244141640281, 0.65163633101415, -0.707415883232889, -0.7766522253612358, 0.5745876877552082, -0.6641829015431073, -0.1418700712740175, -0.1567088486478468, -0.1155330806458488, 0.29304856111833344, 0.252044882585028, -0.22536302963622773, -0.8850061566187554, -0.8643166536500503, -0.2576224037314925, -0.10314389597083094, -0.7565935740991675, 0.3689591688619796, 0.39930312009159763, 0.2921371643918065, -0.253999830896939, 0.14326568699238318, 0.6876175072078543, 0.9851479990120926, -0.6540911685559039, 0.19884013565503955, -0.3514796799597958, 0.770520799474025, 0.39751276135162544, -0.08390488860814697, -0.41433239534709304, 0.22765761552570327, -0.509723436098305, 0.9662660846244036, -0.28286116259985605, -0.7654044143190021, -0.03355148190365194, -0.6223812956147343, 0.7204729544165486, -0.376819094256978, -0.6120058807621097, 0.9517195514117442, 0.5208497835401588, 0.10659075900383722, 0.3286551251812849, -0.8207988508520275, 0.13408502048773757, 0.6123246977054587, 0.2835957804508575, -0.747245133343229, -0.5334522531954662, 0.5960443440294868, 0.5825923956402871, -0.05013934516179597, 0.166972080269999, -0.3101222127256971, 0.2940652234178201, -0.7009822117136197, -0.8709115443417271, -0.6599716523720626, -0.4194173118053272, -0.8228063196178399, -0.21843021084044417, 0.4656162052912229, 0.4322655282938635, -0.8004886390935062, 0.9629412592755211, 0.5651840608597454, -0.568452979632343, -0.8962195030158122, -0.8949206958348184, 0.039042560845499376, 0.9751863047607644, 0.9335542266164757, 0.36412005160169114, 0.8831559538591629, -0.028718434402187014, 0.6444711846711116, -0.524610301718816, 0.5605594451803909, -0.8123100048165615, 0.4428108264344992, -0.9807425121890451, 0.2247519384735615, -0.5169564874070753, 0.2241262491363114, 0.47770643016670933, -0.7210246294276932, 0.47552325065717116, 0.1420680090689193, 0.7248715464474483, 0.7305228332971527, -0.0952873271278754, -0.4767486700779211, 0.5883841352800607, 0.501869982216314, 0.7053605024598129, 0.9691527402207128, 0.13456693545913676, -0.8058776466983247, 0.029062931539588933, -0.26981507858134113, 0.6333473422312992, 0.9728983646647626, 0.8063452293217316, 0.7467960369307535, 0.6002289241208318, -0.2959899376064197, -0.345424780001057, -0.9800495798549576, -0.0800871748599078, -0.8115516956823758, -0.44952645446738393, -0.9968935910064959, 0.3768756164209079, 0.5980128598707518, 0.3719722663621977, 0.2550710586744937, -0.702307127118748, 0.16986560168591688, -0.006517799587528418, 0.2056013510399409, 0.6324813649440046, -0.7244524756480963, 0.7814869753630541, 0.2170220731334755, 0.9501757844343459, 0.9228888946811012, -0.09784419061896793, 0.258556438468406, -0.4619180044538328, 0.5301299373764082, 0.9474354100637636, 0.7486795256307748, 0.6373246116365859, -0.36487485911764905, -0.2075429668582353, 0.8821617288797335, 0.18162071031318713, -0.6845345933653528, 0.0877393088816005, 0.7832923749310745, -0.47319523230554217, 0.22294017194476864, -0.8458730911660399, 0.25311714450699146, -0.5871996404952343, -0.7071368883398977, -0.20601765201574285, 0.5805955245530324, 0.5525921869634384, -0.3632358000733457, -0.8093559954287313, -0.09153441315949055, -0.894556980187504, -0.9877241211281887, 0.7633395522539543, 0.16870376717631339, -0.24265472131650792, 0.26747767679048867, -0.7514347573679606, -0.4834536598621759, 0.09883302246704001, 0.2075419223262526, -0.9107668006744309, -0.5529211454009451, -0.8690055624136498, -0.11612962341775843, 0.6461834704868185, 0.3324943222676424, 0.7973305215629357, 0.6512646573071119, -0.0447057666302232, -0.5088198027449646, -0.009560939059171401, 0.7806467465984775, -0.27425307657380155, -0.41090753131967156, 0.8367472853960175, -0.05268601651599468, -0.7128737752697462, -0.8628309941356815, -0.27448687248637654, 0.5919453326917141, -0.31463336971071343, 0.721532327531299, -0.6295969271506604, 0.681927206795012, -0.7556636776457879, 0.27451592519555434, -0.5648564706599476, -0.5521351071502758, -0.969781037116382, -0.6359874424709839, 0.05591429735246415, 0.7667157121056224, -0.7351333607735991, -0.8235249063792374, 0.7499942656593447, -0.7336356502852968, 0.7964092475423524, 0.6537949553533918, -0.3240830980133831, 0.7725152398301959, -0.22457383801451986, -0.04027825261924991, -0.07655154455480845, 0.12632190270371058, 0.7546385072366736, -0.9218577240317628, 0.6293776612904163, 0.4097300278946729, 0.8767670674802723, 0.7867105228897956, -0.027117791957693527, 0.672071678257662, 0.8526233272222074, 0.575691607311373, -0.43889853043342003, -0.6767682086661466, -0.38520378419331736, -0.05036846621481045, -0.9469079902371396, 0.08898972749184103, -0.8767509181075528, -0.42179653015752333, 0.8809121343469194, -0.29058466500955027, -0.36576085250778884, 0.6151469791352084, -0.17762953082451954, 0.8794498858479789, -0.41020273061201584, 0.844818330299764, -0.6119288719434351, 0.42227032333684644, 0.686575709145245, 0.20665163848265944, 0.6990829098276026, 0.4214389286574021, 0.5312180554911743, 0.9903193638814989, -0.802058754677001, 0.014278750405411041, -0.6594752387852834, -0.4729261221531047, -0.1475408581879723, 0.16758459264026218, -0.3269452957993746, -0.8549372129804451, -0.9620142078444647, -0.6006866931911058, -0.23799908244651388, 0.07952455996726286, 0.08393780857369872, 0.31239075048853804, -0.4476176441065522, 0.0884552524992498, 0.692381746081421, 0.3005625417939099, -0.6019037466656182, -0.06255351070686681, -0.912811939425363, 0.9845654023371512, -0.43013207334535963, -0.9619681910641618, -0.9205487303382417, 0.7478796892664114, -0.31115155538001094, -0.0303404240253287, 0.17366556059498536, 0.1583375741536702, -0.8897384817319958, -0.4094932606524752, 0.6503294632929354, 0.9854473119393902, -0.7678778629011243, -0.221521533559351, 0.1589744631447949, -0.32348891435617716, -0.09688050506948163, 0.6351773031434734, 0.46975265157942675, 0.7552980747405909, -0.0703688129390232, 0.6017230819692281, 0.4290817396650725, 0.016528609018880668, -0.267675619001743, 0.8759496211919381, 0.4385316261425832, 0.03337668815608236, -0.7756421880634227, -0.5671008918150071, -0.2776390447740775, -0.905799152061859, -0.8600183058686741, 0.2904143344881848, -0.1656613611970308, 0.745190158811505, 0.230721217180552, -0.722546323249718, 0.3684593258524159, 0.60299173051674, -0.7080242751109087, -0.8013545035843559, 0.6064073768963534, 0.2652244621313204, -0.5457084366608113, -0.027433226171857505, 0.09990251361040522, 0.15615772188655005, 0.8609413400725272, 0.21397734567010113, 0.9034242166890418, 0.1762669511328677, -0.0038894862911704265, 0.6672730001669658, 0.21781338546995913, -0.46782254229240255, -0.8469299862302611, -0.6794930517662086, -0.6782084423695711, -0.17758204604847297, 0.5743289481257763, -0.13557356969142081, -0.2869803088882682, -0.10647675702830105, -0.40650000486759524, 0.0521996018828115, -0.5199794791900602, 0.34774616419986015, -0.5985757448699653, 0.5878393196257152, 0.35375502936388403, 0.37742262313279384, -0.7300243373472123, 0.3131486013722745, 0.7733588983162908, 0.0025467995126329216, -0.963081463757912, 0.815348182778588, 0.9223484638911915, 0.17621633482981286, -0.4056030074011026, 0.8345576511543573, -0.4301498812398444, -0.5229509758337673, -0.7934280003730598, 0.33696329475681336, -0.40332832813556213, -0.6529085873651733, 0.9158077803230905, -0.29681552440069925, 0.5725106247573971, 0.0567095158311237, 0.27072594301597075, 0.7408614361582425, -0.4418542948395388, 0.741197387633281, -0.8994616439257439, -0.01213637217863539, -0.9729768232719387, -0.630498032832802, -0.6676027748478051, 0.1657087836909049, -0.6810048429379927, 0.5314202819158773, 0.672258172395374, -0.8726535741342001, -0.6779122256171892, -0.5501165970656818, -0.9169699936664311, 0.4715285933461157, 0.5140810892613646, 0.654035549969001, 0.9151699003466727, 0.7917715993337008, 0.155374238209665, -0.6436055022347033, 0.8483031745777403, -0.9632609190120371, -0.5856180389425696, -0.3002861504735149, 0.15943933514943767, 0.553588277394935, -0.9914926673753593, 0.057175662961165497, 0.019760255228598922, -0.021700739887354326, 0.7231463632528548, -0.607618259659608, 0.8807551716662534, -0.8447571725980931, 0.8941381387262693, 0.6103962212196684, -0.4832167349608375, -0.08101273073650715, -0.08932178329076887, 0.979422597284402, 0.5868442508063937, 0.7885416985308124, 0.16477358253234992, 0.13718300165108402, -0.49132541453190665, -0.2945893250096136, -0.8972699645414017, 0.9780762509079238, 0.6708837390649981, -0.6104817864524975, 0.5355237703399399, 0.8857966088486884, -0.21155776021735845, 0.8172464882912958, -0.7213951828865024, -0.9873707697357128, -0.2218471736794283], [-0.7677701770352248, -0.548007105019491, -0.18878275889879204, 0.6544447697456186, -0.5642556133078669, 0.464629557426254, -0.8110501960854408, -0.034526084194558715, 0.6766438267855686, 0.7483557605941609, -0.19074748820537946, 0.43907285526126416, -0.13194980366726325, -0.6104520363221071, -0.8171406904827981, -0.4871542170721476, 0.32943368724187216, -0.26977183026842355, -0.11235675451308902, 0.773841182489508, -0.22437813616570867, -0.8091101009267254, 0.16312216820985537, -0.4389786380538323, -0.6169610749574168, -0.4342991608977622, -0.24985692853278896, -0.6015771608187324, 0.16163908762040458, 0.47981980494801824, 0.8647654869529569, -0.011663003093856483, 0.29032266078866553, -0.03433288317551645, -0.531408851355284, -0.855877366555095, -0.7467107619667093, -0.10810704416774149, 0.774917022844216, 0.5752902516755574, 0.9410157658294327, 0.037501565063465775, 0.9083409314168678, -0.8843167049855889, 0.3212138692128455, 0.8055719422792357, -0.08561293318548323, -0.2877418012663519, 0.7395179062416078, 0.3493856857086423, -0.3738386743137376, 0.03579516099483772, -0.2794076815658366, -0.10117914067089262, 0.276943448787889, -0.029514695736503782, 0.3919261930832978, -0.5212148324337016, -0.919790377783774, 0.6611569814693621, 0.7655551427656715, -0.7423818787344452, -0.969495049614011, -0.7497904451074331, 0.6513810656440396, 0.2802056995412208, 0.2888519902686696, -0.7030931678860286, -0.47305567264114706, -0.9164152844089556, -0.616311453776677, 0.9929259902186426, -0.8051956370962445, -0.6135713821218701, 0.5104363645209096, -0.6909483107834774, -0.224975646400783, -0.5051377642151356, -0.9732803514890604, 0.3187928043077418, -0.33391935928048566, -0.7916216648307838, -0.7704003479051049, -0.4487095332337241, 0.7574972132854065, 0.25444258526675134, 0.39647299117336865, 0.3785475900857217, 0.14477557196857313, 0.18695192026137383, -0.6748641963189334, 0.6439508187484704, 0.6902516294759242, -0.7664185255748083, -0.5931541954714554, -0.08495916680515692, 0.08639802067918606, -0.8863560153669482, 0.25081210614717075, 0.44023523491588024, -0.3775640890981395, -0.5948490241792376, -0.474010977972484, -0.6042036289534232, -0.9827590007105158, 0.7632048172108594, -0.4393232713325435, 0.3294554046326009, -0.3157879704817316, -0.40669198888435076, 0.08065958603815379, 0.262953473133152, -0.7321184074906257, -0.49862890683717154, -0.7861477737924558, 0.18392384790542066, 0.2999968663487205, -0.5030037007298099, -0.4922873462946702, -0.5630190612997262, 0.9739377721529682, 0.0750714560844004, 0.903587767278103, -0.9333535391214458, 0.6171846927800125, -0.6583212296220996, -0.6030783564118414, -0.42376228810866096, -0.9961970410445128, 0.7512715855291899, -0.3085771391372243, -0.4625038876507682, -0.47985781706517294, -0.8308715458700334, 0.9743470811828575, 0.5871128759930504, -0.09870115707678032, 0.564692600229711, 0.1567002312593275, -0.2300972901278282, -0.6026139202900958, 0.031733951503924995, -0.40491112047145394, -0.7704849988181528, -0.47742026989660064, 0.8463468983859994, 0.4806952672559935, -0.9977089822268868, 0.8305165133050927, -0.6109360097319537, -0.5221744108057224, -0.5868934079434915, 0.8388516475491159, -0.43265110229733816, 0.4760089387791693, 0.3224986572413889, 0.7649415759012123, -0.56292199043856, 0.6483606991920509, 0.5970184549796398, 0.791669039177418, -0.32140281313453095, 0.399571126529041, 0.6915186120943778, 0.6881787323114211, -0.681210912738327, 0.8330300213227816, 0.919226147268922, 0.4082407552918621, 0.7865009196724, -0.4582586636173573, -0.08087074819147913, -0.1499618027605853, -0.8056975861102175, 0.15746758960625395, -0.5316113118477963, 0.2769522308816885, -0.25212720763858937, 0.37388804695581307, 0.34535588095088227, 0.11603270458555362, -0.9408435800269209, 0.2681793724092293, 0.5102224378216348, -0.2974650025695456, 0.7344676368972181, -0.4154463735898057, -0.7153817493375418, -0.8593731677792186, 0.5762483406597856, 0.6857036482333911, -0.5237690523908657, -0.981615882140164, 0.8642880584333689, -0.208147900916656, 0.6676378267974313, -0.9286534419182026, 0.6249793223648896, -0.886988514849224, -0.82692189864535, -0.2048263739192869, 0.23844249236661474, 0.05996347080672087, -0.7109052986965613, -0.6894455721399113, -0.4100491214398122, 0.8445130950913318, -0.07535289984442628, 0.8932939074400729, -0.5409262966340104, -0.9400462996711653, 0.1701494086154057, -0.9449528666217657, 0.8967690630222998, -0.4937694528810733, -0.6064138170961227, 0.3603778266610624, -0.005353637498335751, 0.5199943393319569, 0.5029381262147098, 0.049146379316642626, -0.05123990740116606, -0.005083514131218498, 0.56960724346735, 0.8032496674209226, -0.9057370502303523, -0.18527640163431586, -0.053806197771756395, 0.8428819065132254, 0.20269424610587228, 0.9193156823770126, 0.5672193518637616, 0.7442255856497275, 0.9770158993596864, -0.20941896073816654, -0.2717979509177141, 0.4379209475302333, -0.6344835432521871, -0.15571406222344467, -0.081093230824651, 0.9818674627478873, 0.06191185132578449, 0.6171916613113614, 0.0720344106683775, 0.715482068448263, 0.6186062130978071, -0.9129368574667388, -0.5438752154434062, 0.0755390556246571, 0.43607899729352534, 0.497592037434371, -0.5488933663010416, -0.39728065780065847, 0.007241789578812761, -0.1176868388708336, -0.015472660797092728, -0.5884061186397554, 0.5248422218585542, -0.47175497466625715, 0.29270166920283697, -0.9127402903328832, 0.5204829361509322, 0.4588326112984497, -0.28476650043318935, 0.7748721813946328, 0.007588399464893449, 0.906194616755721, -0.7523330597368424, 0.3745224845528172, -0.43323198842623645, -0.06677372743258694, -0.41682406849721204, -0.36865911411164676, 0.6934563654369658, -0.8288614740960666, 0.03244604721222465, -0.6120787660579367, 0.9744757032900896, 0.9879273318234114, 0.42538975993562816, 0.7644827144300139, -0.9770643313716844, -0.03588423319681445, 0.3272504298502557, 0.6675289739444026, 0.7673608144935858, -0.8775828065884178, -0.48691080837784206, 0.2243769933255388, -0.30530313505465023, 0.563693356700061, 0.111695790442323, 0.832783233411937, 0.01382601219534401, -0.8428659628632829, 0.5190596340242548, -0.45803083491174834, 0.4835549931915403, 0.43272443648627995, 0.7958268563522376, 0.029086768998299647, 0.2533903267090349, 0.6408989078278778, -0.2591015305385936, 0.7956196862829013, -0.06975425687936536, 0.7750936631968828, -0.4519602627744441, -0.21424780649222347, 0.4687153478027619, -0.17609686194778953, 0.05247541454261741, -0.49629255815979795, -0.5506511293537736, -0.767749400536137, 0.013731725115129392, 0.6837629425378877, 0.43550578729736233, -0.34515657110605, 0.7326170280182898, 0.5835036441924495, 0.3534590086625698, -0.8840964598845966, 0.9342292477954086, -0.06066561257051149, -0.6313868275652978, -0.5758153847244674, -0.4138081075470691, 0.9064363650244273, -0.19800823096435036, 0.30768689857395126, -0.6762818449217334, -0.3430817993614077, 0.33842600775508735, 0.6208297325496036, 0.6426284629115576, -0.9653374072754125, -0.1318371168391553, -0.4029237847340263, 0.9367346217588788, -0.03731418647023937, -0.37389767027766885, -0.6970235615363797, 0.10819977480710556, -0.4771965961720908, 0.9119635772611226, 0.8696057151371778, -0.906455168439435, 0.36121038363246954, 0.16836333521404134, -0.037523258411039734, 0.34098010746387497, -0.27200504661935915, 0.7520769025059759, 0.8862264424556859, -0.30815486481206644, 0.9485077593398206, -0.11803090431754766, 0.48048374417056633, 0.28128093041878, 0.6000949254223632, 0.15024370151320712, -0.17882106629126415, 0.420555723831421, -0.2989508744007109, -0.1727045162589648, 0.7352595873867284, 0.17839585911650976, 0.8409315010929326, -0.5826256633142779, -0.2663742182432368, 0.12320295269677671, 0.5049165840310994, -0.7156167951468174, -0.554047901849109, 0.2102499891676551, -0.6902057594658381, -0.9613677258167423, -0.42687771242310724, 0.7777482226163305, -0.988653457759412, 0.9630985637032256, -0.20468763079174515, -0.046958271204082774, 0.8918428332704195, -0.0006336621017218833, -0.40809886994082717, -0.7822718707707315, -0.5924260493681343, 0.9679615872401415, 0.569381765065484, -0.01621755894817712, 0.0992682340255957, 0.15091364451102932, -0.7427810375195, -0.18430699130166825, 0.44667527996488093, 0.9344270453344932, -0.10825087475754777, 0.4175328446613, 0.9658871218254399, 0.12095546938470605, -0.04592344721226802, -0.035269107741198215, -0.06147475825919, 0.16806758731156748, 0.20593997144218326, 0.19203716865511744, -0.9039359543666966, 0.2316689804752498, -0.2932609731042336, -0.3765209621736024, 0.4884909404193485, -0.6334742174489308, -0.17182115128804967, 0.7960023082765815, -0.6436380339016349, 0.13113128946913774, -0.527803585285896, 0.5846777268276754, 0.9214451241667383, -0.9612488169204993, -0.6338053865609987, -0.16485383964882724, 0.3367762807893741, -0.4359491720604533, 0.7900090642790512, 0.35120929694012365, 0.3502785129760905, 0.27359613437784225, 0.4857708273537119, -0.8143710647211241, -0.23460138951729906, 0.7271611470697753, -0.6725653143784058, 0.5433752468070763, -0.019599001137132623, -0.9501396735169944, 0.8228949355970884, -0.48849473370831414, -0.9170429662871642, 0.6575372261037333, 0.5713429735592962, 0.7750913811972988, -0.16458096810064057, 0.8395402111353717, -0.7947810819079834, -0.06473276949322664, -0.3065296724420792, 0.1328997244659572, 0.8011225091391018, 0.6530362349224492, 0.3316067800618763, -0.574917634858691, -0.5061758262166302, 0.4505811417410705, 0.5076830812457384, 0.9272049712005137, 0.6756962335553953, 0.7333100274467236, -0.4466768943187902, -0.128122120570897, 0.6532354774290013, -0.7314283869081766, -0.6157174170666346, -0.9215075814634033, 0.8653867659044421, 0.9149267829513993, -0.005992737716721753, 0.5531384089067003, -0.09990004979833307, 0.41957233786104053, 0.3606686891233764, 0.6637972927717136, -0.45942099340376025, 0.9414020914379811, 0.5400596603325878, 0.7535757135074662, -0.2582719015725891, 0.27711924981251784, -0.2743573937144679, -0.5461876300466291, 0.46642709204047234, -0.47465882143881905, -0.9811620578920317, 0.45583976536780346, -0.7599503194925004, -0.7678459158677331, -0.6264046210147594, -0.34310303901524264, 0.3315754982927513, -0.7719344039917494, 0.785082889175968, -0.3439385323862513, -0.2683467199644985, 0.33785781508513213, -0.9951299153493831, 0.9514456210681876, 0.3656784008753185, 0.3894908976172046, 0.8316808307449031, 0.8589426236928409, 0.4244032867580996, -0.927461330306846, 0.5398561024607467, -0.9829549397052816, 0.8128913420841136, -0.2342566900571314, 0.5953977397661856, 0.03903346239847964, 0.5189227132815164, 0.8879252640629913, 0.4698588118658922, -0.16985932020256014, -0.43737661937074485, -0.37344832910232406, 0.6851884596701606, 0.3452475311230252, -0.06853269652719512, 0.700583493701794, -0.2550498947578522, 0.5920536167349068, -0.630851571914964, 0.7054740508876273, 0.8251199565189169, 0.8346504270912821, -0.8384715068393084, 0.6263926380745346, 0.7259855421289769, -0.09813312665191347, -0.8189937825739843, -0.7781281693998933, 0.5790238128816811, 0.03252622453480098, 0.5394591505959525, -0.4737892512814626, 0.9221622682412642, 0.26743461387459894, -0.5920576580611643, 0.29557660110410366, 0.49611017119788214, -0.08723365420933407, -0.18443456010772796, 0.04493560498957743, -0.604000964041523, -0.5959882719615062, 0.7584124294497171, -0.5988270439018173, 0.3680973945549123, 0.9095349898055591, 0.12377794004737407, 0.19719006444451065, 0.19715600170921507, -0.7527316632413537, 