{"layer_sizes": [784, 30, 10], "ll_size": 10, "layer_count": 3, "w": [[], [[-0.5708225629798469, -0.8598595592671803, -0.9695098428300906, 0.9662089998314185, -0.8348372923615863, -1.6825846642836093, 0.755808225818476, -1.3166184077701235, -1.5048666283653227, 0.36636719591269484, -0.25356946492644594, -1.3306779609151795, -0.5407877728826667, -0.32634946208141424, -1.0347515768416475, 0.1698968069995473, 0.7440970444848434, -0.8895096753965466, -0.025074597481308913, -0.4185721671786564, -0.11966598848078291, 1.2598593141104706, 1.5195452846037552, -1.2116191615444376, -0.29434081264475154, 1.1496263927204136, 1.5078344186667603, -1.6551627132212445, -1.2208230776616094, 1.1704928474495602, 0.3932917423840778, -1.1197821884921848, -1.7202643262508963, 1.125685574856099, -0.8652881404514624, -0.4490983068697315, -1.5622589409923333, 0.8355855692435151, -0.5780366966830771, -1.6624961277149066, 1.2070806802089644, 1.9420508515373878, -0.6951633975345151, 1.2589320550007854, 0.9306412037322178, 0.9151078009790488, 1.6161550100157682, 0.24500595250491417, -1.4830271679296758, 1.596785426112229, -1.944060292711946, 0.5511489074869133, -0.5671703806435464, 1.6055439054444243, 0.12128334054968448, 1.4591672346821998, -1.2741545460839383, 0.6730270133885412, 1.8876557944163401, -1.5555270578535882, -0.43055672946302176, -1.2635531435088125, 1.4396284772121521, -0.6705702480569662, -0.19543025546517143, -0.3869696467100338, 0.8321746345437044, 1.0116715069140192, 0.903244307511109, -0.05055136222566779, -0.6637977552098476, 0.11907695391895957, -0.7043661587817085, 1.0383099560145186, 1.3457163819837994, 0.40697702231312954, 1.1020649590492786, 0.4638616389397105, 0.839672820826866, -0.00530230384579702, 0.6984211559095181, 0.35669545627560245, -1.0128771458902124, 1.1071461374217995, -0.8229169130006122, -0.7597579462869626, 1.1384567676781445, 0.24039049438481294, 1.9599413572435767, 1.1464849009086084, 1.1718375062530886, -1.580125790438216, -0.712966760039192, -1.3890777154882807, -0.638960131485629, -0.15752654026509352, -0.7593669864784521, 1.9896902156840548, -1.5642031424273235, 1.6192308127761292, -1.1696041094139207, 1.9090204715237598, 1.191940754662983, 0.3310769920355967, -1.9046359616186441, 1.3187486402467097, -1.4275285387444159, 1.0757300977932376, 0.14205208669418076, -0.7434826292325436, 0.026577774459686728, 0.5010404252624108, -0.19433120111402236, -0.8356079528899087, 1.239505534119981, -1.0806494479791933, -0.5018115747694697, 0.19481609656271912, -1.2311669146375033, -1.1351476369175706, -0.6050096386327011, 0.8387130894324765, -0.2723901583673401, -0.6305576940584425, -0.046698098443496115, 1.5718346324716113, -0.0062911975230796665, 0.5065335739428177, -0.4606699077159097, 1.8682564683431735, -0.6282276753321808, -1.710260713878399, 1.9087384612537583, -1.2213434995469001, -1.3451175751152538, 0.9843345866060351, 0.07170336082550857, 1.231981557176916, 1.5303358630169446, 0.22333830113300301, 0.4509394194996066, -1.131823205040257, -0.8556933081216908, -0.9622865754357943, -1.7590548151618264, -0.9486872684515094, 0.4198497516318658, -0.4705530231595612, -0.8893578831684524, 1.8728802372839033, 0.1874406212307233, 1.6880818560373503, 0.7887588742316464, 0.17167703207865784, 0.3237994802441439, -0.6560522433541107, 1.5681572259765109, -0.10475528056241047, -0.7929981858946811, -0.654652785744489, -0.9327944699316878, -0.7762130027739065, 1.005229171957247, -1.232250384019195, 1.3607883031315318, 1.9132858512881432, 0.9563680705994143, 0.6488873979111331, 0.03368165399521139, 1.5512585907524792, -0.8449596426565871, 1.3859575234341892, -0.953462620166995, -1.754599386440587, 1.3049041024936023, 1.6903978722091053, 0.24784156112639857, 0.29745604048888713, -1.70620667723838, 0.12946900910827364, 1.3655023465385538, 1.3309252339553925, 0.015011444943614567, -0.013564039508474691, 1.419982064215483, -1.7171910524575211, -1.5264411293623763, -0.32033276561886775, 1.1108372721611057, 0.28012340112663336, -0.5600786998270033, 1.6211621614005, 0.8303469556299565, 0.7098456993864756, -1.1837614549378752, 1.7535985717590477, 0.7091773702093032, 0.6951935032001847, 1.8069248779074676, -1.41915445982996, 1.1326782673016285, 0.06135467861775806, -0.13317352630493395, 0.44368785331755023, 1.2584436199020619, 0.5817185831551044, -0.7629904455432878, -1.1511514525767066, -1.3744875589505807, 1.4233376775297049, 0.8320372053539516, 1.2482994835044083, 0.2757842512681263, 1.8759976296870158, -0.5686401082370807, 1.008372919147506, -0.2997464374950549, -0.2395513998040067, 0.07798849968594881, 1.4362171401960186, 0.6670222452879991, -0.9935922472764481, 0.9579615091945719, 0.5734653213410812, 1.8895914514420369, -0.709439523681195, 1.5387990905848035, -0.253486750427928, -0.8556297990294395, 0.39893240129436586, 0.016839606442357723, 1.8114632615148452, 0.8492628742261437, -0.8566249487980179, -0.5995890774246952, -0.10965572801648704, 1.9835567341420648, 0.23253625342163034, -1.533838671279046, 1.7970120058212395, -0.9137593920232829, 0.7637303606626452, 0.6944111790052453, 0.22650476534049357, 1.8705111722547205, 0.38249668307970497, -1.0707819733985455, 1.2298751427370869, -0.3213568976607272, -0.5162420325516571, -1.1550060259709918, -1.5811667551547075, 1.6332642432189821, 0.8153848507288936, 0.7053332649768457, -1.2825250822091174, 0.6250831703518064, -1.5730453535189874, -1.7803579863332517, -1.4410707351177487, 0.7484236819239639, 1.5116314069443835, 0.8143041548670509, -0.14630346389357918, -0.8014575473174406, 0.34735196289272346, 1.8825266508429792, 1.3867869683884904, -1.1578217982725607, 0.45126034630645606, -0.4449125597370993, -0.5269160949404914, 1.9886065244757005, -0.9964606007630444, -0.9034711049245483, 1.301590319260596, 0.627004573857946, -0.6691985788088618, 1.4422991954607225, -0.7923190716801589, 0.6550788302211379, -0.7315465875460732, 1.081049635231712, 0.49198952259189804, 1.015266183899467, -1.3896183808282783, 1.8672094117800648, 0.0060734379079128, 1.7494012196649753, -0.9668718143570947, -1.295500933538031, -1.7139774387183315, -1.5778333458916483, 1.485125311852623, 1.052293853077218, -0.77760017728122, 1.5931096032875671, -1.1754460710388523, -1.9948525664084498, 1.9297926265369973, 1.553374796999605, -0.9184033468393641, 1.549648536630172, -1.187754934999225, 1.6072120685306124, -0.8128860210443639, 0.662974416323284, -0.4966572655589746, -0.33340874251093267, 0.9949381585319255, -0.16973187652448612, 1.145914592558775, -0.12400254300521553, 0.48391258714524155, -1.9620738739255987, 1.5051390244302647, -0.6304437418112109, 0.7003250800912538, -0.5077470410803117, 1.5832464558983497, 0.42153177287579063, -1.9756285534262643, 1.4772242907159945, 0.1693408387304757, 1.5569209415919294, 1.231616726365685, 0.34403687471808536, -1.6534475806519964, 1.481584501137472, 0.8369955438036704, 0.3697069976338355, -0.435395215761049, 0.34802671997242957, -1.218146489642631, -1.5011942534109783, 1.7061141467985594, 0.7556358518498593, -1.3073294920741396, -1.0051492712260015, 1.4395359957440117, 0.16445452794697218, -0.5749826156526362, -1.3934328094221184, 1.9345323988759981, -1.914216810339756, -1.2034667623701902, -1.8402148927605313, 1.4344036138058354, -1.0155951576452869, 1.3859486829477712, 0.6572727842230972, 0.8783670133895769, 1.7000438450371782, 1.0568667894734103, 1.8865030662691953, -0.5166628408050176, 1.8249164042956814, 0.9483206111503589, 0.684035349972239, 0.8248144209785252, -1.1138041709427, 1.557076676760884, -1.9858592645344753, 1.7564824854116288, -0.2515498683837702, -0.4503359921222898, 0.346223698305866, -1.8095050944222937, 1.4422431530006, 0.1883356004289297, 1.8661847961274136, -0.3607025647970801, 1.5420318977832677, 0.5734476617181411, -0.6741043634026058, -1.3866532740267175, -1.8199748015355839, 0.04207290060617163, -0.2899875582789078, 1.1149334055685818, 0.3350062824038182, -1.510763595577636, 0.5681145589391515, -0.8573557371482622, 1.445272556462862, 0.9301992755398958, -1.6324410450333573, 1.0949104013730913, 0.4545177665780391, -1.6452894052774742, 1.9379539619653647, 1.214696461141895, 1.3225773793481266, 0.7944253709162407, -0.12547966391566762, 0.9248760057452012, -0.986046506818301, 1.7674431640707793, 1.9744376453537187, -1.3521860831402934, -0.8508979881951609, 0.41496960009764855, -0.5593614643975334, 0.6522308841524954, 1.7946536375531317, 0.3446630335365374, -0.0797938135386363, -0.06787702031064383, -0.7938406696445083, -0.9187770358248186, -1.2755769070631164, -0.1151210100987667, 1.521169331065694, -0.49240011427735353, 1.3759753526038374, 1.0339638406020295, -0.19037860222412817, 1.7215061369300984, 1.321831370090703, 0.8621980772016079, -0.44888118659995513, -1.2251964011766243, -1.1302185462880114, -0.7979538656208572, -0.449949065047064, -1.6225584388454464, -1.4676102305572403, 1.7843754442400652, 0.1524067683624732, -0.5125076352865398, -1.6970966220629622, -1.9718905760032384, -1.293290195156894, -0.6759356173172486, 0.05686605804670691, -0.1716327253279855, 0.9684419893718199, -0.40981133742415393, 0.16514759484167138, -1.348216768446076, 1.3598751212633833, -1.1856718293966901, 0.07694371379765358, 0.6063205259678944, 0.7021004180287334, 0.501554473852186, -1.9062368854509077, 1.0997116101060411, -1.8712113493954305, -1.157124660982587, -0.27493677810854944, -1.980058940225977, 0.6516145428906562, -1.78275174232887, 0.961725601749371, -1.1502238564178753, -0.07063335011956517, 1.8549624832985088, -1.8007190804576365, 0.6902589045419845, 0.6062954605136517, -1.0256498898884223, -1.0371730867365623, -0.7555213487741415, -1.3896437790547667, -0.9834086535759917, 0.44388742684368754, -1.6913708795067615, 1.0721381175732494, -1.3624644577992222, 0.07513178670141117, -0.32830227496525216, 1.516965003344115, 1.7288554465858474, -1.1961076020651669, -1.3431716934372728, -1.8455216044978284, -1.4229666523699955, -0.6834034729823079, 1.5899138664829098, -1.1478487802618915, 0.18864648998983, 1.6422091956767229, 0.3749284146018182, 1.5122392325341174, -1.6247636277049955, 1.4669977039690645, 1.3711398086723856, -0.5912400494159971, -1.185260299950168, -0.35936234580027704, 0.004755179417017417, 0.9811575223045537, 0.8404806793922897, 1.671145506206918, -0.37038212134573223, 1.1844027040536647, 1.683659166866351, 0.7213461621061624, -0.46200035741890755, 1.1059521666195813, 0.1448507171340801, -0.37090702876054743, 0.4497414500617606, 0.24786525847539576, 0.15600587860295798, -0.024968128028771533, 1.8737946167519097, 0.7314642292700899, 0.7116087768343955, 0.3624847311692673, -1.8314066032281362, 1.3118447158036945, 0.8284260041099706, -0.971630299274357, 0.23936901320986068, -0.8457770444536401, -1.6110872561641951, -0.4443528680240473, -1.2329496004112368, -0.30839417751680137, 1.004918918483386, 0.5782507788948199, 1.6478478191942239, -1.0946836594499054, 0.8668928980872155, -1.838156210014554, -1.1303519929192132, 1.6648354851642435, -1.1136062388203436, -1.1748356014258052, -1.3687942542108766, -0.8746135912644113, 0.5088944884466823, -0.4735063172189644, 0.25754753383332696, 1.5122891699777672, 0.2538860048946074, 1.5419529398732852, -0.19591667487609585, -0.22859313678820414, -1.2374769355002242, -0.4530888442865931, 0.9764082874050134, 1.4735263524401896, -1.4490596512509109, -1.592389579810176, -0.20566688376845904, 0.07199535612362225, -1.5249627143625946, 1.2903326479430213, 0.027323208486518064, -1.1809997836702346, 1.287626226948576, 1.3778351738880086, 1.3327236449890858, -1.850400821402043, 1.7619409898578777, 0.08257515576522519, 0.3756296497174232, -1.2126969824304967, 0.5178809841769613, 0.060345674585346086, 0.9955509443722582, -1.037782834521176, -0.1651241799822232, -1.242909607139628, -1.0414109968404377, -1.247558002879988, 1.6874563905909976, -1.9300842214760152, -0.5385957346696667, -1.1324698511622215, 1.7809806120981047, 1.2060825291748893, 0.7319214792707326, -0.45684106479039654, -0.33911730998690204, 0.4107931681719894, 0.1804465326363162, -1.8626509734149153, -1.957630871857305, -1.9427412162445423, -1.4782194920340546, -1.989845826138984, -0.6350718302237653, -1.7664707553265837, -1.4850908032645238, -1.158940264451686, 1.8677117245712342, 1.2839275310813727, -0.46404603138358297, -1.5803832552694124, -0.31251667020809937, -0.9843190514546017, -0.3787541693195327, 1.9435951873106807, 0.4288598713222094, -1.705889203007694, -1.464565254695794, -0.9532729403025868, -0.6711139520869512, 0.9867669038923584, -0.13323512342523214, -0.18316033687179695, -1.9750634493417738, 0.30575823756006326, 1.676399655798344, -1.4538993803602198, 0.2376438232437595, 0.23822602750665936, 0.3281215233008678, 0.995521883476182, -0.8809170265065736, 0.7647740344690804, -0.885635103961806, -1.5066645231527502, 1.300046341945691, -1.8640469354495148, 0.7795778213343275, 1.2106500070428998, -0.27799131557410295, 0.5110931731100076, 1.122386472483364, -1.0767199695584826, 0.12054141066070728, 0.8368910471518884, -1.6928267927539702, 0.2249243003851472, 1.6464398119617634, -1.3268467924507654, -1.9805020017480643, 0.5821420158504387, -1.9792438906994816, -0.0018271058250358442, -1.7737444048337463, -1.2353508356927745, -0.9341572646803462, 1.06585728422135, 0.8409317159698927, -1.341117860637245, 1.7511772428650783, 1.4569337304704835, 0.12367190010628627, 1.211477786052921, -1.3697791942743982, 0.4244166278488859, -1.8104243085605436, 0.945856385508715, -0.039028993557601956, 0.049621714937998794, -1.892819332824691, 0.8554524489780818, 1.9696339718817537, -1.1256393932346627, 1.8372176124040618, 1.6485027062160496, 1.5959010723741645, 1.5942674417174656, 0.06513417635855977, -1.5568148646045503, 0.5276422006803838, 1.1964432603856252, 0.4643374943217959, -0.3061601970259067, -0.3028993433291024, 1.1064910383867579, 1.570440789586576, -0.5271171940250023, -1.3290180590043603, -0.7524764107398684, -1.8355857001602987, 1.5646481269202428, 1.3542093530840158, 0.23697823265988507, 0.8368911455637564, 0.11575177409326863, -0.924911556852498, 1.791548835367298, -1.3264492057180746, 0.5096499942372754, 0.6423502829719082, 1.8836452265168229, 0.11722389414464877, -1.5737388100943752, -1.4590589135346559, -1.6728972007151695, 0.7375543061706072, 1.177544715134358, 0.28689121892236574, 0.7888313507419958, -1.7135175749582603, -1.0776059106240332, -1.006431472861479, -0.7760874080828798, 1.3984372684648223, 0.3359719503795796, 0.2948331302681976, 0.2165403422677496, -0.4006510518224018, -1.1391288863219167, 1.177006130158309, 1.7223450650301237, 1.4856437852327775, 1.760147120270821, -0.8590113607695964, 1.6135842838381587, 0.11407006786759566, -0.836782556265126, 1.3076271793547407, -0.35880511417503247, -1.4874128965401858, 1.3105257336939062, 0.9553776020400063, 1.1020249030978266, 1.369857906048662, 1.726098417880241, -1.3925054444258091, -1.8666810889184373, -1.3910189209116162, 1.7839241037967772, 1.477563853136535, 1.6593640828768819, -0.4248027650550921, -1.933394923908107, -1.4445818396463241, 1.5237493030377012, -1.1692944792740665, 0.5233446831640349, -0.9330092782158799, 0.20913212850307872, 0.3128448262259216, -1.6196729187724896, 0.5108572435866876, -0.42077963029586046, 1.1700100261407191, -1.9499305324875356, -0.42963465228514985, -1.7195661023795792, -1.362281230878327, 0.779053229660283, -0.8312876429695277, 0.13286652431579357, -1.6061630058214202, -0.7307366247612636, -0.05364169597198336, -0.5828342243861641, 1.0313385529843586, -1.7374447633607617, 1.6551130092450443, 1.1855283175971416, 1.0911026979697807, -1.294413663661315, -0.8830761141464316, 1.6114947987752894, -1.9437732708984221, -0.1310249518000206, -0.8801298308227778, -1.5510117059825212, -0.9280058598285583, 0.1954956029133501, 1.9196182629672134, -1.6605576049741657, -1.3971045117290253, -1.5582640378655517, 0.8089054562115326, -0.8216797009539271, -0.9201677366006006, -1.7891047475229487, 1.4902906162057863, 0.06470820990406784, -0.872423924350484, 1.0304650445329258, 1.0620107094295077, -0.5483388558496283, 1.8302607010482628, 0.7110940262520554, 0.7786075141572206, 0.6038143902051032, 1.4355340807499903, -1.623878444400134, 1.3924327492781505, 1.4310291716273138, 0.03218889520543211], [-0.46783462216360805, 1.7662313080362697, -1.9373623640437856, -0.6757414742166499, -1.55857796886897, 1.6279494202554887, 0.5956341333205786, -1.7609555189957624, -0.5371329535580336, 1.9102545447252703, -0.7381291582936482, -1.848063817489229, 1.0300049609906161, -1.1363745067695155, 1.0859186560697454, -1.4526407612768877, -0.8807763786521847, 0.9107392915760788, 1.7706920738055172, -1.8280743712191256, -1.505062576058262, -0.14635894934793026, -1.5871228118684195, -1.3650717159428138, -1.3058025896450074, -1.9147485274392815, -1.581022349958494, 0.42717190618981604, 1.238800890667899, -0.5977867159615893, -1.0338552839977653, 0.678843686199424, 1.823336057983524, 1.6428330392356494, -1.196739329809921, 0.04746868867965962, -0.7313029924465733, 0.981477514192692, -1.7363591605841695, -0.5424028424116468, -0.9025899123059717, -0.5534042034218372, 0.6524673938899025, -0.8967593924127009, -0.6757351976296958, 0.1650423630042957, -0.49556599090402065, 1.639520079716516, -1.282613153022387, 1.3963110279650919, -0.3435391106818256, -1.2078327507509277, -1.95889323640933, -1.5491806989448738, -0.4135691181438341, 0.8022833010969865, 1.7327142137701839, -1.2040577614501027, 0.6474304129825751, -1.4163633679776084, 1.4905484206083408, 1.8847726473779707, -1.389176566274376, -0.9721250279717442, -1.8371209923108966, 0.7316360794654941, -1.1470854580957663, -0.28139473352795386, 0.07011442352024946, 1.4909794332026165, -0.6366987242568203, 0.9681445952926604, 1.0255182600779824, -1.7140089038604795, 1.269317367199692, -1.978446092834839, -1.4380108037308317, 0.5533035586658492, 1.4658111325857677, -1.0953844550323368, 0.9161184833651915, 1.2251525396959344, 1.1666862837954337, 1.7522699179435324, 1.079134123534884, 1.9688931314286036, -0.4218624861827253, -0.8328359740531425, 0.6385384004183285, -1.8543563119735693, -0.8410859690029137, -0.07690319133200786, 0.9250927721345525, 1.4463503374305995, 0.18227065872460502, 1.1629470214222621, -1.2958401160145143, 1.9605529883936748, 0.5592625548360357, 1.5169276640835865, 0.17761397345573005, -0.3309994268869309, -0.6750447671702343, -1.7546886815995957, 1.5912052162951484, -0.5823895881587373, 1.2617947169127406, -1.4090450790985107, 0.44587422958940576, 1.8938870254288411, 1.737441503837061, 1.1463386236712498, -0.8190875726935349, -0.7490401384189693, -0.5387266929262207, -1.2032582454198428, 1.7376335775322485, -1.4260904993768748, 0.09831794230629316, -1.4889800046698056, -1.8682988112530303, -0.8073814411327827, -0.43388908570109225, -0.8197387861443787, -0.9559505398911866, -0.6896767307365633, 1.2832131511308502, 0.5223662033613967, -1.1242763290680349, 1.823967212278648, 0.1809611935452121, 1.6005145869145938, 0.08485910129451454, 1.2347925659542753, -1.4918429151067938, 0.49874945217566846, 1.5210848418471654, 0.8497983866979628, 1.0182571928878752, 0.2387285665921346, 0.8280280646629881, 0.548052901273758, -1.2161838895204071, -1.6737811452944844, -0.9920687931656775, -1.7464759379054489, 0.17239634437492016, -0.21901178126268928, -1.4215359561148009, 0.35947613692692887, -0.12000495961618793, -1.719907741320726, 0.27055215755055767, 0.1432216472574898, 1.8159006399560187, -1.6113055164361336, 0.33566076930462424, -0.055610544178579045, -0.9000553325285197, 0.2984990144650771, 0.22591011631034155, 1.5689561797822131, 1.5731654840196254, -1.13110063413312, 1.5027571697508888, -0.49946397502675866, 1.9612200112936822, 0.14770044221586756, -1.54065542523908, -1.563350382859197, -0.2329000075516724, -0.7112650171773858, -0.8912317982616353, 1.483067775723648, 0.017062261903267276, 1.2825679240124293, 0.5177818129459234, -0.39173893425878, 1.0707620227229981, 0.3302627706875283, 0.5632212235307574, 0.6736596064011271, 1.58476928535106, 0.9893763170473773, -0.22540364614926076, 0.39604524564868127, -1.521878554627459, 0.05789094417367647, 1.534397249778393, 0.5924589210066968, 0.8533113473006699, 0.2851723879067498, -0.5737319348628299, 0.6088477186236582, 1.0565700750543632, 1.5691118959868104, -0.015653487922368647, 1.8662462531283157, 1.4097271364874528, 0.5826494279189175, -1.6085886092995225, -0.44286690015878316, 0.013812246008716176, -1.8497924370997714, 0.4074237367037963, 0.1115295715367997, 0.6462493541656046, -1.360230811607712, -1.8236229655580354, -1.6621956522422945, 1.0860533302357007, -0.2186416302889522, -0.19882936488944747, -1.7384797301637605, 0.5864513227138833, 1.2460744517165867, 0.9471154099773855, -1.9501267618847888, 0.9003528288562854, -0.5634013544647811, -1.051373518341537, 1.7711490619546535, 1.6791604948216436, -0.9723748508912425, 0.11119142892689778, -0.37813672406388643, -1.1885717313207602, -0.8964542403874616, -1.0631974434262177, 0.9847870613730296, -1.0533299794771298, -0.31350826300871304, -0.08511696936462043, 1.3292741320596326, 1.6033281474048255, 0.5208210339901073, -0.4631268083906459, -0.12380997236692289, -0.34369704251681976, -0.4786863610109268, -0.3806097571279611, -0.14735610161519822, 0.35612337647562164, -1.5940266110252452, -1.4779849753525671, 1.3514937013423085, -0.17860686138782025, 0.5894881308615049, -1.750580886431023, 0.6929820752600875, 0.2003020068391832, 1.5769882799521286, -1.0278650553576834, -0.5435478189298176, -1.32104280469961, 0.9194190621759805, -1.1629476986360865, -0.33437337456992106, -0.6528825312756813, -0.5177271495547904, 1.8286401139703614, -0.34240754687824204, 0.5005550145232591, -0.410210256419527, 1.781626294238549, -1.8192198842764569, -0.9160760086499424, 0.2454432743929103, 0.5767084988164024, -1.2603417321787316, -0.44823440314874485, -0.9959852864978215, -0.299920905173452, 1.2510108293897895, 0.6010350712367977, 1.6680436260261997, -0.0367592924635458, 1.8318340638370434, 0.785817472523363, 0.2601309827277745, 1.8260646287446527, -0.49729627357066103, -0.08796053064864869, -0.8499991482771699, -0.956875178944392, 1.5405673169633523, 1.7638673348972345, -0.20178238500435636, -1.15181644124777, -0.42430779388662204, 1.324201757473907, -1.047961538859895, 0.21549457683818768, -0.740374859209624, -1.865569430483499, -1.2515652322059918, 1.0715045885661219, 0.8887412215023025, -0.37592321324311123, -1.5419858864061304, 1.1150587962020237, -1.9991348961083752, -0.6824900353985472, 1.048154351189656, 0.23980774061942692, -1.3390213532150514, -1.9863648524530053, 0.22543299736109373, -0.9037481885188788, 0.5420629659664948, -0.3474109278470244, 1.9836105660050702, 1.8597867321949189, 0.28669038142393666, 1.3260430216019035, -1.1555981382993525, -1.4042168820300325, 0.35238667115267824, 0.20903820162050943, 0.2569409632114552, -1.5484839134720532, 1.1821474388316775, -0.8543618839670828, -1.570274080894376, -0.6314175938349214, 1.8747483760838084, -0.7060085089235354, -0.8185742646240853, 1.1984816282398651, -0.43374998350167815, 0.1956093287333617, 0.33870597643944356, 0.03901629150683125, 1.9864653427660557, -0.7816693042236084, -1.1276228249301319, 0.6348136703930558, 1.9205317616132316, 1.2667839818301208, -1.3661039671712132, 1.787781354873651, 1.1910646382571517, -0.457610238076075, 1.8131646576877851, 1.4737450142738449, 0.9299854726388944, 0.16513865574724873, 0.7076105886077565, 0.5043883427943728, 1.306648817210427, 1.756667014509897, 0.9167470772085974, -1.1446683337836785, -1.2597950117681087, 1.9339452840654423, -1.4488147395238877, -1.183056608435599, 0.6732453285180372, -1.9023321130275879, -0.18018141647278924, 1.6066047188586035, 1.5266984801703265, -0.5781291511398562, 1.3445054138138817, 0.48646243197172034, 0.8999476678624969, 0.8821008262951001, 1.1697225651382734, -0.186513035960919, 0.21512201273570822, 1.6980135168370616, -0.01709519637379883, 0.08130475754814381, -0.2438430950305205, 1.211220581080282, 0.09386946631884911, -0.40017102466632753, 1.7694497873288542, -1.4776143203137477, -1.8435408059808367, 0.19692623619302485, -1.8741677155906915, -1.8290720915980243, -1.4148273944058, 0.6391897213492855, -1.5069573760002217, 0.2580211411925834, -1.6162215270485378, 1.6927796608479142, -1.541386668655485, -1.1311081583477545, 1.0244880162382306, -0.2185181899424462, 0.8491636632251013, 1.5803717414650438, -1.2784259035195304, -1.8197253920661054, -0.04460494381875869, -0.08733836875848368, 1.1601124182739406, 0.4026722711388647, 0.30233635887070276, 0.7333278417962975, -1.8943669321142629, -1.6403572323873672, -1.2423882893098335, -0.12476991454276398, 1.5801235399081703, 0.21455207544021812, -1.66319867705726, -1.3587301594498182, 0.9531008561760458, 0.2684169439568752, 1.0977329288056767, 1.2013811512534558, -0.4009138017611891, 0.0060081238981151835, 0.37505711088859395, -0.3124020483915199, -1.9572806964046197, 1.1103835931205666, -0.3469956601630768, 0.4262019390319823, -1.8271299001877177, -1.3099506999138473, -0.38246283763021877, -1.23248136046631, 1.8336491965383472, -0.2431182169044824, -1.6521173076562905, -1.4544107737290888, 1.7770468589601955, -0.8556781996692739, -0.1936880857986656, 0.8983734601388227, -0.6851365591364301, -0.17525832000485683, 1.92245660047083, -0.4644376149154702, 0.40709423991459126, -0.2786233844973541, 0.10434015020959132, -1.2433373762822129, 1.8786497090938066, -1.8069762278386607, 0.9218132919170062, 0.9917171891458173, -0.37894381643958874, -1.8022667547412952, 1.687185063326179, 1.7395539201476544, 1.5377229174992018, -1.5632102661256106, 0.4146875292319742, -0.42481420392309494, -1.8291673879252173, 1.876236554629235, -0.9493333184775453, -1.898381532377577, 1.8198104206359689, 0.33949752860604454, 1.4602761187626099, -1.3080688209656433, 0.3024355686957353, 1.833578702126118, 0.2615824453655837, -0.49613735666721615, -0.6448536001159558, 0.5053254055023326, -0.19802184435938583, 0.7473656131360183, 0.5206783635823715, -1.593957631154634, -1.9662863893477804, 0.5192383884257017, -0.2884637167687924, 0.8521768806267911, 1.9529173747382431, -1.304028742053359, 1.3214391379838388, -1.0385143830609818, -0.9525828468950712, 1.9418887538016956, 0.8696352683407679, -0.3900072339559481, -0.9854677167484586, 1.481192193335935, 0.40040995104671834, -0.9978256957836615, 1.2804026056428501, 1.0927449542165313, -1.020824260585244, 0.9958656514682928, -1.194293209637021, -1.0598674112470006, -0.03692454701516308, 1.2288386960194282, 0.9533741475985488, -1.065507870425986, -1.6791469737079958, 0.9951982354989207, -0.9973104199356082, -0.05899205246681113, -1.4662541720628524, -0.3599858258917621, -1.816482762663757, -0.47947482576315636, -0.5267067684465111, -0.30778730590099196, -0.9640324224494459, -0.5079102491120376, 1.7062674349889817, -1.553383089203203, -1.8016856729255422, 1.3875265862649862, 1.9215472002104914, -1.275972082398695, 1.843401694115976, -0.6226297211942279, 0.6819342752181633, -0.8225204479487754, 0.730747084870133, -1.7040162041331, 1.5389391098330645, -0.7081832731985389, 1.8711140711389027, -1.2721429703343725, -0.17758299423777732, -0.23001330848115759, 1.2409157869614325, 0.5021209275570656, -0.6917925592022598, -0.9687037110917056, -0.9532503781650843, -0.43846434062077455, -1.367301106609777, 0.5311702357765568, 1.8879301805611324, -0.4608604281233866, -0.08113507877313988, 0.47166402556162385, -1.6525111407023272, 1.2080631424780464, 1.9637510363287491, -1.7204320038723258, -1.4554665458840104, -1.8337071819624002, -1.0009276782382501, -0.6722651386521569, -1.6764977370111136, -0.2980737531483898, -1.755571999047229, -1.430231434655137, -1.4432376957836932, -0.4117459833474909, 1.2358881730198583, 1.8905920210431042, -0.10769186080465659, 1.3547380127771596, -0.6770852846801827, 0.009025403061774906, -0.565863744154757, -1.9565101224924257, -0.14525271201082882, 1.9684740107571528, -0.5688243621706588, -1.5092308723497612, -1.9374957918912497, 1.4785552738573977, 1.4271312650484278, -1.6620430280262568, 0.8444636261987166, -0.15805519536458854, 1.8193538543181818, -0.5317588838478257, 1.5273355378423896, -0.10850664816892229, -0.27759590611894913, 1.2057898488776895, -1.8906765931533176, 0.8935585499033986, 1.5028034809109563, -1.0281972739815033, 0.8773383838374317, -0.3635885813866428, 1.0483679753720645, 0.637420301315579, -0.8430590257359003, -1.1080729165620504, 1.5375671070981018, -1.8540384186548362, 0.399703153844845, -1.3842518628942904, -0.05433034808346434, -1.3497515362069372, -0.5282483106363636, 1.456277986167698, -1.1079267983377228, 0.3470118510965589, 1.7514688547758417, -1.9432927891655831, 0.7465897828603648, 0.3985607386658014, 1.575644692049096, -1.1807922993410782, -0.8940219537053582, 0.455801973044053, -1.0418364693353128, -1.0124582933867454, -0.7262224862217909, 0.26270081913802834, -0.2813619626139104, 1.8967787653931576, -0.9633541108868598, 0.24352094559179432, 1.528716402306308, 0.4902505692857809, 1.5080795742579391, -0.7713384036269924, -0.36560239439254943, -1.788580270674654, -0.630309299468158, -0.534741135504379, -0.9327575083942232, 1.0875326988425857, 1.411258269743359, -0.6827467650147993, -1.4033883214221625, -1.4553803101812435, 1.918029817527099, -0.83796522612483, -1.9563430890673026, 1.5861239965210674, 1.9455101807390358, -1.0328194622909874, -0.6498040868795368, 1.6237963542697345, 0.9605295248672999, -0.5813201111480225, -1.3534607738897162, 1.640628426605087, -1.3665458234985555, 1.6189089533626846, -0.6677781813690754, -0.6425312884685344, -1.5814076533282018, 1.642377896073116, -1.2936137025723249, -0.8199422131867071, 1.6185942809393987, -0.3555243396507745, 0.5608677896396058, 1.528457672337828, -1.597255522691979, 0.24951498035337158, 0.38477907449559323, -1.957233475166312, 1.2515919451224218, 1.1325227283263095, -1.3689505659446826, -1.0314581257503668, -1.753625690296329, -0.5184538042499, 0.014884678231583076, 0.6893501744892809, 1.2003465076229118, 0.8321791409711334, -1.0003076828807878, -0.8093644488015713, 1.9030037292599866, 0.2207078684823327, 1.9340739010234453, 0.7645737470676779, -0.05046495391357775, -1.6770961122180055, -0.3221021353316961, -1.3481660605261583, -0.8815287982512098, -0.8828988641555223, -0.1776485972228231, 1.6387100789176499, -1.6972379091110728, -0.31186453230133304, -1.8116929556200034, -1.8288936405776193, 0.5334868649025666, -1.2706751672003733, -1.0386840866291804, 1.9646508855049596, 1.1451610768733158, 1.275980864810506, -1.028391806734151, -0.9158176244926834, 1.3698587086377316, -1.1781119668379225, 0.8940863936669305, -0.49748263097625406, 0.7406258795493469, 1.623626471489797, 1.1243855209032958, 0.16110305324211627, 1.569901733019912, 0.9054220503027566, 0.19213297925347772, 1.20852358254682, -0.4891113176995668, 1.5902622427359898, -1.4400147148877798, -0.4299055746430433, -0.5366367678627336, -1.3817575566573286, 0.9432427900158997, -0.044298559079798704, 0.10207837036965967, -1.2721761395985278, 1.0952861961724103, 0.5243376823452344, -0.8963567794251744, 0.8182100217375753, -1.144491453429401, -1.0255767784208805, -0.9149567916138454, -1.6746260179882229, -0.7584719320785518, -0.0756887568182385, 0.6466605063037233, 0.9818890437923018, -0.3074467578013653, 0.4920772835916627, 1.8519651181312757, 1.4381168378409108, -0.9137594972969838, 0.6165023878857611, -0.885900718465624, 1.9747699251201603, -0.8873006193848837, 1.580530474958443, -1.5532078487131018, 0.043366944988164305, -1.8425070512008763, -0.0881862568495918, 0.9232682758042021, -1.6798396004729814, 0.8861375519512384, -1.866276704092251, 1.9857430125635003, 0.7746918963541501, -1.3509826894221089, -1.7412590295695338, -0.9491186253025363, -0.3706863673532569, -0.005015597902715426, 1.948679709739003, -1.5940388583400822, 0.02763341033742872, -0.2545872928991888, -0.8986526424230319, 1.0930261569621522, 0.5637221031806812, 1.2367339156897392, 1.4666153763330882, 0.2707134943925924, -0.5157750666811665, -0.1481806151363193, 0.5745045538711638, -0.37169454489759096, 1.8741016033257218, 1.6857300881785484, -1.3388577661863879, 1.4330601198140032, 1.7728413969532015, -0.7043552522756688, -0.05558063356852303, 1.3805884817572833, -0.9407791282545084, -0.952502168274495, -0.6003850992284891, -1.1093479955200076, 0.7143534449082558, 1.8554410333580464, -0.4367827870418024, 0.18867876684822615, 1.7735365770858187, 1.6865381371482329], [-0.19598594881790987, 1.6022745584382494, -0.8476518320191215, -0.1346699764017023, -1.1440551122464222, -1.5266911871962083, -1.5209023954459182, -0.07065251668311312, 1.4251618862750046, -0.633967840925628, -0.207054737466986, 0.5453281394560268, -0.36265349684207693, 1.4177002754636931, -0.9006491240374785, 1.6999420566712387, 1.7737945278977616, -1.5745058670548158, 1.5270184216098848, -1.9127134186617605, -0.22991981180324483, 1.2950832709310687, -0.7797654872666455, -0.1577472952786736, 1.5180722947055578, 1.5871591766028623, 0.8710535890754856, 1.591796152820872, 0.826951951089363, 0.563126937992076, -1.4533000480749623, -0.17901529279618877, 0.17224472802448387, -1.1402532235149607, -0.866786687783327, 0.04675229068669732, -1.0535647972700741, -0.23419844463338554, -1.256596822533818, 0.012688520807333467, -0.12346943871923376, -0.09812103811771092, 0.730390881581592, 1.5833503475212591, -0.9226991164021476, 0.0076173579091481656, -1.0236377729132604, -1.3003513211242042, 1.101325341092769, -0.7403416557426378, -1.2561518997304515, 1.0865691762663965, 0.8372239462128337, -1.3393635300479851, 1.2585107978080239, -0.7479298991723375, 0.7352426526112668, -1.264929992726251, 1.292631404029245, -0.7715586573948081, 1.1778048640335648, 0.7008338165941309, -0.16958428274953816, -0.27454022181929116, -0.875805042226252, -1.9020140533390053, 1.4859848896416372, -0.14074650871791167, -0.66725884952941, 1.5815443548646493, -1.1821717839262873, -1.5679216215341965, -1.4013474859984665, -0.4508931173404373, 1.956314702671037, -0.03758137564528824, -0.19747403953952067, -1.3716445036718727, 1.3431987842001791, 0.6839712730782231, -1.4048563910168477, 0.46134090045340265, 1.3011768854898493, 0.9141595600426231, 1.6225843178210573, -1.4804669776357482, -0.8272428937273084, -1.6635629081451726, -1.8936517756084965, -1.321009896033591, -1.8414545185266826, -1.8361475580011508, -1.9971609778354926, -0.9379621577283727, 0.20653616444788073, 0.4727195837871079, 1.1345065540555541, -0.5860622357822435, -0.15335163833967516, -1.4034524199894398, 1.3459995426908178, 1.8402302196348872, 0.3013837005663232, 0.030102184028085753, 1.694014180986874, -1.8631439711572901, 1.230213851207748, -1.6230341398215988, 1.6333123955385873, 0.35678371239227563, -1.3476924828126564, 0.2461799732247849, -0.14468062288936734, 0.5588928938767124, -1.619299501382233, -1.6646910230149932, 1.686697756715697, 1.6351743603542477, 0.3472832557382091, -1.5311570611078862, -1.9820190421857729, -0.4822929727819851, -1.5144397363740651, 1.6388329080863808, 1.0411239235191951, -0.007497780715111646, 1.0810972946313915, -1.0454489214348563, -0.9597281877973338, 0.806998040245519, -1.7531238183815399, 1.7323246044697835, -1.9683812074075757, 0.7465381429511619, -0.950961829994955, 0.8553080479670891, 0.872102860519611, -0.2717061503401166, -1.1905577550822473, 1.1928602263128707, -1.8102295685783432, 0.5552212494319968, 1.1182632863161308, 0.9476526564569286, -1.6319785168401597, -1.7299305320282574, -1.9915299804486257, 1.4928942520961397, 0.15253746750146377, 1.0382679394742322, 0.49768798213993676, -0.3348661807751087, 0.003216670177796771, -1.5944341956688428, -0.3827128283343491, 0.22839410975476415, 1.6606722335149875, -0.4255966154384187, -0.33669190017974976, -1.064735128491795, -1.7385824903915565, 0.44572356873849267, 0.7288712778268879, 1.5722420798414876, 0.3246205926373163, 1.559734874952599, 0.7952479880122514, -1.3949964028318813, -0.7641409643707799, -0.5960121130117284, 1.1874077251305994, 1.0355975900684684, 1.108458145092869, -1.039153858183623, 1.6023292736912025, -1.7290786168076757, -0.7816234518299905, -0.018669738376696103, 0.24375954091219718, -0.6930632531798588, 1.986991169129571, -0.5304876326627234, 0.5954463405191023, 1.2268166839447487, 1.000952586335139, -1.6132658433386884, -1.4436783546834584, -1.9297690973604795, -1.1913436194507174, 1.076070105033651, 0.6307150021904431, 0.4973775904455139, -1.936246446096898, -0.14414557407006157, -0.891825230928318, -1.492781970224714, -1.9946000412759028, 0.08885883407932763, 0.8182416430592048, -0.7637934578854224, 1.8053039045375954, 0.9838504588494328, 1.9502418328680962, -0.8598608694857928, 0.041224665699807976, -0.6049875320539478, -0.6925506506220592, -0.36374279255365427, 1.5763223481126936, -1.5417770197959626, -0.7062369285813129, 1.3526522503526546, 1.1541291685549324, 1.3072634514260022, 1.6182995144063657, -0.9975630092902523, 1.1635565878816516, 1.3242091487585275, -1.9508952580331351, -1.9286267817994818, 0.9018792202936815, 1.2955117364034558, 1.1074949381815293, -1.9282444599373845, 0.22597733469233572, 1.1983199206827657, -0.5629103506942246, 1.2521372102528687, -1.402614497860233, 0.5035921721542391, -0.7393145948277113, -1.1931737322869036, -1.9101672941930419, -0.1723834130482298, -1.5665697042969708, 1.571487763807773, -1.795776349981819, 1.8771938218014679, 0.1283209559724188, -0.354546337561173, -1.4725953372397498, -0.11029047260845534, 1.60871164180726, 1.3635648528013933, -1.5685061999408556, -1.1038355885779298, -1.6578482548078497, -0.37442177118030484, 0.9661407705636516, 1.060055613393998, -1.9771668487472984, 0.9509514568212715, -1.7764494442617798, 0.8907979144555318, -0.5375190996786525, -0.8117095877197817, 0.43271595447033545, -0.7249685085488805, -1.9431226983403462, -0.32533259108753615, -1.1969257166270906, 1.2084961803099252, -1.8581013135985025, 0.2996268723971653, 1.4653412372355188, -1.028232374892343, 1.5271864580146552, 0.5966068131610995, 1.0952781640656737, -0.5363247839747699, 0.6887793578646996, 1.726308786798482, 1.5577440261842899, 0.3144647705985574, 1.9826093135904477, 1.6411413370429575, -0.8849573294243189, -1.6662825226718498, 1.9777950849184267, 1.0789754176002229, 0.156438390996282, 1.236985895786109, -1.9670246540297651, 0.46903600145463475, -1.110892885630436, 1.7710873520426365, -0.4693807024533826, -1.1426505394599584, 1.0075640276381155, -1.791783570140394, -1.679567448106173, -1.64139669141577, -0.2846328086668521, 0.15272564156458626, -1.689545966441738, 1.0119966052146852, 0.8918932086881612, 0.8414803152492707, 1.4116136964372283, 0.9041946574718078, 1.5404577674700968, 0.06504128906684113, -0.8660571529564447, -1.963157693298265, -0.09049100846208523, -0.266177093319713, -1.276658905035044, -0.37162796372398255, 0.2480126869268212, -1.5974959161292863, -1.8325615202048804, -1.1629670258150817, 0.2233860153936869, 0.14071916264897744, 1.5717398220132526, -1.7565709095774795, -1.97672674625738, 1.0653404509449729, 1.641798315601272, 1.9823013781759204, 0.9494653193416347, -1.6915259017664577, 0.7595266763450353, 0.2823612284417093, 0.826558324535184, -1.3699200620108638, 1.5765355820716562, -0.09727775389595014, 1.008292799278561, -0.6869472878746107, -1.18724135465219, -0.09566851168339095, 1.2142261729955657, -0.3871083939203757, -0.897955929489018, -0.435977252719001, 1.8881999676872752, -0.7550143207278529, 0.7687136211852025, -1.197263654515895, 1.9108334047553175, -1.225827468467929, 0.2640892211309049, 1.5238456326553602, 1.1513737716990227, -0.5019145898857522, -1.5587737865533404, 1.4222567797708443, -1.9143433349958696, 1.3970433476931106, 1.6507702687455488, -0.67879533241934, 1.621398233322188, 1.6046500778175414, -0.12530280263712992, -1.261950977345175, -1.2648699682744093, 1.8412596231960492, -1.7057654617226548, 0.5356691886693825, -1.9699247246117582, 0.43134496307923964, 0.2344165329050548, 0.9845689921004245, -1.1336030144599833, -0.8589800083644988, -1.6084864301538329, 1.3480214531176498, 1.445984005068543, 1.83964470605508, -0.8161361786110636, -1.0333767072648254, 0.5413664505702551, -0.053717894349319874, -1.8651906339794622, 1.6353016636004751, -0.2292277847138617, -0.17112802673628055, -0.1988429701254703, 0.6852976354135574, 0.44136612010497467, -1.673020096221248, -0.2535187360072634, 0.345576725791025, -1.7840356450408457, 1.9624019190761355, -1.6998115458277354, -1.5641415008817097, 0.016655945314521695, 1.0089820771522868, -0.3309072743278013, -1.2786774676131556, -1.5022252816291948, 1.4907469950668615, 1.837058838357958, -0.16823883338658316, -1.6767422276588868, -0.432485372673939, -1.342633848169939, -1.2512849762886054, -1.9368499098846703, 1.5968695123173016, 1.1247542750742594, -1.9316470159081143, 1.3000849500311344, 1.42928776440963, 1.130844881166194, -0.925753577428154, -1.6798368825098497, -0.03183096683564358, 0.2867698314053868, -1.8404807425622947, 0.9408202089668167, -1.2191898219861994, -0.6981235170441463, 1.5585952920141626, 1.9223048425850184, 0.07697882878291187, 1.7424459577453935, -0.26249806902092543, -0.3727425889032432, -1.6169103448238276, -0.1037681849622894, 1.3780354346660217, 0.9214532664532673, 1.9594335398799279, -1.6619376455436257, 0.7401675639395943, 1.4956675191803996, -1.1294890920762357, -1.7057578589939417, -1.8404514960719638, 0.06838406909023635, -1.7219842196647162, -0.5539044941605763, -1.6737334887004829, -0.4915760543744049, 1.639629788884742, 0.11552877584219166, 1.6993063298858027, -1.2775653243497156, -1.5752130877421537, -0.3925675994679554, 0.8948824268150776, -1.2874548591570891, -1.4741313544792787, -1.9009624068381026, 0.34992532132748394, 1.818897313580211, -0.09846170480943671, -1.909641473375982, 0.8832986234475172, -1.1098897186206795, -1.3930720150348943, 1.8943587816473124, -0.855128539771975, -0.149337592187126, 0.6694805506028859, -0.4338845080080354, 0.18807271293590225, -1.7702869118941464, 0.6836218757519498, 1.6492944004392738, 1.8902075437679744, -1.3919013942582277, 1.8980044467814383, -1.3833004737758758, -1.2292855465435595, 0.2650300443053341, -1.5955026849520866, 0.26129019557083444, 0.9604975021250706, 0.7463203206422678, 0.5305467508221583, -0.3865098905121532, 0.08556688860364986, -0.7758018149905404, 1.4539207145270385, 0.5175149622134992, 1.1826298542523175, -0.2838917104770888, 0.7638854990412344, 1.1606229147854061, -0.5073095620317841, -1.478572292961747, -1.1797332413058836, 1.1857081305393475, -1.390201294002689, -1.542477324760003, 0.7454448778266997, 1.3952301532041127, 0.9249157468577561, -1.7220164802072007, -0.23151924447402866, -1.5954066802289413, -0.4862051419063253, 0.3483196961067685, 1.9348403399399665, 0.021661497507404714, -1.7921025540779267, -0.8777999041962603, 0.08141696870729849, -1.4779043433835117, 1.3098874661945845, 1.9514039094613858, 0.6226949693772581, -1.4219372123377947, -0.1652003684769704, -0.4180654332056354, -1.5754789142277803, 1.8791808527645033, -1.7614581326425134, -0.28430487524200426, 1.784916326400316, -0.3698797316895896, -1.259009095717412, -1.515545129474601, -1.6770002236137571, 1.3520616214430679, -0.5600094628199761, 1.9000348153308617, -0.667312083328865, -1.6071080401712967, -1.1527523538706241, 0.9153390247433525, 1.4593914281882676, -0.984199992519521, 0.5193529787164887, -0.3362279313703865, 0.551425627273688, 1.9279428807957228, -0.4294318996931692, 0.29710518356385274, 1.7400404307109247, 1.1453609299903704, 0.8357170700174129, -1.4687513943718156, 1.4951440565371177, -0.5688898096036034, 1.3613605780978364, -1.0928675858335009, -0.011982948398298202, -0.15964721946567687, 1.638669130463772, 1.1095122582363224, 1.261516220283115, 1.2365008982854448, 1.5919323107075638, 0.06572459287635884, -1.9933034881096283, 0.08052359821213208, 0.18181184152787624, -0.4131884892978816, -1.1935307982412942, 0.4104311500354316, 0.3509021185246889, -0.9245561728179995, 1.827574916524081, -0.11171476406374659, -1.6170439363442777, -0.88936796082481, -0.2474273375307589, 0.38181023340677794, -0.6804586000718379, 1.7733891938270125, 0.35625240065029634, -1.1715530920012578, 0.6910280425011811, 0.8954448183448281, -1.9567799653966407, 0.1303654103081122, -0.7478735946852699, 1.2411221981066867, 0.467584554597355, -1.7788764632644245, 1.7907454653539019, -0.0799866614448089, 0.1405094774374869, -1.204461919858225, 0.06231842905884451, 1.176619093897944, 1.2628734686866803, 0.28601431514138403, -0.6601736605023752, -1.19202457837876, 1.1669965305612573, 1.8399853068661813, 0.686372392439504, 1.7458203244160067, 0.008212447855455503, 0.10430463262395596, 1.5096827023727268, -0.739607829589456, -1.0461468408533328, 1.9607833028825852, -0.8955034069109141, -0.21093636254298484, 0.698707831691462, 1.4148747851052592, 1.777074341971924, 0.5046733941624256, 0.986382131059158, 1.2816122748992385, 0.6830220007859431, -0.5405458576674369, 0.8549095650854764, -1.7266443154209972, 1.6634606874736457, 0.5828001660495407, -1.7238667420374383, -1.3213736435019388, -1.1800355304617862, 1.217359380478285, -1.9069810369273004, -1.5354922126738022, 0.4827922546159655, 1.928714056390936, 1.8338428951787296, 1.159581387579525, -0.45587565601532803, -1.7677660849741552, -0.2512348329860539, 0.5184437969189111, 0.8315263562560186, 1.6394309356747008, -0.870394730343983, 1.0298741242869256, -0.8147001909207532, 0.7225239983739561, 0.41370140713683706, -1.4284618547878916, 0.9649205209646791, -1.0934614599008807, -0.7463750890514039, 1.7442913641708837, 1.1031775827808477, 0.8256139083570367, 0.08684506933523571, -1.324183607887238, -0.7554788205882912, 0.44342057407486646, 1.4002484846502807, -1.523132332923409, -0.0204989363337635, 1.1058995170126567, 1.1045703573926495, 1.0576471215974812, 0.44681265341016535, 1.5359404056022024, -1.9030015946640482, -0.3131554294794193, -1.1326887868015023, -0.44092729729926633, 0.14138545646296616, 0.5288278727359894, -1.617491356141268, -0.45812865637697153, 1.3244786990003787, -1.4123163662644254, -0.11823764091180744, -1.8458789806371612, -1.712111100022917, 0.6276183257301595, -0.45817602208889174, -1.913719244429976, 1.8897980507893042, -0.9706106864141497, -0.3426339066045193, 1.402180075304818, 0.689867690133986, 1.618836959114759, 0.08150697997597378, 0.9607319027670433, -0.345720816353122, -0.287992158937638, 1.945507341128107, 0.11126614544374216, 0.13264899926910978, 1.2626612595007145, -0.006174046072862379, 0.09012276021828353, -0.010937310128970923, 1.0236731756394561, 0.3700738144839065, 0.955861068588007, -1.2508786708316821, 1.212905601278513, 1.5790838215457912, -0.19070945906542647, -0.6135108563323578, -1.207646405011879, -0.8966039773049549, 1.2610194486826598, -1.3927766378635882, -0.39135053516132684, 0.9055135656332511, -1.8458600913562013, 1.780857111118268, 0.27527426888784273, -1.4858559315678868, 0.344436065805954, -0.9254731671206344, 1.787790120388049, -1.6506438522260733, -0.3814516408600716, 0.5915860986122408, 1.8907865868691494, -1.3183020069830795, 1.985962548094501, -1.2664289471630097, 1.68862777182668, -1.8660909327195057, -1.943936843286064, 0.27686156016361796, 0.5879204144844276, -1.0313389568523816, 1.0597269433157597, 1.056119107412787, -0.3251736098748048, 1.521018105320807, 1.8766059810136237, 1.9837368842247043, -1.4324822770799823, 0.02867680618375836, -1.569616225792363, -0.5549236335548204, -0.30073235220992134, 0.0027553343653368145, -0.6977179734105179, 1.2492904275033623, -0.7466497954979001, -0.927514163355954, 1.4573421397204875, -0.3884430185513439, -0.6701273108974872, -1.2097121951431191, -1.5079379356570228, -0.612246429009578, -1.5190662051757484, -1.0960622910712283, 1.8171216452753722, 1.7933346791786748, 0.9150638373931912, -0.8822535301941365, 0.2924123836851951, 1.785253896131469, -1.549319935671972, -1.9535880434635975, -0.33329323586465265, -1.945555964203811, 0.7815111853837611, -0.5863646609735804, -1.2140528000231119, -1.7776553093824512, -1.3598370200993486, 0.9266947643698669, 0.02680321397621599, -1.3612892396898717, -1.0585373477063276, 0.45147141368746135, -0.6163455785596401, -1.2718037226692993, 0.6530608019771783, 1.902091150927652, -0.18904310087066045, -1.494693039215212, 0.1720442978665252, 0.7136991456329689, 0.7491206028356896, 1.6129819679721846, -1.8613510940449158, -0.12574520794331576, 1.1468366726261343, 1.8419243286109643, 0.3932193732144058, -1.1125216047943343, 1.5017067940060995, 1.6990597812854797, 1.2480281952663819, 0.18842102298636298, 0.5828482952389433, -0.5184095228374073, 1.4304124787341679, 0.5291420581716682], [0.8989792647273478, -1.8649064660533807, -1.663309826504169, 0.571370182251381, -1.5287109274826651, -0.0087848705797553, 1.446972798308816, 0.05488493128747729, 1.7475584824553922, -0.19229223677609308, 1.9080555115338282, 1.7167964764294568, 1.8645991919770972, 1.9795020243831296, -0.6281609593012409, 1.869837452700222, 1.6662385249732292, 1.838949536982438, 0.06431168385886643, -1.7871485549031894, -0.3063932125851223, -0.2628260742860329, 1.7807958605473617, -1.7347329987608808, 0.13086889772285693, -1.962893124939408, -0.37805367609079266, -1.7160890283282462, 1.9604590735585394, 0.2674779839288721, 0.908830403471562, 0.2898666551577831, -1.707212415814233, 1.3403951075639973, 1.5699594173377607, 0.2510805512815774, 0.3795388957340797, -0.39364233450740904, 1.0119509803401958, 1.1759561927077757, 0.7943076960445652, -0.967151555771067, 0.06481448764045503, -0.7029824500962673, -0.4012667297308577, -0.9700674399151019, -0.22202457606194886, 0.6545137503982987, -1.9002258769103704, 1.8917458248752717, 1.163235713449782, 0.6897541561851868, 0.2583484169638508, -0.055893409036241515, 1.7644158707567588, -1.2188818737430531, -1.4051673796475277, 0.28554086564926573, 1.5735587150667965, 0.8933335449703006, 0.5988900162252009, -1.7915913403523838, 1.1433246054771857, 0.5346685923012366, -1.857660071718771, -0.09645828334242791, 0.1736743099496853, -0.0942471366157386, -0.43591165390011255, -1.3437387925750146, -0.8389086243205987, -0.8874408589684029, 0.7855250221563521, -0.24867205773679044, 1.9308202371316587, -0.119801177512918, 0.3510168502368668, -1.107330058506321, -0.45569311768542065, -1.7394841557495784, 1.6479687128069906, -0.7793522445557124, 0.1687936069561493, 0.5701098930686443, -1.0363424234801535, -1.9712958096773812, -0.00762825062608659, 0.6586987188404637, -1.992471006395406, 0.6312616064350424, -1.6146654908278861, -0.08215494179703219, 0.8206020866921605, 1.04829623912261, -0.7370777804905942, 1.9103289401765218, -1.5947165732460566, 1.5589774797694773, 0.7827260391485539, -1.4729481071214452, 1.7972469142667162, 0.8749954421511535, 1.178225001504129, -1.7377236503601028, -1.7770658318567192, 0.8100967219976616, -0.48717536877453005, 1.5345982528438276, 1.6514326538872104, 1.0149671712803048, 0.8182375011136336, 1.1104328419058707, 1.632949326066242, -1.6655800207234444, -0.4997228144505393, -1.639946855122078, -0.18270724320486795, 0.11075148296289532, 1.8526888606704794, 1.7215194390124606, 0.8599172845009236, 1.2177314336095806, -0.43172272091026725, 0.5432666739429238, 0.9569973923259688, -1.8021550988044928, -0.3501860497530211, -1.0247118936841473, 0.8956659913704275, 0.7776719944156496, -0.5645798773382121, 1.2067385768503092, -1.9482063692543072, 0.2504949660185363, -0.41512222385641595, 1.7279175066542387, -1.7895032991167636, -1.3434679582710736, 0.4258534158635442, 1.3646711728849503, 0.11430296428036923, 0.8610718582684331, 1.6444302956041443, -1.0032456116488015, -0.27698302965719157, -1.515176083477678, 0.023549300471706842, -1.412530785355836, 0.1409715149723974, -0.37086838415929824, 1.7441283604051478, -0.8998777568608382, 0.5123136763627025, -1.7536784672666828, -0.8973735614239994, -1.6381406613450116, 1.43970580265764, -0.23149036923754435, 1.8781544625217506, -0.6084822166620094, -1.9957902628033666, -0.7594250316015363, -1.325394778902256, 0.7558109513662079, 0.8704370950398775, 0.5686808920830423, 0.2454279522739696, -1.3986527463643113, -0.4326891359110463, -0.6945191771414203, -0.9442952440857245, -1.4414913448710787, 1.4923091752016082, 0.3220757378496675, -0.2686457703017558, 0.3699104491232463, -0.06306099805206074, -0.2662536549796423, -1.7360299622235167, -1.0517846552432246, 0.4928457906073597, -1.8930860492291461, -1.2786775431618973, 0.9436059976957389, 1.5643244459928578, 1.1325013410038023, -0.4945873669865427, 1.2847408332864199, -0.8560161143812887, 1.8691412754048764, -0.7590480820156934, -1.265837270607, 0.6077159599411455, -0.15056046241405593, -0.6820199678114086, 0.507433090565086, 1.5501593087210899, -0.11369918251681578, 1.4172783564291846, 1.7032792061466993, -0.26880930456745555, -1.8214593871926126, 0.07647763998058381, -0.4427332525910393, -1.8867236799006646, -0.9456463904355947, -0.29974285989344335, 1.8656015628818836, -1.241892876855225, 1.1784432192208343, -1.2201911222518873, 1.8045209260424175, -1.7986264466235184, -1.468551403947518, 1.9200375504689127, -1.7415461356132047, 1.6780856172068086, -1.1713890474650088, 0.3171203685254381, -0.7710379409389605, -0.5669171366239042, 0.5500850720900541, -0.8512320502924751, -0.5126507562402857, 1.8432951023926425, -0.16432170005451535, 0.38940209319572316, -0.08942283109486637, 1.5678825582091689, 0.12491708748511146, -0.21072887210815794, 1.222807095313604, -1.8880462016831496, -1.02535838387405, 0.9243475287688862, 1.2280990072516351, -1.9800042879420607, -0.8060508301221684, 0.5483951137953116, -1.1698295390953155, 0.38519969083459826, -0.6748903538668235, -0.5961603660476651, 0.7596077881691443, -0.7784082851438053, -1.6529488762589848, 1.8270872269559, -1.3534212294306651, -1.4311831675612896, -0.8853897855609902, -1.6473368714790173, 0.9194697698593647, -1.0801870914895444, 0.34218267481435055, 1.0930683818799327, 1.5089569915489676, 0.9655425698674139, -1.500578391344898, -0.7809304046718597, 1.5392527663549915, 0.20845083511846293, 0.6437789690872899, -0.5720788564526077, -0.3819994441652982, 0.5215412464204587, -0.6171667049105801, 0.004876278117554186, -1.5121284919694047, -0.3145869094308602, -0.9892122695829322, -1.1152471825363266, 1.7012998090709373, -1.092055563343578, -1.6318697981914467, 1.7347609214952338, -0.6203133606274779, 0.8487577312258848, -0.882410313318796, 0.029815940734033763, 1.498156683455508, -1.9105095589770356, -1.9865825065290066, -0.22966266390377413, -1.6362727545474403, -1.6336197433173472, 0.58884962072672, 1.0091155751547964, 0.6285978942098243, 0.36664940223903186, -0.11250393749929014, -1.7180089590443364, -0.45485257953062075, 1.9717346190142593, -1.2048672857037908, -1.1208613226244166, 1.8685505078835742, -0.7036767263945927, -1.8975359940387155, -0.660159028427999, -0.15581985555360808, -0.8619149213106388, -1.2536677758770491, 1.10710727317033, 0.1698378797136734, -0.40175352829915645, 0.38669725961817397, -0.6962634025589404, 1.890453156848966, -1.8806823519154656, 1.5112834323681748, 1.7502928313238062, -0.9445298531924582, 1.606247451083777, -0.49780516404085756, 0.02272516298422688, -0.2749856403599393, 1.979247405407212, 1.096521886625926, -1.5670242709779476, 1.2713921517030098, 1.943190824297063, -1.4530609901170615, -0.8982887933387388, 0.834443053396192, -0.8752876534649778, 0.36288685887131167, 0.9213888344149275, -1.5487461413291106, 0.18688689533359187, -0.5479038738448824, 0.8872041100035765, 0.8529469754541333, -1.8883445379335857, -1.7574753202294675, 0.5553673637782363, -0.8661694183053017, -1.786033095727078, 0.17394313856877974, 0.3428054729396861, 1.5702179341961948, -0.8106879750327337, 1.2939481912234292, 1.8132971591816553, -1.619061320366308, 1.310410265213495, -0.9800898338180062, -0.5399007152649634, -1.6994404411906263, 0.9418607622369848, 0.813025976637244, 0.8128394117642925, 0.8893326701205363, 1.9468703591486698, 0.6897023491561074, -0.27168812539588755, 0.2516391426673362, 0.3083504386860044, -0.6923028002297845, 1.7223344867306174, 1.6297128422417158, 1.7104342318454482, -1.605842542667696, 0.5092254339467169, -1.5974129187896482, -0.6144941514706124, 1.0343845460490966, -0.7970292128679825, 1.2029598275818867, 1.6579623281839768, 1.4712718960199413, -1.4486364731081691, -0.3897284678375636, -0.3326267173010507, 1.8693943641925048, -0.49727630374226756, 0.3328964536299985, 1.7618028596261268, -0.8337557121098088, -0.20196377434527008, 0.8650040158062097, -0.8671365943425315, -1.8875450393351247, -1.748249975143128, -1.8638077217756055, -1.679150685622922, -1.3774796820554895, -0.8501334079917503, -0.25814702517080923, -1.2766422322063649, 0.9768060890774678, 0.43370099512069077, 0.04579076595806616, -1.6084605365005977, -1.696572616745114, -1.3664478713833648, -1.531451009986362, 0.8684266321631676, 0.7060652106520647, 0.7627969067333369, 0.4339267322253218, 0.9782058925778135, 1.5325437491981186, -1.4309122237645204, 1.4690099324557397, 0.7227721257162716, 0.021384843349310075, -0.5902887801840457, -1.9956375759299583, -1.6387311459113154, 1.7998119448991567, -1.6537888362777482, -0.2850233510585031, -1.6477110010882594, -1.201455752957485, 0.8092399382242572, -1.998122193033721, -0.6451437193293028, -0.69300509007544, -1.1397922615472744, -0.39972634250879757, -0.9906764156241885, -1.184555381199372, -0.2169528356246295, 0.9897486034168917, -1.7087513962391732, 0.3808745445449415, 1.1036255014420568, -0.991464048057085, 1.8234478369206064, 0.7223404006659563, -0.6995888063051494, -0.3344974383661693, 1.3469082121325109, -0.8173313561855138, -1.9408203593320632, -1.0829608389487664, -1.9739759371911458, 1.7878373345756975, 0.7500536718127687, -1.4753504862501017, 1.8712345222441102, -0.984001652727554, -0.0911468828840119, 1.6551267781535581, 1.8476022025101626, -0.8599840460171333, 0.5901548232011355, 0.40440090602739454, 0.9806467344208589, 1.9365805052652596, 0.8158175623381974, 1.7517688524839743, 0.7764785928250785, 0.03832414159362855, -1.6505656755811013, 1.648186356154223, -1.055024620907476, 1.4042046959383332, -1.516211034220857, -0.1210549948010779, 1.2355854091423912, -0.8045291833684722, -1.5518170526618202, -1.3448895973853998, -1.3120355402637431, 1.826286249468318, 0.2980575829359176, 1.8054985662970529, -1.1516683755162422, -1.2732506102644146, 1.6232777340464146, -0.7243856211110511, -0.8984923154876598, 0.5268562629308244, -1.347517775787555, -0.6660827038012659, -0.9011487958478344, 1.883886540295625, 0.8920179745104737, -0.1346693633437203, -0.6044440642808689, 0.5853326635747268, -0.0828665855558097, -1.5224400508688896, 1.9603953508186742, 0.02757080465645654, 0.4274927181218699, 0.6922695322307953, -0.19273906200314855, -0.33608251246478543, -0.6740099820072171, 1.4787426694310697, 0.5298215881349829, 0.744668461603226, -1.6676117351021824, -1.1389108807447155, -0.9952431607155864, 1.236469228928214, -0.9269843939345934, -0.4196851106373827, 0.24204638948164706, -0.7164550887612496, -0.14253069500363905, 0.5408004513685871, -0.3317293487088784, -1.840097501830212, -0.8735546877664867, -1.8454455153633331, 1.4761965106805683, -1.9982146822842293, -1.7280206220124001, -1.8398107833853863, -0.6922170561899513, 1.5612980187876602, -0.8968433727045443, -0.29620117352404, -1.9078569123599103, 1.9688664645677394, -0.2000240630711666, 1.6414245437585593, -1.100164899075272, -1.5427882936617996, 1.0402732775089225, 1.4446929022927415, 0.09881203396929235, 0.06020350095836846, 1.573561168307504, -1.9871981923939486, 1.3933631333254475, -1.3736110034486142, 1.6793869703295807, 0.5098722565401594, -0.5053953450054056, -0.3539775246036592, -1.744690960042681, -1.5536602646150566, -1.7738441907685, 0.04696908012321991, 0.7484793181023969, 0.60623302748414, -0.6155306167274955, 0.8581373938160594, 1.3756950476895398, -1.3103877666031378, -0.9781959576232845, -1.5650228406354292, -1.6392658291283344, 0.6801887700381685, -1.5157173590265471, 0.5927850856844292, -0.6715556945861388, 1.8587305718345726, -1.6410883583990599, 1.2885385084496954, 1.8301106609495494, 1.5261523709143825, -0.5816748014529319, 0.9118303971412991, 0.14573099998643319, -1.7481056551626533, -1.6948045939699194, 1.2884136084602662, -1.7088541439393252, 1.7876566389895443, 0.12438555898685348, 0.5400284774932944, -1.1956969620554085, -0.05071641000403452, 0.9147002038450871, 0.8195651912831825, 1.0197212608623676, 0.9059352046040633, 1.2260048932526044, 0.4997391909445225, 1.3016342306290534, -0.18968594273758785, -0.29700324272118134, -1.576378108922666, 0.17557117907461023, -0.14143064241165074, 1.5435621594611564, 1.3505815583795013, 0.0038532737531955233, -0.5814675850604759, -0.6089708742570333, -1.1866760001804362, -1.444115397312519, 1.1245537453340972, -1.2603967168652204, -0.9099858351357447, -1.351292135975376, -1.3388596016435728, -1.42239366611102, -1.9669861459518172, -1.1835345964442339, -0.3302589090047956, 1.6502649304201877, 1.128173659774542, -1.0965287113182447, -0.800902177610687, -0.6697540677700745, -0.9672234728573432, 0.0704525158861093, -0.4232251166268696, -1.4262022986607046, -1.968281495928963, -1.0470448841704265, 0.48125909464820327, 1.8340268016670291, 1.9355930646197315, 1.098727211638657, 0.9038289674617226, -1.307075167138617, 0.3735300581764594, 0.9909620980095151, 0.04515850762577607, 0.06472002118873849, -0.5447773699182566, -1.5901875295447474, 0.570741500921893, 0.2795248071200956, 1.021156983395161, -1.5466975599969441, -1.617636619598153, -0.2576592894951072, 0.6038245043581554, -0.7617714280930034, -0.3594581452832432, 1.6930505884210165, 1.3665019537329963, -0.45095399829646765, -0.9126868606119024, 0.9976813346106809, -0.6273624688993902, -0.5874928715374712, 1.905462575255298, -1.307832504594724, -0.47988604918152233, 1.1572686158134, -0.20756535734683043, -0.5488248532538209, -0.047640293689779546, -0.38292227490927677, 1.1891211964350046, -0.11231036383525339, -0.2803987241799275, 0.03725400560761608, -1.368297733326976, -1.0088628901679693, 0.46200281745816335, -1.2718520621521836, -0.11833238463349571, 0.03445024296659854, -0.7883760987705122, 0.81758296992435, -1.755453249337064, -1.0690585321421626, -1.512101460296517, 0.0548677524144116, -0.5530507209677488, 0.16199667938914783, 1.944348016300213, -1.0095419200282358, -0.04874651591447388, -0.7683279800527739, 0.9305830276609192, 1.1548278520333726, 1.3606761802294958, 0.7539791983684784, 1.5488644192366807, 0.2030538270292369, -0.24638496486712658, 0.9460241758336183, -1.8420888468725605, 1.008211054201646, 1.4024876137382705, 1.3815144819855145, 1.8906185148942893, -0.915430328662236, -1.972338795669646, -1.3682676945478265, -1.773788711361838, -0.9456875497548004, 1.7788150732341084, -0.500177707967199, -1.1966500921718974, -1.8315930090721875, -1.8267944241056215, 1.006772155289537, -0.10506940209177525, -1.2354412554218377, 1.1436520387256133, -0.23998796617565685, 1.688195515264586, 1.1775524491933098, -0.3160000165502505, -0.03525891265041702, 1.0249074262606437, 0.8670602451910384, 1.8162085310426317, 1.766105216957036, 0.9738869012174605, -0.6700860564348008, -1.4115989296652112, 0.35951410860920474, -0.5393703457652486, 0.7787971747870842, -1.335457727152907, -0.9890919851751206, 1.019142243414814, -0.1712030349362198, -0.832539852396132, 0.045904964166344445, -1.8822346134150265, -1.8840858370709441, -0.07339201739452336, 0.6282754963415327, -0.8928448810467877, -0.9226874202317106, -1.068804465063498, 0.13256602424012562, 1.8548108129714553, 0.3657790914280068, -0.12530565513708128, -0.23571181274905842, 0.29345711573718414, 0.139870317943323, 1.0165435023309644, 0.7113488156840893, 0.6724640035444427, -1.8365225765730933, -0.9036296554110668, 1.7068281974844728, -0.2849970711944226, -1.6683026490121236, -1.8612829599605967, -0.6509730549829121, 1.6667321787841707, -1.2897219275559921, -1.8201910473452028, -1.8225252393907092, 1.6462355467288978, -0.9581494331626229, 1.3554806752000346, 0.5572235807723682, 1.2806119568143055, 1.0670794266572396, -0.4868885967527913, -0.006275652084487387, 1.1915912519062146, 1.414481604394012, -1.0868905237595181, -1.2638678565406924, -1.539048372023636, -1.4357261032875703, -1.187522715973155, 1.4055138381571317, 0.6919623104311827, 0.6317239362318898, -0.4629129392371465, 0.2406886402855304, -0.09103097424841514, -0.20649432702111103, -1.8885408059844584, -0.22518196656113804, -0.6122445386389115, 1.102986773054301, 0.5698991713845122, -0.8462309857039597, 1.8492361442936538, -1.201847537837651, 0.087488090237013, 0.4974444510924729, -0.047993297729552124, 0.43241286590291905, -1.7846662727359426, 0.5998046670310867, -0.2617700045263203, 1.336927825954545, -1.4416405004124089, 1.6599867462081845, -0.9061735587986224, 0.9313542213031059, 0.08761400433163802], [1.5006177666539404, -0.9518544555755657, 1.4856836787814602, 0.46355690110894665, -0.15999569862530683, -1.6496509340477026, -1.0947316541683891, 1.6534143142049964, -0.25049811271460287, 0.5365602738840534, 1.0267665199795597, 1.5384460693718482, 0.35021888534960915, 1.2801354175775512, -0.9569643364379615, -1.2340503337231579, -0.04045435743435366, 1.4799675516812418, 0.024163783822695795, -1.4550540504948586, 0.7184969925450053, 1.7424918592230587, -0.06127993694346445, 0.798134777241684, -0.6802638729531267, 1.9681572310124467, 0.20961602803799018, -0.2153148711407069, -0.45586125590464377, 0.45958072829000196, -1.0802672734670833, -1.416791765496431, 0.4515015652040506, -0.33783935549719324, -0.8214950171490972, 1.8013226127032649, 1.0783451777865494, 0.19199215894291058, 1.0400532298022225, -1.2013769594368233, 1.870824558710354, 0.08769217468088543, -1.8875158741017073, -1.5857794494643336, -1.4673897493253725, -0.7164994674067315, -0.9440930435248773, -0.9683811139509525, 0.73787557952063, -1.859105955611766, 1.8562397282428107, 0.15401076394774132, -1.5414565482070355, 1.4726205365655662, 1.508442806353067, 0.9204105525237769, 1.9946855901118004, -1.839124694723807, -1.3262474561366475, -0.6713349947877303, 0.03195902336692044, 0.9015303277306568, 1.3286539379711937, -1.716984525564143, -0.48590174920429047, 1.0544903574052114, -0.2689294596572368, 1.0407495374563487, -1.152921326334878, 0.2170122711031976, -1.119853277804409, 1.2201136842614428, 1.8448708336539712, -1.2832600307399753, 1.0839179998595911, 0.3678633864802211, -0.3099780539233011, -1.9329002891781057, 1.751571411255533, 1.9101422360179214, -0.9976873695175105, 0.9763006484522567, 0.9137589859624753, -1.9039652121914057, 0.6484212406713152, 0.9273884131315744, -0.1413779776301829, -0.923788641074086, 1.1166006526427978, -1.5905656221592412, 0.11020016210194475, 0.7739780056827115, 1.7879813329862144, -0.0026806814020256505, -0.6055518485218103, 1.6404704676487052, 0.052246076403087725, -0.21450006323456944, 1.5280403096823694, 1.6216782125692375, 1.9736056533317468, 0.09643211470892199, 1.4827661962151348, 0.6688591724320609, -1.852112590776239, -0.7111750478733797, -0.532857786779072, 0.8215933196984728, 0.9510561150473968, 1.604431137738225, 0.9604729399152238, 1.0779007408652763, 0.0025536381375350636, -1.3408277784759506, 0.20746345007060782, -1.7509677165170112, 1.8009687362662783, 0.23981073148600457, -1.9713501698913096, -1.9751395956269449, 1.0137860463530028, 0.0014786260059330904, 1.8050929018662902, 1.3587717083250703, -0.21093525026161086, 1.6472575359134378, 1.6001989497974287, 0.2740614759234917, -0.577889935190398, -0.323406550325592, -0.09138576731049641, -1.157444407615523, 0.43923445725080223, 1.1648819234081467, 1.4046660486896148, -1.3090350372374389, -1.0250376980853793, 0.6422648909976149, -1.1709750341253249, 1.0378532299736447, 0.6692551141400322, 1.53263337439674, -0.534762022058625, 1.0735226374731206, -1.6418791994753466, 0.6845224409217224, 1.6449730091543713, -1.1614476214692375, -0.028455146282716705, -0.1442241087514189, 0.7944618752112526, -0.2741100148314291, -1.2185568060085927, -0.6573199082117069, -0.9438856511715896, -0.04984365309598824, 0.37381815369371796, -1.8962811102474355, -0.10065516500715282, 1.395198819647503, 1.7179945439760371, 0.7987474071290788, -1.2169136278871997, -1.2838716424932508, 1.6955860877058253, -1.2671620735776272, 0.6486993804110514, 0.6520526432957394, 1.265857258430541, -1.4142449295490835, 1.1529801346114346, -0.442142575809378, -1.949653119426403, 0.43184965903362765, -1.8010919409586923, -0.5587145112704329, 1.8371876538939365, 0.05410485454613356, 0.24580828047264136, -0.7363020791933068, -1.0304425011966174, -1.5438436074775437, -0.34487677248873483, -0.6593023685079356, -1.8050955422178665, 0.5415785244282116, 0.035946711760907364, 1.6228446976771387, -0.11952515553503368, -1.4905060924746767, -1.2699846431008661, -0.7074336892380976, 1.4173693543726698, -1.304823255068109, -0.3640963510977423, 1.5552299820672493, -1.3299822341378187, -1.543919610896539, 1.1344676180089905, 1.6169965357329195, 0.029177644672168237, -1.3207709303111774, 0.9931916212101012, 1.5151757292612427, 0.2620351969541193, -0.3917230746164195, -1.357684268014446, 0.4197572594577614, -0.2391432493135188, -1.5878599017646498, -0.90763571936359, -1.8117758574938447, -1.3244353666334379, -0.09202200042710419, 1.9368998141834035, 0.09387240600719335, -1.463203524604284, -1.4155714355312627, -0.5374875120740372, -1.0965243457119032, 0.464162007160336, 0.5657802845982115, 1.4200967183892481, 0.16393940167213777, 0.7651978050998368, -1.8360409314573363, -0.6083001466587374, -1.8236093807018072, -0.46584384901804216, -1.0358589043675162, 1.6820691611491343, 1.9938489772529389, -0.9370272176088301, 1.3428230422511649, 0.18386630721965552, 0.3128780424439831, 0.7822671401957736, 0.34092384839306517, -1.9870328602570408, -0.5542227746181131, -0.6874372372675484, 1.7016269851209436, 0.5689453720047473, -0.44622476139863626, -0.7546528561227406, 1.5983989860535077, 0.7108048842219415, 0.2994928223033927, -0.8562370513196209, -1.5336750982635743, 1.9433468458064431, -0.08694472306385462, 0.3279667486564374, 1.506750985140743, -1.457335707150652, -1.1919417917834256, 1.8965863870461257, -1.065997140529289, -1.880222021625011, 1.6530013919136055, -1.5471383096497096, 0.251369386960796, -1.4143831709192507, 0.5630700893400368, 0.003787729119947314, -0.7884425232851267, 0.13509174628634907, 1.1198662127542955, -0.6133568305638678, -1.927862117490881, 0.7647022405699191, -1.823556957778445, 1.2318945274431579, 0.9848069408807169, -0.13494249989434698, -0.14948480189260552, -1.869986527170146, -0.6549903080566235, -0.6837975763261587, -0.627444970581058, -1.601816216558459, 1.8650212678214466, 1.361819030000276, 0.7353721150598425, -0.08375351993462432, -0.46916699118808997, 0.6444673019914159, 1.8436913445828558, 0.2390218793889616, 1.6906368875778226, -0.7691500425061661, -0.49401510754979566, 1.0935059381590662, 0.0820205493087828, 0.008520473996961278, 1.7700004669386402, -0.9607864630097622, 1.2456637351402617, 0.25768319568212006, 1.5642076559512088, -1.5155442265884655, 1.1572443070241138, 0.5484038912941954, 1.330488642540714, 0.2901335414543253, 0.9676255241404416, -0.16671691047349943, 0.9540985616265648, 1.2650715450275927, 1.3686788388789126, -1.2758538276839086, 1.3940891060121683, -1.7117617472219415, -1.3621000661300178, -1.9624138866443197, -0.25092988153444107, -1.2224186172335734, 1.8511743064468256, -1.8428033778254838, 1.775980133841293, 0.6703981659632694, -1.6293297614494562, -1.3616812863119914, -1.968047435916089, 1.027946646583099, -1.3509913460755152, 0.9580397019975468, 1.6930828055341751, 0.6448164339099037, -0.8098226359021564, -1.6315338583659718, 0.5307312391639496, 0.24195233603838678, 1.5309219065159516, 1.7496743136012889, 0.20289672516424745, 1.0762155737162211, -0.7081895848998934, -1.4641461743688822, 0.3801873632508562, -0.787088631075254, 0.7187727053724327, -1.1589618513917341, -0.7013791605695843, 0.15852846874872048, 0.16929304178778212, 0.6053439593514239, -0.6867019664175381, -1.0208894449133215, 1.8322965110692693, -0.9359675769795167, -1.7233733820631942, -0.5056261009628912, 1.0384202728877112, -0.8905513637751418, -1.8849234386343525, -1.3877198515868, -0.5626533680354909, -1.0522438713280335, 1.8779659655707677, -1.005392083660733, 0.6407800791054976, 0.9315974851285856, 1.6529518537124215, -1.8206365424454778, 0.6249042615125552, 1.0669808179273943, 0.541292289038057, -1.28938700023977, -0.3267711483533937, -0.9616904335928959, 1.3807629327212185, -0.847373083478183, -1.8226694434419954, -1.6534869976826725, -0.3811069671887312, -1.3383122328195936, -1.9877782328341236, 0.44795171831833397, -1.5395363882220272, 0.35932841428112944, 0.8556584977886365, -1.2137676629868401, -1.257771063475563, 1.1715863917297573, -1.7290647044697478, 0.9961959066292948, 1.5574128501312348, 1.8693840195254612, 1.889615806169937, -0.7672753288667273, -1.8970306391830603, -0.09911370982579104, 1.7400683661499015, 1.390723653426129, 1.4546583839141332, -0.6483510358613273, 1.3219275814094607, -0.36806743375715534, -1.4297946943566262, -1.150090199487952, 1.1025098750300033, 1.822393083628438, 1.3918658677909956, -1.0082620569075063, -0.4162305700123909, -0.47545064386366703, 0.6180626221965237, -1.8587760612195101, -0.6638616048406418, 0.48521033288274734, 0.3846023895262754, 0.4902332192094085, -1.754459580252002, -0.06087020223490485, 1.0013950888717453, 0.33125077526057295, -0.7580902134831152, -0.7699060516377301, 0.6683375328798629, 0.11370237400547412, 0.04147965296126577, 0.41598377541841514, -0.77140181437225, 0.5937511239227353, 1.4767375155243458, -1.5031208923643613, 1.4609902918800415, 0.833419176988189, 0.9552935774212372, 0.20186703718687088, 0.46083438385607034, 1.4040354241631334, 0.28893342019982377, -0.3928714574125824, 0.1869231574623639, 0.1934957024725156, -1.6576961049454633, 0.2967106595913628, 0.5322564786618194, -1.4617262460979403, -1.1256654944232183, 1.0358362041176885, -0.06861214895380369, -0.2219886326473309, 0.025212800178882624, 1.4095718790727065, 0.7405440412629717, -1.4061751005597363, -0.6878539122812775, -0.5133122370544602, -0.14835082400771746, -1.0081530298286947, 1.9734860960188167, -0.3986598444311989, 0.9666582650364401, 0.0892574905561219, -0.4375300846169625, -0.9647422989393404, -1.3166969654943477, -1.7620042402560825, 0.2844725189984071, -1.6778388839174925, 0.44006939585793364, -1.399977561395596, -1.8470301303116436, -1.3065837193712184, 0.5982269762126733, 0.09388876167049391, 1.6531845276000765, -0.4971300965540861, -1.1700074729222496, 1.6192982086044307, -0.4100172115538964, 1.267380032918905, 0.16650072973188954, -1.866375699715889, -1.8383505040671835, -1.4502943936927242, 0.01122260188609258, -0.4455065626274538, 1.820737783940692, 1.5760928494974205, -0.2619325463688174, -0.06501334908728718, 1.69109262871024, 1.93952458272403, 0.6275901111207324, 1.1037383294796326, -1.7059560704527763, -0.020920754843778856, 0.42866377380592174, 0.6284330062417942, -0.942740456230682, -0.2641509584538497, -1.41788348866493, -1.604470668071249, 0.3270809970812068, 1.280655935481481, 0.9702051291702493, -1.7990564854713973, 1.0178508995629014, 0.6745625081611706, 1.1261260780804607, 0.13207154563686396, 0.28685239444964794, -1.8873081432096732, -1.3589432631176332, -1.8092426314394903, 1.8997544832195763, 0.4636523070785431, -0.20685835747882328, -0.5989470495345752, -1.9857891194899577, 1.054287988468897, 1.775408204449953, -1.6358832921316735, -0.224270304428138, -1.9986933329111087, -1.1283017127810953, 0.622843023264772, 0.9730045013113784, 0.4521301025331589, 0.103452431387841, -0.4047515035197464, -1.6912731904425562, -1.4785589428592172, 0.7478089769450627, 0.26844179564582216, -0.4131546521188281, -0.2618433379160933, -0.4972366754082333, -1.1812135346915271, -1.2350151127802138, -0.111359067328172, 0.8499597632349976, 0.011656411076338155, 1.0227452396304222, -1.8377361707488191, -1.52548521537644, -0.304183136820093, -0.16573428848702126, -1.7522939266412711, 0.8537576116560882, -1.1220186928529639, -1.0722029144247913, 1.109569635666778, -0.8367225795194765, 0.4035837894322838, -0.29163701322584196, -0.5682687080379522, -0.9136424645928992, -1.3106994633950824, 0.5151258022683256, -0.3769591043285946, 1.338743395739025, 0.8411204586011863, -0.46498762724007575, -1.8130132238221714, 0.09262802526583748, 0.8693751477507679, -1.7861204646399886, -0.6880695007862472, 1.278976794549141, -1.9061797498903137, -1.5939528214100227, -1.3032623340539073, 0.4471214313126367, -1.4284313117808587, 1.156341410913305, -1.882858628340161, 1.643749560778985, -0.6615506472005296, -1.1024801585463495, 0.16423155059748895, 1.8601206402739627, -0.19658791818643676, -1.7156535672401503, 1.3162887718873537, -1.0839913770320075, -0.5071310814837231, -0.07783176848345484, -1.5193743066688394, -0.9323755439886492, 0.700488833708333, -0.8335182170394759, 1.5122190676141976, 1.4680584616994743, -0.748674929264, -1.4098779977595444, -0.7872911394211393, 1.1902001520188452, -0.7252580945931326, -1.020843371664274, -1.0068532851309857, -0.7225672452261981, 0.3775184370799956, 0.406850764087845, -1.3097740140582952, 0.25305563775217343, 0.8487918914610333, -1.8256227722240714, 0.38556996261673077, 0.6767361919366687, 1.1082086449272843, 0.952287578130476, -1.593352559907482, 0.028878298501286034, 0.48168770597151106, 0.01133985788443765, 1.6498236595898512, -1.128705671518982, -0.3504248745038097, -1.5530930556036526, -1.7256156623985117, 0.5911900578609052, -1.2975050321758284, 1.9168292155016133, 1.576501090065582, 1.6056259129314259, 0.2623260297500979, -0.9111775020244361, 0.454543897604414, 0.9182062935244164, -1.8378106131452157, -1.699589385542541, 0.9227641806422433, -0.5574811277236522, 0.13815082686480762, 0.9350326656188339, -1.1299487335773748, 0.513891962340758, -1.9581274238170692, -1.562358725420548, -0.001493855096898263, -1.7164137209449717, 1.6151043731894466, 0.35256712589506534, -0.8469107511448198, -1.562413812584245, -0.023629545853899505, 0.5432229225052183, 1.2297670185269247, -1.204774467573646, 0.5914635250545435, -0.6203176227081304, 0.020200735422631233, 1.7760692752351146, -1.2711049319254586, 0.26855534471298115, 0.9705211733313256, -1.5066934666847283, -1.4202015443372957, 0.4997405279296266, -1.1162140477493878, 1.791572414810622, 0.9458589433322577, -1.2655059053077178, 1.1249790077504358, -0.46427239795497993, 1.1474771713843788, 1.9516871432442915, 1.7336379123252939, -1.0798890541329595, -0.8984905017688203, 0.5932228275907825, 0.94903392360841, -1.1046879355051096, -1.4028419822070552, 0.21614152344093798, -1.6324926793376981, -1.482585728448245, 0.12271306265332749, -1.7332964730054825, -1.2610528363390232, 0.05280374974472557, -0.567632646926921, -1.7699006694209232, 1.662628637349175, -0.031103029993224108, 1.1826241628370489, 0.07660905085509234, -1.0846937993369505, -0.029661413858855824, 1.1632977363546118, -1.7429871168094162, -0.2038653149444849, -1.144376616591918, 0.9005992818091199, -1.4722217001402933, -0.49877841599513445, -1.0880715083346018, -0.8752266178045444, -0.7714519506554929, 0.06480751419018806, 1.5962204104872908, 0.7237691838868553, -1.013712864518735, 0.25898248202958324, -0.47725291381355506, 0.4957947557918949, -1.5606035429790497, -1.5898459839986525, -1.6449802622148082, -0.36908601010314934, 1.9396279970275423, 1.707953209896568, 0.8128635585752716, 1.3273382885848617, -1.2930520216256784, 1.002861713971198, -0.26598782342695565, -1.9841713320445078, -0.38790254727025286, 1.553189097444995, -0.9144386600405748, -0.6746179804702248, 0.5463626594938454, -0.18265876283373872, -0.04796248483130418, -0.05622328476584456, 1.996111981255476, -1.8535652872030286, -0.27932405328987975, 0.529570205244017, 1.3514486864127566, 0.28310882760567607, 0.8224004645755465, -1.3918491352971007, 1.8391686766042166, -0.49308911733059535, -1.0715841333392895, -1.2279647504477578, -0.3789044136075424, 1.441783956096024, -1.7395942335039107, -1.6064685303823056, 1.722992512012635, -1.9507177004635723, -1.1138064301721495, -0.44489887126648076, -1.7054910688542855, -1.6150379420749847, -0.5722843802809013, -1.9935053458732037, -1.2438442467552229, -0.9914543245914387, -0.4433180420623088, -1.820043239075792, 1.77829926583292, -0.609183929802057, 1.089600994090111, 0.002267025174506264, -0.7582946528578135, -0.35273803992102204, -0.11599708530175512, 0.9741269582511451, 0.8072314960504752, -1.0264172002977228, 0.8450446850793409, -0.8653731399638067, -1.5448430504886757, -1.4156268667132492, 0.3032791226293455, -0.448815627127124, -1.3512920434753923, 1.049666891980388, 1.3966254426189137, -1.2751899410303253, 1.6799939943919688, 0.6539652972514582, -0.2585424980781415, -0.49439297511820823, -1.6155160330354377, 0.46004984404486143, 1.3661740253813601, -0.6509182507040575, 0.43087427115539045, -0.809860700553866, -1.2360883561088727, 0.9533347095194329, 0.9484516091200681, 1.2178184027700465, -0.49523480515218443], [-0.2893103548626841, 0.37300572423390044, 1.2686598916933707, 1.566213641337293, -0.2246830164301059, 0.13437071423556057, 0.03600857775959465, -1.121918464667929, 1.961088497560779, -0.2642139193350208, -1.0640611043593533, -0.47692391271895795, 1.0076943328530252, -0.4928345953967991, 0.7270098381590495, 0.6861969474198858, -1.191923508297282, 0.305018142212087, -0.6369146144141764, 1.9802885997523703, 1.3127585215578308, -1.7258103660935098, -1.2085188184768474, -1.4319828049162995, 1.2976672741765145, 1.0832670662658206, -1.7373781606876282, 1.240298723678479, 1.7493695111000038, -1.893381624457969, -0.31925721460911216, -1.542095581362514, -0.881780006512813, -1.5973723227343375, -1.8446421189313502, -1.4725828182051457, 1.8124811278164497, 1.9536886582946977, -0.32405459096872724, -0.9065345625817632, 1.7500082644562998, -0.9504235736029643, 0.2752860917524119, -1.3285583947983055, 0.26783009013183484, 1.3266759293313584, 0.7153626340223574, -0.02129115598199683, -0.7407075831567017, -0.19008015952996837, -1.2980932137813914, -0.7384719683615281, 0.6715750925703037, -0.7095130223678288, 0.38229991730001744, 1.627504413107935, 0.7979279795316456, 1.5983480565163304, 0.19086510456488, -1.3886065334484363, -0.5517521696766977, 1.6696392353659104, -1.0615147046482387, -1.5386562488762787, 0.5165459696114137, -0.5685309150382829, 1.0421640927532587, -0.2875884111280921, -0.8191262063460015, 1.7394571773743446, -1.6894783406052882, 1.0477891013653986, 0.45091892826400226, 1.3733311303708766, -1.410375463803503, -1.7465209537954818, -1.6159306588867237, 0.18585312669379964, -1.3519409366118174, -1.1313560698094822, 1.0065213270208964, 0.05714995700248687, -0.8171195874390795, 0.5078127128492267, -0.34909263990158923, -1.7345372516690638, -1.3402796843983822, -1.6784686143539231, 1.9109383700359148, 1.6708547226568595, -0.724608862313895, 1.4928340289857802, -0.8645113062350803, 0.6428991250380932, 1.5502182409349634, -1.6113232614811503, -0.22642989826708335, -0.9379479081081636, -0.9069373662327389, -0.35265535652822, -0.7357290385919736, 0.5197582851587063, 0.11516070310112585, -0.5772518325468655, 0.33103782732832054, -1.1984441943750297, 0.35315696709353267, -0.7981408715091782, 1.3141665617127924, 1.4045468528561247, -1.8871634924791438, 1.4727926315752997, 0.017258522230805706, -1.7327891929346841, 1.3364970234631468, -0.15282546241957234, 1.1034429133619879, -0.7311909563406017, 1.632061134282826, 1.5854749586518972, 1.6546525402256993, 1.7268315242799666, -1.5924218305818385, -0.924631443357498, -0.09863985204361125, 1.2581446253202158, 1.564639989576422, -0.448757655468439, 1.9316656432100274, -1.712341225199803, -0.6519868406842353, 0.7043761681318617, 0.13617079046866298, 1.5214543668845426, -0.7961927858749733, -1.4669065309590776, -0.44543389652325904, -0.5726086494245691, 1.127591490697607, -0.018369556455704483, 0.6850834915737618, -0.8359932674965704, -1.465203365863596, -1.5081757540755418, 0.6976636510525449, 0.48527342675093593, -1.7877718442867254, 1.4754530596900421, -0.7265113775853121, 0.3114492838962754, -1.1790571603750952, -0.030110210445099518, 1.6866717888544447, 0.9497837003947709, -0.600774879436011, -1.2400408416548088, 0.8127470412579393, -0.5256134088751877, -1.0551082974324173, -1.737422451487056, -0.27058618426557274, -1.10066921512175, -0.6882823287028802, -0.9299085528780928, 0.7322005137404228, -0.8085227844747552, 0.8667047515247351, 0.28867286081511306, 1.3775958160490571, -1.0092853400645718, 1.5307963699340736, -1.21225292182752, 0.2873951911629059, 1.907682293131459, -1.0271105365178241, -1.8010656967003746, 0.7920743876059443, 0.9899868642893653, 0.3377159840915461, -0.38790335489630623, 0.2831186146523402, 1.5181139983014453, -1.7803452464387293, -0.9652842070744835, 0.16563518388919143, 1.520580263989156, -0.004172741589593147, 1.7907600945441644, -1.9535612882802234, 1.488481299849629, -1.8633376125222185, 1.9910072803706176, 1.4213918733767423, -0.9635510545428567, -0.4751006680700845, -0.4321852400784252, 0.665859241915371, -1.2580758418478457, 1.9828609409676667, 0.599021546986453, -1.731344883860311, -0.765780914612164, 1.362157706413037, 1.2745338472287528, 0.6369547342886863, -0.8202940164596499, 1.2359049697620783, 1.451888650861458, -1.8710650261261594, 0.2724068582858856, -0.1333687652102697, 1.4843803409878016, -0.681163336288994, 0.8027609626356947, -1.1542326548339588, 0.6293212514233361, -0.8413713663704058, -0.11119823101938231, -0.3902191984842864, 0.14695175787846945, 0.9403360274362695, 1.3014443748321736, -1.802132581906321, 1.4716646382173706, -1.1617165566511642, 0.47902436994487124, -0.8493811711555784, 1.9773289979073392, -1.3345780990330889, 0.3194302484354645, 0.8757228163162408, -0.2891642081207961, 1.5451300689889431, 1.5367508491297917, -1.4785070491577021, 0.7971016243012288, 1.0903545845382507, 0.6672692991484722, 1.935298008598027, -1.2831711314209562, 0.3343087005959363, -1.6819354943106466, -1.049658573537887, -1.3020683096464418, -0.7988926843653986, -1.2887872806556224, 1.8629423056531864, -1.7695608411381831, 0.8405778374196244, -0.011984314629121744, 0.9746494133264099, -1.3321505100013302, -0.49650441923412125, 1.277174416223066, 0.6223959276746888, 0.7800367604215487, -0.2985097016707693, -1.7953351162144322, 1.2521646123630386, 1.900658458931545, -0.7546210278459017, -0.2704021287272445, -1.344116786303444, -1.7656898421912304, -1.2543887391479913, 1.0076148345791052, -0.6051095244031938, -1.239241136577523, 0.5537525994245484, -0.30970086671598096, 0.6922934363618812, -0.0028506195487069197, -0.6291284514560493, 0.19947398022365423, 1.7655673681877568, -1.9786418871881215, -0.7592590325880605, 0.13762220196938924, 1.0436974466194506, 1.3746038460529446, -0.9877943471682268, -0.2666069516953787, 1.2143036944022727, 1.4701215606001845, 1.1421968915557417, 1.42899314207346, 1.107068298968987, 0.19056776417695515, 1.1768225237868988, 1.553095539763151, -0.9443206360203366, -1.1608504436698184, -1.006651352491759, 1.841496150914984, 0.1288071767179847, -0.5560576652508564, 1.6442674375152257, 1.301067427207534, -1.9759611842600193, -1.1445816496607906, 0.6766762463935463, -0.8870557583503957, -1.4372827435371254, -1.230469865776311, 0.7592198589495662, -0.30991525772925077, -0.08682703529245255, 0.574820948639346, 1.5445428811607191, -0.7135101113957208, -1.9812140513945384, -1.4858591168418411, 1.0669855643083, -1.8368590412942278, 0.09574055917604142, 0.40739088158641573, 0.4812937779361935, 0.18147703476510063, 0.42060563284950936, 0.9043576292339084, 1.3879550167763512, 0.2679612156719219, 0.5531751072215265, -0.7905190142514724, 1.4330097979272978, 1.3121104699379273, 0.8477360616697769, -1.5204031923032115, 0.5344096532286123, -1.3532480680112722, 1.5289835999151573, -0.6656691593578983, -0.5005787585478065, 1.4016060920624855, -1.0651869622148937, 1.6430708292152132, -1.2589771758999777, 0.38889077909829733, 1.334696580006644, -0.5950186333552286, 1.302161409105637, 1.4855014825011683, -1.2240406467896867, -1.5134196079765863, -0.37266624946441923, -0.8394069800295639, 1.6649786861806153, 0.4070303361836616, 0.006103556481341944, 0.3697210766551195, -0.5953098105445276, 0.7422534171448292, 0.21650411133349554, -1.8218631501272105, 0.1453226543407439, 1.1713351712790465, 0.48591822987086936, -0.2832031730185646, -1.726922881795425, -1.714760471982, -1.242011270543045, 1.054283083948507, -1.4180185596445234, -0.8925417113093415, 0.18297757562152153, 0.952903492053149, -1.5677434935495047, -1.8858095609985677, 1.8666207209806673, 1.0458534314018197, 1.8897463295265184, -0.1117526908599979, 0.3757665502769936, 0.30613247735420673, 1.9404691982279927, 0.6570435512453083, -1.3689075521073277, -1.4149511954867238, 1.322322240263313, -0.22495603048041432, 0.9419477887209975, -0.40644758647137075, 1.0418142769514285, 0.6134284515375724, 0.29782835680567016, 1.0459593724183711, -1.4993517291252667, 1.7452239495509971, -0.5242487081353272, 0.04433991782135423, -0.579333116533969, 0.5677097781116508, -0.8271005653410319, -1.0001118684454802, -1.0778871539715442, -1.603803931087559, 1.3132505263262797, -1.0592402715098317, -1.6776739703711503, -1.0094320874888723, -0.6033179542344412, 1.611075759234737, -1.4330036875946004, -0.6448214593573173, -0.6009712990670739, -1.104095915723836, 0.13292370241464246, 1.819524189159508, -0.10061687283008028, 1.8832649635725462, 0.0093304378410136, -1.707856808239131, -1.5942211568273814, -1.2988801522960431, -0.08202702059771891, -0.6768471986481773, -0.6324752851195067, 0.9276077772774202, -0.528036955173724, 1.4822675216715846, 0.07632086879634059, -0.821904938937466, 0.31778041783572814, -0.37099906109710906, 1.8409055567029127, 0.512492091140383, 1.9779193883413053, -1.774598589809948, 1.1706692694233982, -0.021038423517217908, 1.4844345270984285, -1.119494303120101, 0.9862674689935529, -1.1426477160152801, 1.8178160030771682, 0.3088683594161653, 1.9732157290851307, 1.8058461149652674, -1.904810447829395, 1.6568073754296453, -0.3813824765688224, -1.7363873117228066, 0.30075076293290237, 1.340311336719359, -1.6644881445285262, -0.6891780266685001, -1.7711057784657298, 1.6330043503423355, 0.2502794684814811, -1.8458445198548656, -1.8879251469439038, -1.420045217269332, -0.5755512887920214, 0.11154008411148762, -1.657085010383366, 0.8174496159128927, -1.869611763284428, 1.9874682775455026, -1.0115359359273852, -0.2714505816119912, 1.103889005897705, -0.18545704484193595, 1.9209129848573365, 0.9542881765910761, 1.6959015389250953, -1.0846695178133319, 1.6458206587618704, 1.45665642472891, -1.468593957618889, 0.7919262373653776, 0.8375898344268446, -1.0129222585885, -0.22838833666839964, -0.8114998213250031, -0.2048180257149007, -1.0577082797427326, 1.944356524921321, 1.6609258576338541, 1.2931081560785949, 0.8738103801326741, -1.006094399762103, 0.6185509705495721, 1.9889821675087678, 1.10900344567114, 1.2194088408045531, 1.6905665424665972, -0.7344804453905259, -0.5486027162429065, 0.7033087784294262, -1.307414665693261, -0.106194512901244, 0.588501120998602, -0.545412800944461, -1.5644313469898337, 1.8989901671092118, -1.2842626682827163, -1.8604728208601247, 1.9316567132012408, 0.3027270201410048, 1.8036037899534476, -0.03442257034771717, -1.1502598791565182, -1.543466359520422, 1.9828646221551685, -0.041383776181227905, 0.7806017303274656, 0.5354816269273543, 1.5596684497292395, 0.2381644830038826, 1.2344849074687352, -0.03230033972370859, -1.1167609078613971, 1.2501115539017431, 0.939182915077286, -0.8885015069075325, 1.3098290506644261, 1.1239450157224562, -1.1162294806073634, -1.1333877940636305, 0.10086460634214327, 1.216463562765065, -1.8842543105701173, -0.07210239123708279, 0.06531136780352202, 0.6776530911572286, -1.7888433933751897, 1.7674602657482885, -1.7687414832131514, 1.1136519100284397, -1.2990582168726625, 1.9486797217087055, 1.8771531085920639, 0.9948275338430044, -0.6832568369484476, -1.4693281422809574, -0.04316404938419289, -0.5943669122764561, 1.0509173060006238, 1.9600247282407013, -1.2235553021967525, -0.5276035016768212, 0.8688608185693507, 0.04036834175441176, -0.39158334203936257, -0.974524877507788, 1.3562717205005141, -1.0672480446227683, 0.25937810494345487, -1.9334922579079792, -1.3000201801646512, -0.7876246646463478, -0.4812645803691846, -1.5413361992323942, 0.4164762059979219, 1.3304806302833372, 0.3224310021072846, -1.6315463030558515, 0.5827031233015164, 0.5564422608571833, -0.4109761858488123, -0.6466427490896312, -0.598497800954039, -0.7238643264737549, -0.5921313308673247, -0.8527663618270918, -1.917129974008203, 0.1542897378923082, -1.6377514027258744, 1.3882234436760932, -1.3980266430523496, 1.77043797170673, -0.5338663277672182, 1.7967021595107564, -1.0115786851991118, 0.36738255955865484, -1.4611566357572088, -1.6547361804772787, -1.0496185957839443, -0.7045662598780932, 0.13923550817975158, 0.8440619749921253, 1.942322522848544, 1.599959816562627, 0.6744885296342139, -0.37493965353040454, -0.07188432643208868, 0.5222241646369173, -1.476448597667075, 1.7931515996723204, -1.1009459776409876, 1.7912206166688622, 0.5342165451650184, -1.5864996450134592, -0.153574321204942, -0.7070536140969043, -1.3806576555134498, -0.5539281114863015, -0.535965140895697, -0.3157014450034579, 0.9781953864515452, 1.6484108991080828, 1.5762627098167603, -1.292104732371803, 0.9667327415607986, 1.1125099857443976, -1.4186569382199041, 0.6017206078188543, 1.6503773645456736, 1.8134205636698, -1.496111242602619, -1.6855896702440685, -0.4914003360439828, 1.7701107082630632, -0.8981319380793183, 0.0037958609607596427, -0.2781758568261231, 1.9654047749304138, 1.0500517282110815, -1.5984752024723947, 0.6314156207892269, 1.857097991947292, -1.087309684523572, 1.4733908165722498, -0.9772554777670939, 1.7552551962804503, -0.8922770765878814, 1.5102542317401058, 0.7861340504638409, -0.0287091295153043, 1.1157418593245259, 0.644018958464982, -1.1476327952974956, -1.2242251894029537, -0.35013600494251446, 1.0384371464250934, -0.9670752919605815, -0.1331409398433817, -1.3841380444301892, 1.842792010570322, 1.9919788973423171, 1.8881435584287634, -1.4706239939915293, 1.420277167533991, 0.20643611052051625, -1.6173826309360138, 0.3729307644971991, 0.025065002692261952, -1.5472607622085723, 0.25728228393560976, -1.0893191249810912, -0.3705258256487005, -0.9868231602174992, 1.7661451957277088, -0.4311678402397823, -0.6607822831520572, -1.1489415214645804, 1.5941143678042786, -1.8030376631884515, -0.2261750591527512, 1.8881027529014232, 1.8411164017454875, -1.3525962679728174, 0.8452831274796329, -0.12523718012859575, 0.10579751348581415, 1.5974631239435952, 0.10469168441827893, -1.935408211949909, 1.8317493378898833, 1.386012785150843, 0.5975003833206054, 0.633190987417314, -0.047879799553118385, 1.7599179701518715, -0.6290613004655958, -1.6897291361211633, 0.31663504616164956, 1.0906346657428696, 0.9997754259453765, -1.6730747565725292, -0.8028052788013168, -1.000847743593825, 1.5118857570487299, 0.5065227180852833, 0.6842135242511597, 0.9298697085099172, 1.5568041159455936, 0.12542158846634036, -1.581738547167248, 1.9026810907500307, 1.1340983143074672, -0.7642586342768724, -0.3935636488802145, 0.4336206701586011, 1.177932839577157, 0.8045391747838448, 1.9270435981881782, 0.2876085306360864, 1.762868513819921, -1.0821744431737579, 1.126777349005565, 0.6257225308567707, -1.692694877966143, 0.7479627796048419, -0.3373191437584849, -1.5645287559508685, -1.4630226582627963, -0.9891491139162043, 0.6918512682113298, 1.9328448000694782, 1.6812001363585556, 0.11835130878142998, -1.5386632007435455, -1.8521506013258044, 0.12863332978131153, -1.653486718632031, 1.754714898265586, 0.9639139921093501, 1.6737165451343485, 0.2339203401522485, -0.3385795966809654, 0.9701634576110117, -1.8993621228356976, -1.772297428223519, 1.7211955946530455, 1.771330733102967, 0.2660080106645286, -0.9303972221591725, 1.7216739526703595, 1.0003880086333856, -0.1862918942634888, -0.19296481769795282, -0.9259255253084282, -0.3166511293776794, 0.5290029713556522, -0.6417513461032613, -0.688674494012936, -1.7730364900118738, 0.959839929509315, 0.9508297493563448, 1.943014849000891, 1.392483825641977, 1.4325317738017103, 0.6742733671198275, 0.6870808982382366, -0.039686891589833316, -0.3886579713476055, -0.9655658947711699, 1.8877645590602814, -1.891983464631569, 0.8961690343061359, 0.14987810217151046, -0.0840282576064253, -0.9375651625436061, -0.6280358907211094, 1.571128071049042, 1.76734068406958, -1.8304964639279069, -1.954902305647714, 0.6796740227968745, -1.0002109377260955, -1.5348261463442587, -0.5030760501508801, 1.488742027052024, -0.8564638372572317, -0.09224997890005786, -0.39586346779363407, -1.8334702770831535, -0.8528713639488443, -1.9617077647342809, 0.890310323762132, 1.8969204647673237, -0.7051027157367252, -0.5454302129036044, -1.0350177556207563, 1.4718654031197884, 1.4776714419740997, 1.7577959734895479, -0.9204083968194846, 0.674943143051721, 0.20901977326881038, -0.03313637384367407, -0.6885133061576485, -0.4468223294063276], [-0.9457890030354283, -0.17051105635814778, 0.5773890816983789, -1.651437646637437, -0.6541490830111258, -0.6449725621030238, -0.6674158921561952, -1.6428609061249118, 1.255686234950038, 1.2926751028771735, 1.4983822895799013, 0.20491888843982986, -1.4654122004785088, 1.8792975357253812, 0.2891068612823991, -1.6304149279199356, 0.014785905383909448, 1.461300164026544, 0.07798708313422642, 0.9141492935339461, 0.35823493849899934, 0.926867597240137, 0.39943484174430344, 0.12935353658290838, 1.6946868397427592, -0.9985481423941303, -1.9388439262493624, -1.127050834530531, 0.9063981928312255, 1.4334171228884247, 1.7055026762422285, 1.274274887147337, 0.7713020628570697, 1.030605773592343, -1.3771665446210866, 1.2407231402802734, -0.6688611504657536, 0.7024324396473741, 0.672416019370558, -1.2746670314516797, 1.6670722118505492, 1.7252968762385867, 1.0176422477961913, -0.24143362802514431, -1.3662323369032523, 1.68948807290793, -0.4455842837936843, -0.04395312180301525, -0.6183122801311862, 0.5251391450651107, -1.698387970230628, 1.2564955482857583, 0.7950561728524601, 0.8128734213588351, -1.3909088182567042, -0.4996018388368739, 1.8240486176465116, -0.6599559246679432, 0.3865352493876261, -0.177468652117875, 0.6510784689139207, -1.4151075962566928, 0.48720174762457746, -1.00281474623357, -0.6259716012230849, -0.8793236382975217, 0.10031153159458046, -1.486201995197669, 1.9526184541513436, -1.0714470816754957, 0.8763044849865108, 1.6237705538834653, 0.7234927823370223, 1.0536386253581496, -1.346607122966472, 0.7724338507873886, -1.6703733699767804, -0.7862663763643302, 1.8407854208927381, 1.4676566641541984, 0.7474223438860312, -1.8757047416150485, 1.426526735028105, -1.074732613039342, -1.3751023786431977, -1.3165108738199827, 0.33645316767026306, 1.451906597480331, -1.92683287677354, 0.03946515599522285, 0.10701435063190584, 0.6536604588279814, 0.5506574101105182, 0.6807977722109743, 0.982009975616357, 0.9791687387702396, 0.495720943530013, 0.5289238190380955, 1.3289361732552254, -0.03148258665155229, -0.2861356200933121, -0.6536509461054311, -1.6160615591973853, -1.7394752534192817, -1.8765272868494196, -1.9352921243166328, 0.35634254553754807, 0.14476815450411712, 1.3087907081926244, -1.102014807601622, -0.8180936437158203, 1.2285878833951536, -1.9019141678301326, 0.6711506468432692, 0.042940719970171924, 1.1818601292507571, -1.4840286879382203, -1.4340516884879595, 0.6391746675465414, 0.5471414065116958, 1.8931722434905507, -1.7656437027124177, -1.7992549942039715, -0.1652850631029988, 1.7358655573896387, 0.9840657801894376, 1.8766430302596566, -0.09166890851150802, 0.9323886232156989, -0.9228301933235508, -1.3168460150764063, -1.8710435952643898, 1.7390584608080326, -0.1919185694612356, 0.4427473775953595, 1.4107634642796496, -0.045777858421854355, -1.270903899779609, 1.1159567392856615, -1.7350644408821823, -1.66535487148314, -1.7381097526989153, -1.0408512429595902, 1.0778250165513459, -0.10635701864096711, -1.835778739859845, 0.17825125749435575, 0.3229330876678504, 1.5166040622539738, 0.009176219859259547, -1.715748680329495, 0.5037330614286801, -0.4645681538573692, -0.708501491719349, -1.0815577878557718, -1.7212189710778099, 1.2083991685903674, -1.1307838868437246, -0.1320129214413588, -0.6027570443857575, -1.7987547773139998, -1.9322112489694772, -0.8638963703421242, -1.9840751314595872, -0.05365058536980094, 0.5292644121790552, -1.3542617478885401, 0.5826574601400347, 