{"layer_sizes": [784, 30, 10], "ll_size": 10, "layer_count": 3, "w": [[[0.0266258404579879, 0.02434261504613977, 0.008001892130535765, 0.012587314409889739, 0.011233136192562911, 0.03920185461764182, 0.005209509294020426, 0.027601773315973296, 0.01384498531709777, 0.0197453880909674, 0.024754834045713377, 0.03268994810824421, 0.03200956068668368, 0.028690697221065823, 0.032310647818110466, 0.03841059003863761, 0.015305516605696864, 0.032961218485987334, 0.019031495134306162, 0.017458408716720445, 0.039625300318764746, 0.03222564658920078, 0.01852055532097134, 0.0009744668288556302, 0.0002757878929987788, 0.004374489483956432, 0.007111128342174794, 0.03193138651187467, 0.027996012560794065, 0.032801889954868685, 0.031565932610340255, 0.03136547975283973, 0.026657673345981788, 0.034954871205413414, 0.01939721368251865, 0.019469321729108296, 0.010934149871412663, 0.020567801066727866, 0.042254204304040095, 0.013064130804512004, 0.018224304154917038, 0.009185854119181307, 0.022515044062981167, 0.03144076196973983, 0.02388010679577177, 0.025936116716162447, 0.024608069412354914, 0.030752339460262682, 0.0060211404953406066, 0.016812065641557537, 0.010473163215044053, 0.018651861879960468, 0.020375264189004576, 0.02473295199781683, 0.02436130232413831, 0.02489150072952216, 0.03987859366892561, 0.0394002722081687, 0.018264751302122666, 0.03415360817173936, 0.00925573050241897, 0.000204287898317183, 0.004826528949797728, 0.0029146287963852904, 0.014523905093949241, 0.021283813356887105, 0.0450477481406471, 0.03896654397142898, 0.10899944429638078, 0.09948824473205141, 0.08866950234336335, 0.106479959466826, 0.08159893656372753, 0.10369920653031758, 0.11622534285702131, 0.1068330968092957, 0.07619137385352706, 0.07392015967975721, 0.04970239866273515, 0.021900211758356557, 0.005584725683659776, 0.023514943171344775, 0.0168419106511651, 0.011754819739059124, 0.006100018335123106, 0.01592782569937062, 0.032184729228267796, 0.03661368795582475, 0.033336300274381565, 0.021043523753889792, 0.022869741938495988, 0.023406485082193767, -0.011146263881449034, -0.0405137701974602, -0.02567819001138808, -0.026087636092993232, 0.008035598803132534, -0.038625924731200544, 0.0719611194843507, 0.11088291873955058, 0.12852068955769255, 0.15972430789942993, 0.20101299268121275, 0.19564868563967946, 0.16065573106772738, 0.11892362733746151, 0.09646967119222814, 0.09433816239519904, 0.06866694874533195, 0.0333880013010323, 0.021226429474612014, 0.025470907357014204, 0.03524317726145242, 0.03765868642327698, 0.02614311684038956, 0.029093478091371895, 0.034961561912653004, 0.01760461417527159, -0.015522059683258786, -0.00752483248029541, -0.024097350354707097, -0.06880229793603516, -0.12421562927368404, -0.14883736334001066, -0.11203198912027679, -0.07538846789176046, 0.021411949778229522, -0.019515388219685327, -0.01972964863690194, 0.039336891810174995, 0.17130768178845593, 0.25329798248449376, 0.18783234134260185, 0.1362687952172966, 0.11567706866139103, 0.08735059688169117, 0.03610007456028488, 0.027562976162047535, 0.026527137342052844, 0.020072876412663518, 0.03938818338974996, 0.024908048660177942, 0.030118721391035504, 0.035612510561518075, 0.017672610095610258, 0.04505559823902864, 0.027574516012959235, 0.005271343643167535, -0.09849096886438646, -0.13531621247255832, -0.22105856780878008, -0.1992749870935396, -0.14838217547632634, -0.0838918119706878, -0.0768760953057954, -0.18835055011291463, -0.11262340088307034, -0.05237485716931878, -0.025318857832140676, 0.022404343650409428, 0.0021320089629073675, 0.029949541576322906, -0.009687698629172192, 0.05349803972458306, 0.0197169374447728, 0.023037322734324732, 0.03162415952693802, 0.016503011649207575, 0.02573843933255292, 0.005550805125173279, 0.014783862034017221, 0.010510784133708572, 0.04331904480835809, 0.01511113343443515, -0.01722191357783559, -0.06988666690792843, -0.0715323932572039, -0.061907005803019145, -0.06992141135549611, -0.06376247266372118, 0.011833191459000433, -0.04659546202669296, -0.042165272590771005, 0.01745567714184293, 0.04597201537963248, 0.07054229329469208, 0.06083105528942163, -0.0029499583186308642, -0.018788507807618874, -0.08683604264576976, -0.06936431052348384, -0.022342438595397078, -0.02055416854541119, -0.03510370081946843, 0.014878779588595825, 0.034305485832926905, 0.009485145630493347, 0.009122626830776439, 0.013990934556398675, 0.005355063134052913, 0.04956868889205563, 0.006899597864133726, -0.11212304888535374, -0.040930268062240885, -0.03481750571585589, 0.001177401555350087, -0.037456919861477075, -0.03655193214288807, 0.02503556290251752, 0.028328721857622346, -0.003684657784080189, 0.07720245612482779, 0.09857771108635358, 0.10968529972583745, 0.10057124905737158, 0.04138336994580007, 0.04770036611742273, -0.12783318146377148, -0.1188034076310235, -0.043224845190224584, -0.022652925443255142, -0.028446075909016266, 0.01971276585158597, 0.021888644666438563, 0.011810959035210674, 0.023409452082647945, 0.03813434784915782, 0.04726053743692664, -0.004093767292929621, -0.06015289181140818, -0.07785367924399163, 0.0020754385175986204, 0.018874370356970406, 0.006570985286917635, -0.08813704792366177, -0.029594819104906304, 0.009877219913428747, 0.06168871046440688, -0.0740794915337998, -0.0313877188075739, 0.014507156996887103, -0.007046508652398556, -0.017537466046193818, -0.07047782001346946, -0.046930592265823176, -0.14085565612689985, -0.1459570944853759, -0.1298840090611267, -0.08312291688440338, -0.07080124489374476, -0.021345017167260685, 0.028414159425139248, 0.01538338707565326, 0.011110962796748199, 0.017959034027820994, 0.04944532840342988, -0.0034803232466033293, -0.07694683640348352, -0.05987641212037369, -0.032581026720820236, -0.007175667739257999, -0.12283918220328281, -0.11807607780917186, -0.08887221677442354, 0.0013432969341581609, -0.0362368595566823, -0.05385786190195374, -0.14081181524611658, -0.11457904194133581, -0.06274775319693329, -0.1353051035035441, -0.05474781625386615, -0.026714930830694615, -0.07422104982196243, -0.10207529913769021, -0.1387679135221744, -0.08117063084322952, -0.0789101938454286, 0.009545348136830114, 0.03331937972549055, 0.027316452092687873, 0.029299818693180317, 0.03181718699252717, 0.035818580265251435, 0.05375134085066633, 0.020486922346429414, -0.02835605847354392, 0.0843676402553369, 0.05749289946637907, -0.1059819267824877, -0.13528910071575198, -0.0014473325159006503, 0.09633927112694106, 0.13722118591079566, 0.061313103054495874, 0.03866378586221403, -0.040150378560080295, -0.05699340098437671, -0.06901449361969454, 0.048298510791737706, 0.07808047692227363, 0.07824233127125094, 0.018434690282014214, -0.004391570591175058, -0.05444467376767983, -0.029495269508653856, 0.023060654722806675, 0.029308770661128802, 0.015049105747573946, 0.0005129282863410706, 0.00873937668422778, 0.04471087903510998, 0.08864236783541588, 0.11840298182401277, 0.169359678545359, 0.2387495144202585, 0.19985062423252356, 0.14095454720688358, 0.13142746372181585, 0.1796240285020717, 0.2838794466935786, 0.3749401353247863, 0.3011097241983862, 0.2011091376392176, 0.13119781068910522, 0.15438395358722815, 0.05586676261318269, 0.13560219118680256, 0.24208998211841695, 0.2718053298558509, 0.20332572275293742, 0.1951672033800963, 0.05700848884461411, 0.00764996514722352, -0.004020002912991905, 0.01504284816296253, 0.030451754595035383, 0.020784447720667846, 0.005186464292309685, 0.03187266952644065, 0.09388573341068372, 0.19443183121651286, 0.2876528446587452, 0.3693799504302638, 0.2554041527580492, 0.2851612999329431, 0.21296862107199946, 0.2453023561384017, 0.34751919810951354, 0.3806632594068661, 0.39911036043752257, 0.3546773765514087, 0.3452947322081286, 0.29782068957908125, 0.15200173597913674, 0.10164599360250429, 0.20463499109840722, 0.22960467810527627, 0.3114201227866978, 0.3180348408877584, 0.09706318078309271, 0.013047820801682283, 0.00533917112464471, 0.010130111185128923, 0.03201930165567114, 0.02163729218247374, 0.03082126341318565, 0.04991397682542044, 0.09003366195477053, 0.20872076233709602, 0.27016293177438, 0.2674729151225797, 0.17486257459519927, 0.08717132267748046, 0.013705502914379315, 0.058943126291050446, 0.15285735934237077, 0.07102204855030368, 0.11375379521149336, 0.23911347054290294, 0.25025051798457465, 0.17077539294346125, 0.10077253100942736, 0.08300871271879368, 0.1173769404806594, 0.18287035537268911, 0.2586509109787084, 0.28735188607697204, 0.12363459941873066, -0.004318296700985611, -0.00042980019805951387, 0.025952392128020245, 0.03247107236353383, 0.03562856658592953, 0.013455268459752872, 0.03677096267703924, 0.044605015451963145, 0.14242474487805298, 0.16486815847804687, 0.08691494027910204, -0.007935944735525407, -0.15528318800245847, -0.09759508030945521, -0.047295985066582794, -0.18676043090057357, -0.1698848652994398, -0.0004233188224210077, 0.05938870356476759, 0.1415907971861835, 0.14422321477363909, 0.11660895245230103, 0.12541496038811334, 0.17064533852928945, 0.23438471538800262, 0.23289355743209045, 0.20571285886323656, 0.09120324574514486, -0.02719110541987031, -0.021540634281519835, 0.019814994327177374, 0.03640680680484067, 0.022444155223158978, 0.011761702211942329, -0.007927647271481066, -0.04930326350672384, -0.04893059343849125, 0.015352542815978648, -0.027115513355663274, -0.15172957303479512, -0.18746632425301465, -0.17638546275753955, -0.14068129086811682, -0.168981792106378, -0.09448905620990393, 0.115106702849056, 0.08982146972379836, 0.05545022383921177, 0.06001227015465539, 0.08322214583633901, 0.0812886981045944, 0.16718591470062413, 0.20495030031891096, 0.22739448206955012, 0.16174333867152194, -0.016144740571253972, -0.08570469361212066, -0.03423135635228606, 0.013933543775404959, 0.03649855397365423, 0.011755631871586764, 0.03014754732789787, -0.035494279353755216, -0.11136176325423361, -0.1485453985342484, -0.1090117633718322, -0.011166093577023127, 0.008845652992947126, 0.006962747631423918, -0.04083495304585533, -0.07177678699033335, -0.1860290794309686, -0.0954300149394245, 0.10217074291466856, 0.07058710479704002, -0.015216391322830907, -0.04998757369662229, -0.003745529468975322, 0.025056299050502863, 0.08614271031006501, 0.021612288247526062, -0.008610698222958594, -0.006215225446628601, -0.10464569541616904, -0.18207779725997625, -0.06587842709676982, 0.006061203994199109, 0.018237949261293532, 0.0375807633183407, 0.0053574942044899545, -0.0525390466856997, -0.1693720346973128, -0.20225419470773265, -0.16693316038370076, -0.018127580552848924, 0.04578577431754619, 0.06398839244737638, -0.025771503104697373, -0.085790145028002, -0.18842927718141508, -0.1083555641309714, -0.04267065647354174, -0.12160860339996364, -0.16666650740016206, -0.06353658668459354, -0.05799312252032983, 0.008955070423325022, -0.036566183011387525, -0.038825488820127485, -0.09780314082705306, -0.0954301053168017, -0.18714838337217318, -0.18392001973995342, -0.044049772357957234, -0.012167874326348775, 0.02318325103236843, 0.010954148667432089, 0.013423448859313816, -0.01108857529667764, -0.1252431433692824, -0.27025880102441296, -0.26448537221773194, -0.1540243530886105, 0.00045495705879337954, 0.08098434092428027, 0.029414174685107503, 0.03341216086854516, -0.1279165044262078, -0.14658617770017984, -0.12587728250466643, -0.06775658839789299, -0.06556568488366098, -0.0219735045675421, 0.016398045526830832, -0.04030543358755749, -0.020028375194526875, -0.06124926957682992, -0.14995686207266828, -0.2199756180855809, -0.25110548626452955, -0.14335565584305163, -0.011696021332997448, 0.0027953704225629223, 0.030800645722201755, 0.017536660802887058, 0.032717953962481686, 0.040372784855453654, -0.05209745865061425, -0.15970921867962604, -0.22708008269604008, -0.18502506460428386, -0.10204477525185199, -0.03165749802812274, -0.08655641380169385, -0.09077481036789468, -0.13510943770478015, -0.1605030899266973, -0.05427151995335003, -0.04460108589695308, -0.0009963074457103706, 0.0006150074120904324, -0.006417824887333517, 0.009748551028074271, 0.005074236395776627, -0.05853128023146936, -0.13487791198199398, -0.2386604344227971, -0.22720451559552443, -0.09005160996073362, -0.0011460344777835536, 0.03192939459049842, 0.03669732515762363, 0.01666411159815931, 0.01749954767930843, 0.013749414048008156, -0.09335630365671069, -0.15506312290397445, -0.11748395655982054, -0.09289136887810642, -0.13100413985395404, -0.04107828911155367, -0.0660455577807044, -0.16495603030319306, -0.05713424969315185, 0.05636274420194427, 0.12276410070757128, 0.10437838408076004, 0.024859655350755443, 0.08117810857249766, -0.010095398111750016, -0.044163635239222634, -0.032186938887526065, -0.14130728671369258, -0.20789644983802374, -0.20140746355967534, -0.14317887090460624, -0.04825627611505605, -0.00014073300121046988, 0.007086702319543146, 0.014625200029833193, 0.03323455389893906, 0.014453403152347008, 0.004126990619663703, -0.10701770501852063, -0.0917484065720396, 0.016823219081530217, 0.04339795700053843, -0.06144257680416509, -0.0946596765889156, -0.07545003560759449, -0.08805629218034336, 0.0695842192542819, 0.18111313790837055, 0.19486454552561586, 0.16290773817690168, 0.02047587604500253, -0.016363868849710646, -0.12193293130620218, -0.13003966822553412, -0.17184535371663856, -0.21265213307682646, -0.2109459075153585, -0.1812093612569658, -0.07125801516183558, -0.0030342789968778624, 0.012719784129061093, 0.02407708334536098, 0.021352645908901288, 0.008777832452007526, 0.03425435500326373, 0.01762954790078007, -0.013142487052069354, 0.001368986662681406, 0.05082345143604773, 0.06799857583575117, -0.029938707894309, -0.055047431269404534, -0.0694412138031082, -0.1716564310971956, -0.06024519113639285, 0.061490400390851775, 0.10031303340045716, 0.12831946678898168, 0.06119096794183324, -0.01977811835838134, -0.10709603679929029, -0.20172071025155716, -0.2221240556926201, -0.16100493865482454, -0.135288450763599, -0.10576580009743883, -0.011900072648865246, -0.0007090248208393451, 0.015139198952153028, 0.02214881488040219, 0.010817020027071661, 0.011327125627276424, 0.006044919900116928, 0.022006183680574762, 0.025441716929317404, 0.06690064544545136, 0.049619015778148624, 0.05433660192483754, 0.0349617976222143, 0.03528199518626957, 0.09553333032305768, 0.0017178267955019816, 0.02312216042640323, 0.09438951320602042, 0.155680430897198, 0.13216611155450883, 0.04377526672732757, -0.007709158938351652, -0.11499058482096587, -0.1571708370008885, -0.13815112152013798, -0.11943631620620374, -0.09357303665912589, -0.058109239975006576, -0.022647822196306334, 0.002837598639218877, 0.03620253952732162, 0.00140443763655108, 0.03837734042929577, 0.002874972152548617, 0.01304193808958008, 0.02938899224964643, 0.05711186548721317, 0.08818158744252362, 0.1490165592495041, 0.20443092035176144, 0.16757135205866672, 0.18845400397539966, 0.1574087359297775, 0.0701828200477011, 0.06618197798347097, 0.09180380180105065, 0.0858457240266913, 0.034589107424287585, 0.037292710951981146, 0.00022775960818635426, -0.040845240419757185, -0.04344811887460907, -0.004424087339352184, -0.016340924019041442, -0.024452146956659388, -0.015561457015703788, -0.012904050256315108, -0.015360066843509278, 0.01657289003918506, 0.011264367815531612, 0.02029121375808782, 0.00469465856550374, 0.030445628813270117, 0.02693522373209893, 0.035525073610114095, 0.058995530034180454, 0.07927856934677655, 0.1352079291677888, 0.15949220018838275, 0.16269826374687085, 0.14734783689493725, 0.12482809602378657, 0.07949948244195351, 0.0626048195074673, 0.08169685912031825, 0.04680801307387563, 0.0671419324729278, 0.0430307367929235, 0.04935834949976409, 0.06052121096154756, 0.04169440612442513, 0.031402348476470804, 0.015253142529343514, 0.01524822521184641, 0.003426738224650248, -0.001302924337909823, 0.016289125881231405, 0.03236200670743357, 0.0070269808276633905, 0.003662922235392757, 0.02908401495023035, 0.03171691817892037, 0.03604521891159424, 0.018756676700181083, 0.022631872711608627, 0.04386012448436286, 0.030861621821135714, 0.05470359891106452, 0.039818450062157874, 0.038547967700603994, 0.04684633819329486, 0.029103706130066933, 0.032102840889173215, 0.039985451847409335, 0.07020574228119165, 0.06970684376251844, 0.054413270034598275, 0.046849418007407266, 0.035455528553406626, 0.006428440667806868, 0.023012480370881216, 0.014814472358877763, 0.0014008221782510195, 0.004503472355231771, 0.021068166444764752, 0.001271959520115484, 0.01149893589414135, 0.011313305530145017, 0.007146934066936042, 0.014121817104433372, 0.014825071980412767, 0.00012359474418897274, 0.010307026935172893, 0.024226003755813214, 0.007768900212778612, 0.007085168008871428, 0.031682722943240205, 0.01310865111466769, 0.011005056615706547, 0.03267691392656425, 0.019264010357934146, 0.038983646546240265, 0.026258555500062394, 0.02750048662305087, 0.03148880037605622, 0.007525241153423148, 0.03743654435148597, 0.01401450194280591, 0.017054906723239997, 0.019908939859848387, 0.016093662333299445, 0.02043739622199468, 0.020560750121476998, 0.010711126090335435], [0.028600106494665493, 0.006818126959303574, 0.02628809597580634, 0.025097126117551154, 0.038744026833642586, 0.014077857354245608, 0.018716553380866776, 0.03847602220654915, 0.002519097506603573, 0.011205708354507226, 0.017739060650180213, 0.0397189190727097, 0.018785277806966115, 0.02916191087746422, 0.022351455631235497, 0.0020553203483621744, 0.03485954305216534, 0.03393467960604918, 0.030689238668919174, 0.0010730389026846199, 0.015122510526968617, 0.034666448636691674, 0.03811071299274482, 0.0011492311927033447, 0.0025267492583731415, 0.0187580426410775, 0.03204917244879571, 0.006023893985666759, 0.01852497999831103, 0.03375249680845582, 0.014374463831731672, 0.0029459947305353986, 0.020729227759308518, 0.033806491579245875, 0.011449166225212984, 0.01129508378201918, 0.00703748624577157, 0.022017434655924224, 0.03372474575750157, 0.030593398155702903, 0.03365151487850695, 0.034187749608625154, 0.004184394891888852, 0.027944982426847804, 0.022914478882652047, 0.009458509821199805, 0.021738259009317116, 0.022393722156662216, 0.01340604719850068, 0.012221253808468576, 0.008111285891227999, 0.0037326053211065783, 0.018766554864125276, 0.00159705687674339, 0.03415838358193622, 0.015847542478672323, 0.0003916203292105826, 0.014929161814910169, 0.03680892059161606, 0.019042579169265682, 0.01701698655786054, 0.004872374970885549, 0.03334399727009662, 0.006141076493635133, 0.03646662396536592, 0.02098785029019629, 0.010726565752690655, 0.004672723514698438, 0.007468401104874843, 0.018143462762890916, 0.029592050998053426, 0.006280963148389719, 0.011950643422921374, 0.020909538217417274, 0.02954069154515419, 0.02677262687148919, 0.013240164565680178, 0.0008627699908939034, 0.02036986679831364, 0.03324870879872954, 0.031078897619682706, 0.0054098834264758025, 0.03426023223932858, 0.02258064990386418, 0.03843228002452516, 0.03232240230522784, 0.03590735302887756, 0.008024830467053243, 0.030251395248304055, 0.03733178443794894, 0.025451888031075554, 0.02796402899319823, 0.017917650680759498, 0.02272493163883427, -0.00328313352169547, -0.0024743241931050298, 0.006288028376581382, -0.005220921275240584, 0.018322211701643217, 0.044054342835473846, 0.0389166545727121, 0.024769909382472644, 0.0052227224851818365, 0.0020794720883167877, 0.03067113160548103, 0.025491628910062993, 0.008121900269115282, 0.021067413440580666, 0.010812634982232526, 0.03819363268230205, 0.02815240259019275, 0.02772533901080365, 0.020728570330375288, 0.029170256664478724, 0.031682889508151284, 0.02039470063349654, 0.017453655935835276, 0.01067334811628161, 0.004672936835796201, 0.030790289721567977, 0.009936854352661478, 0.024669477078002985, 0.018848629872989315, 0.028625195522908986, 0.020886113563713532, 0.006866318381380878, -0.021520956049456443, 0.016139038060016556, -0.0037703067078922355, 0.027591767079755063, 0.030977975188522577, 0.02889708818581609, 0.03539656107184352, 0.021483946304400637, 0.042397492561171264, 0.008140974886463601, 0.025604004764201608, 0.022707536434878973, 0.01876986599137451, 0.03172464706891393, 0.016457910832685746, 0.028743616204947933, 0.007217671543805222, 0.03388705942446561, 0.03910687435323691, 0.01533412936753075, 0.0005648065488525172, 0.014619724831638972, 0.0011556010255797846, 0.023387052397640124, 0.009923408524655404, 0.014936471077294984, 0.02236472926124793, -0.012603159532549419, 0.022098967033301595, 0.022292038923318717, -0.010331261513953308, 0.01750683530452319, 0.043881874509514314, 0.043980804310243926, 0.04992712562995044, 0.036878158574958034, 0.02022484538152538, 0.016315366998334198, 0.00688546402200363, 0.03774504185570226, 0.007500553457272188, 0.0331860822376958, 0.013284987552187643, 0.030824854743308865, 0.03916646595855981, 0.02975630832776099, 0.033771512966073884, 0.0020553047544227317, 0.019678488406925883, 0.03342212424173855, 0.013166256493972003, -0.015305759907243057, 0.007751717704258031, 0.007622528857369523, -0.012456360520590282, -0.010954507237142464, 0.017170074650627372, 0.01224443152580739, 0.01819135461924608, 0.014045489585040977, 0.0605677072378923, 0.04374363061357348, 0.058612354956077466, 0.03942569709182329, 0.03076532152894971, 0.0183858922087287, 0.0380710125322687, 0.0077324483811587845, 0.03672622644205633, 0.025551918545448363, 0.022466416901549813, 0.008039827419962823, 0.023870509854784262, 0.015361251329672851, 0.038795266934792426, 0.009768620053954711, 0.0168213608927251, 0.021148000165467765, 0.01854838833506703, 0.005986438105852302, -0.02212048751841397, 1.737223089883061e-05, 0.014384931366939423, 0.04482630501826413, 0.026367538922226017, 0.03336777168381924, 0.02543014487289159, 0.04757228612243338, 0.031400909788046834, 0.04930184818487134, 0.02309108601207634, 0.02251422730203974, 0.04992957106085215, 0.024439228526862894, 0.008328213755438555, 0.028649842827573827, 0.005348084223308699, 0.010376445537677942, 0.009617197098044115, 0.027336969110905412, 0.021754275166031616, 0.017192791077633954, 0.021446700982586046, 0.03427166729753149, 0.009513300349314649, 0.018491612969120583, -0.0019028523198527049, 0.007193867116093461, -0.009040857186714196, 0.012107145196856097, 0.03319165266504881, 0.04927779522279216, 0.050935390647946034, 0.05798147864044633, 0.022862499117780658, 0.02278339799099452, 0.05001161131052929, 0.02422829947402725, 0.03735715374302686, 0.04005508913031659, 0.0224363245127682, 0.024267403622411112, 0.03125647147899202, 0.0063567438825795665, 0.030406334166820956, 0.03242716081070203, 0.0214440879604867, 0.011749683309210442, 0.03196774622024775, 0.03131318051377547, 0.01635150044874361, 0.02715089054874724, 0.023824739425901416, 0.030775284113554128, -0.002223638367791075, 0.005796731981269558, 0.007614248886190131, 0.00427901399514555, 0.01877252027746788, 0.06560554366670035, 0.08861724934603372, 0.08505448249487874, 0.023285532368648106, 0.03167092998446384, 0.05157629448787381, 0.043506594542874054, 0.03161141763746589, 0.03881343749631841, 0.02857051158846408, 0.035544900375967185, 0.00039158763162361115, 0.021086749965807672, 0.02171128217376966, 0.02539120284449306, 0.03751569871993572, 0.016501747385919828, 0.018044191592760946, 0.01137759802616443, 0.03530790883822894, 0.005291806215574688, 0.0218199764075433, 0.015211439518153015, 0.007159354606637708, 0.01292351829370376, 0.001397079624186185, 0.017044041439032265, 0.03895400515254427, 0.03324321133299297, 0.07722867685467641, 0.08604677450458888, 0.03195980757785924, 0.035699603831421366, 0.02969679070641983, 0.04830332080065833, 0.021545226982763458, 0.00788809879023671, 0.020980312990564062, 0.025590728395650325, 0.012493417736426796, 0.014876497039187161, 0.02543731454431758, 0.034526964414813226, 0.010262695418516017, 0.008048425689458289, 0.0013591301308708364, 0.018220621378190076, 0.02840132894403741, 0.03871886642432385, 0.012625919359043981, 0.009884820371517092, 0.05128896908733324, 0.01955925108955787, 0.002135720001061387, 0.007722417106843564, 0.012606461838800438, 0.026565470120369767, 0.0793041756589949, 0.11115680548101901, 0.06054058562712474, 0.028480758733857133, 0.03463008104536318, 0.0420257849988198, 0.01498272075618325, 0.024018856191854735, 0.041659279154390084, 0.03736038368700977, 0.03618120044375959, 0.03374276965636646, 0.014746342459466055, 0.02604493153759678, 0.005176761283662523, 0.013436511139838802, 0.012923542444783328, 0.004853221291418677, 0.023832316888145983, 0.033290483830993, 0.030828615013744586, 0.04012235197783402, 0.04618588686998905, 0.06346229366186537, 0.044191809099680145, -0.004956451948221876, 0.029077112931300244, 0.05096509950412648, 0.11872076613005277, 0.08803542200568783, 0.029351169884739993, -0.00366933697446879, -0.005840346300683799, -0.006598694193736195, 0.002602544881692187, 0.0032051325233138153, 0.02284290296344498, 0.007540963679204762, 0.028418383722860943, 0.01764866626315885, 0.00945211664872058, 0.012864032787469771, 0.002283232377924251, 0.024794795279773612, 0.03710199436291963, 0.03359010761152156, 0.013722545664077464, 0.008058598006688445, 0.03555178930008269, 0.04726201093254286, 0.03772452921334958, 0.07341846066481578, 0.0455309349247923, -0.009275067059053854, 0.007808807534560797, 0.09617207750710394, 0.1471360060929115, 0.07106993896846218, -0.013460166354773965, -0.01797261127111522, 0.030642712786791076, 0.018817501799756404, 0.008497803513077133, 0.01598827542368517, 0.036071798937082775, 0.03815663782912179, 0.029987772771499274, 0.03076988179203016, 0.039748643167073494, 0.024702501338713625, 0.038782350539821736, 0.023259137338818833, 0.022499523788874567, 0.029064665153917986, 0.028689611538628246, 0.009178239079424735, 0.03933887580132664, 0.048407792574542786, 0.050697169839642474, 0.030938272986346025, 0.05652006467519067, -0.006400030408959065, 0.024286835475936477, 0.10511186970008173, 0.12230490440067644, 0.04718689307780941, -0.02099324836889943, -0.003199942955109294, 0.013300864481627093, 0.019256580147557052, 0.025989118980818373, 0.02579682178901532, 0.03644992147105003, 0.029895815959303927, 0.006424365626638885, 0.034761953100315386, 0.01306713690795725, 0.016420813038432014, 0.03873752082834446, 0.021677807608185832, 0.03766738531599974, 0.006593873710940927, 0.01821438503290989, 0.04107702239773341, 0.03150220722423816, 0.05517572347266808, 0.06030232047430529, 0.050904281329930065, 0.00789371932167849, 0.024619403228794044, 0.04197383186295258, 0.10155383612284899, 0.09899161357285395, 0.02594515484633328, -0.00961957197871637, 0.02290853121434053, 0.02763474579870955, 0.03761045166063015, 0.013193768206847837, 0.0254977627149198, 0.025984180629542396, 0.04148133041890173, 0.023144683223828264, 0.025311270954539892, 0.036542752737424695, 0.01875207046862177, 0.019243843575169284, 0.014904164962306966, 0.0032645973999114054, 0.037901445791409215, 0.013511276704740784, 0.024444711372182088, 0.03540046755853162, 0.039125558021598075, 0.023539138485391138, 0.01965743473851091, 0.014186991062273812, 0.014785028815350635, 0.04279179754720897, 0.08498804671739342, 0.09756144615988084, 0.053006493595234586, 0.03315380187090285, 0.01170139723377224, 0.029643916074874654, 0.03700994541577591, 0.039053669173947064, 0.030328474573927223, 0.015792889666709675, 0.021761232351829824, 0.02892216889378465, 0.012652058940071369, 0.019357961194318502, 0.023383593057380064, 0.010286929716548932, 0.031231325714997524, 0.029252063193010006, 0.010944224689961783, 0.0002086465757147255, 0.00997434161787948, 0.04387756290777137, 0.04208217910059699, 0.011992934320646067, 0.019857498290271447, 0.04070461085096013, 0.01937348699333928, 0.06894933378353499, 0.09653415902259814, 0.08458015273607375, 0.03192293502572296, 0.02068447812207216, 0.010720080723329172, 0.014666483293851333, 0.002588719220775989, 0.018218549655231602, 0.021063968074008864, 0.04072681876872556, -0.001225192035825374, 0.03158977716789443, 0.0019277777990807567, 0.03568142281085602, 0.003933818700243009, 0.013790855173165714, 0.0057550807132778475, 0.03442969509890331, 0.024000093502433695, 0.030952748069430238, 0.043397286923154116, 0.019964537695306657, 0.029022642349902195, 0.03272050350343913, 0.002533511123671716, -0.006295126433707323, 0.03630994030689125, 0.03629724028075097, 0.049532323780672224, 0.055549106609627155, 0.024723105454409186, -0.004404807788651587, 0.012890933797068953, 0.008562518294709876, 0.03278292497493719, 0.024537422476739384, 0.03170763334572984, 0.016739040958024025, -0.0023280628620362905, 0.03547697386515282, 0.02717844789222185, 0.023649177380502043, 0.0347157432023651, 0.026163426538031633, 0.032396505978831265, 0.029608895285280684, 0.04047677036198255, 0.012383625722157787, 0.009771568597448847, 0.03841660435917632, 0.03149709369843662, 0.016251701543800432, 0.023138127376043847, -0.026395933586447214, 0.018377882313786016, 0.021238523705106257, 0.046449699384817626, 0.036464792958362, 0.034590166362321983, 0.023517265793122983, 0.01118092762920721, 0.006967703601082046, 0.029129273837804785, 0.04344846649734939, 0.02818670193627624, -0.0024928593327548806, 0.03374510581813546, 0.03801525498655124, 0.025933190553027022, 0.024471711788489885, 0.000347281083235897, 0.007341283292171419, 0.031296414440596304, 0.0026672988012621853, 0.03856393238737188, 0.019578700852435866, 0.020119968225022666, 0.035547795717475426, 0.03668223699712776, 0.01999295015529915, 0.005320006226259792, 0.0022719857350212993, -0.028392122880624326, -0.015020477024223792, 0.0420117854970171, 0.026471794337593443, 0.03112310619437745, 0.011010364577640113, 0.014218706911685369, 0.034558576821626684, 0.03336407251626665, 0.008034678296369294, 0.003211183756326651, 0.0338898656770234, 0.02736779089933848, 0.03420101773885426, 0.012644115706912467, 0.016262516704859873, 0.009978143666863656, 0.015438967265166184, 0.03865130415016966, 0.0235009712428636, 0.02661225376226945, 0.002674221622582715, 0.00781960319840559, 0.03340863987801592, 0.01662050994090361, 0.03895892522115888, 0.016002974275711096, 0.01940421625117925, -0.030074266729578757, -0.026429189681518174, 0.010791347289438334, 0.019967271445751195, 0.0013695070521342093, 0.010799349251954764, 0.034863460964272654, 0.033563528703123874, 0.031732419598460404, 0.020614402771271825, 0.007903026837163688, 0.018802717075314574, 0.020620615287118355, 0.01903038354361094, 0.02448482166497676, 0.011470561915522337, 0.03947483430325157, 0.02005296760615428, 0.03594411081592803, 0.03736485547213484, 0.021831187838482195, 0.014738908391696974, 0.023537270282139273, 0.01617957823097978, 0.05271041112833251, 0.05992501551758163, 0.037171931565614144, -0.0024169172589363274, -0.018668760895553773, -0.018083977548622097, -0.02165329173564896, 0.015685629038338936, 0.007200572383026026, 0.02385007157256053, 0.038710672673361674, 0.017567465332200573, 0.037217048860490154, 0.026978764308472375, 0.015347041597615274, 0.008149309362806927, 0.015248909926981906, 0.03240399982190244, 0.004906181307134539, 0.034831665526516946, 0.009757692210439794, 0.0076594237639362895, 0.019279191499028844, 0.0374466827058818, 0.03664004527868837, 0.014699595799791854, 0.020415260638950456, 0.015148836536700575, 0.042358673905745096, 0.038085139077026126, 0.04718556871172061, 0.01594618919782321, 0.02380426481962814, 0.011659795339657001, 0.0007976330361205101, 0.016887082369634314, 0.03615858025048387, 0.03173082653359012, 0.04343037292117519, 0.05498727416255508, 0.03817275548005217, 0.03854891549997372, 0.0038104554386766487, 0.023836430265542417, 0.00995857190501756, 0.006969489042260137, 0.008032125091419921, 0.016820162685790112, 0.0198136544880792, 0.038399750306390264, 0.014018350678429567, 0.01282150225807812, 0.023716888804659827, 0.012748716702253034, 0.020820948193598567, 0.042703122190818524, 0.030357114540894646, 0.046175752505333824, 0.04922905762491722, 0.027583351832144838, 0.014873879642116606, 0.02467504528838024, 0.017596124279430695, 0.01592942478225271, -0.005649145447805768, 0.03943001093107091, 0.04262908025783804, 0.020684297627567957, 0.014379306846356391, 0.03008395891705989, 0.04212747185654822, 0.01276127058450256, 0.009093302946408399, 0.03795055309743401, 0.03252706153180422, 0.005192225731515681, 0.0015843942826153621, 0.00037492890091464677, 0.02894870662543132, 0.007456650786136553, 0.03905560145901102, 0.007671430776414163, 0.029807412536838676, 0.028259070414722795, 0.016508166401257865, 0.031007010564799736, 0.025330115540812038, 0.010246562001146998, 0.01444901803858928, 0.01661970825277692, 0.015762684739862712, 0.02279264215631035, 0.016292237315489632, 0.040249481200125586, 0.03318204757255686, 0.02082945905154954, 0.00574564650009237, 0.0352876939528461, 0.039797924216071257, 0.031056152746501094, 0.023681065109930618, 0.010972348214342321, 0.03315302170042685, 0.02834487035434554, 0.019797866075619102, 0.002668982989134358, 0.0013926089838541293, 0.0325395608878669, 0.029418043299347073, 0.0019910577449401014, 0.022502444171843626, 0.020718366943186545, 0.016596743323979535, 0.015324990316196283, 0.016014584025883953, 0.014317856735787032, 0.039473150812943086, 0.017070850788119644, 0.02150557749243307, 0.01628284483407678, 0.029285969354487226, 0.04478237306846973, 0.02480885774795617, 0.03644261863098864, 0.004270933763346838, 0.016934634481866422, 0.03941979184706868, 0.008626674219231146, 0.0021073523606054516, 0.0366285450598637, 0.018955112490681245, 0.03993136179912538, 0.02275850303275019, 0.03388381758151672, 0.035399640385695416, 0.022359785514307753, 0.021224087370334408, 0.02657144413199793, 0.033192845789081125, 0.026320408288258722, 0.02189431871022308, 0.020390514987989567, 0.02665597732917277, 0.003424005152170374, 0.009939941077040325, 0.02279090783180414, 0.010049139690096994, 0.011603911803799098, 0.013222698912787585, 0.016147134264191707, 0.022110754534777656, 0.030572388582912446, 0.014649868251234304, 0.00930567590100025, 0.014752755901655196, 0.029579361498910467, 0.01998912361069238, 0.0044497386257000785, 0.031439362188742506, 0.010476147141032717, 0.023178139882255408], [0.03861498149840506, 0.020704495886674095, 0.037527860585487426, 0.025890521094147873, 0.008503133658747164, 0.026407657428557645, 0.0027740782831898745, 0.000599136387523444, 0.009826503145598, 0.022495995656815898, 0.01658873367695319, 0.03584351883179178, 0.034739576994451266, 0.03187243714120906, 0.0035447795631759517, 0.017146186067651687, 0.03110054026984171, 0.007609172824330223, 0.03318312152496724, 0.03096360805737333, 0.015318200085077274, 0.03159119616137507, 0.0037496673107731537, 0.03695674894250799, 0.006693794496787913, 0.01628633405058045, 0.038010417571862555, 0.012533153341321317, 0.01796393741364244, 0.01501631048156379, 0.03180367243982499, 0.022239868764385218, 0.021603996213462786, 0.015134886600237811, 0.03372787017383122, 0.03719168084723575, -0.0005466102155033479, 0.016932137677726566, 0.009347316381440979, 0.018910928600110857, 0.02076959024596689, 0.013243555266606064, 0.002208741459727502, -0.002457718061045098, 0.0060014005059633455, 0.03204069403890238, 0.007898173197547563, 0.020627838611999228, 0.03511396179264435, 0.023591012783105075, 0.01518970850922717, 0.004898741260040174, 0.0037072971651541603, 0.006528971453188907, 0.026231473725451877, 0.023154382664597024, 0.003855276923884054, 0.01988259897399722, 0.035689320504583434, 0.03231635658030748, 0.015048054816673486, 0.014996713162148923, 0.023938688261471348, 0.00036262879682405795, 0.021379107780310696, 0.009982917828265247, 0.03031404483080843, 0.030948235279071423, 0.019502473012297006, 0.018441099495157307, 0.010268788620916082, -0.002111216476570183, 0.027616431980434876, 0.03149010640628674, -0.010744419293741678, -0.0172588004863926, 0.010612787801419306, -0.0005297815234603291, 0.001768883844272229, 0.008926786938686688, 0.0069558249319972695, 0.025089776052256377, 0.028701676968427552, 0.00904467400057035, 0.024506926328393682, 0.03332215784252568, 0.01069032615585415, 0.005377166696659214, 0.014247568666959967, 0.033629374731005086, 0.031240524487962693, 0.03039158965961287, 0.04813847115299462, 0.079817383731088, 0.11684813496361607, 0.15085458183248518, 0.19840443826936593, 0.23137547086656501, 0.1610002775459334, 0.13417066859632645, 0.1729487311321752, 0.13749869494199948, 0.08516910325271686, 0.04846446169138159, 0.035509297324774876, 0.02315480961287734, -0.017068541410456918, 0.00496522380296429, 0.030212123170487964, 0.032194220551773546, 0.006033709838038255, 0.004900394307898616, 0.004826381448500152, 0.034576728495762966, 0.023818066317152182, 0.02953444716832168, 0.013860776773255472, 0.07564678380188071, 0.07644140312679289, 0.13373604715039145, 0.21357081613446657, 0.3297565428127342, 0.3780183389921714, 0.33774676404470727, 0.2741175240798217, 0.2220381443661561, 0.07170476027829377, 0.04567724689305968, -0.024278278779424577, 0.043497071266616436, 0.06512559917499999, -0.011402183657972903, -0.04688197929086248, -0.115267773485404, -0.11916131700791616, -0.08914560238158695, -0.013332633465126809, 0.01996559682630844, 0.027208409541003464, 0.010447967850667362, 0.017579319725900773, 0.020850772298935418, 0.0380015733690611, 0.007902029926354248, 0.0561307351106556, 0.1446761667064233, 0.22995789901089086, 0.2603524677406342, 0.33065948204523293, 0.3163151242797582, 0.3247064803152445, 0.16491180663411098, 0.12190254739192331, 0.19351630079708723, 0.05756061554270393, 0.1494477563500122, 0.19690472055758995, 0.015938749728166425, 0.07389775511614396, -0.013838672002479806, -0.06171180132966463, -0.10446868084355386, -0.2903384922401966, -0.2875838791190222, -0.12481056486033724, -0.01242126865982652, 0.03300555995830523, 0.019490842318033358, 0.020021950014980677, 0.024818617339256124, 0.01804420607773102, 0.04363635105019567, 0.1246554129907459, 0.26536014331757596, 0.3253726971943984, 0.3505220606158542, 0.38391788228847185, 0.24529226663039072, 0.1981984460451482, 0.11764764574345749, 0.11482726208174664, 0.1775574022660846, 0.13467732061108753, 0.10517624538947003, 0.19845024800633987, 0.07874116034987429, 0.11148338719828225, 0.05259758502306783, 0.04369263646684061, 0.03212203383548869, -0.22636840585760792, -0.3423844240701804, -0.2684004012272898, -0.1071705486558943, -0.029394622694493427, 0.010279232160802981, 0.026433905495397862, 0.005615063508297331, 0.04475837148894399, 0.09588226801633941, 0.2605442868645718, 0.36442922096829106, 0.3844355037551148, 0.30223688788431935, 0.23524698567594338, 0.08744596632623167, 0.11263899768370686, 0.20598982049377737, 0.17484134513221908, 0.10850047621062803, 0.012406251778208404, 0.12475369788449661, 0.20320000332142488, 0.08294350798514719, 0.01984682998511383, 0.11306809123343507, 0.032162652507564275, -0.050579397640527976, -0.14545064224330162, -0.30938180983930796, -0.33161816212041856, -0.14116886664690662, -0.022797229162252786, 0.03350415652014464, 0.021975205830545234, 0.02493506818755331, 0.0413008094152239, 0.11389028980143552, 0.2995820141174776, 0.33020718699901097, 0.27684716980034074, 0.24680377041526053, 0.01148362732873013, -0.028882604862470563, 0.1433702875533419, 0.19875744318469354, 0.13460667626206987, 0.1857074045675499, 0.3993711336590416, 0.5072195858208493, 0.3428179191108619, 0.14741316803358115, 0.14426383078253815, 0.03720797708529601, -0.07892564776475146, -0.12785047431128285, -0.11947682257804798, -0.3775446434319954, -0.4249302916881949, -0.2539988873884581, -0.04829813825217443, 0.0217254667102161, 0.003759094109855322, 0.02603084435272389, 0.034554595782094535, 0.15482078048550174, 0.2864496349458564, 0.2901891354681723, 0.10566161168818503, -0.038743826436817765, -0.15203369106893222, -0.23389376338524717, -0.1180433989146542, -0.3801090410939474, -0.22446426764253366, 0.08565882496491399, 0.32348772292646294, 0.5581245186705613, 0.5643206485020386, 0.38572383932044496, 0.2191067513000143, 0.12137248717182753, 0.06289172969159151, -0.06779860496433385, -0.1657700595984122, -0.30331552438283504, -0.39999289198877225, -0.26245975314707004, -0.05439314456812235, 0.03431881053705337, 0.036779718559816765, 0.02351204547388057, 0.04003045901110798, 0.13924273264629614, 0.23557880124018912, 0.17227645011638895, -0.09002622049264947, -0.3961724913592927, -0.4718262481566068, -0.6138676838517547, -0.4910626907773569, -0.5892320460772216, -0.5027375065672604, -0.35767920836227796, -0.05794219275030272, 0.26597310275894215, 0.5626141227655167, 0.4291505007658316, 0.3123671054546786, 0.32315554399129565, 0.3512261923823994, 0.19336473484246347, 0.13742013718562854, 0.020902218846791193, -0.12383689524222545, -0.15884962504198394, -0.020814663039046093, 0.017519591675324922, 0.018738162027357126, 0.03603722297170995, 0.03278548551493068, 0.13591528275105513, 0.10769433044209466, -0.04821249304577435, -0.43924896546684455, -0.7169766128436238, -0.856918610110438, -0.6252938421970294, -0.4840721791796183, -0.40889558388531433, -0.4858878993696105, -0.6021588390413247, -0.516608572405763, -0.09601844903127188, 0.17502161536446925, 0.20260247171669177, 0.1895903302225503, 0.20332047773572956, 0.24376631464900805, 0.19482840652857378, 0.2698150215892996, 0.17390882247540523, 0.05005276577913652, -0.04576073772506513, 0.00941544133573194, 0.03151616957655195, 0.028651969208431233, 0.030839287331712716, 0.03873635153460342, 0.042915312972149754, -0.005585449285426886, -0.18145525148580205, -0.565616544492318, -0.6863035479699071, -0.5903954421808671, -0.3532584270858608, -0.2521284264871369, -0.3264842035857785, -0.3143762474552042, -0.5843518294799447, -0.7410351231172025, -0.3469824879648978, 0.0297264916407861, -0.10843022424065528, -0.1508311290092957, -0.22874012197417284, -0.16513401499147978, -0.007986825839940809, 0.1606397298348508, 0.24571512932560757, 0.17044449763636652, 0.018885744102331795, 0.03048884687698566, 0.025951065450523832, 0.03301765189773413, 0.03765730002031381, 0.02526798884396338, 0.012712326798337871, -0.019325314048709036, -0.1657493820225143, -0.33973245733611973, -0.4434299188094967, -0.3078646290979767, -0.12861608305336739, -0.14904322509210613, -0.20757917531552583, -0.07080336912301745, -0.40017741435915954, -0.5897343558012773, -0.3583311496367805, -0.06182147992110688, -0.1296233713933681, -0.24521112660095692, -0.37546131158804397, -0.366552400190785, -0.06044636620482052, 0.22959376315458088, 0.26697670225159276, 0.1794232158996439, 0.03126407201513496, 0.009969627867465676, 0.032327715957783894, 0.011014709130719067, 0.024478656017078937, 0.014669200732787515, 0.01848759013783297, 0.017503086332900587, -0.05486709073830069, -0.08153490548883957, -0.014727400340287964, -0.0005104874474991684, -0.0016288922903300838, -0.09438420349615735, -0.1112452907207486, -0.17718843006267304, -0.3014029364158161, -0.5109724765850004, -0.3433342917921429, -0.12070786721110936, -0.06431008040684598, -0.04884018217536801, -0.10949800511963935, -0.030114878365772032, 0.0966158425114933, 0.23250823714264726, 0.2543150655775017, 0.13782475324836044, 0.043010983269324954, 0.04606023453368889, 0.007351099217899547, 0.008342393880584283, 0.0073675267335970565, 0.034769572184762655, 0.052639525864711025, 0.08162811878324203, 0.16488180305461902, 0.14990870053870886, 0.17607679170733098, 0.1500792588180355, -0.08924459247562318, -0.09495137809727255, -0.18269130965108193, -0.16480823615394202, -0.27216284849641115, -0.3485051443728911, -0.11255057487159355, -0.05695238210072591, 0.11242687513012933, 0.1120988966344483, 0.14236653514331674, 0.17642969218874976, 0.2248731892377308, 0.3163192411034451, 0.20623223236857954, 0.10740160810306926, 0.046433496162425335, 0.038442702801768994, 0.011313186676976951, 0.001612001554507673, 0.009558437050074467, 0.02318714704309956, 0.074774278365768, 0.119842159120305, 0.27670263868578965, 0.37030416908233, 0.3462259808814734, 0.07138197300092199, -0.016926288971882104, -0.1573137301396555, -0.14384014310591284, -0.0809666993944129, -0.17193880641673515, -0.22016364482130424, -0.11951049310356684, 0.02437419091082581, 0.10175901928595064, 0.21430462833941608, 0.21964283483091018, 0.280367322091688, 0.28342077768587054, 0.2756255918573217, 0.18967030157356626, 0.11700243967515409, 0.10091574786275963, 0.06600492943260293, 0.023304451448866607, 0.03271552435587321, 0.01243652674669708, 0.04769240047667269, 0.09606879215288792, 0.07167009592387867, 0.21969241966420694, 0.29792762099877523, 0.27437392546319883, 0.10036864532524066, -0.03494999139406274, -0.18159710991329475, -0.13822995305597494, -0.16909326841484665, -0.26757334676023947, -0.15603110759786204, 0.030017290021410806, 0.1407098317927279, 0.2157308936537924, 0.2632544017044915, 0.22344244478941486, 0.1657860084415969, 0.20132432997496402, 0.2032416523893085, 0.09831632707797493, 0.11779437784534802, 0.1257610238033983, 0.037128527390196404, 0.0468922719705693, 0.026473009294469604, 0.029926265082709985, 0.04515767737937365, 0.09151769916028628, 0.08725942887170779, 0.09263863454217172, 0.07727243214355654, 0.027322536878973815, -0.021791359272999473, -0.12442613179642839, -0.11331802227322572, -0.18739449999686625, -0.1362782937318869, -0.17059278082146434, -0.10003551515859378, 0.0629198859200439, 0.23333142869541562, 0.21651853646490368, 0.2385905527404223, 0.24143105868532966, 0.1340904208768716, 0.26120303961022917, 0.14143275429852029, 0.043501283945011966, 0.10246119174015429, 0.13890879848803794, 0.03787750934780858, 0.038898431918396766, 0.021930276205065827, 0.01733419713727227, 0.026976280338705118, 0.10416920803175962, 0.15592105396655206, 0.1158215676528531, 0.008037085116719267, -0.024187860093914274, -0.0906919181229405, -0.07347287552089124, -0.010633182582932643, 0.01916586225571245, 0.027201815726384346, 0.025463642639582434, 0.008357177569966607, 0.05497720913140416, 0.13971468179037586, 0.14629509388201173, 0.11638317871701524, 0.14309934094888482, 0.1272254322193269, 0.08934689734928795, 0.03706362120353821, 0.014689831673020893, 0.09656836824863053, 0.13577418933418714, 0.02801383874888842, 0.007709788383280659, 0.017936535581146693, 0.003547730557947127, 0.01948401803375969, 0.14379743893172556, 0.2323075614858745, 0.20330011912090493, 0.14082729348941628, 0.04672270632696809, 0.031194200060047396, 0.11171738724536898, 0.1099106995874498, 0.10528046962602844, -0.009330815602076471, -0.02064736789531727, 0.12624408111704133, 0.13972254712894516, 0.05199625655124638, 0.0025229694460131564, 0.13013526904721665, 0.1204143653095022, 0.1327516917891521, 0.008362652916443471, -0.06999327653836601, 0.04748153022653414, 0.10298002106020938, 0.06708366576636145, 0.02332662108922285, 0.02458356648883973, 0.0332935503827912, 0.005845004208461009, 0.02899549993902517, 0.10017903411946409, 0.14813134643048964, 0.16074123283413866, 0.1731684518961406, 0.06735074004313872, 0.05903132667775103, 0.0768263155061176, 0.08622542805197922, 0.0814503837045071, 0.10169923996251294, -0.030564212956212786, 0.02521400749740369, 0.056001310064015875, 0.0042595466681546006, 0.06506061106756983, 0.16401171079292726, 0.17386109950954992, 0.03760481963259364, -0.08027695818425602, -0.028970487118976682, 0.047501787096478364, 0.08876647976500991, 0.061888841692861726, 0.02703400473360654, 0.03425037616695902, 0.000441252364284265, 0.00014156718774805888, 0.01962837807929684, 0.08636508029177058, 0.16733288572059654, 0.16877552441125965, 0.1435757543995758, 0.16774180775661457, 0.18900390631502983, 0.12342796515535275, 0.06361778277555602, 0.056645283500504115, -0.06995603622566303, -0.0695111605141848, -0.047183786230242664, -0.05570568886836208, -0.03054435119487129, -0.05712332840968502, 0.016952762463965956, -0.028925442434279813, -0.04799903421675189, -0.04127448672406939, 0.008469843182314158, 0.01796725667772221, 0.025185708695559063, 0.02878871861118998, 0.013927339810688246, 0.004317269579457598, 0.02507993715980731, 0.004707159181818051, 0.021741975508380886, 0.043364666755162054, 0.09441998913864581, 0.143301216509772, 0.11588526167424897, 0.13100299058518944, -0.022895550530342354, -0.04411220715437544, -0.04643168175821653, 0.044963329300053353, -0.007348718425967482, -0.02491754366217821, -0.05203605898618731, -0.044387188877114375, -0.15820193937431148, -0.21532307058892686, -0.14350566641042123, -0.14065909215006106, -0.0794424772413346, -0.016267300321268344, -0.01377290105892107, 0.011244626742199334, 0.038397912058343454, 0.010697190152501465, 0.023966115477999175, 0.009100609318150753, 0.012060314947331527, 0.010557870450011542, 0.02698291374725683, 0.04143688311867258, 0.07116284376972061, 0.07093390291393856, 0.089210930138843, 0.09850816071267347, 0.02947185404872919, -0.026208631044139896, 0.0661486190893347, 0.14447265465111525, 0.13607594607930676, 0.1505427613347692, 0.12604881349954114, 0.001040268972187122, -0.07511626974746827, -0.15786471660685605, -0.2760707806838388, -0.2121831706958622, -0.09340130462971884, -0.04935170854028204, -7.94307798014179e-05, 0.00022117806631467864, 0.0067288254023419895, 0.02383524242721451, 0.03531816556781976, 0.004192941435106784, 0.020848899987200114, 0.03698634561788836, 0.003121354394081, 0.0334420492647127, 0.04182538724111119, 0.06203661076112581, 0.042810242724474847, 0.10049796034500531, 0.10828984905866032, 0.13062423487735697, 0.15894076726181186, 0.14409494497782996, 0.12804063740095245, 0.12385303691525214, 0.050283523037321455, 0.03762193690411473, -0.012135502084785942, -0.05435757742509051, -0.09212997865907745, -0.10271132384749555, -0.09135989597882388, -0.05320900580645014, -0.0005283204980255779, 0.023037128746189163, 0.038740899494037695, 0.005288157658250711, 0.008346867894638534, 0.013288225418466432, 0.036668263025899685, 0.031916970080982175, 4.743383575165367e-05, 0.03519184125515029, 0.020442164079658487, 0.028787565227260725, 0.036283775036686894, 0.058444422511993464, 0.07486071268100815, 0.05910897933874872, 0.12732733124841875, 0.0977182263077035, 0.06965225555398302, 0.07438070966463649, 0.053955531900437066, 0.08560524394644144, 0.10466305515386386, 0.07202916979712541, 0.0211559775277418, -0.003896845529660859, -0.009958334530295215, 0.008691374910897253, -0.0007598369506453135, 0.004755309296891207, 0.009631976983776087, 0.009232635146496717, 0.0010245946403601982, 0.03953215008085196, 0.0025593162487909387, 0.01558843809826658, 0.0033475855944664953, 0.018235030128348217, 0.016944386175347076, 0.009064015561814336, 0.020414658454975688, 0.0024135843908381816, 0.007093582988810355, 0.021319339099319035, 0.03572436379967042, 0.03702346116664204, 0.007864821527016145, 0.036621307923231844, 0.04563750042015087, 0.04393188047383123, 0.05341366028073327, 0.01775531615428724, 0.0293924523935244, 0.020371370647070963, 0.02732968867380199, 0.03524416139477807, 0.031219581056335162, 0.01653039022314987, 0.025501562830088833, 0.029098617976071942, 0.016637205972621687, 0.006391819435390406], [0.014951139795488642, 0.03484754595883747, 0.011004044342623384, 0.03745920076273222, 0.01501306035282542, 0.024867141876146737, 0.01581806971010526, 0.035585516623045294, 0.002651015603834883, 0.03432820979668194, 0.02938104108193276, 0.02503687970433728, 0.016396733953441954, 0.03026085809070364, 0.03128166563885843, 0.011088942552691536, 0.007132464007286151, 0.022255336847424145, 0.005600155102469396, 0.034167704995570376, 0.023276833241823777, 0.00908478502505677, 0.007300448368514761, 0.028979355783710668, 0.01152017260061109, 0.01986105602453186, 0.015290043028684436, 0.029762181517309333, 0.03925687209574685, 0.030314499680243853, 0.01334871062260592, 0.0021558199396279195, 0.004066551773181796, 0.01533045684550761, 0.008846999863051779, 0.03360920061858857, 0.011814463509335972, 0.0310567634643969, 0.007368455611226736, 0.035004138881455454, 0.03360308906915423, 0.027837269135746218, 0.023527122674579157, 0.020415837423458094, 0.021252976288126075, 0.015034822271568543, 0.03892497353933264, 0.010961846383272694, 0.0230595561818832, 0.009453232978578526, 0.02194353542629658, 0.0360829356502787, 0.013181615787412788, 0.003346944324490965, 0.03222231176360078, 0.002582296607384869, 0.004129203751969305, 0.022420377028948574, 0.024945931267481087, 0.027642162815350427, 0.033615603305850325, 0.030395205970446353, 0.010422730719539655, 0.028234063270728978, 0.025040448800912902, 0.007286687993768833, 0.01573800160980768, 0.029250131492498038, 0.0009570866905911017, 0.02125518212535621, 0.03965194889671601, 0.03901403174446044, 0.02624295329615011, 0.0036051858604684134, 0.015913470900846004, 0.01618655892939583, 0.036920978409734156, 0.021616371806276312, 0.01233990807418869, 0.03980197484087782, 0.0316154265013395, 0.03453332680744285, 0.007042315321597039, 0.02247358020154281, 0.013212852269618948, 0.03488989336968325, 0.028104198861645936, 0.021478790087963686, 0.0013657039701635942, 0.0006023469371305509, 0.032302860094697544, 0.03751101201925295, 0.016317234796876537, 0.007804173217047839, 0.003980856181566144, -0.0027144441238603255, 0.004671864283257324, 0.003996518706606366, 0.026199035087714415, 0.010834496810857486, 0.010662512093694974, 0.019642696549916204, 0.02238996892992976, 0.006358909525687454, 0.03294041454546672, 0.017134681916361458, 0.02752289563402724, 0.03845342279151699, 0.027805705535011993, 0.01264022330829319, 0.020498791720579054, 0.03712881087869776, 0.03840122159189843, 0.024922381623310782, 0.03848561871278628, 0.022727382862470304, 0.030965670047307797, 0.017592700345246057, 0.012078537748877594, 0.013981231486194554, 0.015928108575901878, -0.009025096928523704, 0.02140457883914437, -0.0007980160550918463, -0.0012163697530154058, -0.016837395266575118, 0.0007358555094987892, -0.008270980473547115, -0.0029160330738694394, -0.0030838975503856064, 0.040094118690195565, 0.04126675336857528, 0.03464459806994443, 0.03592188029652785, 0.024058754402825195, 0.03773602092535007, 0.03671980392187606, 0.006155199974357285, 0.017694690462989993, 0.022684379472317086, 0.029244439732492477, 0.03616961647879442, 0.023771921438831407, 0.021389978240903534, 0.0015608164584621459, 0.01728866766374822, 0.014310652320452066, 0.03688230739254897, 0.015308444753485454, 0.005744674317576833, -0.020078446460619605, -0.0007344747620528117, -0.011094957209004875, 0.018125593802469864, 0.023013268449086882, 0.020735221933549777, 0.010021388876540388, 0.03672857775795319, 0.05302485223817125, 0.05971151248453376, 0.05542119568636052, 0.035934861102584356, 0.044147235932446474, 0.021094623769365644, 0.040639014300647605, 0.025162751420351008, 0.024980261282613873, 0.020649209356612738, 0.011423050761794182, 0.008975378681100996, 0.005054567411316695, 0.025147920131220296, 0.0011363505240066898, 0.016029596822938804, 0.018255115867253785, 0.0188745386682546, 0.007955209464266772, 0.016858538978472032, 0.0011956746888755509, -0.011053276612915316, 0.0140555094619716, -0.011154160391573588, 0.00910020405495448, -0.008352400300065474, 0.008938740147770777, 0.018767470447005552, 0.06179134775212831, 0.035107925533218884, 0.06526405458467936, 0.041411737587125415, 0.06050538316072935, 0.03130355710987552, 0.03402787824198563, 0.042790788068649846, 0.010888807268486827, 0.016387818091402245, 0.03570826336677797, 0.0020960145902339665, 0.03187258750415613, 0.029393089267399638, 0.03039092145217333, 0.006653102976363845, 0.03596164960571485, 0.006000416662596031, -0.0010465266020126714, 0.03357266032544773, 0.025604351868446836, 0.01291421527038325, 0.01278878680976779, 0.021713974995025826, 0.04338646628214486, 0.016662006004685245, 0.04199208881465697, 0.046206556654343256, 0.02702819501265594, 0.048358465953023094, 0.035851599674322894, 0.05618729243601138, 0.056627789780827706, 0.05546793224364367, 0.043260283989685094, 0.008493624729274037, 0.027844606720747695, 0.018987170904152167, 0.00888095569503838, 0.0038409653770245422, 0.011302116191090901, 0.009841975838507773, 0.0347156589798436, 0.04251618174256193, 0.02023607248119486, 0.024455159614286542, 0.0282705024407128, 0.04387603250992564, 0.04813509539937224, 0.05638858389639917, 0.0395863785430642, 0.04789216557604436, 0.024798870305470132, 0.033770981302775685, 0.020863570007134388, 0.03030775955647785, 0.06631524104700481, 0.05342130780421172, 0.04647219366966725, 0.04828569650361469, 0.05093538328332318, 0.02582377226391045, 0.03552461658671603, 0.009516791389134156, 0.034666368322458584, 0.001530744926876368, 0.030161873188148353, 0.0033940192398490216, 0.013077958385263593, 0.014423961048038223, 0.006183178402412337, 0.013243742353848441, 0.012700993525661789, 0.024824098568490577, 0.022256218073055733, 0.04849783405122437, 0.04519165884491554, 0.027789848819910673, 0.04975077030900269, 0.05383513092784076, 0.060157329450642054, 0.07072242988601078, 0.07830909501875122, 0.057629405534047114, 0.0549551758181909, 0.05497396361004194, 0.03922523319525373, 0.03371881674384984, 0.03857968273273329, 0.04468339751724557, 0.04978063826620637, 0.018056807915036596, 0.004644971359600983, 0.009484869935607597, 0.02654286591164211, 0.007260737841579816, 0.035034008831339315, 0.03926650866423787, 0.027194353960854734, 0.022459973247242405, 0.03989578077702426, 0.019784810809238804, 0.020600876582166767, 0.03196390854127407, 0.048965993154105956, 0.0492478159046431, 0.03657976698070785, 0.044374846733112996, 0.09064265308121515, 0.10281241089548848, 0.06721960686459631, 0.043533388977641, 0.028418103999197426, 0.05471697834339962, 0.03947485150983792, 0.01901678915501153, 0.033941071705751134, 0.036706894554126096, 0.03484771560766497, 0.03602104764957113, 0.0024108231995064355, 0.00855657936152735, 0.02036613705092088, 0.011429056865407546, 0.025585169320435443, 0.0174427386861066, 0.008805055114787092, 0.043134325158854916, 0.03546477351951545, 0.04579042512179564, 0.03484410845869259, 0.05631120985660318, 0.03935473694042697, 0.025609729145155063, 0.0461610303028081, 0.04909787325953841, 0.11256357016636137, 0.11268938343203697, 0.07403922274265431, 0.03008118093977653, 0.015890934463442058, 0.025236982619224118, 0.04422649310980306, 0.03342815928837197, 0.01293745622986772, 0.02402543327256524, 0.04343664391090032, 0.03598111749236375, 0.033750166780704506, 0.010669784508992936, 0.004955986993882349, 0.011797927248009248, 0.004634531290746925, 0.026351269449249995, 0.03695412780250367, 0.04370275621388889, 0.03234293272726167, 0.020668511486360907, 0.052040142272395125, 0.06301025180320732, 0.031486901040661215, 0.045945305546745877, 0.021191003111061136, 0.08226476566759275, 0.130571687845832, 0.1065023040501865, 0.03606503474347702, 0.005970732236522911, 0.03448985403222977, 0.007166778849091086, -0.0013223419491248678, -0.010977708393601134, -0.003617995110841097, 0.027543157187290418, 0.005224378962488559, 0.02531661219066777, 0.011016377500427589, 0.019300629471804494, 0.01595800045836541, 0.008732149022045452, 0.02048368226288542, 0.03872758818999842, 0.009470654371510451, 0.0074616090977925684, 0.036635815683857306, 0.051566723574624634, 0.05180949940772028, 0.0493396252292969, 0.04670221591797566, 0.009663005349795186, 0.04392528192229852, 0.08334960973290736, 0.1285160443781053, 0.06419297430086945, 0.025505653127260153, 0.022477431663154725, 0.0055226675372845035, 0.00044431070618470816, 0.017810254716287947, 0.019101165324906272, 0.02339863588565889, 0.006573411433258887, 0.0009500472987223056, 0.03837388939713903, 0.031537483097107695, 0.034009507991198264, 0.033145683306123774, 0.008676366509101707, 0.01084254745584943, 0.02312036604686168, 0.025968095418945226, 0.03689372972125517, 0.044404266652768073, 0.030232113025776004, 0.043673196944951906, 0.02695893088456002, 0.03331861292372031, 0.036805590096670525, 0.028253582234057995, 0.07946042085898047, 0.1234502838430505, 0.07583982923386279, 0.017434682332444305, 0.029442173277972824, 0.019301455711791843, 0.010289554293762345, 0.013407860074274483, 0.018709700917983692, 0.027028162069439417, -0.003504116089949464, -0.0015967339650848045, 0.01691571607602235, 0.029490267767346482, 0.02335555266090594, 0.009237245440783989, 0.036669743824747386, 0.03406792239229839, 0.015023307442819978, 0.02776838781772624, 0.031419882900847206, 0.0230203772395818, 0.028839667334816563, 0.019671638167626262, 0.027472959205148986, 0.03210472057110458, 0.018508014752934482, 0.04398800673046564, 0.12177375888877809, 0.10283737443432818, 0.03947606880221441, 0.013131782296901488, 0.021747594453855722, 0.0072906536473209115, 0.02563666050866728, 0.02605764754798084, 0.031946080880194565, 0.02818951590513832, 0.026984773018088427, 0.029143775491138967, 0.03806244530417123, 0.018797858602584937, 0.027428936703966143, 0.032336293608425916, 0.02148375966775481, 0.014519635880601284, 0.0023979042303875747, 0.038659928091981155, 0.01122185833417049, 0.04071823774820896, 0.006448534581415289, 0.02152353604210574, 0.018000969011994276, -0.00511172446072509, 0.0023552221492370556, 0.048896972055495154, 0.10108246162630252, 0.10727015545215741, 0.06620377171891963, 0.01288309754576975, 0.049652781659963965, 0.033829792680995, 0.014008803730334321, -7.372626827608131e-05, 0.012860933077177686, 0.004918229361368879, 0.023549997985378678, 0.022837305974253198, 0.012382931350444609, 0.021044953468287154, 0.006337046461198649, 0.033112955078134505, 0.009344711429853563, 0.03867352965723371, 0.02842520251214288, 0.025348836457850393, 0.005171438718047939, 0.017758109563436802, 0.027706294503784888, -0.012322909831524658, 0.003292419702155078, 0.024017225243702187, 0.022519058177401605, 0.04210015502805903, 0.10684435648505969, 0.11167422915926196, 0.07003292774751547, 0.009628721199973435, -0.0005667962252239964, 0.02356443828379112, 0.02168670708099249, 0.024330818352198635, 0.02994095758262622, -0.0009359821838050284, 0.003744267857378967, 0.0006086731530044311, 0.035732271615787764, 0.029223016677798894, 0.0066019229571102536, 0.020941853771018277, 0.02129013589673277, 0.006801504727653407, 0.03535474136881223, 0.01752023230229882, 0.0274938324890458, 0.031125756133570475, -0.0015470336106928543, 0.018053257096623275, 0.010433195120437631, -0.0018063318224888155, 0.03013073656153715, 0.06144292543741518, 0.06766224270759569, 0.05833555521647333, 0.05187053648999774, 0.010220849775505901, 0.018976585721469454, 0.01034534766636589, -0.0002425361627719109, 0.0034243403160222627, 0.013087859268027172, 0.026223992956001765, -0.001036145568500224, 0.032547358188749334, 0.018293668368537252, 0.017043879664061914, 0.0007090965847862135, 0.036585816458571625, 0.030167914284181436, 0.012583241328610875, 0.000947227136438769, 0.0315088989633513, 0.022828668706085523, 0.035093186812052396, 0.03206256291216516, 0.02803639703837026, 0.007236810094336377, -0.003185089974379963, 0.002361922984535795, 0.04648279984472712, 0.05988680950144972, 0.06961460262558322, 0.0166169329547108, 0.025476197629064223, 0.022899570525477576, 0.019169928630850524, 0.032399149931208064, 0.002306651454170217, 0.02164343386790732, -0.007764850997143535, 0.03350549900285324, 0.012813787050044283, 0.023148668573639394, 0.030739034929393977, 0.036626533369044964, 0.003894329355865412, 0.02256851762625761, 3.559122754472238e-05, 0.008723337588366803, 0.022050668580330824, 0.015281201359282718, 0.02073818238694867, 0.017040327689629726, 0.048853193887642705, 0.016785362959247655, 0.011474779249676062, 0.00288746467721716, 0.04828655196534785, 0.02891541460223787, 0.04942436020059042, 0.036687727826313264, 0.024743372404200898, 0.02153567674755747, 0.00018729725633969164, -0.0015556803809924752, 0.02840236605692253, -0.00024760443157270266, 0.037506632280793616, 0.029467764633702893, 0.013982954497010388, 0.008104801786867205, 0.006403171934439246, 0.030271220252672187, 0.01778755169981998, 0.0003755139701827425, 0.021221572933672876, 0.009239147911231291, 0.014208399857804659, 0.03276253364480437, 0.037424277802144815, 0.047115165862066904, 0.05861041066190516, 0.015899795611414108, -0.0023839826689751784, -0.00411266607458953, -0.009857922846785994, 0.01937867347797115, 0.016527229197868518, 0.014778282411033645, 0.003464117067624895, 0.014131793263537626, 0.03221426304768502, 0.03413544463507027, 0.02685108687763616, 0.03827518758857253, 0.022089068476383488, 0.005290832955084812, 0.03771054769274781, 0.01502200285100347, 0.020993772341768267, 0.0012072527387303464, 0.024128480026842973, 0.008765161955865951, 0.027753716804423467, 0.010330896330192983, 0.03058394428263637, 0.004503020525157974, 0.007961114000170308, 0.05348288256000381, 0.04478467069265777, 0.0539215653553758, 0.021853167639395415, 0.012156640982176866, -0.009735756343385254, -0.0019166016424342481, 0.036552066717244064, 0.03772614432301866, 0.03628658965626442, 0.04803690058304935, 0.02574184039225572, 0.03311217579094742, 0.02124687569872966, 0.01896522070556104, 0.022643831499710467, 0.011843111723562406, 0.011719035992830964, 0.010204509366993535, 0.0030851967280488427, 0.026502545345697126, 0.03648503363791431, 0.016490937062930207, 0.019205979258003783, 0.02423557606916861, 0.01579996154921034, 0.036851670410599204, 0.04493027462773149, 0.032757388840421814, 0.02656626881466087, 0.021222580380371673, 0.023944786001601572, 0.038435573429042094, 0.02066205188737988, 0.04780223947284014, 0.06683196621701738, 0.037538596148699865, 0.046377752394225924, 0.04795265621501158, 0.05134849840936458, 0.00655760554074917, 0.006176722635799643, 0.006755069062640972, 0.005749937308025256, 0.02976212833249104, 0.0013723272148695505, 0.01209732898846444, 0.028776461154789188, 0.00993229892313267, 0.019938956378192967, 0.00736155547007509, 0.00990391366815135, 0.037233778979035, 0.01846554660840397, 0.022831954716407643, 0.040742820882004774, 0.04365568814276712, 0.04334976971136716, 0.02917907388705242, 0.022771187882881832, 0.03960843063711474, 0.03895661550570524, 0.03229719994254323, 0.043094804185735115, 0.01252020673800759, 0.04143879192554364, 0.01203076084592237, 0.016406359034681323, 0.03599233723046498, 0.03322611513525983, 0.011557879654298909, 0.005521617649645044, 0.020114917927846275, 0.01115097955688677, 0.0006252720964088405, 0.031731734859955084, 0.012442666097396594, 0.01984268024684449, 0.01864678038984675, 0.03675134043792248, 0.009751465115869037, 0.02829652608015152, 0.013640224427205585, 0.029882199043135604, 0.03879564267344879, 0.02643108434000937, 0.04460971463091382, 0.033775989384759446, 0.03808624536390089, 0.013751006459847706, 0.021202597368931302, 0.03435290945746263, 0.026771823230404796, 0.03353551396779222, 0.018005046150759315, 0.024135817432916987, 0.039396204171095434, 0.027518952923001654, 0.022768657314013722, 0.007568157518339552, 0.021477682188746162, 0.001417627153094561, 0.012751857592500722, 0.028192972033100918, 0.011965186617197518, 0.01652123706784096, 0.014938504373051659, 0.004826440315984564, 0.029407008908084654, 0.034468729611965065, 0.024303974539813835, 0.028399265777412936, 0.029288305388264425, 0.04093583377372956, 0.030103781655039484, 0.04101743741279739, 0.0055868956676215125, 0.019474490784377893, 0.022821000614135875, 0.0264740859499572, 0.01578170137182685, 0.042318167325847686, 0.008000928113901259, 0.002316135382378777, 0.0033312657215710585, 0.021103701415804654, 0.008740100544258054, 0.010273242006889111, 0.03448372643024647, 0.03777134156684496, 0.025340558416742584, 0.03724388733163297, 0.004376562751990102, 0.03063962833299968, 0.01447561520398128, 0.024217933074341023, 0.019821669415667587, 0.034481655114164615, 0.02794631739889093, 0.0036115188279704463, 0.011901405378332836, 0.01443986171544049, 0.013036936105931566, 0.013486055729882483, 0.03878913346400292, 0.02797702131300923, 0.008133842341194639, 0.020726564053600554, 0.030599612936762683, 0.022494938604291328, 0.03551121889025136, 0.00979727352301552, 0.027443207245722353, 0.0030495021949034935, 0.03950993768228347, 0.013423513887792067, 0.013573119127972502, 0.02063151212787783, 0.01785255628726942, 0.010048505885778122, 0.01763633480552553], [0.035696688390842224, 0.012937388451833176, 0.013044688583263851, 0.014402656053227067, 0.007086946794844419, 0.025145669234433177, 0.018468826417685776, 0.033390778482435775, 0.029727994301319876, 0.03333781715465019, 0.019717669540143052, 0.004380901989730753, 0.027292481291868287, 0.013349458789331047, 0.009600652552265462, 0.031492313530992855, 0.038469510024845784, 0.03907583949832204, 0.02014236235547374, 0.028068852466334594, 0.020089215918326464, 0.01445698433150266, 0.004354998513909416, 0.025624956611327243, 0.02995926950238178, 0.03947384619567963, 0.026411041478134965, 0.028217994491572997, 0.006172381897142381, 0.005047190319812961, 0.03306813232997668, 0.0018147661442406205, 0.02784471941366761, 0.037015543637441375, 0.0016807598273795147, 0.03076299082831579, 0.024200685036724606, 0.006163347943372263, 0.0019226825506609227, 0.007470201640842507, 0.03845134641374106, 0.037740538673172966, 0.008573220635403613, 0.005975844669503837, 0.030497907136040336, 0.01313639652904077, 0.03366436290224907, 0.0016936266863197302, 0.03932976477227825, 0.01770044932979756, 0.012760079183576285, 0.007582447638341227, 0.030347732702833006, 0.012960469214430646, 0.03926745423598724, 0.03180808760696027, 0.02253013111040027, 0.039817380344893905, 0.03439596759197397, 0.004935678095085094, 0.018808489319753763, 0.016155506243694752, 0.006350177705698612, 0.02815456021938546, 0.03375468732126536, 0.022761014769318584, 0.0026720282857713227, 0.02366888752481517, 0.019722866424867664, 0.025381458851668856, 0.04994495349118206, 0.04034725057290587, 0.024940921304339815, 0.04147442246461936, 0.04118534246028172, 0.02935878781498072, 0.013941099350048837, 0.03212449855050996, 0.04057649782618333, 0.014975504115279984, 0.019614008699276448, 0.011755988543677008, 0.02732352735565213, 0.018717750550098212, 0.037150725029074266, 0.011431926436716321, 0.018860182644919142, 0.027934372846032722, 0.008846586979639675, 0.03906279883903719, 0.007595157518333476, 0.013575213045946888, 0.0021966392038456194, 0.027930103969954743, 0.006156150968522297, 0.011060670286849233, 0.05216961432328149, 0.05796522745601676, 0.055494245396781716, 0.06095063540625829, 0.04850123877952274, 0.07064470682335115, 0.059038282303455404, 0.05460987152493995, 0.012700330796258444, 0.03608324378223467, 0.017348239872526514, 0.031925270482264345, 0.011244046287741817, 0.02355609566557468, 0.010202481957051918, 0.0171449743724349, 0.03686180729484312, 0.005239548976307981, 0.015364585554640368, 0.013480096795733714, 0.015881501553051864, 0.0075169761566182035, 0.012105563471765545, 0.02563656657413469, 0.019664307244874307, 0.03548340469970609, 0.01677602234291227, 0.020901855185224, 0.0427153683122951, 0.019451394891731602, 0.036715896188435744, 0.003071966352532919, 0.01104757041993457, 0.007012997760486427, 0.024774977601985992, 0.01165852684036817, 0.005040659061460214, 0.018033832463372503, 0.038360851192370274, 0.028388426746639397, 0.033674574678707485, 0.03050320994176823, 0.024030093163266725, 0.012898653744069477, 0.038669997017657755, 0.006981852776787697, 0.01889828557401429, 0.03826078627715355, 0.027539254413702464, 0.021072366049714967, 0.021720613799364335, 0.017027076877330592, 0.033636760718331216, 0.009156252884917667, 0.009027977675701793, 0.017871264782393557, 0.032761544801718875, 0.03194515978604555, 0.0365739461845136, 0.05868548846651427, 0.045367659536822126, 0.01023082381618256, 0.038907267707631824, 0.02293150088505543, 0.018856679344022624, 0.030190213719885988, -0.0010015763192123927, 0.04271752531744695, 0.026493824287413054, 0.006852102558725582, 0.013067751520952579, 0.01161437390579204, 0.02435863567000738, 0.015220038535764414, 0.02049181323504678, 0.01602928727567021, 0.008748188240850002, 0.03312896645482747, -0.0033938071173650274, -0.001094594807806065, 0.003838033426922642, -0.020088127165121962, -0.031953310624024664, -0.048395083849709176, 0.007883004018438743, 0.0021195067859034063, 0.049900376809925984, 0.09830813841910796, 0.06828804641227361, 0.04776638057858545, 0.044172885828861023, 0.040347689747561595, -0.0030874033719980472, 0.009181088718647153, 0.014045527505766037, -0.00016555118373692945, 0.011129689733392201, 0.013648648747909213, -0.002718960071551316, 0.00574011525791864, 0.0025204996213165375, 0.025849004490218142, 0.012298377280363282, 0.03459948829585187, 0.006618730290384456, 0.03587372549770305, 0.015695350407036925, -0.018918553958835457, -0.02509225050120358, -0.07209791623889827, -0.0851780127836565, -0.03532864945617048, -0.004260818980442343, 0.01155291109129264, 0.08416084359789462, 0.11680614387216541, 0.10312636666277179, 0.028464298273210883, 0.02931470045240303, -0.00507699460500013, -0.013055259022122418, -0.006282514349866896, 0.010466946553070674, -0.019656169438460696, -0.0041970610133381355, -0.014096688207581566, 0.008217028581531163, 0.020006798983222305, 0.034271759656485656, 0.020882254591399765, 0.009455223952692743, -0.0007140978024571318, 0.0339761766721158, 0.029958869081006395, -0.00023723038380340505, -0.03656068948655118, -0.04572529793706431, -0.029098173858485153, -0.06864251059127544, -0.025287654094788555, -0.036626295750157294, -0.01653043178343563, 0.025626035340197095, 0.03587487238625246, -0.006580791214647205, -0.046461477196436785, -0.06156646582009009, -0.06727280524514447, -0.08282072831078464, -0.023023646919127214, -0.010973430318168787, -0.034391756458722354, -0.01962842507812827, -0.032949132648431315, -0.0018907468450010006, 0.00131295057714581, 0.005724145273902546, 0.019953906276968882, 0.02622532461766314, 0.032237769248866274, 0.01038898417003981, 0.013629794175446651, -0.0008787880658110886, -0.044077494887719774, -0.008386730185817889, -0.0478479237132988, -0.041800717922645836, -0.046298073616677704, -0.02474543602704332, -0.014051134143211949, 0.028408380863450676, 0.013278008028861447, -0.05533552672035735, -0.0744031273139572, -0.045353799770100484, -0.03524916929033018, -0.058552612718352395, -0.058380451770767464, -0.04135461014462392, -0.026516488925817313, -0.042446976538568895, -0.016492560587562655, 0.019432010983591985, 0.008673961449515802, 0.03293129163359948, 0.013476431987604572, 0.01744605013966982, 0.0341966156944028, 0.010334492800361061, 0.003767316890428655, 0.0011403146421478686, -0.006018760890374114, 0.01609339194829388, -0.023727318244478733, -0.04717694179523996, -0.022597690145831854, -0.03164084364718649, -0.07063667730440298, 0.016964359487454006, 0.025203158486554172, -0.059176720286339676, -0.09086163655554114, -0.013945596344762423, 0.011910656509367488, 0.005904629457959199, -0.018399395178970504, -0.03222238623715934, 0.006687394684300313, -0.006682741674546368, 0.0058495320657557266, 0.029466351788633022, 0.013436580380492622, 0.005432768786778001, 0.01684376865787189, 0.026300561299607204, 0.027323485690976985, 0.036637369461626525, 0.02875781283374679, 0.017105973067738384, 0.014447864507846893, 0.04385774620152413, 0.05066550805564646, 0.03504166382752081, 0.02019444246734543, 0.027579544870659504, 0.03656793853143957, 0.05733289629952194, 0.060774437068360984, -0.03367245436174776, -0.034796041253735074, 0.042596159846931575, 0.06653651450384085, 0.05340610729346969, 0.02043486342998971, 0.033111196148532966, 0.04619825567851658, 0.04137295167615061, 0.024795323583385803, 0.016456940202040693, 0.024443701110418853, 0.03600169497299006, 0.01823451270834453, 0.025767906580639047, 0.014473209682434183, 0.03464635512719592, 0.03283565198039875, 0.042081301637881305, 0.012169054054706552, 0.0255461104046329, 0.0826802224813263, 0.07123431118079179, 0.081788117437403, 0.10636052208677589, 0.1754967739019452, 0.20517417920179606, 0.08968597637210461, 0.01797127413945004, 0.034873960662187016, 0.076904004015423, 0.11260389327261172, 0.050682900519019, 0.026563590586839027, 0.08500907403392174, 0.07241860303888648, 0.057247248330239406, 0.026304998195581367, 0.006299041418416715, 0.012524414419968379, 0.03127069505102194, 0.008852558639426378, 0.005715191181065121, 0.02256968860964688, 0.04959764206593547, 0.04349329806777944, 0.04984982248483715, 0.04036273993605317, 0.0053128895137946885, 0.07146078320903676, 0.07640260584068712, 0.10178016040793521, 0.20727630252202683, 0.24773270237765008, 0.2323131430628315, 0.046489055196441, 0.0014646286223533231, 0.04852309984290856, 0.10713069802445856, 0.09608769564199435, 0.016714951599384683, 0.03564089751128196, 0.06830866364694042, 0.040086504246663004, 0.04318592829530381, 0.031974487468755836, 0.03298096501047994, 0.026445934788069343, 0.03789206834869084, 0.031001253722207175, 0.008322249675680392, 0.021790274906435484, 0.011218967291244369, 0.02904140694093216, 0.06295766840059143, 0.007469066623001302, 0.0015505264294069098, 0.006344151655717272, 0.05566401206890081, 0.11204553636719453, 0.14663785127582604, 0.15937120754857131, 0.1012678887172155, 0.03748335928537664, -0.0004617261584408492, 0.011418878255631747, 0.02497606090204124, 0.015799806255735092, 0.00018238794661909767, 0.03392407503824659, 0.04515274848693667, 0.05981654999995978, 0.04214368845712253, 0.026341329428255265, 0.019635444629439013, 0.03701681944251247, 0.02505763019935285, 0.0027057297197313488, 0.0011450840881098879, 0.025494320583658473, 0.040656140735990824, 0.02900993551729668, 0.05682841307962003, 0.03383087194208813, -0.0004938164845036708, 0.011208688396542595, 0.03157228375557079, 0.03722054378743678, 0.0625793082630786, 0.03923313672387048, 0.04212185841734391, -0.01972256103091521, -0.015867712826928816, -0.005202516615223097, -0.007637875256995749, -0.011848860244811084, -0.0028884571858881418, 0.029387983653086862, 0.02025424474219374, 0.040100047820625505, 0.04636237509640347, 0.03136911526470099, 0.0387729441089293, 0.039079970965727504, 0.03979694719038287, 0.009836975264286828, 0.03928472721253589, -0.0013247109204245985, 0.026914425931937446, 0.0634378480577658, 0.06219187834484376, 0.05536957538146647, 0.03849234862033731, 0.06344597029035053, 0.07369511621067261, 0.0626273547204048, -0.006802387608217883, -0.011389328496029081, 0.02053012697322947, -0.029958906683987877, -0.0025241459762356325, 0.007451714366741757, 0.016931415247982702, 0.020898365972612496, 0.022633354672034704, 0.041617844872107276, 0.05782275992092585, 0.048358652278706483, 0.02620113178783163, 0.0009017415657185364, 0.015150659023084637, 0.02993906875376817, 0.01683865146358706, 0.019686485837476876, 0.03066314553148158, 0.029656377020738086, 0.04173852351045138, 0.036235942559278186, 0.06595458765169775, 0.09778834352006002, 0.1155651532875792, 0.08997632145526686, 0.07977853950806621, 0.023801462693234084, -0.023399389631417425, -0.055645667682757805, -0.07038683353578644, -0.031006131617482797, -0.002520231106100622, 0.021491347051877725, 0.01462707680766113, 0.0634584599230071, 0.07788218108163512, 0.06969158384465106, 0.0663635806106473, 0.026836947474863714, 0.03649420248206349, 0.017636976420117925, 0.02314913497875672, 0.008672284973289193, 0.0165471748218679, 0.022816775438031796, 0.002710964320040125, 0.014949351393546015, 0.03321596214276417, 0.03062842829968257, 0.038807428250907695, 0.056073194684539786, 0.11270301007347718, 0.1072618795692373, 0.04458229449647225, 0.03350353816951827, -0.04086411797657531, -0.07197114525351019, -0.03882939596033864, -0.04281859080082698, 0.0012436027949491524, 0.009325847125887767, 0.06472667552676592, 0.07391472901450283, 0.0655451200433555, 0.09263600567193547, 0.05986804440673094, 0.0045132897934922495, 0.006091295754281035, -0.0007684048683869154, 0.015027764273375157, 0.02133652691316824, 0.01337241171862193, -0.000573775266118205, 0.026763270918436534, 0.022290002163114168, 0.030039414409433703, 0.039497449134037604, 0.04427946864264796, 0.07766767481231816, 0.08213187734328066, 0.0565710911139001, -0.03764692453648914, -0.006428538603636863, -0.06677947645217097, -0.032957884353922065, -0.028991600620410587, -0.06964362477567591, -0.018253961576552, 0.06051918916733947, 0.036823188551904355, 0.06427532444225878, 0.08875682765778513, 0.06065464317948866, 0.04063955592792121, 0.022569757264487577, 0.016089191198281113, 0.01659895433388106, 0.03220356144690086, 0.007421635315943696, 0.03303815163252419, 0.030425644527238314, 0.027480124405529913, 0.012412796886277833, 0.013569168856252548, 0.050497463119156066, 0.06639521183587131, 0.06648310502069328, 0.047618380947161504, 0.005180794489832375, -0.028357092775871583, -0.08161674437053476, -0.07094923959973629, -0.036253563284247475, -0.03260325167016139, -0.05594646141968906, -0.0022638903363830167, 0.041781994630513276, 0.015512626139748015, 0.059359372793889024, 0.0547516416016713, 0.07672466104407452, 0.059808172051785416, 0.04349375384818045, 0.0327572089774298, 0.02360960198757229, 0.022492433522586616, 0.01501955167423637, 0.012369463916698076, 0.022541709157714626, 0.018928357753663295, 0.03478369603624613, 0.029785462630204422, 0.04623382540221561, 0.05434520760180804, 0.040208833695236715, 0.03307025675735185, 0.014607699804875042, 0.00706648324734571, -0.07741246271295454, -0.08831303695597716, -0.06831747817980371, -0.06018110142256614, -0.06550685702097048, -0.048312574247427166, -0.00028923892960356105, 0.011891986486491103, 0.0475979528336736, 0.06829031755116609, 0.06869517354054518, 0.044258293899337414, 0.0194139024414659, 0.0250161733862425, 0.007077645729746188, 0.028373841363954922, 0.026423749941353297, 0.03914126125613962, 0.017255687704601765, 0.004061162277532211, 0.013575094856367206, 0.02639775300222313, 0.031282166119299626, 0.023088678688279237, 0.025261664371147012, 0.04113894100124336, 0.02448677681768715, -0.008139125331035363, -0.060520954245361094, -0.07376492190519293, -0.09951675689795564, -0.10106393923671321, -0.10001248933899604, -0.021858665755790766, 0.003958078238350711, 0.033485048966544036, 0.041750931988234846, 0.04562234745904654, 0.028886505519800716, 0.027853402440312813, 0.012977226871495568, 0.020654872546828268, 0.015492714374013285, 0.014432699570373974, 0.008005879537381608, 0.019508181980241717, 0.006116469600793859, 0.005237791943198775, 0.04248008125667311, 0.015103462288900124, 0.025790021084412803, 1.1918986605918345e-05, 0.03009392077307841, 0.008055401776039877, 0.026950329586109666, 0.03685436792068463, 0.012222217812543052, -0.038868329713184054, -0.0705548495548647, -0.08589227532404825, -0.07693756755822981, -0.02762575324642224, 0.024457278027398322, 0.033928450663330986, 0.02232528994626179, 0.03900706373286803, 0.050387637143416354, 0.028054794062479488, 0.04126996334392031, 0.01685116418941919, 0.008681524632194187, 0.03710941849067266, 0.00017657124123390643, 0.03112876864355886, 0.027239622656300432, 0.001737010693528055, 0.021836571407210344, 0.02086195079935284, 0.03052122760052889, 0.038991500128247564, 0.04797234875764005, 0.06606516261530308, 0.058504603409555093, 0.03993924744627471, 0.027811930954656727, -0.047897935430943214, -0.0549980370781046, -0.06100877825286567, -0.06060915334933886, -0.04148128318945834, -0.022122172627047264, 0.04347993957492038, 0.04481626785382906, 0.024974174571138714, 0.023695683215159784, 0.010914374750689659, 0.021666553902623963, 0.019375043080982167, 0.0030750696638286363, 0.01848149385902011, 0.021517843784091314, 0.015769972094858937, 0.031335632634146564, 0.031009366470979495, 0.0170250276999573, 0.03389337055334662, 0.017699225959305568, 0.026603708961174352, 0.05274406430280586, 0.049437482740639464, 0.05532756390587064, 0.014505356129112761, -0.005138091417885646, 0.0031411910876930015, -0.02341196096341592, -0.015472121092581824, -0.010985633008765856, -0.0028827244641828997, -0.0035652204299418642, 0.013777218296436616, 0.04361972709918201, 0.01537137141473287, 0.01663824715442421, 0.012885845558770578, 0.026094390521202267, 0.017338807374346496, 0.01642186861102381, 0.018069351010462417, 0.02579565070500105, 0.03374542839392125, 0.012549616926177197, 0.011525562646763025, 0.005131026352973727, 0.019810684771126276, 0.03133721384744306, 0.01800216202527662, 0.03411574647843592, 0.04038563968982577, 0.024960541160780853, 0.017755631057392973, 0.032022906932668446, 0.04565284825929194, 0.07369305256107683, 0.02993660248351459, 0.051719722562976835, 0.03017600820806263, 0.04612937817613062, 0.019894598574496918, 0.023481770813583186, 0.02995381771585854, 0.0021585788268355475, 0.026117272993290603, 0.014759431427420418, 0.01835952315701686, 0.03240978749760205, 0.03218439332868952, 0.02582132528822114, 0.036955711272460987, 0.016256116993950884, 0.018071801393919035, 0.012743884837688051, 0.03264213744981767, 0.014499161267946651, 0.004671302423155477, 0.030343946501919742, 0.01666586719359378, 0.008632469952772044, 0.01995904553756239, 0.016773634336862298, 0.016130048413313024, 0.019175085166838354, 0.033100155694134444, 0.006138910219869335, 0.021243800367356337, 0.026316933790013295, 0.017789972742383798, 0.026451367650861347, 0.03003620857548801, 0.019176917381606304, 0.014957901282539869, 0.023997915123750126, 0.014927891677764898, 0.0062000697047286495, 0.024077837780696033, 0.009721701159684838], [0.017937768417270312, 0.027637081796708114, 0.02645947452296282, 0.03633442463432607, 0.011313944738315896, 0.03899040288039423, 0.035962642385878776, 0.024400685546067464, 0.003055683170092287, 0.0397844886886404, 0.01207429609703462, 0.00569755852059761, 0.024772330757224258, 0.007455044998397681, 0.0015104767564946874, 0.034890341385113176, 0.013663533817658679, 0.03562806578079889, 0.03675861372833779, 0.012980890773992235, 0.03358066738090203, 0.022586829534571293, 0.004984211828383534, 0.013110424440990465, 0.03549033062157558, 0.029976432926535665, 0.007723454363031505, 0.027111457773210206, 0.03973892965188054, 0.03685768318525819, 0.006192358397649937, 0.022280119934238597, 0.015569737935197784, 0.002383842660488748, 0.03745037253605651, 0.013931875971429053, 0.03468559133439734, 0.050510572507708726, 0.052588918736223074, 0.04358965520875987, 0.04559910549071356, 0.025135216721467322, 0.014555314080964523, 0.05941514009842351, 0.049782672443115156, 0.037253553093856924, 0.013401067036038493, 0.03832743764551298, 0.03248527663211936, 0.03434478117267835, 0.035058553965862674, 0.006995986437440431, 0.03274269434464932, 0.005029389664587535, 0.019959832894806663, 0.007378493342789963, 0.022011617457281363, 0.026372577736444535, 0.0008116065868015591, 0.028951162247942412, 0.018745686987951923, 0.016220727466435648, 0.038333556114414205, 0.028217101569403533, 0.05937054229218772, 0.08008445148388184, 0.11437746238692142, 0.08535852372845806, 0.14321003367196022, 0.11440791948580592, 0.13194811328262393, 0.10589621051516035, 0.12343514346809904, 0.08490482492501142, 0.08229960725669389, 0.07184027247397519, 0.06990877182707449, 0.043196128175489595, 0.0463547989712681, 0.0231133741656829, 0.03898936876935765, 0.02828807400857693, 0.015486776677059626, 0.0146912849882665, 0.028238673327833537, 0.029203353819852413, 0.012792913568397048, 0.01502391731215352, 0.005775368179326962, 0.010227895840647216, 0.0658100439333012, 0.07515650620813687, 0.0865811301573951, 0.1328284070723349, 0.16672986691350578, 0.21117260555531256, 0.250655322136954, 0.24802798238639165, 0.31615015987414485, 0.30260772690160326, 0.23757289804731815, 0.23839434122016367, 0.15975181936305538, 0.12412877785189182, 0.15097282904501771, 0.10548762892377557, 0.09786521977146175, 0.06351116321970238, 0.04606619447500382, 0.03495477735209192, 0.023849682509085517, 0.03433212174809307, 0.0009604266919457906, 0.02476359913603129, 0.03206939040697175, 0.00873785881927976, 0.02562748377639591, -0.001032886345094225, 0.033563081239376714, 0.0841020155599245, 0.08013575891678897, 0.15515804918001508, 0.18638417229342913, 0.19036538097902908, 0.19254989304030043, 0.2186705658614376, 0.31032314997158955, 0.2495689132647104, 0.230662974571426, 0.22977850241426004, 0.25930732692444824, 0.20773396702054275, 0.12641021875553918, 0.05896618142958602, 0.08942788559603412, 0.09302943676981938, 0.02327147390653125, 0.04022853206257364, 0.013186054029571214, 0.022344700471406843, 0.022842426937933223, 0.025393712770427904, 0.027127176790497688, 0.0395778611339571, 0.03352329382372388, 0.02789618302633686, 0.03504336388078006, 0.0710886321140956, 0.101465932302157, 0.06599709433531807, 0.04849966605660174, 0.014569113543558545, 0.07189130855653543, 0.10216504667579834, 0.08648400051044905, 0.08331344305836139, 0.17088778942329255, 0.09733979462051406, 0.08949189351438813, 0.13918700234634812, 0.040632400449976104, 0.0013401283006373276, -0.04771332321713436, -0.03607370289423092, -0.015618879234050613, -0.03003787269600681, -0.0039961499110773, 0.005450389559252048, 0.03136476840472687, 0.033794392766039114, 0.009548133918543878, 0.009984346962088138, 0.01607254519125446, 0.03614434405142027, 0.06875937976994169, 0.10334050033468144, 0.06676992244164097, 0.07807306822751903, 0.09572557981012199, 0.04026356294485877, 0.03685340751757433, 0.01498686850442901, -0.08217483345782982, -0.11891755726805393, -0.044839482726231276, -0.08437362672272912, -0.0706955455998969, -0.09577875782888455, -0.043000110599266006, -0.05197107669125902, -0.10636372558602385, -0.18214595099668052, -0.1610528896260986, -0.0980882930756039, -0.013085354924502718, 0.009827352955001398, 0.006876910155155321, 0.02714190913792074, 0.019069065395989456, 0.006599919609692949, 0.05814323519913866, 0.07736937422267261, 0.15146258701445323, 0.18152583511883258, 0.12195964146058043, 0.12121061842522826, 0.13996116274884032, 0.11246808315120202, 0.055904390627924794, -0.03973248747109117, -0.13207045591620253, -0.19289716333197304, -0.1632770289049638, -0.08616891367396962, -0.1185602762695609, -0.014181425438259494, -0.05901566068831511, -0.13277552666167197, -0.08493707542947154, -0.13661950238050932, -0.17628686317825695, -0.06944341558297039, -0.003876012533816348, 0.01675687448414464, 0.020825512135185256, 0.02097076622853693, 0.05329168420710096, 0.03946071349836665, 0.0853438831602366, 0.13608484387390266, 0.17574952896089308, 0.16521219422100034, 0.07738608024533636, 0.07159423548464972, 0.15050866267799887, 0.18982416844568534, 0.14891069302486928, 0.07485122476568813, 0.0843624380360337, 0.04521548829260504, -0.03433468853199317, -0.09403060232779616, -0.10195173990565637, -0.12149352818737703, -0.10506675805291059, -0.16902360290412122, -0.15228586766501812, -0.10259871260796784, -0.19720791700671836, -0.12584138473601095, -0.026461604981526443, 0.010029801893699937, 0.03549076906315072, 0.037772757471886555, 0.06317005351465997, 0.09358600296538407, 0.1438305818524237, 0.14199147314052302, 0.14278636109388548, 0.08741267603020356, 0.004911098277469505, 0.004577592888853337, 0.09416747361239962, 0.08680063612786518, 0.14945213012359304, 0.15874535577172683, 0.2652709203259052, 0.1551394079379478, 0.13363303168872764, 0.00879113968903825, -0.05868357203267818, -0.11986697076922181, -0.010956200942789327, -0.049172786928087006, -0.08963412882702007, -0.15390473080647357, -0.15129714628597488, -0.09726334250107588, -0.009703908944132094, 0.020871983859004226, 0.027076535484603603, 0.024473182525326886, 0.0662400566580018, 0.09402436321300771, 0.15976653704119884, 0.13392676426933223, 0.05982858056062769, 0.05980698646146714, -0.06277386059025111, -0.025105867537396326, 0.10297696654892038, 0.12403444319638768, 0.21261942576565404, 0.5435025479203076, 0.564458112180773, 0.3345537573602393, 0.13094155531565596, 0.05237589658741528, -0.04134578016797192, -0.025735716913679246, 0.12355078652161783, 0.14119794693866164, 0.11729903091993858, 0.040799424792611685, 0.0061854614346416445, -0.05976628423467489, -0.00782370238859592, 0.0051039185101058515, 0.005857461046131517, 0.03622456349929306, 0.08048718857799127, 0.12929187316408813, 0.09884835938713053, 0.011278779450384954, -0.04879793980293315, -0.01994836696954076, -0.19092312834956093, -0.060180191361291165, -0.03510980636735631, -0.03768168043146247, 0.255320679140364, 0.5132325762691685, 0.44337549609798416, 0.25509757978470493, 0.037842508587318344, 0.013673636765018662, 0.038761838374994056, 0.08710896066542229, 0.1209407350154749, 0.14577206982145086, 0.17203956017822494, 0.1287744488515512, 0.09412414464224421, 0.006092700821436446, -0.009751001012483282, 0.01920896348059753, 0.008515918414277412, 0.049366515947163694, 0.06044219900067732, 0.11972458604669176, 0.03139878658174383, -0.06081738901863745, -0.17403695666805213, -0.046492620157628256, -0.1802622356590591, -0.2230660670586754, -0.261964343095305, -0.3528244848701434, -0.17884078008746088, -0.08939246749715238, -0.1854385185370518, -0.054351305982867526, 0.11031319349750962, 0.014609306047732475, -0.0036832156938720376, -0.1251675866399504, -0.04136073060640851, 0.02137315712724801, 0.11589396404566314, 0.2178107586534033, 0.19445609025805635, 0.05676088423000377, 0.036767818288715004, 0.01715309448924415, 0.01981345993389016, 0.017862286922750718, 0.05651593274060878, 0.054753781950601765, -0.054119383072519754, -0.16614186289550772, -0.29547029504011096, -0.30405637880064407, -0.33072608666550907, -0.29208259365446276, -0.4736528555781584, -0.6100346278827421, -0.5328705810501957, -0.4920342473782462, -0.39623924133692495, -0.0646716905050215, 0.014439310112521253, -0.0639939503238197, -0.049823530349562585, -0.12185898414755264, -0.14715828810262077, -0.07087748680183387, 0.17987448829024777, 0.3285678488522485, 0.24305283734844674, 0.11132823094689147, 0.006116869667430508, 0.01814971433880142, 0.020626342160105417, 0.00022557927041247396, 0.039151131865748576, 0.028298637460600008, -0.0881904915576133, -0.20279928499250294, -0.3435919641717424, -0.40688431960540655, -0.3120830793657544, -0.3416165498686925, -0.34393265173552157, -0.3384269141260909, -0.3427941400753408, -0.33119125492273155, -0.19068254342523536, -0.031217046915100233, -0.08613369019186602, -0.019703841161664806, 0.146922319169113, 0.09611769258095956, 0.000377944295805907, 0.13826117288209752, 0.2737157024934779, 0.2881549474277583, 0.15067722103262776, 0.09824646220935433, 0.02790804471828041, 0.036394492673901366, 0.015228442492021509, 0.020051362385223866, 0.004686375128987221, 0.006183416740503685, -0.07338276254466182, -0.1432050928907904, -0.35070867622968205, -0.3317703772699154, -0.3989822972324731, -0.40676864905769466, -0.2237069287892547, -0.13843365803434765, -0.207545280289451, -0.18777695159429314, -0.14133578899597, -0.03377777663370942, -0.1773623727178973, 0.06874911794786875, 0.2786795500897721, 0.2912435872731995, 0.3198494488107195, 0.2557713920699371, 0.22301060754352492, 0.19651055354639516, 0.13123457221391796, 0.08229258617669713, 0.02251034956987821, 0.03970240258799642, 0.0028021192757611787, 0.016691983224667955, 0.03445553644697187, -0.010725918045280834, -0.041832649679652764, -0.10417143822522316, -0.19044809030285903, -0.3086394787001461, -0.3112725750193076, -0.18491859384185239, -0.08898615361762482, -0.02185447837812045, -0.10311366120041997, -0.03129642589761378, -0.10893105972864843, -0.1516442615510261, -0.25804058111701583, -0.18504765620729122, 0.027813853480790428, 0.3213467468668915, 0.33620435700015155, 0.18021170359697558, 0.12986789553320705, 0.13982656936983937, 0.1120582624837985, 0.09564766940090076, 0.016218699186033282, 0.0179580650283455, 0.007361698915901337, 0.006455629363063884, 0.0328545939249588, -0.023237040087197642, -0.06140886525660216, -0.0668694270177172, -0.07613284658240986, -0.15609925728519675, -0.17336442341042554, -0.09258900887261196, -0.08012015986241625, -0.05756694407524705, -0.19676353831585933, -0.23950545866970446, -0.1581376133013084, -0.25515458496093724, -0.2245463519678123, 0.03281109731086815, 0.13651399985625595, 0.32740178631957384, 0.2209263495266754, 0.060687348166916316, 0.10865374788439623, 0.06730629307080943, 0.08223281023726041, 0.056759534137979954, 0.037981023929587215, 0.024698708690403873, 0.022528104435505857, 0.02002654860711785, 0.03657244003552329, 0.007468096887576813, -0.014330460405787887, -0.057993303619727044, -0.03342897336636383, -0.013956664446040783, -0.056185071788520356, 0.01731162053054994, 0.12772549195906924, -0.021308776828880275, -0.15013321425653217, -0.11095752545845486, -0.1348114712515397, -0.14123519423532035, -0.02948932906622965, 0.0986569877409313, 0.12810615191882313, 0.22584971753998886, 0.06746441212536886, -0.003923644279247213, -0.010116074452236208, 0.017350340914723195, 0.03625618461930663, 0.05751084721891094, 0.045509786785784496, 0.0024669196802481774, 0.03822850448215203, 0.01404563755311061, 0.02222793678454992, -0.026373341056120388, 0.02628190431968471, 0.004732990482374429, 0.036035188997259646, 0.11962763736256085, 0.22404975226397128, 0.3247131472004535, 0.3650489092522979, 0.29303779439311, 0.2879530348193791, 0.1727944943357206, 0.2248820316167897, 0.1637002323656166, 0.1753533745225264, -0.001102613889898377, 0.006174473793626191, 0.07981410853999428, -0.07054842606488623, -0.12298254017548846, -0.05428435749717205, 0.007827186831426025, 0.00476875213184697, 0.035034721676203924, 0.019589612404605883, 0.023684527017024448, 0.018817281219174798, 0.014975747358531771, 0.030203672895055236, -0.009503500889268365, 0.037450653015175306, 0.04899557996782433, 0.10610127289807512, 0.19562981039124352, 0.2993242428632352, 0.4679197001012387, 0.5540339618112168, 0.45988902874301585, 0.5094355749251628, 0.4002999448553675, 0.42877428049912775, 0.21444418002157262, 0.09732524333280143, -0.00258959758834413, 0.057315510848783405, 0.04241877363909789, -0.1440417361311282, -0.19459226213236985, -0.11173306989978185, 0.0031743685271468686, 0.05332256295396878, 0.008130293921116038, 0.03682514316290557, 0.001728373170746182, 0.03527826430886679, 0.0030889501780902106, 0.0005828862964586259, 0.013096798794130934, 0.020371208019398863, 0.04911916432833268, 0.11028298290972177, 0.21955315576489176, 0.29032962803771434, 0.36830085340968, 0.40706508055585827, 0.379765779216575, 0.3549275146779259, 0.2970866049032717, 0.2933159779468405, 0.1953547559068397, 0.06871225570123815, 0.10257993257617339, 0.06165939172335435, -0.07936074934801805, -0.22652487077805544, -0.24930755526030832, -0.13062984257197732, -0.0068291663604231655, 0.04870696684872418, 0.03873169482167169, 0.008688714767289944, 0.03776144036062631, 0.03218757988441925, 0.005936528425575062, 0.002210158667369658, 0.026713825523067156, -0.007186580702822382, 0.042286762779718164, 0.0804979455275142, 0.21323358202347562, 0.1901224504833965, 0.1534664213189627, 0.16753835327530506, 0.0952601203773787, 0.04880185612009314, 0.08694351725539691, 0.2188467274064476, 0.18164433524642115, 0.021276179751212147, 0.06707959570623047, -0.10260329890391348, -0.2109715799878993, -0.27114439013087105, -0.25286200034199896, -0.1589657315581842, -0.044685891766618836, 0.01870629502059948, 0.002728273694082695, 0.037208628646538316, 0.03555402848787008, 0.0245015846287253, 0.0024972441834847903, 0.027131751030044688, 0.023508980553120437, 0.003408484915331219, 0.02409647202119659, 0.07575017452454245, 0.07498408214612287, 0.03245779734202635, 0.007763027992949047, -0.02258912632257311, -0.06040973154232416, 0.03718576043990429, 0.00824027622465152, 0.03337582980760929, 0.10855465432629016, -0.030691853214894982, 0.025072267830231625, -0.1895087732815603, -0.25408501250469046, -0.2733982609467861, -0.22192008485298764, -0.1629607907689704, -0.098628278452045, 0.007035119216781793, 0.002499686612932486, 0.017268535542944868, 0.0026187854323112673, 0.023018265933802465, 0.01886332584764101, 0.00019006145328813063, 0.025343987065330503, 0.017901040811925825, 0.029193692867976226, 0.027273679558538544, -0.019178796540282546, 0.01575660245786225, 0.053898343891047196, 0.03181492771581898, 0.0849118749075798, 0.14201284142789575, 0.12464633728007347, 0.11515331134295317, 0.1319994604252681, 0.033368813778407155, 0.03035924937534503, -0.14930247291225235, -0.2136799148545039, -0.19364394230429877, -0.1957281047824277, -0.1280649475192337, -0.08725044281113964, 0.0053228194893167585, 0.013219852909918405, 0.03685895430631063, 0.005499236757461077, 0.0003244399763349814, 0.03540539296670463, 0.023519538441716496, 0.01715616925930396, 0.04087208072608131, 