{"input_layer_size": 784, "hidden_layer_sizes": [16, 16], "output_layer_size": 10, "layer_sizes": [784, 16, 16, 10], "layer_count": 4, "weight_init_range": 3, "bias_init_range": 3, "alpha": 0.1, "inputs": [], "activations": [[0.0, 0.0, 0.0, 0.0, 0.0, 0.0, 0.0, 0.0, 0.0, 0.0, 0.0, 0.0, 0.0, 0.0, 0.0, 0.0, 0.0, 0.0, 0.0, 0.0, 0.0, 0.0, 0.0, 0.0, 0.0, 0.0, 0.0, 0.0, 0.0, 0.0, 0.0, 0.0, 0.0, 0.0, 0.0, 0.0, 0.0, 0.0, 0.0, 0.0, 0.0, 0.0, 0.0, 0.0, 0.0, 0.0, 0.0, 0.0, 0.0, 0.0, 0.0, 0.0, 0.0, 0.0, 0.0, 0.0, 0.0, 0.0, 0.0, 0.0, 0.0, 0.0, 0.0, 0.0, 0.0, 0.0, 0.0, 0.0, 0.0, 0.0, 0.0, 0.0, 0.0, 0.0, 0.0, 0.0, 0.0, 0.0, 0.0, 0.0, 0.0, 0.0, 0.0, 0.0, 0.0, 0.0, 0.0, 0.0, 0.0, 0.0, 0.0, 0.0, 0.0, 0.0, 0.0, 0.0, 0.0, 0.0, 0.0, 0.0, 0.0, 0.0, 0.0, 0.0, 0.0, 0.0, 0.0, 0.0, 0.0, 0.0, 0.0, 0.0, 0.0, 0.0, 0.0, 0.0, 0.0, 0.0, 0.0, 0.0, 0.0, 0.0, 0.0, 0.0, 0.0, 0.0, 0.0, 0.0, 0.0, 0.0, 0.0, 0.0, 0.0, 0.0, 0.0, 0.0, 0.0, 0.0, 0.0, 0.0, 0.0, 0.0, 0.0, 0.0, 0.0, 0.0, 0.0, 0.0, 0.0, 0.0, 0.0, 0.0, 0.0, 0.0, 0.0, 0.0, 0.0, 0.0, 0.0, 0.0, 0.0, 0.0, 0.0, 0.0, 0.0, 0.0, 0.0, 0.0, 0.0, 0.0, 0.0, 0.0, 0.0, 0.0, 0.0, 0.0, 0.0, 0.0, 0.0, 0.0, 0.0, 0.0, 0.027450980392156862, 0.23137254901960785, 0.6627450980392157, 0.8941176470588236, 0.7725490196078432, 0.29411764705882354, 0.0, 0.0, 0.0, 0.0, 0.0, 0.0, 0.0, 0.0, 0.0, 0.0, 0.0, 0.0, 0.0, 0.0, 0.0, 0.0, 0.0, 0.0, 0.0, 0.0, 0.0, 0.23137254901960785, 0.8196078431372549, 0.996078431372549, 0.996078431372549, 0.996078431372549, 0.996078431372549, 0.8705882352941177, 0.0, 0.0, 0.0, 0.0, 0.0, 0.0, 0.0, 0.0, 0.0, 0.0, 0.0, 0.0, 0.0, 0.0, 0.0, 0.0, 0.0, 0.0, 0.0, 0.011764705882352941, 0.3176470588235294, 0.9529411764705882, 0.9686274509803922, 0.6705882352941176, 0.3411764705882353, 0.34901960784313724, 0.996078431372549, 0.9098039215686274, 0.06274509803921569, 0.0, 0.0, 0.0, 0.0, 0.0, 0.0, 0.0, 0.0, 0.0, 0.0, 0.0, 0.0, 0.0, 0.0, 0.0, 0.0, 0.0, 0.06666666666666667, 0.5450980392156862, 0.996078431372549, 0.6941176470588235, 0.18823529411764706, 0.0, 0.0, 0.6196078431372549, 0.996078431372549, 0.8705882352941177, 0.0, 0.0, 0.0, 0.0, 0.0, 0.0, 0.0, 0.0, 0.0, 0.0, 0.0, 0.0, 0.0, 0.0, 0.0, 0.0, 0.0, 0.0, 0.5098039215686274, 0.996078431372549, 0.6470588235294118, 0.027450980392156862, 0.0, 0.0, 0.16862745098039217, 0.9921568627450981, 0.996078431372549, 0.592156862745098, 0.0, 0.0, 0.0, 0.0, 0.0, 0.0, 0.0, 0.0, 0.0, 0.0, 0.0, 0.0, 0.0, 0.0, 0.0, 0.0, 0.0, 0.26666666666666666, 0.9686274509803922, 0.5686274509803921, 0.0196078431372549, 0.0, 0.0, 0.0, 0.596078431372549, 1.0, 0.792156862745098, 0.19607843137254902, 0.0, 0.0, 0.0, 0.0, 0.0, 0.0, 0.0, 0.0, 0.0, 0.0, 0.0, 0.0, 0.0, 0.0, 0.0, 0.0, 0.1568627450980392, 0.8509803921568627, 0.3607843137254902, 0.0, 0.0, 0.0, 0.0, 0.0, 0.8274509803921568, 0.9882352941176471, 0.19215686274509805, 0.0, 0.0, 0.0, 0.0, 0.0, 0.0, 0.0, 0.0, 0.0, 0.0, 0.0, 0.0, 0.0, 0.0, 0.0, 0.0, 0.0, 0.4627450980392157, 0.7764705882352941, 0.011764705882352941, 0.0, 0.0, 0.0, 0.0, 0.0, 0.8352941176470589, 0.8431372549019608, 0.0, 0.0, 0.0, 0.0, 0.0, 0.0, 0.0, 0.0, 0.0, 0.0, 0.0, 0.0, 0.0, 0.0, 0.0, 0.0, 0.0, 0.023529411764705882, 0.6039215686274509, 0.12549019607843137, 0.0, 0.0, 0.0, 0.0, 0.0, 0.0392156862745098, 0.8352941176470589, 0.4470588235294118, 0.0, 0.0, 0.0, 0.0, 0.0, 0.0, 0.0, 0.0, 0.0, 0.0, 0.0, 0.0, 0.0, 0.0, 0.0, 0.0, 0.0, 0.13333333333333333, 0.7333333333333333, 0.09019607843137255, 0.0, 0.0, 0.0, 0.12941176470588237, 0.6431372549019608, 0.8588235294117647, 0.984313725490196, 0.4980392156862745, 0.0, 0.0, 0.0, 0.0, 0.0, 0.0, 0.0, 0.0, 0.0, 0.0, 0.0, 0.0, 0.0, 0.0, 0.0, 0.0, 0.0, 0.19215686274509805, 0.996078431372549, 0.19215686274509805, 0.0, 0.0, 0.29411764705882354, 0.7490196078431373, 0.996078431372549, 0.8, 0.9647058823529412, 0.4666666666666667, 0.0, 0.0, 0.0, 0.0, 0.0, 0.0, 0.0, 0.0, 0.0, 0.0, 0.0, 0.0, 0.0, 0.0, 0.0, 0.0, 0.0, 0.1450980392156863, 0.9647058823529412, 0.8431372549019608, 0.5725490196078431, 0.796078431372549, 0.9725490196078431, 0.996078431372549, 0.615686274509804, 0.08235294117647059, 0.7568627450980392, 0.6823529411764706, 0.0, 0.0, 0.0, 0.0, 0.0, 0.0, 0.0, 0.0, 0.0, 0.0, 0.0, 0.0, 0.0, 0.0, 0.0, 0.0, 0.0, 0.0, 0.30980392156862746, 0.7803921568627451, 0.996078431372549, 0.996078431372549, 0.5686274509803921, 0.29411764705882354, 0.011764705882352941, 0.0, 0.7137254901960784, 0.5529411764705883, 0.0, 0.0, 0.0, 0.0, 0.0, 0.0, 0.0, 0.0, 0.0, 0.0, 0.0, 0.0, 0.0, 0.0, 0.0, 0.0, 0.0, 0.0, 0.0, 0.09803921568627451, 0.3333333333333333, 0.3333333333333333, 0.08627450980392157, 0.0, 0.0, 0.0, 0.9372549019607843, 0.5411764705882353, 0.0, 0.0, 0.0, 0.0, 0.0, 0.0, 0.0, 0.0, 0.0, 0.0, 0.0, 0.0, 0.0, 0.0, 0.0, 0.0, 0.0, 0.0, 0.0, 0.0, 0.0, 0.0, 0.0, 0.0, 0.0, 0.0, 0.9372549019607843, 0.6235294117647059, 0.0, 0.0, 0.0, 0.0, 0.0, 0.0, 0.0, 0.0, 0.0, 0.0, 0.0, 0.0, 0.0, 0.0, 0.0, 0.0, 0.0, 0.0, 0.0, 0.0, 0.0, 0.0, 0.0, 0.0, 0.0, 0.11372549019607843, 0.9647058823529412, 0.3333333333333333, 0.0, 0.0, 0.0, 0.0, 0.0, 0.0, 0.0, 0.0, 0.0, 0.0, 0.0, 0.0, 0.0, 0.0, 0.0, 0.0, 0.0, 0.0, 0.0, 0.0, 0.0, 0.0, 0.0, 0.0, 0.0, 0.12941176470588237, 0.9686274509803922, 0.3333333333333333, 0.0, 0.0, 0.0, 0.0, 0.0, 0.0, 0.0, 0.0, 0.0, 0.0, 0.0, 0.0, 0.0, 0.0, 0.0, 0.0, 0.0, 0.0, 0.0, 0.0, 0.0, 0.0, 0.0, 0.0, 0.0, 0.39215686274509803, 0.9882352941176471, 0.3333333333333333, 0.0, 0.0, 0.0, 0.0, 0.0, 0.0, 0.0, 0.0, 0.0, 0.0, 0.0, 0.0, 0.0, 0.0, 0.0, 0.0, 0.0, 0.0, 0.0, 0.0, 0.0, 0.0, 0.0, 0.0, 0.0, 0.5725490196078431, 0.996078431372549, 0.3333333333333333, 0.0, 0.0, 0.0, 0.0, 0.0, 0.0, 0.0, 0.0, 0.0, 0.0, 0.0, 0.0, 0.0, 0.0, 0.0, 0.0, 0.0, 0.0, 0.0, 0.0, 0.0, 0.0, 0.0, 0.0, 0.0, 0.2901960784313726, 0.9803921568627451, 0.23137254901960785, 0.0, 0.0, 0.0, 0.0, 0.0, 0.0, 0.0, 0.0, 0.0, 0.0, 0.0, 0.0, 0.0, 0.0, 0.0, 0.0, 0.0, 0.0, 0.0, 0.0, 0.0, 0.0, 0.0, 0.0, 0.0, 0.0, 0.0, 0.0, 0.0, 0.0, 0.0, 0.0, 0.0, 0.0, 0.0, 0.0, 0.0, 0.0, 0.0, 0.0, 0.0, 0.0, 0.0, 0.0, 0.0, 0.0, 0.0, 0.0, 0.0, 0.0, 0.0, 0.0, 0.0, 0.0, 0.0, 0.0, 0.0, 0.0, 0.0, 0.0, 0.0, 0.0, 0.0, 0.0, 0.0, 0.0], [0.9950413600282636, 0.7602804976555102, 5.202985650223012e-09, 0.00011632892054120777, 0.09176800472557835, 2.5932127040221335e-07, 8.3904988279038e-12, 0.9999999107199269, 0.0005529288880772924, 0.047317438324949765, 3.2117791152451347e-07, 0.9999755684883861, 0.0003582786025578012, 0.9999999953919918, 0.010517629466188663, 0.9989501235563474], [0.8916184131473989, 1.8006935274112538e-05, 0.6281644911789239, 0.5497018697314396, 0.05445999026444064, 0.9708622619482127, 0.0004220532548098579, 0.004927968634186277, 0.8000882049458865, 0.9997126520958666, 0.4267722311646384, 0.999986275790001, 0.00430736981695656, 0.9355490970859613, 0.2506638248613219, 0.9908827868426777], [0.00017081030385146192, 0.0018832170993365763, 0.032528762074190476, 0.021249482244250762, 0.01849239846676176, 0.04461333706814102, 0.10728298240278421, 0.41458971339902184, 1.0256733571721813e-05, 0.0034791104180078966]], "costs": [1.4588079950914373e-08, 1.773253321616834e-06, 0.0005290601810396463, 0.0002257702478243642, 0.00017098440052674637, 0.0009951749221777826, 0.005754819156618053, 0.08594231522814154, 5.260029178064265e-11, 0.49652694168664246], "weights": [[], [[-2.6419541405915785, 2.0781895809354323, 1.9581302665418292, -2.6195475677692093, -0.6501075380244363, 2.7040482553504024, -0.9078359746195828, -2.584151301499661, 2.9366712113665203, 0.8515999832577927, -2.7930999519423576, -2.901182213313585, 1.2747683963110268, -0.13440733848954659, 2.1615991916323023, -2.019761803022792, -1.3770309664787321, 1.977832332954275, -2.119309929052058, -0.9051143629497811, 0.23252633683828794, 0.3240944723453092, -0.630774664017391, 2.3033940242857973, 0.04863765153845723, 2.920885599464472, -2.066389587935744, 2.652434746136964, 0.3383558168069163, 2.9072659490767787, -2.1364689935512757, -2.241317154403349, -0.08969796048462353, -2.054966847505152, 0.2674663185333382, 2.646105082840001, -2.109961460858315, -0.2454814477517844, -1.7269730537834833, -0.43075457101598086, -1.3079300367953672, -1.2420939239218654, 1.6991797301084963, 1.2651692352741957, -0.3771388083369015, 2.1895874321199544, -0.6730863511829986, 0.29487865501211497, -0.15932305990365023, -1.1548040580813828, 2.5333726250703665, -2.6781568860856746, -2.0026181983791616, -1.8374280563559573, 1.8000708961992045, 0.6492075063313001, 1.1658972871513154, -1.774514273452938, -1.5461793427031236, 2.422349671499953, -0.2242035577804889, 1.9507857060913645, -0.2853372085240388, 2.8192612233196335, 1.7429033412536008, 2.118015346075227, 0.5881958123108014, 2.1416627157857806, -0.4080946775576166, -2.316042338062277, -1.5108519225135415, -0.39018513424476287, -2.776096460638588, 0.5219641198689626, -2.946798723735829, 1.000107959703667, -0.12338418511535675, -2.8781477498115855, -1.6181805330013797, -0.6382596234912662, 1.0752870163778065, 2.1797643249770293, 2.468631778406114, -1.5379880715447536, 1.7779708891451973, 0.10642066799593364, -1.4442045773339853, -1.3421405684372856, 2.720780743701979, -2.896913048684127, -1.0321241084055397, 2.3954543722125057, -2.4620224327896865, 2.1935685218392402, -2.0481261046080057, -0.6554848144239036, -0.4896493001847217, 2.768857898954379, -2.0828373600081354, -2.2841883142005885, -1.9388263729852389, 0.15386480088608603, 1.2707506787534777, 1.568756876609017, 2.2006774615179947, -1.0315717143882421, 0.5687085968163905, 2.6776843650359354, 0.6765953260393731, 1.2495804866979265, 1.6302892796489086, -2.0402711146824726, -2.7305473252436343, 2.5865600749092095, 2.9970811447765806, -2.990978262374082, -0.5596634205867556, 0.3497583598100793, 2.556325548112895, 2.3132350284392333, 1.8304958374749962, -1.0078833548501687, 1.9629545509818758, -2.4332892093388487, -1.4320466017170312, -2.7302252238742395, 2.6259841357313856, -1.0893196290687914, 1.8290172934456528, 1.682216314086465, 2.316197624419093, -2.2798774235757864, 2.6507091503253393, 0.01120554574068176, 1.9785069822275996, -1.6759429633911835, -2.7982073657247404, -1.81919686558573, 2.942480035888922, -1.709274289847787, -2.3186388910902123, 2.3062235908007436, 1.181938720142349, 2.9626610000616638, 2.6546420586392827, -0.8440674996402383, -1.9074179434015464, 1.8764402675939917, 0.9471453666179525, -1.1953884051220363, 2.8541775317612994, -0.9477701682312615, -2.0691740281520383, -0.484772508054032, 3.2176375547997225, -1.433307728373578, -0.2806680227356409, 0.1732677631810134, 0.549676574470041, -2.2857168459280937, -1.77262356379375, 1.6627193146797759, 2.02997886827336, -2.8940347139294866, 0.7822998854829337, -1.4960404665380904, 1.3051714664337992, 2.301411995440772, -0.7868999489487525, -2.060234041750254, -2.515866260850636, -1.906626695239242, -2.433635431471679, 1.177752985470682, -0.5043219519354611, 2.531736173487903, 2.786517857832987, -2.563446986654138, 0.5795294798312532, 0.5195722891542692, -0.5515130102871498, -0.12384164493138182, 0.24830558771935055, -2.3093743176106893, -1.319475350582718, 1.136071418021249, 0.08265142213228353, -2.1703252283354884, 0.7099631506424599, 0.6482138544594717, 1.7740333998816353, 1.0236728009179643, -2.6036871666565164, 2.6082645999210046, 1.8137624499376832, -1.1366424230554582, 2.338868159887004, 2.2778646623295358, 2.5994230736712036, 0.575320168273086, -0.8649633020653843, -2.7210852229582465, -1.8040260072312997, 1.0415889926691302, -2.0592580754109084, -2.097318818268302, -2.7034990414775657, -2.682832234945171, -0.4654456813177046, 2.1473515756169124, -1.7543631401562996, -1.3929832640254298, -2.4283599068854573, -0.3657147489806397, 2.952950949684575, 2.6764671098217634, -1.8437196439505044, 0.6432937255724971, 2.755876164407719, 0.055653724971124946, 2.750462884769762, -0.06784445363028202, -1.2495343303755235, 1.558506388950905, 1.4516156054794598, 0.2910445748431661, -2.4285849476224035, 2.1500419518409504, 1.7338242969130357, 1.0503437905120157, 0.3455659073886108, -1.9262552443952032, -1.8140944480496617, -1.2514470823379922, -1.2229981148707447, 2.9633805466167473, -2.54136378391451, 0.7129965718152402, 2.518169509363408, 0.688294769995947, 0.08557241363118231, -1.239691882884363, -0.09222162778335087, -6.706495493148846e-05, -1.1651753219675347, 2.1943685854527377, -1.164908597668863, -2.5120807613268576, -1.9189934413080134, 2.549499175711084, 1.6353284558510375, -0.7021859858000277, 2.3939180457044533, 0.6777805747632218, 2.3826350549404998, 2.631528358918081, -0.15781877790092158, -1.9449486360374555, 1.9588089447657264, -1.1509392453843117, -0.9201934580417308, -2.6825635807022272, -0.9027483676330712, -1.0904945925973437, -0.030278924678482307, -2.466182380478202, 0.6669871929758674, -2.39859155858963, 2.0486794624370384, -1.8699830742541697, -0.5111352561686577, 1.2743605526610948, -2.673476828869094, 1.679292075762076, 0.943936959512265, 1.2601300798388544, 2.336566232466069, 2.258561941858234, -2.2415315155733153, -1.8459753517273412, -1.1354601800129207, -2.542829754245384, 2.5196673175436746, -1.6127072541808622, -1.3721704717556555, -2.605116973985876, 0.5152564194624304, -2.895095976662238, 0.3931598675449861, -2.827791759405449, -1.4435192846017109, 0.2167762865070652, -2.629406855453906, 0.9462139267662106, 0.4136963338769827, -1.0637171031223978, 1.2074753427386178, -2.6620070917698535, -0.5287860900104365, 1.2245277472817628, -1.105354627723385, -0.6853792884719551, 2.549273363261608, 0.7496198715520376, -0.5835944691653842, 2.355901820497237, 0.2240841900331166, 0.18542259164803399, 1.3628854674425055, 1.0493198552657395, 0.3350642372423577, -0.8288883520800606, -0.914446327030497, -2.384360119436699, -2.910566708289391, -1.7066553090440535, 2.575818961981809, 1.204433697695658, -2.5423144956640487, -1.344188246361856, -2.1066219820351115, -2.198086251945582, -0.5438510790825155, -0.8550048499951955, -1.7398985670495823, 0.6777255427680553, -1.4919779207469503, 1.9159716265401117, -0.4647839788807842, -1.355093692968111, -2.564951581048629, 0.5604366608183945, 0.9861029660943663, -2.9482884405165057, -1.05492134382921, 1.5223149771603293, -1.9933028355649591, 0.2133902364940228, 2.6833745762571013, -1.1524916376493735, 2.9570414268427108, -1.585931400192986, -1.382142055845045, 2.435147234632074, 2.77953111721053, 0.16524949978692505, -1.2293689531726897, 0.8539116928598154, 0.44359081217838714, -1.2335131918572197, -0.11159366750717356, 2.5834230033289884, 1.959019407461734, 1.4639218812550008, 0.8949024949494709, -2.2309170692020475, 2.7523907864640997, 0.00978128741187248, 1.5077584770783496, 0.3558815471085882, 1.1651871455611569, -1.9385196852015312, -1.537754066569408, 1.5838014342188493, 2.914241032237665, 2.7031171069079987, -0.14838110398593088, -1.034842602659473, 2.667853723493022, 1.5550401876728048, 1.6098403032451023, 1.8831175101071806, -0.3984125433887355, 1.659053147268724, 1.020723692832548, 1.6592840626177328, 1.9394250890378406, 0.07499129701551815, -0.37208948127725133, -0.5914309607124192, -2.9429484076847485, 2.083381331259797, 0.927087054381096, -1.3217227740857873, 1.288659781285919, 0.9642600332448673, 3.104456985874721, 0.8837932682591135, 0.7680500461148909, -0.5807873959583718, 0.7918667005739056, -1.7923163018579225, 1.2693669267636487, 0.2842122581230219, 1.4793931616338876, 2.9953441474949445, -1.0975428763404642, -0.7933574593387223, -0.16610410315315408, -1.2285576157162945, 0.05589605384858957, 1.9457264662306626, -2.114332417350686, 1.035550012848243, 2.5516710719068305, 1.4566136434374712, 0.056965675481544374, 2.64763858926211, -2.1119495437782083, 0.15019299236136618, 0.9980384735940891, -2.023843813220088, -1.1627184012676857, -1.7982726722820561, -2.7179185820065412, -1.2007021528803075, -2.6574286347612546, 1.9289913163862074, -1.1678785126813267, 1.0804919471908268, -2.8981501312385562, -0.6051456076147179, -0.4369911947986313, -1.331553966229003, 1.5410675874574522, 1.1443929748588852, -2.1109121937600324, -1.5496549980163221, -0.49065809325938353, -0.9563034484111939, 2.7758170096096744, 2.0217213087032224, -2.308303482325655, 0.7681317459109064, 1.9314373813421932, 2.736265160541653, -1.8577143931100077, -1.5158005010248983, -2.883905839217836, -0.37051041676770324, 2.3490898146759926, 2.3538961759426638, 1.7810728815046573, -0.9048201025186545, -0.8441425250232527, 2.8131426856853077, 1.1700164640168973, 2.0729844792860623, 0.22844838752842422, 0.4981728266673954, 2.245694875602171, 2.0798656369311206, 2.410392729563283, 2.4054240929647133, 0.10299579637495127, 2.223949678965929, -0.7999211290092157, -2.147440678946375, 0.17250600880022016, -0.6578263203722411, 1.3292284835272867, 3.224084929625176, -1.2260927348662445, 2.4360979414129944, 2.002480797874133, -2.262572091578553, 2.222741566344658, 0.4479005955038267, 2.9421826308055254, -1.339286156938653, -0.5670294388534052, 2.1487527042746235, 1.841638668879612, -2.757793833974745, -1.943471665906219, -1.0514373602482356, -0.09846148045975145, 1.4818618435270605, 1.6141948526637855, -0.18735470182690775, 0.27027187268787345, -0.8790058182976146, 1.4348404054496162, 2.680764395805659, -2.4046191553620715, 3.0516747388159264, 2.0011593868826743, -0.07968767609479509, 1.0888975459403107, -1.049655715537143, -2.21112939216204, -0.8162843824764952, 0.6555720211388257, -2.6027265688755317, 2.1043545249464155, -1.9737329694343504, -2.4055217929119315, 2.5892517739270504, -0.7179230802064341, -1.9653827617704893, -1.2278819414603492, 0.20344881015806612, 0.6532996797075846, 2.2161302130692118, 1.6340625019284243, 1.939302298906431, -1.6071820605414864, 2.5846796469239237, 1.3274148144218083, -0.48216167727003234, -2.7752516182390976, 1.5696155629704152, -0.3979554495587056, 0.9556463320992368, -2.698521968115656, 1.0454221068060034, 2.238367161039045, 2.790224452337807, -1.3290717672864358, 0.6659537432658598, 2.9714464826676292, 2.831851272884441, 1.0973119772229738, -2.7910007300889266, 1.6773165167272082, 2.7584026351749515, -2.066414152752642, 2.257850013112975, -1.6915246805732758, 2.3433632599448697, -1.6539539382490989, -2.284551633813106, 2.119510238441862, -2.612755180834238, 2.3465027040369204, 1.8897770065870032, -2.9714203586218844, 0.843550622501054, -0.9957490543331199, 0.8273092628763032, -0.21277884049323723, 2.1636600752910957, 0.2498884728501734, -1.133551493882728, 2.1833266459408955, -1.8297446099710153, -1.016468246529872, -2.016377424526118, -2.609615090338566, 1.7698055902560166, 1.0091481723793723, 2.351940209647985, -1.4123986186988227, 2.242671375037795, 0.4194551780480928, 2.1594468641051145, 0.52921286798145, -0.5489776372879497, -0.06990443112953636, -0.5036672835461972, -2.4125844153210245, -0.21496093185842946, 0.06856355383375999, 1.7761406696360982, 1.7012949503793156, -0.34576548309569655, 1.4531243575303874, 0.6322155884657669, 0.6754529641704244, -0.8641289506617537, 2.492456947115855, -0.8034161098688983, 1.2805656316972984, 2.748616139359832, -1.858966570363053, 2.6306833876080478, 0.6959623536298356, 2.95284031449989, 1.2201222083768177, 0.7966766404874662, 0.9951377103318132, 2.873101246116103, 1.7333146241587478, 0.5468755597085977, -2.260188677204146, 1.591922567528956, 2.4514504940193964, 2.6037981731659245, -0.6617034458443135, 0.9363193011456796, 1.386805430416484, -1.0205162787214366, 2.7344452805413604, 0.6389737933726145, 1.7996833146940772, 0.23477424783620351, 1.2796168345173964, 1.0958672407085173, -1.349306804001812, 2.123971132798699, 2.5472804000307403, 2.028918247244845, 0.0382947335927246, 0.7670502420388035, 2.4174257491986757, 0.20599597061650146, -1.488084213442653, -2.1693409301013, -2.7830093216077763, 0.7220719569899599, 0.367666800048595, 2.01565747862767, -2.0058628626656225, -1.855285512263363, -1.0375856021921461, 2.4403953446938043, -0.3670524033787109, 2.0196878094575155, 1.5536346544188455, 0.9750297562271223, -0.8254233592035414, 2.2434284938644935, 2.595341160730899, -2.3277904002325482, 1.2388423979789214, 2.078497389357713, 2.7077659310073816, -0.4409341284798657, -0.29844506047253677, 0.6075331902196767, -2.6183185036026373, -1.3288211521892754, 0.6914224390205329, 1.0973208638446432, 1.3637927666489509, -0.15851429511909773, 2.0741304375594836, -1.3694765985599755, -2.4392713802790764, -2.552943627955651, 0.056124979657594484, 2.017028878261234, 1.8288087822442807, 0.3636341661177537, -0.9788483300716724, -2.383151938262734, -2.3720667488932228, -1.6552720594410861, 1.895581879195105, 0.39202032725171126, 1.385797496346255, 1.2174953859211708, 0.5508558025694563, -1.4129645863502722, -0.9419794015599416, -2.530653834644042, -1.2712042991931798, 0.9037991056857505, 1.8742594215552466, 0.8344934002217816, 0.4003253555053982, 1.927200227652106, 1.9792061049953098, 2.3630713898051017, 1.1104760442516501, 1.5619870195912582, 0.9034883628625564, -2.9309135855053103, 2.8489454346609544, -2.977563986143737, -0.48759198345671206, 2.005483253875375, 1.4175626311747234, -1.9757754510065701, -0.14872878406612275, -1.4196100229941917, -0.6670634654347888, 0.7736089493108858, 0.8654642533486228, -2.9741546444462132, 0.01450932199429153, -1.3993829719056965, 0.747259136151457, 0.9284556646243689, 0.6059050058082094, 1.3697161224035566, -0.9169840086793495, -1.5771122200784102, 0.027499304407146447, 1.0351913078337727, 0.05946899808211066, -0.5478376464123054, 0.17043542752539467, -1.8857580076628868, 0.8841893775117096, -1.3377368223107833, -1.2473146246551858, 2.455649963838246, -0.22448691934559253, -1.0949471722846191, -0.31546637014891, -1.9048444790805807, -0.11919353214703873, 0.015897259863121457, -2.180458907460338, -2.84358806493451, -1.5005677167314968, -1.5011976666519946, 1.9812446537437234, -0.32936021542497923, 0.3384737939818507, -2.7127644770507473, 2.547568768982323, -0.8271581695901786, 1.2348998772031272, -1.6687328376450756, -1.3868427646062493, 1.7753295283930923, 2.019664824624878, -2.1962284230033466, 0.4493576975395355, -0.14070747457411673, -2.233678342798436, 0.997021330446777, -0.5151341244226559, -2.030800589475745, 2.760856085671732, -1.041605799824292, -0.6776430693056534, -2.146607594820799, 1.7202665625949924, 2.098944026018473, 0.3752154876173847, 2.1094336488922845, 1.822982535286029, 2.268135856558309, 0.8105671442740088, 0.611797886815488, -0.6761644257322935, -0.1820538745638507, 1.6010468830844775, 1.5708524042495393, 1.9534565604607068, 2.6306322429335967, -0.7279436511490213, 1.7879989945374168, 1.3148694239932113, -0.9356611220442452, -2.3433674061164815, 1.1055272306080624, 2.8891659772744256, -1.1016960699869245, -1.178096241934558, 2.9055536486939775, -0.8640328542174793, 2.698691599109085, 2.4776559145761317, -1.6609436334184753, 2.1906790211370737, -0.4762164189276197, -1.3861350088159228, -2.5521254790769525, 1.7686537112588343, -0.5484292569875401, -2.6393724835597676, 2.5336376330828414, 2.5638085881745236, -0.7313562769748758, -1.2836283658491896, -0.7077693181568929, 1.3321183063007604, -1.986984634576845, -1.2038487816341914, 2.8963219335010364, 1.7717812674307096, 0.678267691601159, 1.509211116844091, 0.7804688743112825, 0.34862637668732094, 0.6516690003044234, -1.9465548137156878, -0.5948112892052317, 0.35851467850664775, -1.917217676624357], [1.4730239227346278, 2.626799553210784, 1.264219623621682, 1.1050096652414059, 0.5333066207994115, 2.113346729758775, -2.433347215696611, -2.3736982284946566, -0.46139709003364526, 0.2690623098322136, -2.9742089729393495, -1.7261308817769034, -1.7486026140702127, -0.14075520060359858, 0.9000789806866264, 2.1166519711294676, -0.34082802877915164, 1.6184316417373763, -0.857501216713322, 1.3923284024831677, 0.7184381158645241, -0.56015670585177, -2.746905771306049, -1.780913423952336, 1.2073932241699321, -0.3174523688518853, -1.68484978167827, -2.611938026676751, 0.6809852850444793, -2.4829366178065264, 2.7996326053567406, 1.5189174773039031, -0.6149971042791398, -2.7388860833300535, -2.2084171339790957, -0.8226468243898971, 0.06579387446388327, -0.3862168213356713, -2.405088641148467, 2.132480494657254, 2.554191039907118, -2.0403042633530184, -2.278509425920695, 0.5173056961401779, 2.635216033439825, -2.333465745466869, -2.8963485750451947, 0.5495460699980927, -1.7038921418994877, -1.5027064835337776, -2.4749740581402513, 2.410434207359122, 1.222329521094161, -1.1122625352716677, 0.990363087130611, -2.1119193791357533, -2.6752239467762964, -0.5818230374396673, 2.6577308615703683, 1.0008711694928742, 0.03415167449392618, -0.6265525367058304, -2.390600726788661, 1.0954062458141545, -2.546696115284132, 1.0906863866852679, 0.14784281915924968, 1.1513993919120533, 2.4131498126558997, -2.991843595594967, -1.8195831226528325, -2.0698131656032968, 0.6631570521232609, 1.8934824936921655, -2.4375593149868213, 0.9146289782096803, 2.826610051930168, -1.2373938075009963, -2.4379347788558463, -2.0802161750720223, 2.4196271129605207, 2.8129650144839293, -1.5769295528250473, 0.6228883103296909, 1.033793497260299, -1.8254611856186391, -2.782603801609975, -0.4045900585832537, 1.1920283275066026, 2.4769920903385674, 2.575416669257005, 0.46009442634723124, 0.46165410055872536, -0.5684206195877024, -2.262226640004585, 0.49836240859153913, -1.928155544548044, 1.0496139199058125, 2.6231783704470484, -2.0110443712634214, -0.6976763627673276, -0.955425009732282, 1.0134655730099782, -0.7704569781303845, 1.8094025141261703, 1.2233519887024589, -2.62102230807991, -1.0865879019289895, 2.894462765726447, 0.3482099956148833, -1.604026594088233, -2.1427177145798355, 2.1092404997430725, 0.02799808057754409, -2.5916990771773065, -1.4707316417814469, -2.8985169592447186, -2.897209268515477, 0.928349681524906, -2.91089404004593, 0.6488068002680335, 0.0049831100135187285, -0.2380281290153357, 1.4440521114004323, -2.2527823946916286, -1.343016419203365, -2.540747383064212, -2.614148552428221, -0.28017877397102964, 2.7704549008653765, -1.4958661494623664, 0.013017023956654975, -1.4010057605359505, -0.8322114273378213, 0.7904358628382867, 0.3774689131637976, 1.5947539366044838, 1.7192099560245229, -2.5774188810333296, -1.7924805561908657, -1.3944269079458431, -1.4239871547235778, -0.6048936027365974, 0.5466808558263436, -0.3421242199752542, 2.8532400775592603, 2.2848560682075503, -0.7595899699974378, -0.5420182420086438, 2.464856640956452, 2.06475163818977, 0.25700009208920943, -0.7456036027778774, -1.8958434097522259, 0.00012981809572651924, -0.40100304869160486, -0.983819322179118, -2.0361750082665417, -0.864231000343227, -0.0689555121150543, -1.429748910271644, 2.228946820287518, 0.42000207227820396, 0.3345901983661913, -0.637319801649519, -0.8915052603278353, 1.6649035322538903, -0.9957636245978035, 2.451931054957268, -1.3709324539721133, 2.5856548380602233, -2.986770978655383, -1.1856004798855875, -0.5075434086523568, 2.709433835562419, -2.2216914467182716, 2.477910128300652, -2.3460529023240104, 2.901555997509862, -1.4513514793655893, -0.3029542680216556, -0.3510168710816743, 3.010242244816977, -2.6206939707771832, 1.2036796688907885, -1.1980869696603764, 0.807628455837626, -2.3620881899770287, -2.1442196270606253, 1.2072578239343545, 0.1992527375002675, -1.9330834007836895, 1.593388154980207, -0.8028803113857728, -0.9384068356403013, 1.7888343624403233, 2.484428689920298, 2.4664390683511055, 2.1968236304007465, 2.7506284206440967, -2.8558685052730577, 0.6261777631079453, 0.4061400646396063, 1.7956136425798201, 2.89269019050568, -0.9474045834210474, 2.0388762306468666, -0.26155356568615346, 2.539144271191221, -1.5077999816723102, -2.330139496425733, 1.612267987962303, -1.8300051637063792, -0.4344070948750938, -1.5517664778175742, 2.178912255071366, -2.8923176318286377, 0.9388266307057201, -2.8959723688478376, 1.9920686953527162, -1.5459449324152403, 0.9585975108709276, -2.3623625933565533, -1.5952131266252267, 2.222378057886783, 1.9486963755860205, 0.12349707053901458, -0.9366362156821317, 2.327858412041566, 0.8645126018923237, -1.8498319255050824, 2.1993086744790746, -0.9714520207029599, -1.9080830810618727, -0.4968989421343004, -0.6728219559312841, 1.6862384012615352, 1.4330162933394417, -0.7899714754144946, 3.1596935778682522, -1.1086760915116733, 1.2263437220461544, 2.8598976284972464, 0.7113581149899574, -0.5843503811048544, -0.6185841488826078, 0.6862047194988294, 0.6627188326091686, 0.2755156434788202, -2.4684931583426204, -2.7778258347314395, 0.5011360989076971, 1.1786710399376985, -0.12032178946202854, 2.515812202926179, 2.5949092076751445, -2.332253347499054, -0.6917664037297819, -1.5733794009283018, 0.32987326305532466, -1.7767100953364, 0.9109488817053274, -1.8418940652984412, -2.6093483923404737, -1.7440306857360959, 2.9660207477416725, 0.4647283556700066, -0.4437772594030936, 2.440182282236308, 0.0746888819038049, 0.14764142331375543, -0.26647453032498875, 2.171036214972236, -1.0793852679077023, -2.8781853464757243, -0.5738967151103593, 2.6484040026966604, -1.2186268731705836, 0.36741069533674914, 2.444500471193044, -1.5265884898909368, -1.3181395158381932, -1.9862244965901463, -1.640336549342353, 0.00974112239100913, 1.7826156530678383, -2.6476107937892053, 0.5894686672191635, 0.5090568494526324, -2.268083490636544, 2.871234816420931, 2.486708010011854, -1.5352639693114907, 0.31826490563287724, 2.3058387037613945, 2.8004718112862377, -0.5798805642077998, 2.747865672070242, 0.6105228286241511, 0.7881276789376211, 2.1016726570732858, -1.9154598224875938, 2.445720187680044, -2.5921960399643726, -1.3987078511088815, -0.9626825732579999, -0.6637116790063112, -1.3095665483381755, 2.0589148226745593, -1.453262689453, -1.7409021054622755, -2.91767684900523, 1.6338559681210236, -2.0616200760459473, -2.7275204020422645, 1.1375813087197446, 0.5885567841340156, 1.144667679504934, -1.5115657503331035, 0.46764012322588605, -1.1511211020183745, -0.8265391923841192, 0.8569173708951829, 1.021448102626864, -0.07332022344263209, -1.27898560712625, -0.5146604632015468, -1.733564769345152, 2.415170301689262, -0.9989419984941517, -2.2751934315319735, 0.6222465568358201, -1.0753065448661723, 0.23435540299038768, 2.3066091965055726, -0.546090283952567, 0.09306470506225752, 0.14747841933342223, -1.903411376799384, -1.6974208892274876, -2.387873201213819, -2.601181948083606, -0.2190631020075998, -0.9774232782874689, -0.7055892836240547, 0.36678614446080793, -2.631487554318308, 2.273678370377529, -2.399521798541284, -0.5461267115559574, -0.4573792535412401, -2.857220630449334, -1.7933686501112016, 1.4370599642256874, 2.0526129493617975, 0.27124793190497326, 1.0543736933378618, 0.9944747838208545, -2.6324175538467682, -1.5806745662325774, 2.1182219032035805, 1.3640875753708874, 1.1273383411036304, -1.6044430312442397, 0.12226927195796768, -0.7264516673149742, -2.152736378301196, -0.7788226296884014, 1.6652006991322492, -1.2508334936719903, -1.7323670254866999, 0.2805496934287866, -2.706883167043729, 0.6479967159248611, -0.6676945739137333, -1.9078351153113893, -0.17685683841620897, 2.667150183612355, -1.9885825098192287, -1.5719173853706503, -2.2699884891790445, 1.1813649122170393, -2.3743740737427546, -0.4501557167840152, 2.230627622176321, -2.9366101516385283, 0.938996935508986, 1.8092500134283562, 1.498769020262801, -1.8964102645979526, -2.3254688283316565, -2.890632441309303, 1.2581024626260664, 2.928984150739199, -0.413247936098463, -2.541770381514689, 0.06729599843739183, -0.09154151554451484, 1.5882289897305257, 2.575154098656988, -0.5760008676368719, 0.2424080295504343, -2.484581678240999, -0.46711095382209494, 2.2577178972908816, -3.0578360212285696, -0.6188976851281124, 0.7391122333604019, 2.538055541505623, -0.8322859934087065, 0.4430843535289866, 1.5505025748501355, -1.063172815311805, 1.0292285750927, -0.466990936969165, 2.806748748505515, -0.11686095973930137, -2.5950834565934233, 2.8751663213687855, 2.898704836545264, -2.0620689775482925, 0.13319591872573966, -0.8193871457260417, -1.1615452364356353, -0.5926052803283298, -1.4223138049976802, -0.2729023411471961, 0.34905789358151784, -2.800146419205044, -0.23424147004110898, 1.0096476838259067, -2.508145419888811, -1.7741863237811584, 0.5451916736003718, -1.3907146587255008, -1.5682449474530082, -2.478003565606047, -0.992407338306708, 2.2682859198021763, 1.1158262365504836, -2.066192980349631, 1.1261978926846847, 0.41020202824019036, -2.093436068471478, 2.201678012282896, -1.740602391905184, 2.739827249746382, 1.1699561438285588, 1.085481351925634, 0.9552539574937907, 0.3179222890282867, 1.7540200519619724, -1.480714611482204, -1.6973958067026151, 2.4924514688018546, -0.6195899204738089, 2.168731074399961, 1.0346270014171715, -2.507192743874539, 0.1590288830569538, 0.6472540696365734, 0.8273545482549384, -0.5168073965494712, -1.1577388175945145, -0.19319191846373904, 0.3595411692128061, 0.21147735245875715, 1.0070724136562297, 1.9689621115859286, -2.1476321614456366, -0.41168518743691374, 1.1578094860320844, 2.5418638880885407, 1.620838699910096, 0.6727379170452781, 1.6210070562903292, 1.7074801590448878, 1.8195840466706281, 2.9884095992683877, 0.17191995215542935, -1.0512171288027805, -1.7657317835121462, -0.04719573638920481, -0.3409870535722901, 1.7941942029351468, -1.2118420968106531, -0.011178346727066078, 1.8687449070804212, -1.2898560058469393, -1.815752196108598, -2.914372332938647, 1.5191745358810995, -0.9189774527914527, -1.7592127584568205, -0.23903677496653258, 2.3693677047393944, -1.8680176053549327, 1.9818461533637473, -1.9524425434633121, -1.9579721666121233, -2.3332699847323535, 2.3534487091115603, 1.4297139853284218, -2.7410776456271604, -0.6999428125050765, 1.7937817564045653, -2.1475253115111035, 0.9361475848910845, -0.23780226090090828, 0.010815386851445057, 1.7104696584038557, -2.223226353446507, -0.32622863515949846, -2.2391234166581286, 0.3240136275744505, 0.879420732205135, -0.839227811629539, 1.0506596997162865, 0.49381440479833133, -1.0652555450959196, 1.8275208094583124, 0.8195407051173279, -2.46536250574582, 1.3027479423760375, -0.8234984740976174, 1.9577580553069969, -2.3858602355915823, -1.755409744076079, 1.3513458697142327, -1.8841708170034253, 1.8900022669279313, 0.39242774765760813, 2.38821082160948, -2.356195051391688, 0.8483825742619149, -0.21277060298253817, 2.539902535016635, -1.2461719099351194, -2.2186599671498137, 0.18254229763075372, 1.3755016983470736, -2.2890064769655383, 0.2745798156507124, -0.4052145258976217, -1.6162497183483449, -0.7787186298690364, -1.5997482469488327, -2.7183703064573534, 2.056974218787856, 0.6165163231654038, -2.2138836291640778, -2.255095435725844, -0.6023024641052854, 1.2541666297149043, 0.5060046396556109, -0.34961515286666234, -2.955522525635586, 1.9233175596878562, 1.2286059965257046, 0.23841033223712005, -1.254330239684353, 0.5181085874408955, -2.078410383804048, 2.6215899427895057, -2.8437864646549174, -2.6755142758729065, 0.7327595643163402, 0.8464124515514954, 0.11099274984796684, 1.9001599799648146, 1.875122518598628, -1.170966494216433, 1.5564166511371178, 0.5964574736824861, -0.5041330502184512, 0.9694050172139724, -0.45885138878215087, -0.12983020502449488, -0.7358800937378075, -1.2878855212454836, 1.3987127674342335, 2.0850731388517523, 1.5242675968845336, 2.5965249762113047, 0.7073879062228432, 1.106810600070265, 1.9745900948291775, -0.8263319184726586, -1.319624269162634, -1.8014087610889105, -2.440064595810615, 2.885619283583405, -1.6382496935771564, 1.948436132896722, 0.3843166966008924, 0.895719532153925, -0.15019259667582346, 0.16156440144582662, 1.3167853287734597, 1.043574299669738, 2.1917438691013778, -2.061951459709747, 0.579459632562027, -2.0651215891287187, 0.5666250263534235, -0.785667995772516, -1.2466504055853886, 1.793756288039049, 0.5652538683479883, 2.681184789313401, 2.743657491616623, 0.6332923872784004, 2.7944043463782458, 0.4169804622289365, 1.3563275803904926, 0.8050371966971828, -0.8387620144878742, 1.623397019869458, -0.8061931125167203, -0.4001058582990695, 3.000088241634401, 2.540006935882573, -2.924855953427921, -0.7754267006467536, 0.46938204916921034, -0.5797092307824099, 2.6662509110261765, -2.5990467617354476, 3.1319278126253574, 3.3280604170224493, -0.8081668200188676, 1.6149984027591877, 1.2088530666574653, 2.446537221540074, 0.17437237798426594, -0.7629721715636006, -2.6067834194912423, -2.2806162573978908, -1.884276223939113, -1.5638389505079586, -0.9819065956629638, -1.55555723360872, -0.057557153086846106, 2.400745717080019, -2.0712354932629156, 0.7532537146886682, 1.4211939761202563, -2.7818028397877486, -2.194142727788278, -0.2893557636374528, 1.3415416778399722, -0.8432575350893874, 1.0121798910503628, -0.09743790223416691, 2.8660058329461893, 2.865526522721531, -0.41126621871872904, -0.24473615311034103, -0.5656181858040904, 0.38376934460457773, 2.7735825669813736, 1.854609218575211, 2.444627549918583, -2.3151043165342826, -1.225218588296097, -1.1683921129576924, -2.8988100483986767, -0.37755775014428117, 0.9144855623491944, 1.833064501294619, -1.5363546497520346, 2.7866775269289104, -1.1760593404045845, -0.8091605664221824, 0.18465287033159508, 0.18751389927155612, -0.12477286243389397, -2.211783832298827, 0.8842714494287225, 1.8824986034047273, -0.720079784093552, -1.7315301746825749, -0.9853119972680666, -2.2497891092138107, -1.0749192760540305, 1.0818358063587474, 2.310211953922347, 0.6000440606088191, 0.6975625546431931, -1.243330749929301, -0.8872978959456541, -0.1906326859323776, -1.1451151462510856, 1.1887478786596508, 2.7491351554072883, 2.864318606161166, 0.45843460488476967, 0.08357903564022466, -0.97762385222676, -0.7537506982352955, 2.1303501922343315, 0.48546926871910223, 0.707129527382071, 0.3646190135757778, 2.0661629947724727, 2.555007848905927, 2.767729232253861, 2.8798423943272367, 1.4465642024040912, 1.698117227530426, -2.414858188559721, 1.0028179381482032, -2.0161128458288813, 2.2641834247138513, 1.358558575428936, 2.1792745374413007, -2.816085214465354, -0.8775452673459786, 1.9176349880220662, 0.9815935317996336, -1.65296097445176, 2.387504381116896, -1.8437244963768882, -2.1300852137313004, -0.9681139730053563, -1.2327657657068425, 1.7471483778067018, -0.8091645344611025, -1.8291580354265675, 2.0544411065569594, -0.05347211357596082, -2.476539143893225, -1.9473100170205173, 2.8334979437326533, -2.469842320328849, -0.25858577547199063, 1.9264175888715256, -1.64139732225709, 1.5281822103109157, -1.8164661111030334, 1.0859437383703827, -0.7115513666357881, 0.07562265778568523, -2.387128851347904, -1.0548545598202121, -0.5018847412735001, 2.1631715270265595, -0.6251116827410499, 0.3277899838043191, -2.1356027552588297, -1.632244784491004, 1.8159988512595846, 2.3841357650686943, -2.148331298504054, 1.0529060804074062, 1.5128083581474145, 1.231217392249647, -0.5415216124917164, -0.448184471792449, 0.48679901232472833, 0.08331517492229423, -2.1344576273770595, -1.7891893376724357, 0.16626483160688607, -2.307722321508124, -2.027390834057873, 1.2756499382842639, 0.5862666924169033, 1.417828143770385, -2.2356758994696913, 2.562797415621253, -0.23182784057632277, 2.6093532892773705, 1.8489975077770866, 0.21417477743579866, 1.5823659548722382, -1.3545157222202853, 2.955938619333381, -1.9650757213422656, -2.9517416226758284, 1.9562663825386712, -1.7285917853829715, -2.3383452661119044, 0.9226935374677865], [2.0792473869344414, -1.6136064861075265, 0.026144582864836785, 1.2476381681831068, 0.9761997000126046, 0.11329210396016753, -1.4610591926280454, -1.3334364851846119, -2.1653803104106952, 1.2028847357988148, -1.9142730308622713, 0.8804989303660689, 0.31923091245447777, -0.32170900620755905, -0.7765365056038496, 1.9755883964657661, -1.134943802668338, 1.651302923993713, -0.08727867632765296, 2.2709546099002758, -2.9036084483127675, -1.7897174664494082, 2.784955085872573, -0.5939563161651078, 0.9362286620212137, 2.9761151648125033, 1.874696284984731, -0.7970974863298514, 2.9185032337082504, -2.641183120319143, -1.6491197796212418, -2.7824731763593387, 2.1935773655732262, -2.9709033412331975, -0.8103039652428051, 2.3633863696603052, -2.5403247654252787, -1.6244961209359199, -0.4643454186465663, 1.9393743490512227, -1.540183761193535, -1.1600100822595982, 1.8058167043940896, 2.53295392809954, 2.3607757083562184, 2.1347530791968636, 0.03561014495052264, 2.1786762526778247, 0.004208800075756427, -1.9305653717563807, -0.9089351023431819, -0.30541815593621136, -2.295635195463964, 2.4712844870024036, -2.701610785190139, -2.314634529396186, 0.23663808325542224, 1.2204934445486533, 1.2176817459219862, -0.13171434538800209, 0.28447485830781616, 0.5798097674629076, -0.19782977218542672, -2.0206843963811516, -2.8642080922676567, -2.384713710266561, 1.1878650071655839, -1.7199398517776419, -1.237410356799758, 0.21532912510145658, 2.7331974289001444, -1.9378297346935378, 0.3737115297804915, -1.764274144461096, 2.567578655684907, 2.978614539418206, -1.6463838734801026, 2.3932136700785933, -0.7639511789246979, -1.3973848450860424, -1.8990087455025002, 2.095744041483168, -1.969934689275363, 2.7893198258419982, 0.47141381387025394, 1.7438106456500533, 2.568943761606268, -2.2402894633120596, 0.1407139411034074, 0.8039866995069609, 2.1237918491607934, 2.9232981041963066, 2.5968396617359493, -1.1150102814510252, -2.6344656163524576, -0.4485892767690061, 2.619237448738736, -1.9242439168720675, 0.2694912560926461, -1.5182446748137812, -1.9813738978401074, -2.0930823516211006, -2.3630933721842147, -2.353894005075358, 1.785612729392945, -0.9984806714107808, 2.208104839926894, 0.541701358988269, -0.7432045742996422, 0.6140234059708856, -0.9997712932113045, 2.7415518255825226, 2.3449067329804585, 2.616398494841026, 0.6038421255281092, 2.2447523395533473, 0.2899605375223903, 1.9044900293786389, 1.286941527983546, -2.6462786423928026, 2.3057729142107664, -2.6979511734887724, -0.12225854456204571, -0.8038063724663104, 2.468673786057632, 0.25918608833137674, 1.8769907694203416, 1.8669957138323918, -1.5565165100785192, -1.3425818954105992, -2.8038780718433602, 2.635201464496753, -1.8309984967224298, -2.355122589242664, -0.7467794184493172, 2.997070766318028, -1.4894998108512074, 2.4267260936451955, 0.7599947908764917, 0.6380203289373565, -2.8048605182353423, -2.100854498162689, 2.557182312899375, -2.55203273497156, 0.8573460789258605, 0.6812885404579359, -2.5843696862459553, -2.57509090698255, -2.7150908729267758, -0.5742926816405141, -1.1546261154684057, -1.3594535561298837, -0.7997363116247597, -0.41314711335005455, -1.0419794410625585, -0.14992300759411625, -0.729433656047077, 0.8866539999288732, 1.5256724720981465, 2.528189318594784, 2.4028159234120614, 1.7581804804382564, 1.4664813044001097, 1.6139093616590823, -1.5913195772662267, -1.0971759167837707, 1.540013873411746, -0.7370997517692484, 1.0227079915828927, 2.8452687324372192, 0.9800456398469107, 0.9469466937659179, -0.9466259811865169, -0.1796710801185824, -0.043984365972928756, 0.8942446322394244, 0.8791336534264915, -2.5637279786411598, -0.6240512235198314, 1.9224997172974552, 0.24718687915143248, 0.4281257529257706, -2.192505832121866, 1.4443663693378455, 2.895863216072485, -2.0719973175865523, 0.7138306063992085, -1.2318243568900298, -1.040662838546793, -1.7878143667040742, 2.3919847331148087, 1.0739015760403359, 0.15891442762186825, 1.0339640392943685, -2.7310580934181194, -1.7828559276990095, -2.3793255945504166, -0.96109488691584, 1.9148918463458913, -2.077577540826618, 0.05370328451189195, 0.35886962805063727, 0.13853669845662253, -0.8947668396586711, -0.5599664336318865, -0.9946034288245024, 0.6877686081981842, -2.5279238495620784, -0.9124028136260395, 2.435822042910383, 1.9544995369020275, -1.5704995568388398, -2.663546018665342, -0.8919255897362142, -1.3508320960290578, 0.8031644933810266, 2.747209572238158, -1.6229825342210304, 2.070760039484216, -1.3757373519334843, 0.2948469138747718, -1.1607949657660692, 1.4874368878934605, -0.8615799695786682, -1.2820132268114122, 0.9664734634725779, -0.49814984430039844, 0.9763189246742975, 0.43919917681168374, -2.7804942450926777, 2.1636555724075452, -0.8696303276009917, 1.0638067968041072, 2.9781229232421267, 2.5477690787614233, -2.439915377521516, 2.6498190387069784, -2.5704536706856995, 2.5357629215673607, -2.8760163070331886, -1.0724058279598885, -2.8893586513539495, -1.392340653345824, 1.6549233169097504, -2.5447390819865845, -1.5049925676347014, -2.2169461968166946, -2.0946050237201814, -2.709534412996453, -1.8242014393349815, 1.7780022273469467, 1.2527466421969278, 0.8519123731533342, 1.012995189233339, -1.8300785240224564, -0.9821900105876208, -1.9904889957075833, 2.6848792116667237, 1.5880444161496488, -2.787943147797586, -2.0421787207154747, -2.62949468881337, -1.7182660217349965, -0.6688080085124707, -1.4998888952039733, 2.447530505890819, 0.043742096072143424, 0.41829540027667417, 1.3909477809927384, -1.3692551218509477, -1.386525824822482, -0.9951785556617029, 2.0426461789036168, 1.6963634656392748, 1.8819075351797239, -1.0338248505895125, -2.6191578870600245, -2.57805424875294, 2.6664834543034885, -2.085569426522888, -2.9300682968875305, 1.709709755199791, 0.7434840942953231, -1.0243363950116526, -2.6801099989245127, -1.0657150013812726, 0.23032778306718643, 1.7199666978548476, 1.479302228735386, 2.2245588113485426, -0.8638816477061899, 1.5053235042190136, -2.519559987774168, -0.6831410150276302, 0.6406340941406938, -2.050218305521029, -2.129778174679311, 1.72058219489516, -0.7369617015942863, 1.7885608710024257, -0.2674370730864001, -2.7106443239393294, 2.648477960434743, 1.216377121744354, 1.6710325091501868, 0.6502296288821424, 0.925733834597951, 2.429715077563413, 2.085683155650768, 0.790258356740741, 0.5229476379723855, 2.2043422999103517, 1.5027307304755502, 0.7229425046270296, -0.6593714301699365, 0.917716568252639, -0.4743428429486058, 1.3985401127418995, 2.5004605401909443, 2.8239755078457804, -0.9269737301902645, -2.1974243634876807, 1.612811680684558, 2.5435887850698045, 2.353320213155629, -2.7593564945485287, 0.11418493220971744, 1.695869124634562, -0.9714868534480195, 0.23761651601126774, 2.530983177844603, 2.9327456025627283, -2.391993014477798, 0.7961266357805582, -2.742909865541223, -2.975021596428681, -0.2751169691128406, 0.9915545066402626, 0.12937912726787396, -0.1514359755497481, 1.0734368899195046, -2.5867164753310865, 0.3474883727771659, 2.041543177871881, 0.7097243643688048, -1.7006694218975118, -0.972874927546409, 2.896185420917984, 1.9622404996885856, 0.7093646006884611, 0.7372571569902472, -0.576594057722421, 0.7443607225094665, 1.3256262645237764, -2.2647759509765795, -1.509637337807521, 0.8340957426288668, 0.5648578138442635, -1.2371367131568816, 1.3122920261137339, 1.8942087189652583, -0.2621753958845167, 0.6634647324359884, 2.6040206941802624, 1.2427845054303073, -1.8874393005175476, -2.9354232564350604, -0.41636232607593116, -0.6404479892477014, -0.44947754097967463, 2.073202211825603, -1.7270870108865126, -0.3768918840240176, 1.156668034977296, 2.063778243551215, -1.1042909165651729, 2.964701510353275, 0.9230278704908887, 0.640508793671755, 1.423473558239072, -2.71698952739159, -0.9890663080916878, 2.7067464328776456, 0.008905784016053213, 1.5681449044480646, -2.0952696965466506, -1.8603589407056977, -2.1723993844679708, -1.851224845873933, 0.11981646441482492, 1.5253206416009095, 0.4611651720148898, 2.5372673570181714, 1.7491870310584272, 1.7918372183194589, -0.11446130474878194, -0.8606779010125796, -2.900830005124367, 1.7542183703587264, -0.18038363928838078, -0.7461780020666547, -1.9079129974837874, 1.981804220896263, -0.4046075681386142, -1.1135427500529909, 1.4646764863667598, -0.7128038670344562, -2.7726810693301207, -1.570400168069527, -0.10274348618602666, -2.320567268864389, 0.8738062275772529, -0.582466764621928, -0.9865906463249177, 0.7514095929470913, 2.9997286001587122, -1.8831078206380345, 2.5220202633995035, -0.6534150569618029, 0.5566059757906958, -2.389515487816227, 2.323041669511711, -0.06110067956749207, -0.9871674558377608, -0.7460046605505342, -1.3839151641905445, 1.231569171738537, -2.1533313580234976, 1.765317895227448, 0.6662114345254211, 1.2131351611628982, -2.4011227547110354, -1.8060054276948319, -1.9888752337431668, -2.424806444831873, 1.4239928525089387, -1.7078099606877473, -1.0429840416040468, 2.2156154658377045, 1.1293622752899308, 0.7296534932569139, 1.1721410336151203, -2.2026642826225493, 1.4106918163484639, 2.1231925681160533, -2.5966849255502114, 0.7067431373497939, -2.854402414530467, 2.51274159091714, -0.5766660252678208, 1.1091086940210992, -0.04515367732208122, 2.3553988458876938, -2.657404493085499, -0.17386234112597507, -0.19397256440239036, -0.018821813678698028, -1.6218588109326373, -2.2641145246366445, -0.5605996255201067, -2.994089360846458, -2.8440542600734235, 1.1544923931545865, 2.1977837387271424, -1.0643399872331105, -1.5326771917942148, 1.0342253585406502, 1.6213208359634608, 2.0567266004360576, 2.0484744039791307, -0.966275025163717, 0.7088668863311879, -1.8582357113910621, -1.290689351536686, 2.9113008897668955, 2.0912014666042484, 1.1806337903776276, 0.9407262705160967, 0.6167893049599364, 2.495934937695243, -1.4011627441991947, -2.6137523607752944, -1.9131118026913692, -0.5873521517205821, -1.9970708382748799, 0.4365573281759223, -1.2098592028756394, -2.8638716201740273, -0.2913600126577253, -1.5434828289951819, -2.31143350126954, 1.4564353891840878, 2.5448030833785875, -2.4813562703107777, -1.2876631786182349, 1.2691010272516872, 0.6599355386254836, -1.6508976737231222, 2.160495275053722, 1.0427335107861462, -2.378446487255416, 1.0578352023524726, 1.6202226871522771, 1.8059204896887255, 1.581148657648996, 1.963105356154312, -1.9149444881532072, 2.153747070195506, -0.586990162190388, 1.5457598588582198, 0.4550323426769992, 1.712115489845114, -2.3673781161228358, -0.1267514906239819, -0.9619391178071592, 2.0344180602942616, 0.9725380091706195, -0.723948558330691, -0.1697573397175698, -2.6175427216387224, -1.6623774529242439, -1.1299715063382045, 2.1291017060909656, 2.782144602196288, 0.42850990132260164, -1.828627771458215, -2.545664974871002, 0.14553506203398564, 1.9951270753568264, -0.41414296331974043, -1.4311417609149355, -1.3193608839614297, -0.8205724652372934, 1.0067042461619524, 0.16661870809284268, 0.697097608223997, -1.974435406392525, 2.7787127254588366, 0.5223751115140493, 1.1100889770747078, -1.9268747780682227, -2.083947248181516, 1.7117013614295198, 2.0001180818566424, -0.3179513330582255, 1.2393139963573772, 0.11650104873118403, -2.942185539065048, 0.18626819010488913, -2.612796794143652, -0.6816027823619705, -2.3140247553924156, 0.3697396017268734, -1.7658474818307508, 2.3394314557857254, -1.1658277665096803, 0.19006049951291212, 0.3100674802975141, -1.4340135991358318, 2.8411002063259345, -2.90285237778658, 0.9073641650312497, -1.214181890705335, -0.5847783057526369, 0.6689558737962714, 0.9642000508083904, -2.293588363525884, -0.6002760893313263, 0.03296395451060202, -1.2298681145597945, -2.296688944399633, -0.07869865202913837, 0.9732276843280683, -1.1233561823503566, -1.912228961008784, 1.3563011400742224, -2.094321702875786, 2.6367077119972833, -1.9654611445744765, -1.3509222894767987, -0.15929937884010814, 1.535619275340748, 1.8252748590013215, 2.3865573205941892, -2.0513923292681304, 2.8934230883996253, -2.560838819991529, 1.7403890195890659, -0.29606973582996476, 2.7811910367703536, 1.6112957087675972, 0.6811651358151521, 0.0749350267132401, 2.9140502507971133, -2.462128351950714, -2.2940532306056736, 2.5080777316642773, -0.18981665407345577, -0.3171823647376251, 0.4642298573874963, -1.6147821354116196, -2.94315074788884, -1.6729023645751593, 1.7526956914817733, -1.3849228058288265, -0.9923818432850557, -0.5514265473743409, -2.3739245774969238, -2.7009233805380335, -0.2441479309258124, -0.7637140778889291, -1.70235272351426, 2.740927219380075, 2.7941732717142145, -1.3720911350728382, -2.7894416064354823, 0.15018048160443087, -1.2747773748334097, -1.9756028024458354, -2.3612981313936277, -1.0566226862846824, -0.4009527933493057, -0.6353506348989656, 0.046462805640517774, 1.7510066814115761, -0.6141900095654589, -0.7533177671190754, -0.9776017350080398, -0.6316600807040388, -0.9004619704447002, 1.7669181403795187, -1.0220206752928815, -0.2942101158767057, 2.973387542672791, 1.0315981243951617, 2.9638694117445907, -1.7721840644567952, -1.4382244712090484, 0.7246915098283687, -1.8024982075261782, 0.021318128949720058, -2.838639548312143, 2.893705137679803, -1.045419775051045, 0.01078583734692895, 2.450105371395342, -1.3679041550711055, 0.6492401691548617, 0.3453584060454475, 1.0964542972729476, 2.223577421605495, 2.39842000736123, -2.8894422910386526, -2.8176183972823, 1.9323776847552878, 1.49152040071611, -2.4278415849938444, -1.4917632106365173, -0.8892466898975121, 2.5655286100277963, 1.2147849404990254, -2.6191679365575866, -0.5892939378826381, -1.3466613763223363, -1.3065941402322894, 1.9555397263433196, -0.188000998458924, 2.274809578716446, -2.8091691821787204, 0.5597872859391341, -2.2327926210730524, -0.36491922861867243, 0.1558266840899445, 0.8807142921160676, 1.5969096757545744, -2.687215467917957, 2.543159422087779, 1.5638994201363283, -2.415545933892427, 2.3134369199951585, -2.2106503345246025, 0.37973549082790864, -0.9366320794926357, 1.1177366870952534, 2.052517067408462, 0.11803223740539649, -1.2117956334816635, 0.016024575587929534, 2.6614657320911768, -1.4183705260045323, 1.5354946263869125, 1.94498753087137, 0.5833048096049196, 2.89789901341333, 0.2249260207435735, 0.6317279676127904, -1.295051134968425, 1.3319539035810113, -0.21703960265270542, -2.1354754326240615, -1.89591156885538, -0.3880126499533394, 0.6322219264898371, -2.173742015862403, 0.9305996318304377, -2.0254701278624148, 2.9378027403566693, 1.4093015473768478, -0.877981932325963, 2.5135939153903157, -2.757369850712903, 0.406162974989106, 2.514563830554945, -1.8715541841060397, 0.6952634595669558, 1.1012566566243422, 2.202770052561134, -2.800855537796104, 1.3252103054126412, -0.46805222108756506, 2.237831799721167, 1.0855129914497947, 1.7540064335141385, 2.6745610368456076, 0.007333462715162461, 1.4530193476826518, 0.8847985672676724, -2.2972037414677278, -2.0752588231112163, 2.560432887419977, -0.07784155193736897, -1.1722601098972998, -1.0675077379317774, -1.4413916579820836, 1.4721806784686857, 2.89345150205407, 2.5227681789914675, -1.624425754133545, 1.1449329670320265, 1.7102270805267552, 1.4354954264619888, 0.9486024578226034, -0.250581984485495, -2.3920614122632187, -0.1439858760173662, -2.265961117389115, -1.563063072008213, 0.3484564665101912, 1.9549578115415294, 2.153830114816236, -0.16885884728841913, 1.956853949684285, -1.4430701464147273, -2.9457111398232065, -1.0867810404611367, 2.0666124787148137, 0.5367019498376142, -0.8294325100603199, -0.6088381190426597, -0.09467605072288254, -1.7260448703142812, -2.847280962755725, 1.3613866651364939, -1.6717716140769288, -2.3205000801714926, 2.1217106740657488, -1.7758250304967664, -1.033000632453029, 2.1848390201629875, -0.3366587824331244, -1.0982470220384226, -2.0566039919872274, -1.1203124039335728, -2.1412997861759173, 0.014483989690977622, 0.24681253531430047, -1.9451011978657504, 0.17663245450782705, 1.3530015002032671, 0.11116504279287322, -2.2698927982405483, 0.4237674967025242, -0.7976306211101161, -2.4484582131960124], [-0.04164638166654289, 0.22799672025413287, -1.8682047124040537, -1.2436784861031123, 2.2045219816030777, 2.8067378518402464, -1.439534522670172, -1.9467830173761016, 2.6330600502311876, -0.5269092325806879, -0.7206533947504496, 1.848022737538555, -0.19921862542686883, 1.2501314485837358, -1.5070045336102973, -2.3364875163265486, -0.2319321864932995, 0.14896196907274017, 1.7476951412705164, -0.7242736628539581, 0.7003258097535578, 0.04550820011004797, 0.4653915703406346, -0.8084998590646846, 1.962023389355986, 1.3789094197443, -1.8330280132561727, -1.290182432557651, 2.0473367710376573, -2.420068025903146, -0.6694719927260762, -1.0576741022699143, 2.4677888755169697, -2.2405592359923885, 0.5090387221465528, 0.3183456861511587, 0.4227880576002788, 0.7015923332365405, -0.9052121373957801, -1.0618286310389575, 2.466574543280481, -1.9103335142614655, 1.2613403297904813, -1.4354408019134914, 2.173605273265478, -2.864376959685451, 0.31402752856973426, -1.6925312633411318, -0.9497229868465471, 2.4796425334840118, 1.5308930072799578, -2.0223511562466694, -0.3474991453651226, -1.2274621445191294, 0.31307432179589156, 1.672286433345695, 0.6616393947438155, -0.05813038216569666, 2.2592515078527584, 2.4542317885564264, 1.4126453326898807, -1.0734706439167383, 0.6312998129653814, 0.9667950607433053, 0.860062312984678, -0.5407117474184924, -0.013157943227657416, -0.5661746799174928, 2.058629374154193, 0.5470912802498381, 0.06218774460610493, -2.190005429985127, -2.6424087376973375, -2.8112261986595573, -0.9810763033352717, 0.2776117253692921, -2.7972075348178604, -0.22324677300077608, 1.8145050532099531, 2.610878438612847, -0.5910570762522858, 0.0805868746077655, -2.204310809267575, -0.07855878817273343, 2.4798795970659064, 2.8094625273478027, -1.8352693041859736, -2.7999414344026063, -1.2253309560364034, 1.9335492895668278, -0.41726062243424045, 0.09558374243502825, 0.30091840155267807, -1.9272724834098756, 0.32177839413760434, -0.3011629963344237, 0.899429433788494, 2.4202735574550283, 1.9888897184357588, -0.7850017987370753, 2.4222415434888327, -2.960406290745638, 0.6983148248648456, -1.5596466095195172, -1.7367225072847825, 2.338902786182737, 0.24943670347218017, -0.5606055076452584, 1.151258442530414, -1.5610829150637444, 1.6230397700791652, -2.1412260903572147, 2.2563734105598225, -1.85524259480887, 0.5993688810147721, -2.734841389724312, 0.796473275640035, -2.1871835608972057, 0.5347805714656607, 1.617267092586987, 1.4800975409478536, 2.4906037626971704, -1.807012838250443, -2.658374220702208, 1.2130552812930728, 0.9922342416450121, 1.056693481612201, 2.370660609223335, 0.8143161807050228, 1.5264262546589866, 1.8752667608135045, 1.637811739794485, -1.365478407594688, 1.1692143541105988, 0.7242950283953928, 0.1960897315030595, 1.4371987170428315, 2.6888647751349173, -1.3748624406540186, -1.8697390424764158, -0.21036749344895656, -1.8939361342126486, -1.0640551605669577, -0.31462681926320724, -0.6218148579359553, -2.324537534626792, -1.3740069745343433, -0.1355843505597629, -2.1354667290940066, -0.27037362766429823, 1.1545675955311365, 0.9678068557020669, -1.8327089342375196, 2.458530013751445, 1.7887947102276016, 2.6346354506573477, 1.280848063625464, 1.531387929652026, 0.6114325369945364, 0.7686058437353767, -2.6425662212058283, -1.1430087952506909, -2.0156693410622983, 2.5244054630646433, 2.781123931624193, 0.16400030416285388, -1.3887832500407051, 2.0596643610110403, -2.240193587096668, -1.8370912346535435, -2.8743980211078344, 2.336617844780317, -2.959628902995751, 0.2715796040092731, -1.9272664607700862, 2.051027196873958, 1.0030916666623726, -2.304272814025632, 0.6398717974557617, -2.4164625591219306, -1.2014013440689981, -1.1474978536955964, 2.665982657813897, -0.3306785687804509, 0.6935174817658254, 0.9612383520436585, -1.6809294276412234, 0.43019669664252536, 0.05463224936005837, -2.9142104333094707, 2.4230308355816064, 1.1758635570718545, -2.470617675824022, 2.2502176874257924, 2.193916673468305, -0.4420573562585582, 2.9512407693622364, 1.5829328067146513, -2.4409725283446475, -0.790430426800078, -1.8368120808000952, 0.4103215295060104, -2.973417749318585, 2.7195744124312693, -2.440700786978286, 1.4983810529591777, 1.919037992551937, -2.5144652724152556, 2.9468760496868667, 3.1835405619132096, 0.9993415330350427, -2.0621147453674293, 0.8244801164641998, 1.1187155128399309, 1.7594904594374343, -1.1816838665590463, -1.7485623622345405, 0.12532618064062312, -0.5290114265609708, -1.2649717419217876, 0.7203451141352087, -1.743945889698076, -1.105951715580329, -2.0494559130453416, -2.9048912670739, 2.99705760928393, -2.7998023731832924, 1.113457841045375, -1.6112867269818472, 2.5451406298030568, -2.4480169796315905, 2.612668318502892, 2.3032804350681544, -0.14507755152782653, 2.04114739076398, -2.0025995506404723, 0.5877626038734272, 1.6097204649717676, 1.4058762826572988, 1.55098804624228, -0.4627644531224262, 0.6454562250230037, 1.9661575291337183, -0.050075109166660886, -1.8633488762745032, -0.20676954353100968, -2.670088893218479, -0.6139836861616347, -1.5801552830116308, -1.6709466929770616, -1.1287311739399382, -1.591878347570124, -1.0281751433166586, 2.4862317624621526, -2.1982106302886915, 2.335966267944452, -0.6165110656749698, -1.3114426470479144, -1.7247424707874555, -0.21952062961184735, 0.2676454309287964, -0.8946023963159864, -1.358977068854378, -0.7773005069541876, 0.37149267230864175, -0.612316755030936, -1.603981989923046, 1.3221786671285445, 1.2406927024200824, -1.6071710288915515, -2.1566732010909937, 0.6544936854792159, -2.169480746135333, -2.844016218671431, -2.9085018566334275, -0.6063726882770972, 2.2985055504280436, 2.4380799169389626, 2.211749920931096, 0.2038162244023142, 2.841423867726973, 1.4009191741432323, -1.9346512934508313, -1.2562589176915595, -1.7844129017547525, 0.9738220838403895, 2.5126146282013186, -1.8008933321819647, -2.4399504634913116, -0.757322339845206, -2.0894418764376543, 0.8880295876800018, -1.4937672056777591, -1.173460560832402, 2.22199525455643, -1.0295334141590151, -2.659625640475922, -0.332092616191804, 0.10104672112562281, 0.9884282776048261, 1.4841838161994594, -1.5250207832282718, -2.0065067213070606, -1.072296625311521, 0.9170354372403341, 1.139533156909664, -0.7448667294366845, 1.5125404191271434, 0.6312385767445469, -2.032897076724422, -1.7675086032797727, 0.7541949105786976, 0.44500451524230816, -2.820365502185765, -2.739928715850706, 2.83341001772791, -1.6588246740057735, -0.025017494597363153, 0.48003940448436283, -0.2248629313491347, 1.623211433713537, 0.7932719616664914, 1.3924732533844908, -2.045376787675034, -2.547222549064094, -1.6859472949386467, 0.07944486306026821, -1.5813896842586672, -0.5149394472156681, -0.33242415452038077, 1.4584790580175937, -1.96693942174305, 2.28257360090504, -1.6965788564916695, 0.2468845906232284, -1.2553465659537255, -1.509049323267042, 0.8613116124817635, -1.4222084483734145, 2.0761811708527165, 2.766741958484405, 0.6289210184588715, -0.4853400749022908, 0.9774417839569909, 0.45996291251929694, -2.7849195209393534, 0.24240890483124186, 2.302788254409105, 1.4070662557653133, -1.1140450241405677, 0.00922736943886745, -1.7194604559528157, -1.6510399598011793, -1.3454790497751994, -1.1620715675705993, 1.250814951280654, -0.8476620178701997, -2.5849970717103634, 1.2820237361477897, -2.3099939282064788, -2.693714222796031, 1.7810040780627963, -1.1985605286806382, -1.60291891974229, 1.5335615072181263, 1.8075621770797943, -2.9841767049773944, 1.760704523768576, 2.747660036332507, -2.305455534593213, -1.8206829942206564, -2.631485321102927, -1.7959984459375173, -1.2953298929877237, 0.022595172170934597, -1.0301373280107762, -2.83149061619789, -2.0378265453768396, 1.8653561665574148, 1.3146394553162557, -0.4870526924808176, -0.34142149717877535, -0.9523509043114333, 2.179788776959529, 2.9000919702218013, 1.5347342084932798, -2.7654315188589917, -0.9702011852129054, 0.7946202127332629, -0.9452201671423878, -1.5540988882583193, -2.05678551424249, 2.995613255035093, -1.982834363888499, -2.3709496663639893, 2.1523836175342557, 0.038620173286819715, 2.890424080866833, -0.9809430024882019, -2.736862883828086, -1.822271420211571, -2.786154486139391, 2.338977511526148, 1.2362389880456812, 0.47263293487936403, 0.9204649968002666, 2.7776936884305434, 2.323832997537118, 1.4257206539227976, 2.077166859625356, 0.9339256306070067, -1.1259471395772271, -1.3187563885384224, 1.8136939648715389, -0.7504750660301611, -2.002954906418689, 0.8538337345568913, -1.9749418788545634, 1.2250304733410895, 0.8529910718068968, -1.439970418875051, -1.0199506233634448, -1.8012523763656259, -2.330671687313388, 2.528425928303895, 2.6608054675309645, -0.8576452173418951, 1.4644068419912584, -0.9697858620972384, -2.028721299703038, 1.3031523548503186, 0.6034669461174813, 0.8838968637402903, 0.8203208242607805, -2.1539438166832214, 1.6720965668031604, -3.0484182986527597, -1.8752562868871914, 0.4866472445257611, 1.716507842393693, 0.7920723430883593, -1.2076028727025405, -1.8607079474457036, 2.8512709287155826, -0.36620245615873187, 2.1068895168645203, 1.4254053510776172, -1.8160524685157986, 0.977776682482939, 0.9523272040406606, -1.637399758347409, -1.9579175270370635, -0.00882382716960772, 2.7693637644639706, 0.655997814433718, 0.028514392218642964, -2.643139361436799, 2.733525828001689, -0.9602235129386815, -1.9325483630121625, 1.3722577580060822, -2.6248808175262037, 0.14262588465494852, -0.8830423271337308, -1.768327926265842, 0.11520748299268917, 1.4781546477804053, 0.5309200101750872, 1.7014993255817805, 0.09649917051236066, 0.7446035209141734, 2.0740887730496382, 2.709834588035309, -0.6463194181708017, -0.5019705757898687, 2.0447451533285976, -0.453720599360925, -2.766259678897387, 2.732540546076268, 0.2530938800834853, -0.05939779743698486, 0.3663839714162155, -2.75447367776812, -2.7829109130800274, 2.3327786814136076, -2.793728993027864, 2.0967409701950186, 2.4085678446275636, -2.2784903431802515, 1.2795552539667128, 1.8096312010212139, 1.3654545103495923, -2.533096315284368, 2.2117410838170133, -0.5131762164584298, 2.0464709838559596, 1.1482473048381006, -2.797666602558339, 2.4779846128843883, -0.38969468309796496, -0.6404600798595355, -2.793623291865519, -0.5436692189086337, 2.618229813971968, 1.477601175020979, -0.04996760098055867, -0.9865504723021271, -1.3605537807156, 2.42428248274453, 2.4814693210333054, 0.2273508893532766, 1.9970283184892421, 1.2213549450111925, -0.7855821392351425, -1.3015853968038926, -0.9638460735614612, 0.19625464957702748, 0.8870219524151057, 0.12870481303880443, 2.8051713527193347, 0.9500168113807773, -1.9151369319136877, -1.7734984880874445, -1.7471708227130918, 2.2119950098651837, -0.6416084052388231, -2.3062476404613395, -0.8392732669156974, -0.29057666651502817, 1.7496961340947441, 1.108326677865792, 2.838263919203043, -1.7264291158493932, 1.1359262915063186, -1.4399727592499434, 0.19513784160999498, -2.2730283858254654, -1.719701274342474, -0.8512357118787277, -2.7879076238683425, -0.7291098298632815, 0.9460598579939988, -0.6772646627003208, 2.174552279345195, -2.003203531964862, 2.083122728978298, 2.098361454297347, -0.8014824704979914, -1.983631722470541, -0.8047296286531257, 2.964958803357506, 2.2903156275547376, 2.3852054307002217, -2.54662941218273, 0.783317003536696, 2.767224677453905, 0.4842404878508662, -1.7302654157708162, 2.6202554822427344, 1.6003473445707697, -0.45983259553223466, -1.9010722001178142, -1.8280883602153781, -1.9618662239070148, -1.2595767331977437, -1.5809790600320366, 0.1930001384485338, 0.18781229361161625, -2.5819294890118054, 0.7513229790509974, 1.9731352693495539, -1.3246965644453748, 2.5535185980316006, 0.8604271680866842, -1.0677303709655204, 1.1116401523625352, 0.897524747834506, -1.9050015723078177, 2.752302611092308, -0.9821706482892422, -1.1110310684632634, 2.493464559523922, -1.4785550435758974, -0.7683626264915149, 0.15605392188856862, -2.7624556615355664, 1.1650723661433973, -2.7107714588900294, 0.5651373995774427, -1.2043349038576066, -1.4959321821391158, -0.5156837896677819, -0.2760251663651778, -0.07592146681236601, 0.2906319639094905, -0.7210864122700132, 2.263436153127221, -0.15216075989021144, -1.9956398382431169, -1.7319894335453134, -1.3395797503041533, 0.5703206919541712, 1.9286913603497522, -1.456597571682977, 0.9030202559853573, 2.205154836526321, -2.0724963875683486, -1.8071171958961547, 2.830658159263598, 1.3396777055019353, -2.875066743820704, 1.6907981350004757, -2.710165563403668, 2.89516643115216, 2.2275979929853036, -1.0444300219658755, -1.3092556950628649, 0.607451759178442, 2.2918699684223682, 0.32412723603824856, -1.6778380892236828, -1.367140934296825, -0.017817098246201663, 2.951252956503168, 0.9667538995682521, 1.3476378380506029, 2.1425935636618942, 1.8238818871210183, 0.3402872302139397, -2.330018792263724, 2.0275208505480795, 0.19354222074317454, 2.7420901098835992, -0.9028441366911591, -1.8416850541047127, -2.496949904015904, 1.834390948926409, -1.4097936569056775, 2.5447268305717183, -2.037213464786737, -2.2204026455711987, 0.39592992129931587, 0.9955967298340359, -2.1646257211831017, -2.7410424793061834, 0.30202566482429516, -1.6122475054038865, -1.8138329572530907, -0.3092643036584223, 2.091516862186717, 2.29664462035954, -1.393279396601533, 0.5239481430982725, -0.5396289745756532, -2.460185652494942, 2.993591078547422, -1.9985303424721483, -1.828071642120035, 0.13913418512401185, -0.7793196501025089, 2.4949916348382057, -1.2283516824865806, -1.18543874879163, -0.8651494288542537, -2.047681898564306, 2.8813057600118133, -1.943528774347592, -0.8615237709324558, -2.8926984774147737, 0.890027777719815, 0.4111210132255454, 1.14796490740411, 2.101917529345923, 1.174461858697879, 1.3536231443689404, -0.45952457293690874, -0.5986125741105659, 1.3394205191085649, -1.6499714789918978, 2.3369246930029948, 2.495301221936906, 2.8936116071559397, -0.48569566960781735, -0.9607391321678298, -1.5309425685577318, 1.262761442758023, -0.7514526816911064, 2.120810714906755, 2.046946106606235, -1.8925812934026474, -1.7024259401148454, -0.41819599128916135, 0.42616246059966817, 2.3757712954562913, 0.2784187194745449, -1.353101268907467, -0.3180539118462575, -1.5426352387720386, 1.1011225962833835, -1.1186659175721367, 2.4697506719178683, 1.4567959740593084, 2.72301062415612, -1.4696241738682914, 1.8294387207171918, 1.5742678000381622, 1.4141398675557189, -0.9626888430070094, 2.424460913055069, -1.7349190514152475, 1.3862656875031931, -0.9081189602037094, 0.14241193586505044, 2.9942079080221253, 1.2226925202985177, -0.5632792182068115, 1.8595846440819142, -1.0956481688906714, 1.904475450384472, -1.4463305817404066, 2.890991096924457, -0.1559698251584487, 1.6946452274154558, 1.2266190222189997, -2.307270763956244, -2.1236543317344254, -0.3573886871004808, -1.0380767008103753, 2.8203458517986117, -0.8596756674087462, -1.4084981221104256, -2.7484077105631295, -2.136267340776354, -2.337578451371756, 1.2216265837194122, 2.6265516352841414, -1.209355980408582, -0.7122594851625537, 1.665857769862927, -0.2006616875626767, -1.5269336646483704, -1.940373709290513, 1.2967563969580138, -1.263483090348192, 0.4755397664530114, 0.07315574476696383, 1.2825093984793436, -1.5681005198619917, -0.4293735971068184, 0.31224912898415835, 2.370056734713964, 0.32990822049169477, 1.5238895166571238, -2.479393159222864, 1.617870810210107, -2.3609410580255505, 2.0912223032684167, 0.8272507213511946, -2.3772854273759894, -0.4991763670188263, -2.4036959206946595, 1.8788809315214434, -1.4703921265806403, -2.989095123052963, -2.585860786802109, -1.811245424100273, 0.9028725949436617, 1.888169572165169, 2.1062559211757166, -0.9782839325667948, -1.5368592411199253, 2.255038287430617, 2.7999430706210746, 0.3475047154127639, -2.21995065558302, 1.5181415431002496, -1.7112716649226287, 1.3256161292342663, -0.6145096356128894, 2.340719470507919, -2.7447499535795936, 2.6085358415227713, -1.783286102503725, -0.0993851134648791], [-1.3011065978738645, 0.13492939362904188, 1.0379100253865037, 0.6460715176272624, -2.192826214037348, -0.5996537333057401, 0.42560320035137567, 2.756530734051097, 1.1538216430194463, -0.6062295540508806, -1.6669955864866368, 1.9618572548626858, 2.273232363741349, -1.5127406106865628, -2.048214618267004, 1.7357434996278918, -1.7013829508104403, -0.13246885630321614, -1.6965628670707489, -1.3266494790136374, -0.7148277764737987, 2.8453083134203005, -0.655762112876479, -0.7797112622256108, -2.8510339193580707, -2.108816442123658, -0.5819031295833983, 1.9736620621982581, 1.6236016943006524, 0.11904967156402524, 1.5073927670524867, -2.835647877409346, 0.7872051710903687, -0.4813646066349945, -1.0965641986605672, -0.3716732497090254, 2.8551753482524926, 1.0601020344580798, -1.105984374517905, -1.125513320714288, 1.2648172845134518, 0.840006014586723, -1.6827073261680656, -2.6024886672365257, 2.439306252360281, -2.479655376128973, -0.1615802301643235, -1.0795122419073147, -2.4246395094815685, 0.3647203073846886, 0.6254618507245323, -0.14309855897568488, -2.1379552028505584, -1.6450008884546232, 0.264235501493685, 2.175376865996582, 1.8481985264376544, 1.1723253287813797, -0.5898463937795705, -2.1134878991432697, -2.690580324101722, -0.9029938759698479, 2.5014896819765764, -0.6992546712082265, 0.3295918480909871, 0.9272364217931958, 2.3386712208033362, 1.4129955542698014, 2.3154332782363247, -1.7439264142109647, -0.05150155795892322, -0.6698432452807471, 0.49527693136839135, 2.480369810144728, -2.3618403505885444, 2.452774274384535, 2.576509378455629, -0.8790228192491644, -2.355431811066449, 1.6947501033555852, 0.7375269002946103, 0.906403276623841, 1.8304147453924182, -0.37966381024454154, 2.8803229695064365, -2.264857753240552, -0.7090399235523611, 1.6242402559626714, -2.5810129544460043, -1.653957843735586, 1.1594538859853694, 0.6207084097942623, -0.8212527809516647, -2.824001139423817, 1.9073815393473104, 0.1594202276677924, 2.537037388686995, -0.8799938427639454, -2.238759481277133, 1.1074891599424792, 1.2288340852273012, -1.066303452188709, -2.786355972241517, -0.1448702478499912, 2.594705860816489, -1.854800657450184, -0.4370380130639901, -0.164978244783384, 1.4697215399255004, 0.45514897635158397, -2.1814960472163567, -2.092672352879777, -0.7526791194635738, -0.003864771037785561, 2.0917034508255163, 0.42011537258581755, -2.229592090504717, 2.9441654099329186, 1.7846666883337226, -2.0417143182327844, 0.21247889772139109, -1.7496423204337255, 0.8234476948596615, -2.725938640248611, 0.6639454784545195, -2.0997147721772773, 2.254043000790464, -2.59608487969655, -1.2994108174306584, 0.6862497767312522, -3.023296399618037, -0.1958039523509575, 2.201369925775144, -0.27077227428994827, -0.4301990272720303, 1.5566094939786141, 1.7986812212730552, -2.937274914895963, -1.0934680029658412, 1.1196665400646424, -1.2077809197800335, 0.3175069402194661, 1.6653025069163, -2.1627325307389866, 0.9186514099367824, 0.551106982342922, 2.673258807177481, -1.9623976124469673, 2.6910395260572932, -2.817943747460022, 2.7157240806712326, -1.952429277244175, -2.5851737904088403, -2.144131691339033, -2.6215071200794515, -2.3769645141417244, -2.4000193663855436, 0.09302613949349003, -2.0234984266084926, -1.5006194802403108, 0.7100231295252802, 1.7426710458861125, 2.4648745773906477, -2.847784988408414, 0.030370937615770102, 0.31336834354770216, -2.124366186835286, -0.28155383121640243, -2.3844384362640083, -2.414355088663491, 2.5660819841026483, 1.5900262965500889, -1.9969851641842307, 1.5313546063890666, -2.4151680063718284, -1.556659607992163, 1.9025638293017948, -2.296609396229148, 0.6853597216990487, 0.702435436550878, 2.2638238220382894, -2.1832079777308926, -0.18532999718511436, 0.018084504851642376, 0.32855942985786013, -1.6712454434621689, -0.25158751173046157, -1.5319679282969951, 2.782916408672061, 3.0534230885140605, 2.7186128943578165, 1.4471006234243284, 1.7021399770400216, -1.592441227395656, -2.874949131891039, -0.06816982775481152, -0.9405849918130915, 2.8167676365442387, -2.653018856695322, 2.8621914273720286, -1.3242156727031082, -0.6885211790315741, -0.20356414349526072, -1.4929783865028614, -0.19455121384159016, -1.354533288595851, -0.24096208694360352, -2.978135333740374, 1.1464011478639209, -1.1346186894172339, 1.0028331872981193, 0.9074418943461048, 0.03426186592707287, 0.7950206596827156, -2.1083549947567595, 3.16227413177551, 0.012962618950213507, -0.24625184051638724, 1.77662625287274, 2.5070955934101007, 0.7712759798895394, -0.47622588995260456, 2.752761031330608, -1.1179261582848503, 0.054974702828543914, 0.3011452700480894, 0.4272797029232329, 1.0569364120200335, 0.5608301893111437, -1.6187401405817132, 2.3484817818264436, 0.00593973648957728, -0.5668376579497615, -0.27750936849725044, -1.9738053977416945, 0.4166045078121176, -2.0791409376778254, 0.6209305351394757, 1.9995356294997173, -2.327428497599294, -1.4311592660190509, 1.105410710688791, -1.3411115677798826, -1.8815890707298828, 1.1527616011288593, -0.6149232496656949, -1.6638613047274995, 0.8380451519009801, 0.016695414458305007, -1.881497666202248, -1.2243136790343085, -0.054456897493076264, 2.634215283162747, -0.9433992117695837, -1.1292784618263842, -0.1697886955535122, 0.8734985854004834, -1.614599546801962, -0.3364748835619338, -1.8667226704067952, 0.3434718519251831, 1.2190156559168297, -0.0643341427961161, -2.4075611295589345, 2.106823828253296, -0.2584087091178621, 1.5065018163775843, -0.2916605742411061, -1.6094762757050718, -2.5758909933615732, -1.470437748430058, 0.8514248667334923, -3.0260372619245164, 1.0731316524978904, 0.7502689931775823, -1.9286391566670613, 0.21838516157373436, -0.22327042297947702, 2.409224316310048, -0.21883353091858768, -2.745962257444012, 0.15311170575626806, 1.512714065699364, -1.6979863633716155, 2.2126645239887184, -1.1615364945168445, -0.6305799774850339, 0.6769720368292016, -1.9120157908416375, 2.73781584078848, 0.1567461622651152, 0.03742528122279447, 0.22794576057344287, 0.3229287910658974, 2.755645601718166, -0.029763166556178174, -1.298672419601047, -2.9256912795826313, 2.5105043502269613, 0.8247417840407475, 1.027078366522396, 2.2108277665346443, 0.3420240590376397, -0.3082637103730559, -0.0701500454176417, -2.4780943410994922, 1.0184906888317238, 1.0587715587212108, -2.1650535064270193, -0.9214463566971026, -1.5408861604448472, 0.08733905242704854, 0.8647477153501247, -2.3871658122208617, -2.140829585765674, 0.6362828477572382, 1.7195238309187364, -1.9936362374770427, 0.4096829060501707, 0.10914525803150313, -1.2503683197273254, -2.002855991666549, -1.8105372074362633, -2.752594009652882, 0.5472731592513328, 1.6482308247340336, -1.9722579142924679, -3.196967195997452, -2.8033828027257077, -0.0005472378957545705, -3.090703469844854, -1.2979298405961694, -1.412880850822422, -2.4717425516639433, -2.64531541252664, -1.801818452025328, -1.1057705981289625, -2.078091739418934, -2.632262762941704, 0.14204242767272585, 0.9388800627466682, 0.08497341875233998, 1.9046809316880569, -1.9517421550066736, -1.8392823752525895, -1.8183304585066926, -1.2868205164545197, 0.7943274876770914, -0.05032564531963268, 2.8124508222795543, 1.4596914625826627, -1.755086799062394, 0.07642989750184773, -1.3957575930159634, 0.5131794268443606, -2.9409785619785445, -1.1562502037223323, -2.8948715740925217, 2.1218670678298803, -1.113420466147196, -2.1975874286876205, 0.18936255667276372, -2.315663013780614, -2.0505845311699193, -0.9264708293779531, -2.84913476944478, 2.061097456841771, 1.7565638473159328, -2.4618783402448683, -1.840550174040199, -1.96786912913173, 2.7320774943042205, 1.2065684783862716, 0.794834758693758, -0.7899988076602237, -0.06131943361434902, -1.3681935329406678, -0.532558074630326, -0.5810213899648592, -0.20886953930986601, 1.8613993688148511, 0.7029359417353009, -1.3160276202932804, 2.037397297000599, 0.5197949528856277, 0.7082715597307782, 0.8149852947631333, -2.6573095518071645, 2.938356072743677, -0.27686201463464294, -1.2961298150354856, 1.031993138011363, -0.6345653129808468, 1.0808409711234441, -0.49863581509756183, -2.1732742090560713, 1.9773203846115437, 1.045743473188932, -1.840566506479138, -2.1801193426994914, -1.1070078642334737, -2.216779713821324, -1.6980548243637206, 1.4863826072046509, 2.3464538157791797, 0.9066316243306625, -2.080544032303324, 1.8340566621690153, -1.2920139927169703, 2.518524331583854, 2.593185622834648, -1.3074801491487114, -1.7271633732660394, -1.135036606983418, 0.9768122828705795, -1.704431078768471, 1.9154502440566779, 1.497591426614249, -1.27914598745614, -0.7083653289128803, 0.7983335219774639, -2.9603735824376063, 2.315276754761828, -0.5478853977269154, -0.488417441158037, 2.2507488642054527, 0.2952221653737494, -0.32971384435947393, 2.256302800713329, 0.5804467648490896, 2.414915749966195, 0.7531099753198764, 1.6617128777836618, -1.6231434567175886, 1.8254956887670775, -0.5990350787388817, -2.930357088168151, 0.31226618901243863, 1.5746168125082445, -1.5428698895115538, -0.23026388885831955, -0.6022574779320385, 2.8312523504282314, 2.4169910604103833, 0.5726149673873998, -0.9304016600624757, 1.244964340229, -1.9273273811665115, -2.662520395235454, 0.23166279065141032, 2.43229701593163, 2.6675913447649306, 0.49836879044569093, -0.03623963090953045, 1.8644539336358705, 1.170960791565375, 0.8812553234765987, -1.5598532842410004, -2.523040218195033, -0.21849568103295172, -2.8520411200530464, 1.7773005733938896, 2.7834402052053173, -2.8067838891520465, -0.1657556049406873, -0.7730199223095213, -1.2406621274123808, 2.142698897399645, 1.3902394231265929, 0.3935192206532013, 0.1637208376788049, 0.22849807357246693, 0.3521939645668455, -1.3211796199339347, 0.9033431627696012, 2.0997535815690753, -1.7406943085649962, 1.6937098236047412, 2.455401027918522, 2.5011150798609405, 1.2230459985618636, 1.9307695943308554, 0.7599794015669585, -2.644267552647135, -0.7383340206315242, -1.4999653725564837, 1.0322277601721748, -1.8861101630390433, 2.4351240791148383, 1.8611320624848569, 1.3800626582557598, 1.0576633341536703, -0.8498815894364447, 1.6871454338109708, 2.149152632539358, 0.07563601854746706, -1.0090042390423661, 2.227281261837664, 1.0163252078958545, 2.522840394575326, 0.442569073652763, -1.4368173266919781, 2.682881793516299, 1.7529925164441922, 1.1092843036623958, -1.4408630108259044, -2.7373172753321593, 2.952404398654919, -2.587768330348, 0.05813283167296212, 2.1579321505942586, 0.4689721332229162, -0.8018397189675085, -0.4786385404594516, 2.5826996315801054, -3.2157123591993964, -2.6768675357141, 0.7153982324343829, -1.403844376010232, 0.5908682443391744, 2.3692668179486214, 0.960997202674612, -2.4944886970058207, 0.0071310672421716495, 1.2315411931924918, 1.8334071613770908, -0.5638206255806406, 1.9877862920896643, 2.2704919942070974, 2.9304023052379855, 0.287511535546263, 2.6598907305016484, -0.5038137966938061, -1.7974361676835302, 1.2289468690761258, 0.998610972069401, 1.7761201412644037, 2.7771371559543154, -0.5099538082119226, -0.8338786144987447, 2.215349640190422, -1.7763202276043917, -2.699940723768281, 0.8680675795466677, 0.6726571714299645, 1.2950351835117713, -2.256093078148269, -2.0332300686836726, -3.008091326340671, -1.7774285168585955, -1.1443331674669404, -2.088925354341371, -1.0864447077882204, 2.605665707337041, -1.9731658554507554, -0.21214418117839431, 0.20752604856424253, -0.22108353732535801, 0.08080400542526683, -0.16809702550374145, 0.4579819606405726, 2.1164314466973146, 2.4280587879628324, -1.6466360995392246, -0.5536920113279153, 0.28758501340376713, 1.4780678811515375, -1.7244664261310596, -1.725284892222462, -1.386641562878988, 2.1438140744875898, -0.9899275796398409, 2.7082305533446367, -0.37701055741684436, -0.1339628025651907, -2.5886424616500143, 0.2007841267602501, -0.9272201881720212, -1.7894232544721251, 2.9358801355305375, -0.23887849677261566, 1.232321320710972, -0.9849848787093519, 1.230514229029286, 0.44392125861155673, 0.7757311854325039, 0.6863665680494472, -1.9469546230313544, 2.8263672344691697, 0.04261860684058895, 0.7065911856155132, 1.9018318339634752, -1.0556162849146802, -1.57822403367334, -1.0264329459283403, 2.3717018559390644, 2.8785452353815053, 2.1610509623496084, 2.876545249227609, 0.3326848017553615, 2.091750022679472, 0.4587900866788771, -2.400791285682083, -1.7943704939954177, 2.416460701939186, 2.7608400117163288, -0.43788376435252085, -0.46873265011028714, -1.208365602715133, 2.5741117350416682, -0.8439288093681171, -1.57311741415353, 0.22683404410629468, -1.7923225331644006, -2.1858595730350605, -1.9485865841801575, 0.18825260692911827, -2.856270263012432, -2.4518068218539457, -2.910045549950288, 0.9330721102109957, 1.821089795952094, 2.770416367615923, -2.6900889631863643, -2.4411753134809304, 0.9809468112935797, 1.667504602704002, -1.5034869217693778, 2.445991065147893, 2.2836697343155516, -0.6861152895964974, 2.7160788826374302, -0.3329085398182433, -2.328950971508959, -0.46445693763029133, 2.8447507072649083, -0.8529282910764889, -2.5835039054913302, -2.651735088478577, 0.6702343605773272, 0.9405978963709386, 1.062659983174619, -1.8296238917190484, 2.787827526165117, 0.00866857903621554, 2.3860875840181546, -1.689149179036412, -0.7616661421092519, -2.7046845884331576, -2.754647145038781, 0.34624333790986395, -1.8921227750012668, 2.9330212526525905, 0.7653323625494853, 2.0532793415833024, 0.6333074101466134, 0.5034064032904079, 1.9698446123249609, -1.0972118269096403, -2.3185899532275527, 2.678719594130253, 0.01208256006481436, 1.1372170925633138, -2.2703671651238104, 0.6277360079477182, -2.597178555433747, 1.0989895383705943, 0.5160522044363584, -2.98872241798508, -1.4943392435710916, -1.451837771046657, 2.6896032644674452, -2.6121085369593686, -2.897227528804004, 2.661513132065975, 0.04774845681020542, -1.3236744793126773, -1.5336396973396524, -0.4195106023365651, 1.4188829209511145, -2.7817384879467015, -0.9696600757356671, -0.44734969214090015, 2.878457982479604, 2.6363971924731526, 2.44455250183311, 0.7297702475291897, -0.31805610915012306, -1.6833517176658102, -2.095170439913823, -0.19481778418185378, -1.517740325303771, 1.184244290509057, 0.253431683334108, -2.513742279095468, 0.7146931237610584, -0.07804055866945307, -0.6934451281855052, 2.36992982966444, 0.5206640750256684, 0.5424832496278933, -1.8842893265064686, -2.364907734625406, -1.855297897156637, -1.7451381260132641, -2.05106700053101, -0.8664760431666922, 2.1244960644071624, -1.353036764467803, 1.241149699967836, -2.5898448227153676, -2.273006888479252, -1.020061417915737, 0.19668568974632206, -2.743216512369676, 2.757697264391832, 2.986019589859996, 1.4258888962079486, -1.7612012909490806, 2.789747767433914, 2.968328631175277, -1.0477390228119339, 1.4059299198631794, -1.3899656966158962, 2.0471455055068906, -2.0883311575061496, -2.90675070209432, 1.4097843357888191, 0.33335099497375786, 1.2816015537910257, 1.9512642228008321, -1.3253615813397002, -0.21242942659260813, -2.339367596785439, 0.628305505194398, -2.367774315118426, -2.169114486977939, 2.8291562752910067, -1.282199222709869, -1.4485736420576094, -1.0993328076530482, 1.0359409102063546, 0.2632279019239121, 0.7862831937295757, -2.493996101786585, -1.2075709026692765, 0.08343050771003342, -2.4052322631669827, 0.5728858623053262, -2.2463220884803374, 0.5590763909474878, 2.441862443433653, -1.553338010648002, 1.0193106582200742, 2.3713832489630047, 1.901862484858312, 1.3996095733131249, -1.3539387365243576, 1.882529414717241, -2.2609201358078437, 2.6351713579736, -1.4227268330575973, 2.153889962850018, 0.27103651524742023, -1.520892625388041, -2.6071670765266726, 1.8744712553107838, -0.1794458995007102, 1.8826814489296313, 2.5004524853517274, 1.2510440251232897, 1.6289152393888608, 1.8798254644834953, -2.3426669964685884, -0.6004572471287039, 2.994346423013326, -0.707445334584181, -0.17361198043384393, 0.5267795747537535, 2.583235830376342, 0.2812179750896524, 2.0245300254633865, -1.7435358589282393, 2.462280677705812], [2.8202592384956393, -1.0695507504941713, -2.32117218427636, -1.0555920123425102, 1.1442052791797863, -0.24177387245412607, 1.065819985461001, 1.1458893446372702, 1.4894416015824072, -1.5141017011306481, -0.08433469580673236, -2.5163869433458754, -0.5616488734216962, -1.1685322524278134, -2.8932266370064097, 0.5007787418946362, -0.04759139481691488, -2.215224628302341, -1.5561193709616739, -1.6616530742684217, -0.059010943289234064, -2.4064202184821393, -0.1425834308289966, 0.8541138883159518, 2.4176337368048557, 1.648374898251002, 1.091535561312737, -0.973543560366005, 1.5635365240695043, -0.7520743954393461, 0.6207040477104826, -1.910352685504458, -1.3671356557412442, -2.8000480788881497, -1.3518824120899056, -0.7623679171739013, 1.1636573373040493, 1.5935426145744007, 0.5905696699331752, 2.126876012951367, 2.1589104214395354, -0.13933601042697688, 1.878065760859935, 1.7672303946096923, -2.1507904985190174, -1.0975198589353181, 1.125053841128361, -1.720411300501966, 2.1354000619994564, 0.4840646295704278, 0.7116877159120365, -0.18201783372113714, 0.33781792807632893, -1.4692172735601403, -2.177513225850203, -1.4221088533315964, -1.887440489651912, -1.5764559523320059, 2.6826662963246384, -2.878348170921818, 0.15781463385620004, -0.00551960036071146, -0.735528783195082, -1.0815432013102713, 1.0092857836456797, -1.744731647411198, 0.8187987503215766, -0.10624117902000965, -1.6611000100955073, 1.3143592418868333, 2.5762760961642943, -1.8943941105571744, -0.6498484643319802, 0.5674310236120225, 1.4937716204815437, -2.572723303163104, 1.258911432281516, 0.3887388250975555, 0.2382192821344466, 2.6445691147382626, -2.0656248854997714, -1.1538862623540214, 2.175737795400755, 1.434506334917213, 0.31794096169428787, 0.38876827441741746, -1.392744005466702, -2.2375660156772765, -0.8223410950295638, 0.6786245131458151, 1.5621005207027552, 2.7130561291452917, -0.3347998971152137, 0.4578773964269183, 0.12670916097856963, -0.9844476490507419, -2.5789678270889675, -2.2319876850560556, 1.325241429908784, 2.2079883199200783, -2.2510080477643024, -0.0340318512747541, -1.474759469013536, 1.8687534363162466, 0.7924561468248087, 2.0304684562415396, -1.4255226505589529, -1.4806710653238493, 0.5582174177362235, -0.6459913951209179, -0.9736565534656303, 1.2470485583085464, -1.2550352693179911, -0.9909203885260246, -1.3002299852333599, 1.3881768000087562, 1.5196936389636673, -0.3985391342822309, 2.4082312413349403, -0.3619780741996475, 2.5061358149692885, -2.8954222271612906, 0.9322633409692117, -1.2320499810881764, -0.4128197570045262, 2.410502696437747, -0.771310658103029, 2.7038277208996178, 1.0074988247429995, -0.6103032979861817, -2.4443624833091375, -0.9096693882108761, 1.1447743884522195, -1.3223156266417688, 0.5779976561680911, -2.3267959296673424, -2.73585100445999, -0.4058990562313771, -2.8812823667941476, -0.4043099273510373, 0.4745840943466946, -0.6183795784220045, 0.8822283899238587, 0.7764161024021626, 1.2061796140120733, 1.7955110333593203, -0.12833230907051682, 1.1156261316595135, -2.428548207369557, -0.7663341230582436, -0.5905437150070805, 1.6317757108295536, -1.9270756228084533, 1.588840519431656, 0.06991776315572908, -0.45891377413877416, -0.11012430500954279, 3.1062451859241955, 2.9471055674447526, -2.274334907540377, -0.5249608700762393, 0.9160061015761912, -1.3849456872772936, 1.7879916941749108, -1.130783142406829, -1.7158265549483114, 2.034651169877183, 1.4506497092971349, -1.4877344062294575, 1.6281107361313372, 2.9155572016476543, -0.4974157636676314, 1.0012874734891628, 0.030052861902416815, -0.07900307040511363, 0.3114718425473526, -2.241461278502888, -2.4650186252601847, 2.0613980313001345, -1.5078596514913674, -1.9011127897107785, 1.7776668682964762, 2.794400445256153, -0.6119731817046998, -1.3714010795483635, -2.333191915038848, -1.281947228577464, 0.04280437182957484, 0.34812790181410413, -1.9268894776014085, -0.6008919377248775, -2.2603795053875353, 1.773600118397128, -1.254674959044058, 2.0292532620691506, -2.5663434290238354, -1.248456150699667, -2.539631142459207, -1.7769745086063289, -1.7583724844833335, 1.0290485386113382, 1.7809981847801442, 0.554795457101683, 1.2566498024146544, 1.1721353115390174, 0.9145464147888871, 2.9288034391854265, 2.6517785773352993, -1.289393521344245, -1.6243426541930048, 0.991425772222074, -2.3405020659558886, -1.322052069598793, -2.302955721622991, -1.818846940784001, -1.6804383242866985, -0.8859215498237903, 1.302770072374846, 0.6493367435339309, 2.416135766704162, 1.0351296167221349, 2.2779658581125037, -1.7578745576346126, -0.7391123806197114, 2.892319672442185, -1.6939125175207481, 1.891806426661217, -2.243321822876905, -1.602022908206452, -0.5427315130619315, 2.016062533071811, -0.3970446553221796, 1.2524689922154746, 1.520243883442607, -0.6526002240327446, -0.8902258266485055, -0.8869708971758884, 1.1042307782875942, -1.494115021471216, -2.154735139521872, -0.8393263776321158, -1.4382359702304284, -1.34033817334865, 1.6298255252061087, -2.167836810213297, 2.840918374082517, 2.882906950372264, -1.360847168720815, 2.152911167941706, -1.7806729636981342, -2.33900229319167, -2.812243125990728, -1.942315173748343, 1.623596859108841, 0.9087365453196017, 2.610058042496189, -1.3345264073913004, -1.15339962002198, -3.0138463333429635, 1.5769102505986412, -2.6883143326823844, 1.3917269454418637, -2.8904878700870777, 0.25039797125890767, -1.030479820233123, -1.191673422384094, -2.147717011073446, 2.5295347793999774, -2.030392756874234, -1.9858431767288593, 2.7420417314253247, 2.255594235831052, -1.4571168340542338, -0.3042247921849221, -1.0345045166233542, -1.9638067079919475, 2.114274584224494, 1.3956104275673566, -1.3822324885994863, -2.1370874359282412, 1.5184144666925126, -2.044555629824856, -0.6205258922776827, 1.1207437545345287, -2.8213011546242632, 0.17682489854795616, -0.0727647658770579, 0.6493035070947045, -2.4592777180552567, 1.5225458736064932, -1.7040617924874888, 2.900749947559924, -0.5998721525725083, -2.756168488293524, -0.3585162828135597, 0.6017456000430244, -2.4838940364848283, 1.2342600839203848, -1.9982591807425336, 1.764441075692863, -2.3201148514902354, -2.5029464422728482, -1.8979821466645386, 1.2075364492434528, -2.674720688772756, 1.1782431909616822, 1.1377268357647292, 0.548354687250902, -1.781744749997679, -0.4905635439023932, 0.9577171970544295, 0.23142887845223017, 0.5630805772563046, -1.4212561934445016, -1.2370746512802147, -0.16189218725340407, -2.8547111269254954, -1.0500884051985422, -0.765994843120282, 1.29045445737842, 1.0157468627003017, -1.9713259305777981, 2.9706716789993144, -2.4590569129297797, -0.40039878230055165, -1.1302334285626683, -1.9023680473342182, 1.8630448293472939, 1.8720583237328234, 1.307618618659712, 1.1900704729308142, 2.658397666846118, 1.4617094565579318, -2.8078863620287517, -1.2676712084638246, 0.3212314864457824, 2.8458219716014357, 0.19552622211220747, -1.858094025478747, 2.552642690732819, -0.6713850972640635, -2.3527118692394025, 1.4569044321692797, 1.5385101508637624, 2.750950881998327, -0.8045634504196847, 0.8708870506824345, 1.5259848637353959, 3.2040964597600663, 2.93550583735733, 2.2241707966107027, -0.5617017157519077, 1.1080047522141219, 0.8019664618459076, -1.2872077945600455, 1.7915175207865421, 0.6067769181118201, -2.3055101055296583, 2.94887124938298, -0.985637854290557, -1.6634187886584866, -1.4661435587015499, -0.5877283662685813, -0.5459103783072252, 2.3212188356391756, 1.8571439434339267, -1.462446977237993, -2.9836395589238807, 0.11118714566795333, 1.190523618752507, -1.6088419933040707, 1.6343400518085776, -1.7875191181997858, -1.870726866734523, 0.7810160991858953, 0.4843835421145662, 1.3080558167948813, 0.6706919198936571, -0.9195904566468258, 1.843704378656533, -2.6107619695203583, -2.4553899783704507, -2.171078053594752, 1.5208756263574756, -1.0585881432209694, -1.6297049357531261, 0.11948710522905118, -1.1704735831385085, 1.203073593845504, -2.8802904793898616, 1.697508927780631, 1.2420235167861515, 1.3819545853658264, 1.1604170811455343, 2.8876972012003685, -2.956427804587841, -0.6400177349303108, -2.5156987592118902, -2.6328327234874425, -1.6646827448127495, 0.7753758814339247, -1.8082693110914247, -2.2205410150957965, 1.518665154337358, -1.8724747269602493, -1.5075945445149048, 3.2753985980532736, 2.497113648707886, 2.538605138456706, -2.0173286104811505, -1.6427187778588388, -1.4376647408301073, -0.8105230658115656, 2.9013215919074713, -2.6084774105682924, -1.8149249384355501, -0.6286410542801312, 1.0491104241091092, -1.2877159188532254, -1.0593691209084986, -0.14371369276305312, 2.96058884602951, -1.5078658889176095, 0.7790784307485005, -1.1997192838008124, -0.6612475191578238, -0.431527029905007, -2.460605195716974, 2.9935465996530857, 1.2311620340029326, -0.3486995152856869, 3.077834590771734, 0.09181268583453649, 1.5511567497496939, -0.2502969625681353, -1.672372802154702, -1.6826747392907193, 0.6499237871314006, 2.8381218255519753, 0.32428501851362174, -2.390180111003205, -1.5686430420647797, -0.44968587515786385, -0.7271235894981616, 2.456234144675736, -1.6819189579553886, -1.2128256210200787, -1.6937451558453975, -2.367594927648879, -2.8592040257195146, -1.745670961344257, -1.832707887181467, -1.235384070439924, 1.2194316144928168, -0.9575142374987566, -0.626845727992355, -1.7805546643959955, 0.05544911547115017, 2.306744300493483, -2.3858642448507794, -0.15773779779444827, -0.15975388498270404, -0.2655709524661233, -1.3707758654815672, 2.137696436312843, 0.44523014864375465, -2.2265244170181773, 2.875872026561306, -0.9927233310479955, 1.491736179559037, -1.4897688875188249, -1.5358704368005753, -2.2960450214575068, -1.3144229670218783, 1.7657467194486556, 2.67612832601541, 1.4377241158444978, 1.1175639522779799, -0.9034793452758044, -2.806694918909924, 0.324076379399989, 1.8490052400364336, 2.4472061758555, 0.08047334142737213, 2.448352318035903, -0.4205956678695637, 2.7134505699928484, 0.9353481950965904, 2.2074386846114744, 2.5909953199824414, -2.21072922920911, 2.0770717869149293, -2.2608305564666646, -2.337824496625638, 0.6499537472816564, -0.11137120045038133, -0.4000406286822253, -2.4044685986465004, 2.883942725545182, -0.1299980008396535, -0.5763176390872649, 0.08168217135388568, -2.818467689701725, 2.3267194432293805, -2.3264699066340166, -0.07273695134025082, 0.8910814677962946, -0.23635462590249537, -2.252722130235214, 0.44705531154534267, 2.602748220531738, -2.847765215539257, 0.3267590667302772, -2.0618994000505064, -0.1172350271523144, -2.3281888206719983, 2.798459891168774, 1.1139995867085135, 0.6739139390946588, 2.541960077699368, -0.23469283815670197, -1.784146236553775, -1.3601160701378534, 2.078044746092402, -0.7661533889645343, 1.5039739880858423, -2.010778185425048, -1.8183419991708223, 2.0200249220950965, 1.8892980732593712, -0.3426915268524223, 2.8254372653118205, 2.7943855530802324, -0.5645111855182166, -1.136964946919877, -1.9426372500476086, 0.6216321731837786, 1.5808048090338154, -1.8670460589309057, 2.6981280706719115, 0.7545307108388924, 2.1051713937056524, 0.6767887363356287, 0.16612261292078734, -2.783846572286163, -2.0810742746849593, 2.334895047149697, -0.18675214700231804, -2.6899225701897094, 1.8117023619086225, -1.4010394962928072, 0.4659100196731708, 1.0510527436001313, -2.6818415897765653, 1.1259501942297132, 2.5737200408645964, -1.0802138239270032, -0.9656347739420107, 2.5151359668508375, 0.5985425708577466, -1.0364438278210975, 0.3648654489125639, 2.8388932187313847, 1.0997264941530194, 2.4177523782636325, -1.0034810720195886, -2.7228481234877426, 1.0323673099502266, -1.1564676586523839, 0.33846400930028786, 2.8216513205890053, -2.0858395509006047, -2.132488305498146, 2.6955032425518963, 1.986741678479834, -2.7942362382118686, 1.3528162702624764, 0.7619784524699708, 2.6559160262683497, 0.17339955457192152, 2.081365980843348, -0.9285306415050176, -2.9694076256259465, 1.000601646777692, -0.7913315204474369, -2.478277343560407, -0.8777473775615705, -2.020817373643532, 1.8756161216760565, 2.021800472924257, 1.6339130873776186, -1.8428065675150724, 2.5665255670198435, 2.937494911345728, 0.09048214726640753, -2.7139926182180583, -0.5134293968280425, -2.8119658714042366, 1.9485898781186968, -2.3066512233762753, -0.8179638250986748, -2.91043042377481, 1.9882297091947394, 1.1765131518592231, 1.9248197865639063, 2.7781197423598543, 1.715056842901219, -1.6007375364096916, 0.6352781075009638, -0.4920876029533585, -2.9557808530361482, -2.8348996270636215, 2.7700556758912422, -0.16252951424703152, 2.055328038300519, -0.6727648251549587, 0.6938909670292744, -2.3377624184593064, 1.0494464048873189, -0.6401274949425245, 1.1397109200650546, 0.06575560072481329, 1.2260893140699742, -1.5236311540250196, -0.8296383398990359, -0.07983845318043509, 2.987259405122825, 2.5167662356931717, 2.0942627392612025, -2.977978605681418, 1.7497543809069902, -2.1758146891932673, 2.077719411405889, 0.945841628039919, 0.9550808589318874, 0.7014755353201403, 2.8342937255108738, 2.447503308148401, 0.024414784114175022, 0.9756279536323665, 0.28737345605103687, 2.609191858020256, 0.38243804403450465, 