{"layer_sizes": [784, 16, 16, 10], "ll_size": 10, "layer_count": 4, "w": [[], [[-0.3374532704278903, -1.7279834228939186, 0.5616781171109317, -0.5171944384275164, -1.2635285350617025, 1.8867558802645052, 0.8309185234273766, -1.4339257600892772, -0.37744338243761, -1.254595856787581, -0.13692410309166236, -0.044961989885386355, -0.44735838255483135, 0.27145788114093955, 1.4105712337705483, 0.6095085970106493, 0.6944325605750992, -0.7980100649260917, 1.026618339612666, 0.9899999844099199, -1.6986713523095256, 0.5855883611532171, 1.0805349169029466, 0.9761365247624343, 1.2741146244979227, 1.3825699711671033, -0.6070002750069592, 0.6855728518389403, 0.8753101673473425, 1.5030157155702963, -0.5365155794177299, -1.3959056892039072, -0.055665936765748825, 0.8918890620013089, -1.454799595861989, -1.7512394887458338, -0.20911966177598593, 1.0078733957119188, 1.7405337394548794, 0.9572910455956224, -0.6398197321223598, -0.5163296435821495, 0.8080719010474035, -0.13553417340567575, -1.0074474578952635, -1.6992651238494871, -0.9112641742494888, 0.7543438133519874, -1.047774620100419, -1.9778866677776397, -1.8645459637177515, -0.4096147253435509, -1.085594211482948, -1.3701351043574466, 0.39628097182992095, -0.8566042541906986, -1.36748966464638, 1.1018232891349653, -1.775366761956255, 1.8981157929748564, -0.7687468076406281, 1.1321367124250412, -0.9920175422883766, 1.4540573617379524, 1.3184627037070449, -1.1345126381296344, 1.780719400640411, 0.7031022168622685, 0.6124570859725379, 0.2839156726456749, -1.3107504015474627, 1.5323166445843803, 0.07584656368355365, -0.623554251701043, -1.057014500404764, -0.3495258709739232, 1.1264970736076372, -1.1287712710810776, 0.633535692528615, -1.3084879198812323, -0.15871192764451766, -1.759981704349881, -1.7722836430614763, 1.0320456014570163, -1.330979521433446, -1.071514999993569, 0.3115600445636365, -0.07964840986591926, -0.6602976825013568, -1.923541287485444, 0.4134599398891499, 1.567548232247651, 1.7974821518826727, -1.276608874064318, 0.37413165387304026, 0.8458190645336956, 1.3979382557565934, 0.3368928522974925, -0.5545098105150346, -1.5355685026672188, 0.8436662422991521, -1.5619466123923744, -0.21547975581282955, 0.1057404129905094, -1.0736448822795692, 0.1232156893824059, -0.7663555176626236, -1.237111230383817, -0.08445299475578635, -1.322879873062336, -0.45605934800858405, 1.979780472209046, 1.8669293802237714, -0.8743107484986554, 0.11994634958388732, -1.3791605936433666, 1.7017065624666556, -1.8010228731145677, -0.5319432855429709, -0.22895072987953002, 0.1578248721054771, -1.0546440944449191, 1.5485548439134884, 0.6577905896539185, -0.4590527145929727, 1.9379272845355788, 0.3505046513565925, 1.1616156897328558, 0.8375830436354849, -0.05539170218302418, -1.1527005029498871, -0.8269884382612557, -0.9010659363607177, -1.0974017343440194, 0.0846558309708712, 0.6987469126206749, -0.37774511509871217, -1.7789554137222527, -1.236133201366466, 0.794035360988544, -1.2054011615709475, 1.363021955022718, 0.5053880532713826, 1.8041258590197877, -0.770459734044272, -1.7518049273905436, 0.591037248090304, -1.0621567821806264, 0.6065205529952844, 1.5638056860325447, 0.16547048267402126, 1.9073134298775576, -1.1872348174334204, -1.3911240917063818, -0.17430955543746848, -1.2538332111182915, 0.4788450815381858, -0.9559752701418667, 0.17115500237453057, -1.3522342262735307, 1.1422234288748259, -1.2391246154743605, 0.2313499339894037, 1.183469798303626, -0.09296704626236875, 0.11478449267209101, 0.3001238361336806, 0.20854345339999933, 1.6214726273873756, -0.43838056960699273, 0.08783758478056772, -1.4190743650054385, -1.5928034774325226, 0.25057718749542385, -0.14939735529760792, -1.5886042163219651, -0.18343458539411725, -0.3260375199671144, 0.6776886891513155, 0.9840076867230313, -1.0547622479902923, -1.4834480995198371, -1.3638324531294475, -1.0841771544117549, 1.4736660034878981, -1.6301009789719265, -1.167791307908809, 1.7078865263057754, 0.5222315701537423, 0.666401978967127, 1.3455353818955598, -0.8012935940394927, 0.30844068565020777, -1.4217593665751418, -0.5703818847540333, -0.7896851340079146, -0.48996304943352964, -0.3524318127598849, -0.17670537772923198, 0.5653512374369203, -1.61215325779249, 0.04865810602728255, 0.6699356669806031, 0.6388281243018984, 1.2718281610371518, -0.23868885578707164, 0.15940197981275678, -0.011409313284716867, 0.1425722530241879, 0.3152000094614991, -0.1670339548889131, -0.813133422288216, 1.3886246409810372, -0.9715858306049966, -0.06865446844959142, -2.189896292384285, 0.08371020876723889, 1.2187008162794122, -0.3172501018502587, -1.071820478593726, 0.3383477161904082, -0.11846433934546034, -0.5237991144872146, 1.784462015671663, -0.46204785549085853, 1.7499648647494288, 0.6262008227956729, -0.12228208252783411, -1.3181677066695765, 1.2120907537339363, -0.5203359562881241, -1.035160749154646, 1.1795914132146852, 0.7327758102665113, -1.6538953631996842, 1.7889001930265647, -1.6856841619313039, -0.6863674467755558, -0.11859938291017467, -1.3808250732201923, -0.20494853438703817, -0.34804049514342683, 1.5697649752893905, 0.46809693627452315, 0.8287933997971892, -0.6509496711350798, -2.4163346374266945, 0.6578984117544993, 1.2497337605439836, 1.2964451855926789, 1.217958275355992, 0.445486864993135, -0.44460868784005364, 1.935830538450205, -0.8284564929533433, -0.38976792105933317, 1.0458381641075538, 0.2890105025605346, 1.0490158701376004, 1.124185377485858, 0.17586658595295107, 0.7341455555345352, 0.7215378266565635, 1.2682225317862124, 0.6602139884439173, -0.7809325280232299, -1.5640360806311784, -1.65664667824897, 0.34497119810071636, 2.1196762269862828, 0.38480645523020557, 1.5113348280082755, -0.16335455409380467, 0.030959891466534377, -1.5192158292887024, -0.1792966861037346, -0.6887233564409013, -1.647590329346309, 1.1450325940998438, 0.7471712052209198, 0.3532390769502368, -1.4525563017611467, 0.19465989908779693, 0.20785102577735876, -0.9456481667142999, 0.23857148590554664, -0.33514528957660256, -1.9447403657845161, 0.9279819314795795, -1.1821582359034108, -1.5003093571210802, -1.026834669728999, -1.387209060837187, 1.02528248684521, 1.3141671999545643, -0.29153837395791615, 0.6873523366170423, -0.2663671909540053, -0.38013432923940954, -1.3695053371600208, 1.503798449983438, -1.3158828916935243, 0.9725028974296948, -1.4266856404590937, 0.16262869431986016, 0.8767697849317452, -1.007958756874133, -1.9718091699150737, -0.9764641360641069, 1.9844104568184573, 0.3124896047455354, -0.1697248925180449, 0.48518703510643985, 1.0246431630064918, 1.045198010716545, 1.1331198715238904, 0.02453511916703991, 0.961058385399048, 0.14529323927713444, 0.24337754513758633, -0.9516350570152927, -1.552867768347732, 0.45736167845782816, -1.567866988469219, -1.2207608952063596, 1.2303862498599616, 1.664889591398121, 2.5333722857196195, -0.9013855592351979, -0.27630623038637153, 1.444917017270446, 0.5643606576355757, 0.5416827988466638, 0.7996451598184254, -0.6311532465618612, -1.6247372174939287, -1.662884019753536, 0.7359919967741972, -0.7750869231364597, 1.9850515258349852, 0.12830278374912707, 1.2601472097718571, -0.5686966559023005, 0.36491915317011814, -0.8784466179239262, 1.0659648193317792, -1.839649809222621, -0.804112239976508, 0.4029570356082628, -2.8157656731934666, -3.024473973760341, 1.1290170382950588, 1.9496618913531225, -0.6029300197462119, 1.818527726478925, -0.1890324097768, 0.3560144520709423, -0.5729454181578001, 1.5735879073431074, -0.39445954307536196, -1.6712900119899456, 0.1571991897340294, -1.7916466399231763, 0.19436734585434925, 1.8002996139988459, -1.0070543092815112, 1.8120256722711394, 1.9665624075259351, 2.064936254191851, -1.3485257501003671, -1.784367526595389, 0.783711021234322, -0.1957509771251395, -0.7702891182907089, -1.7799227005929363, -2.099019205157176, -1.8632265729163073, -0.5685066919052963, -2.375316252291592, 0.48153885774582833, 1.6616196459313122, 0.6575643395799583, 0.6181547852203346, 1.9691939778346481, -0.12111311081865027, 1.8399339774893504, 0.6568973563877598, -0.8940947385780319, -1.5092790066990731, 1.5716723818710874, 0.0663158785288883, 0.11818952697093406, -0.6818952274424102, -1.3254102270483772, -0.15369241578843734, 0.37049387358836805, 0.9882632948492521, -1.6813767303325504, -0.5988406839089171, -1.9496607212710668, 1.7004318996744172, -1.5034532911493592, 0.9764541245125931, -1.1547007146416224, -1.8571743711226452, -2.6519520004226544, 1.3316771323569876, 0.019057660637678216, -1.027881599589698, 2.287603722387948, 1.0688497973709077, 0.29418753108628515, 1.518448226360133, 1.431699861682132, 0.3088545998928808, 1.2382466888505717, -1.8637676268326673, 0.6811596587834547, -0.2893941127147036, -1.6250947161910199, -1.339530431987579, 1.4706048101354958, 0.34622785625038344, -0.20517448087349055, -1.233630367310255, 0.005063643517499001, 0.2665189784148661, 1.7593327917261878, 1.743920362613035, -0.3177028716594614, 0.28803727503681253, -0.20744251426150748, -0.25898222183307323, -1.464985354162885, 1.3043628406612253, -0.48067668678225456, 0.6809198463163451, 0.31006727573650916, 0.293135574508959, -0.9982574979043244, 0.6805759542243598, 0.7726469243515797, 1.3504451901932106, -0.9637333003538479, 0.3468551806850992, -1.7628485804353766, 1.1490745746474222, 0.43136685596248, -0.7053966599242991, -1.8251776945203766, -1.3299409537444078, 0.11944736328428873, 1.0665266547316978, 1.6789004848468547, -1.656511435307544, 1.70897908284807, 0.7732389445590224, 1.9264003212885377, -1.4853040816812968, 0.10185503759316861, 0.1381482203549455, -0.682234776176282, 0.4026417660828681, -0.6360774925107346, 1.106940539265589, 2.4500736212678205, -1.1761297166667426, -0.8610976749894581, -0.4662282622196347, 1.2433003389046309, -2.2536338817313903, 0.013108564287348502, 0.9227970518165516, 0.9268837578472936, -1.351117801100823, 1.2385695102414018, 1.9934880256804521, 1.6754664543091813, -1.0920571895656794, 0.14196879753987932, -0.9071653206476992, 1.1525495476024727, 1.477532907727259, -0.1697792311247416, -0.33973794203030205, 2.045335097745479, -0.5006334555274617, 1.331249467285351, 0.5712673030467548, 0.25987691599694607, 0.941488782868049, 1.361323152904534, 0.9835675241179082, 0.5850904649541481, 2.3433159732536675, -0.7489689285895175, -1.1598550247958617, -0.05130255546996238, 1.325203166593379, -0.8394954337308737, -1.4813097277892309, 0.1580372840476626, 0.9020412250999157, 0.74592398652773, 0.8328311652491037, 1.6076050169493816, -0.9566565394882995, -0.17431840857118472, 0.10822849032400553, -1.72087153755438, 0.22483553659576186, -0.07034827421313518, -0.01107650638374999, -0.18179310869007312, 0.39739091274805155, 1.610936034280581, -0.5912253702363058, 0.8940090935633098, -0.678531932517624, 1.235612907415823, -1.6543266602147275, 0.07717507097992479, -0.5210487637590073, -0.0764562163432995, -0.5782531220267584, 1.3468235514256874, -1.7759247537846674, -2.034745204186234, 1.1071427373413736, -0.8705550938899282, 2.010175063182879, 0.8228205484079035, 0.8130562444729637, 1.8068927343767556, -1.2764030190920943, 1.6363717918480973, 1.7418446795810885, 0.7710162689729877, 0.715389740618602, -0.4452713159216777, -1.0448319749331512, -0.6529798641451252, 0.04822067175684184, -0.5469381391949711, 1.7165587026690499, 1.4930759750246214, -0.5912224242767481, -0.09194678916758567, 1.1348198770823656, -1.2205434540999223, 0.40504044375288106, -0.9860386248715892, -0.06718639301714915, 0.139153866260055, -1.5267426323168038, -1.9685401176229613, -0.6897807772868019, -0.22235702449519168, -0.9608114473057183, 1.4822657627286324, -0.5622839684358061, -0.03137357417212657, -0.2211044403432692, 1.8621662764111186, -1.1813873144828764, -0.7721484400505109, -0.03791383655633968, -1.7629101408541283, -0.7466713797369359, 0.9418784466642799, -1.2945018872601102, 0.31750063791033983, -0.6357912673382963, 0.8456291362771629, 0.30961904279994473, 0.7888687824250538, 1.7757249507631, -0.6371516456017657, 0.6939296133577363, -1.3576430089311327, -0.20592618289593387, 1.1740810714682524, -0.1801503208934454, -0.6986957467505233, 0.14317030619487783, -1.7393322359346004, -1.2815743774812383, -1.0813693310176133, -0.7154029187747334, -0.03778210093374775, 1.8024452697368094, 0.6786813461144614, 0.702070466896083, 0.5014020017515767, -1.2933779931907445, 1.1410570163085756, -0.573781267314501, -0.9641914718894186, -1.027087998831666, -1.335140352201139, -0.33750912678215794, -1.9332185579820131, -0.21034765314944814, -1.82456731008644, -0.36295365553415965, -1.4677274310156407, 1.2408392649784863, 0.8204344797772245, 0.2975857790660678, 1.601191186236478, 1.0136941621808921, -0.07841131893731453, -0.11869846129401353, 1.7421988735590987, 1.0228469566080753, 1.3901694251913927, 1.4530785245610403, -1.4209355569877802, 1.8464177106254465, -1.366582519024569, 1.0288588453949299, -0.3331984783648957, -0.36879796100869816, -1.9364362803541537, 0.0776871282357275, -0.6648909094066131, -0.7515213190152957, -0.7951260413098286, 0.8005112628632071, 1.1324872564751878, 1.1676521937558968, -0.18517852801973766, 0.4766151111809659, -2.1345257267105597, 0.9899917540682798, 0.4293407141273505, 0.13237443934081522, 1.0977294319318656, 1.9705509527684633, -0.8456027917484712, -0.9035933178085133, 0.1472225541953255, 0.947163055126079, 1.6066628932457565, -0.017461625741443054, -0.7466008132828428, 0.007248480443132981, -0.20333559894941, 1.6380057717679968, 0.14573992502031255, -2.145298324336039, -0.9729931609308369, 0.20319802762166458, -0.5798604611846382, -1.1026073498580171, 0.13194419603863908, -1.0088044811770067, -1.8793204450748227, -0.43564353385114596, -0.4005055383380516, -0.7195168338889955, 0.3472303568321913, 1.1992238751051323, -0.3235873637384641, 0.9212408429470659, -1.2326277686186078, 0.46662473798581505, -1.5167611717075609, -0.8634845775404233, 1.813652844087872, -1.9899906030608028, 0.9299130638011595, -0.17819407853681657, -0.3847066783011188, -1.5597198694277719, 0.19759919418717584, -0.34654785563502827, 1.003997546602203, 0.4069179354132557, 0.11254085955367882, 0.6066074145166986, 0.8438881648757653, 0.7661471897580799, -1.7020483203182433, -0.46952850126381207, -0.344962325627627, -0.7574058119852252, -0.9851714331265817, 0.9518869549482397, 1.2234226551402443, -0.9923385440798949, -0.9423588243615714, -1.040628844793508, 1.18974540281091, 0.23854314174409916, 1.9862229231454775, 1.849662395158896, 1.9232063848091632, -1.9656562530728163, 0.615112653806011, -0.5875141018708376, -0.3949849910508494, 1.6360421369665896, -1.0074040295363265, 0.5296242430138597, 2.0053456456779806, -0.8281422159994881, -0.8440505410699211, 1.359765594819898, 1.2420480870264923, 1.1703994727400173, 1.7750725987815048, 0.31588140000236864, 1.7982645152750767, -1.075108538714728, -0.8537066340530831, -0.24147291356707373, -0.08080654387405585, 0.00448610388952641, 1.372527068775474, 0.49962870504169155, -1.934573795792731, -1.3591719945748517, -0.31935712203629774, 0.24178291742710337, -0.5411483855765895, -0.0684535396455867, -0.028502484123958727, 1.4741096428587483, -1.442830702456392, 1.628792622664434, -0.06819347510629825, -0.5942730562438155, 1.9569910989517778, -0.2727108699471521, -0.5284223433661581, 1.1425332709141252, 0.33289482693688455, 0.5004382296288307, 1.6682400398434982, -1.5427817809215076, 0.7921019570493294, 1.5461489026040587, 1.7160084168489214, 1.144402085842906, -0.4201258420089337, 1.0009311183776313, 1.0071706458486591, 1.5579214535237393, 0.6205353028388466, 1.0373253440121302, -1.855133659462246, 1.9041693390270016, 1.10756577461586, 0.7411503245336921, -0.38977035482990496, -1.599052969767794, 1.8305953618054303, 1.0015458711094025, 1.1835985037074623, -1.5027115203326447, -0.7829940371990376, -0.3083806877956685, -1.93289046927411, -0.016659094804769414, 2.001824688336179, 0.12098726389770675, 1.1380125739554012, -1.6935590423911036, -0.499262915179958, 0.9640385567199641, 1.3853074694299334, 1.5566340882590843, 0.4114328385319437, -1.3740649289578177, -1.7929021172494162, -0.03337776211832993, 0.8879331334099076, -1.3701144541320052, 0.12498500565051757, -0.1958409625409936, -1.1680075917022061, 0.5526562236609154, -0.6669703408275289], [0.9338199068401369, 1.9775284779136943, 0.29521492844410036, 1.3362626389937802, -0.6155082647149897, -0.5403755945759627, 1.010036142680264, 0.6947621451994612, 0.6455827974983528, 0.10299308821884301, 1.777442284401816, -0.591861406368873, -0.4392372436868726, -0.5105240144740192, 0.3890494773537748, 0.35802601162203024, -1.3767978078652243, -1.6580017850262387, 1.7611209275693263, -0.8177848172201156, -0.38281045724349205, -0.26299274062444944, -0.39877844896213954, 0.21356018029438584, 0.6606863181967277, -0.3673486364482854, -1.4276108449308604, -1.2034917073607407, -0.20529246441305826, 1.6292122222296284, 0.818184222744557, -1.0797531066110766, -0.020703810121413646, -1.9913191487613995, -1.1303399598675734, -0.38187195767530213, 1.699050965662015, 1.3834570730140134, -1.5847999752049997, -1.195266191732589, -0.41442865816498564, 1.3321688272077592, -1.7532001337944563, 0.49334422387065646, -1.1037997976317506, -0.5431186919179212, 1.4619859324950464, 1.3376797708713757, -0.3977277199114483, -1.85966365362318, 1.539004589866418, 1.5124359091530337, -1.6103222548779499, -0.4783725783175803, -0.8071469718736433, -1.5694517072108196, -0.5739204634141424, -0.004163302892427279, -0.8609244802760077, -1.0718623091952453, -0.4430892318921597, -1.5060194369631685, 0.8927987495173312, -1.5703460390897648, 1.7793530012237544, -1.433276503513828, 0.7401214413468796, -1.703903069913595, -0.6223732784429948, -1.1277749247793352, -0.5110059955942332, 0.669277225617266, 1.2582121813073583, 0.9937250677621632, 1.5030952834772453, -1.2602396721371807, -1.5038814408191195, 1.5501239695680689, -1.8275133766179357, 1.9203340796486004, -0.13276827836134625, -0.5697079523874833, 1.5516181464794299, -0.07863185655745575, 0.536585582065519, -1.1670111218534918, -0.8312946677356001, -1.8738468068735588, 1.6544344187197315, -1.9065403585394236, 1.3475962807065514, 0.31044197039675564, -0.8813028537540815, -1.1561573776753693, -0.436345247368042, -0.9276217859403795, 0.23131068294094054, 0.13473821971829433, -2.1085568183136494, -1.429583709652752, 1.8074952935387214, -0.7629094037227941, 1.0322611642189454, 0.1992221944952907, -0.746946406582778, 0.6879273377431887, 0.2545792710185643, -0.5315277366429697, 0.6770438141358325, 0.9812434884746442, -1.4147228847412834, -1.6859121564430115, -0.07698930612496602, -0.136899025741625, -1.2734909081281216, 0.9248813234557883, 0.931967058476469, -1.0130113249297388, 0.9968135538951465, -0.3357104641148673, 1.8469672049931447, 1.1347499514341717, -1.9759826968177543, -1.9949949593644238, 1.3850197204414227, 0.6814687552973292, -1.5864994517406044, 1.6691924443622073, 1.221355898126957, -0.5304051591154604, 1.8225633475817467, 1.348440714850563, -1.694628419293903, -1.1471443637581753, -1.4806533829204747, 0.9776188200093776, -1.8722377796419625, 1.6992916796117488, 1.7298444917090932, -1.0659003009675803, 0.12049527477027144, 0.11041179352896613, -0.5214135444896203, -0.9915707434754424, 0.07625680900417761, 1.0934619934724643, 0.36110027897474867, -1.7464450076816558, -0.5754882543816713, 0.2568164275880709, 1.2948483478673403, -1.4890504839018317, -0.18175569869521593, -0.7392558883645108, -1.1039579512209767, 2.519469880482175, 1.0672532766271439, -0.5634535016750297, -1.337899910178249, 0.8586158503725695, 0.24393635361912333, 0.59452028266971, -0.020287127332941312, -1.0986025836590332, 1.5464787466153447, 0.9453206976763985, 1.7275353777482587, 0.8593836772013251, -0.42260349389463414, 1.256930892547823, 1.8232129631900655, -0.34223758255435444, -1.324938450998558, -0.8578374727653042, -0.07568788185693302, -1.9225910634938523, -2.0424371724256325, -1.3239049675682906, -0.468767055487662, -0.685665494640328, 1.5388363798490983, -1.5095852341115863, 1.7055573464372304, -1.487177616277556, 1.7886778013976035, 1.2347327068038427, 0.5300582759343574, 0.32364723374987686, -0.42792679332948785, -0.8891769295522218, -1.3409591474234193, 0.7890098109688778, -1.2640740825698291, 1.353341972131436, -0.48694632427247586, -0.8751968136454894, -1.8514415567668956, -1.7836630456487066, 0.4133667219360022, 0.6270940689069593, -0.7920564504107996, 0.9305547274818354, 0.48825723267187443, -1.9440027831243978, -0.5155811098218925, -1.3748790431972313, 0.6064611295577672, 1.067911346241202, -1.0058924027091856, 1.268324800084511, -0.8013292301907324, 0.5607641431433205, -1.4458509658596475, 1.3654168070390138, -0.8677718619518106, 1.0035922544074216, -2.0707108567571226, 0.40580599281171764, -1.3456379056695111, -1.003931960310358, -1.5214434196267026, -1.6372575798605837, -1.5490010343699352, 0.45027570435325587, -0.8690990703309884, 0.4150434139345691, 0.26168847864842343, -0.013362189391356333, -1.0832967925411516, -0.12338881838961228, -0.03746119773451583, 1.651130235857959, 1.0648034734201173, -1.331926636283336, -1.081275108764744, -1.7770328264068913, -1.9505040270225378, 0.6397128489746802, 1.211346780447157, 1.8942829846914104, -0.1061654020595244, -0.9167908843778014, 0.26210167428091985, -2.0604044229059486, 0.9902035041831186, -1.820906894007415, 0.6254345567952716, -0.26165159247352926, -1.4320313544437684, -1.6742146246463678, -0.6540654618223688, -1.2454002793832764, -1.6509542076321488, -0.32955515380435957, 0.575895716621525, -1.656393208445805, -2.060589821969086, 0.35904407404089633, -0.6827135419013505, -1.9376233129961886, -1.4450711505153435, 0.2642309609571285, -1.2829174315195138, 1.7943029001802213, -1.8201397001919035, 0.4981290295662759, 0.17304452804214399, 1.6022448028249827, 0.8593832790254263, 1.70647933973886, 0.37298408126733495, 1.1038935471851261, -1.0225544791958956, 0.19026506874100935, -0.174578386820814, 0.2708252466630128, -0.4259120932327876, 0.5815942311701385, 0.7120000830274851, -0.5843677642428668, -0.7083644457801856, 0.6232221222700379, -0.10786519298477877, 1.6806172438277764, -0.17416279126846956, 0.5519755798783845, 0.7535023566291815, -0.6349255047383955, 0.21081233980742856, -0.9819894758510814, -1.0599717684855832, -0.36743940636318934, 0.11835148957366003, -0.9023131809897343, 1.7258532676132003, 0.01816400409461881, -1.4285504164668597, -0.07741199699249263, 0.6845614140467438, 1.2358657723904543, -1.3473616603065064, 0.21072328693083628, -1.7715753720278322, 1.1209466829726817, 0.7437050959076688, -0.13944155930356755, -0.8438750775472154, -0.5835860270578414, -1.3089401982790947, 1.9571384654312134, -1.2577194009140402, -0.8843223883948791, 0.12359825154218805, 0.27579720571658306, 0.786029264181452, -0.806778363058659, 0.9501074750235112, -0.5356718879770236, 0.6974618900007961, -1.0567707084994784, -1.1249427339493063, 1.7102053374024984, -0.011865105541816006, -1.9975712249377702, -0.8572585687751361, -1.9946516713331781, -1.603522789339673, -0.2637261502825324, 0.31166040755590396, -1.217830495771524, 0.8290265052975497, 1.6565341059298688, 1.5560819190047552, -0.7886223442023753, -1.2348425533997116, -0.13456106752831337, -0.9568504147271482, 1.1702243976616074, 1.53450902662082, -0.27122660301408036, -1.8581291404958087, 1.3624027817372533, 0.9569134829084456, -0.5565009110887132, 0.7661271074817979, 0.24365085166151643, 0.9817560929598251, 0.7740956652979214, -1.3539869932360353, 1.5344159226192942, 0.25898854686271966, 0.15697174450599877, -1.8718931985478717, -0.6037806501553478, -0.47039557926626047, 0.010223580397962312, 1.26561468510418, -0.7766891122078183, 2.357981104651381, 1.5370743169828505, 1.3312230433424104, 0.5992623534335052, 1.1378619446364175, -0.5602900588911891, -0.17454202117369055, 1.2149146331431084, -1.6557064803679096, -1.8955022928747256, 1.1325377069412328, 0.7561315309501083, 0.41808028870234293, 0.09943755566604869, -0.05065112747941246, -0.5922221329014193, -0.21157034849020434, 0.5215703294802455, -0.4805294042143991, -1.3988115199738453, -1.0708266178842165, -2.370882466145343, -0.32809875212305295, -2.2642039130649523, -0.1166418610202406, -0.419923940132782, -0.8073317357738613, 0.9136363545126908, 0.9347770791066901, 2.4423473208867867, -0.9939967286406072, -1.3725509071322632, 1.837048399507464, 1.5930878762608998, 1.871668757971237, -0.43644813141208794, 1.0181225030195808, -0.28450034198948876, 0.2745245428836619, 1.6553905735640937, 2.2538662556468125, -0.6492235975176343, 1.3150235352292339, 0.48485871883382803, -0.6781187982150501, 0.25971464268883626, -1.308037360709396, -1.897681018033335, 0.5267720292393735, -0.07678520664530321, -0.837617046843295, -0.7528035346898648, -1.4895064345858582, 0.22260589641053782, 0.44580779230425804, -1.0077058107102863, 1.5327370727883542, 0.3950366179769119, -0.19695046514036518, -0.7853626641204247, -0.011084059941483758, -0.6072138125134615, -0.3230371878810514, -1.6159119756728595, 1.1954121578157781, -1.4288528258917117, 0.9797812850914166, 0.19132136945253092, 0.6793134153200451, 1.5544012325270262, 0.12026338652406385, 1.904862346400719, 1.5925121125996007, 0.8362958944272857, -1.5059182475046624, -1.0893398958069531, -0.10234525918026396, -1.2123988770677083, -0.4544225263576195, -1.362722684649658, -0.6432570596867428, -0.14944114153755494, 1.688899346884923, 1.877690374268256, -1.1377316698067654, -0.6095827495985464, -1.7307888794099504, -1.513027808765601, -0.4058935312212268, 0.9241116800044312, -1.6711143834445528, 1.049736915596081, -0.36021550794964197, 0.44958919438218375, 1.6082990948168003, 1.303545063772653, -0.45835329105915895, -0.715320267218812, 1.1639677611336026, -1.5157988176903618, -0.2723556748517349, 1.3596887662019899, 0.8984400611448359, -0.8199324753580193, -1.5908049116279546, -2.857077808578323, -1.389663713857641, 0.7243793090293774, 0.22913690053499797, -0.3985635706619504, -1.741286167008721, -0.7561002509776582, 1.1262460953756117, 0.36686433966815685, 1.0984408714792206, 1.833462298285782, 0.5704160552144345, -1.9707964567164287, 0.5221758466258826, -0.7882937708846846, -0.6813835406872736, -0.7876725455175778, -0.3441828782021652, -1.0165427193140313, -1.208192315076277, 2.1091205639779838, 1.0262387021644368, 2.2179015009372596, -0.541078303024347, -1.4373350709649186, -0.46377351596029687, 0.32092678900048666, -0.1266375767539119, -1.3385044899381104, -1.288060167585361, 1.272386275187754, 1.3633630829441663, 0.46799157857064694, 1.2224105446004438, -0.6529663109508275, 0.4819872015731442, 0.9883309353028644, 0.6218546761951712, 1.2946303440370057, 1.629085308199622, 1.4733000104873022, 1.8338983196829497, -0.7080073253650877, -0.2407406875179626, 1.0194356610150535, 0.7790162688972364, 1.5643058076273706, 1.6744658611469294, 0.837918609223378, 0.05854322043138129, 1.9157187630690826, 0.03421919832121576, 1.5981767034264704, 0.4553062947368323, -0.8470877068305083, -1.393470323326628, -0.11574168320970696, -0.9686031833662855, -1.3357438121290892, -1.6711235097381176, 0.08016580436991792, -0.4556789084053937, -1.858948452488169, 0.10131392780393184, 0.10242122644099406, -1.976678543489959, -0.32586179925542347, -1.57683406803856, 1.6429312942431482, -0.17791355092700023, -0.6867807441705024, -2.007681599410148, 1.615194519523382, 1.1894295828076844, -1.4325913691923338, -1.8206973310755494, -0.24837886275550689, -1.3947775717888604, 1.5862461731853956, 1.4547786663530622, 0.8489521175472459, 1.5242927285087704, -0.31601927042569966, -0.6558474665785113, 0.7596173896213713, -0.8369832444364674, 0.7031806272043136, -1.0365922564881136, -0.6834460190508099, 0.21414708791542844, -0.21465037373323062, -1.1225833097357587, -0.28531135644359257, -1.7777606186073782, -0.07921259885339008, -0.6973080669093698, -1.2465298586392706, -0.047554048233455326, 1.9320009249010262, 1.5291386897802464, 0.982406904997018, 0.33625549010723327, -0.4666995853640166, 1.3688239340804642, 0.9447746018506835, -1.0163015617859086, 1.7701098102315584, 0.976966316520485, 2.145620952974111, -0.6760482633423595, -0.520652901270111, -0.817313536107959, -0.8802579062568993, -1.128360944436338, -1.195354323580746, 1.3523710163866023, -0.8209408827994653, 0.6344526253238466, 0.41237674278949027, -1.9548726385698203, 0.5634189671837507, 0.9131883381234084, 1.2862626817370504, -1.0008575258088024, 1.0523900451643238, 0.8031134063736396, 1.3832185892401774, 1.7350723421954324, -0.4480849584396489, -0.0862450625448032, 0.7408010396010299, -2.25841793315356, -1.4987237540922542, -1.4771180975552576, 1.4572862615239484, -0.21495660021218274, -0.7730327856360342, 1.095565751796199, 0.5420670550293006, 1.341987732490891, 1.004561847791047, -0.9338943278378491, 1.1482639630700395, -1.267070590152477, -1.4429616770300426, 0.5411271045269211, -0.769802094612305, -1.920844162713407, 1.464265314794159, -1.8480969746249156, -1.025258001638903, -0.19459123129599729, -1.6129896602609866, 1.8362260122618725, -0.00803868678582178, -1.5946738202549333, -0.5800717413365534, -1.9804787981225014, 1.3296305466144656, 1.2977476465761981, -0.11408480188380703, 1.8547840734723147, -1.6793198247919252, -0.23962430371616206, 1.5280906232540707, 0.2505392807593471, 0.9375089098129842, 0.9012867099450964, 0.9713289108468423, -0.24932563721449935, -1.0572889358101152, -1.1333618057745025, 0.7768492113273404, 1.195211687326159, 1.1145473650997686, 0.6980121019789963, -1.313724012696965, 0.3936576942050518, -1.317266318345129, -0.48581560120005807, -1.6088865526731495, -1.2768452912828239, -0.6289668404014126, -0.6690725504745506, -2.011824396971652, -1.4033618475718812, 1.3595583400743956, -1.7353123635757444, -1.3299682461609412, 1.2933320621699456, 1.5924417941125872, 0.36833576236949117, 0.3007778025928833, -0.7715876414768358, -0.0033774717880001967, 0.26445508802012907, 1.4703403397565775, -0.23230048266346792, -1.654487995376464, 1.4916629902599021, 0.18392780009005413, -0.6205193154340999, 1.2094706739893424, -1.838541436632654, -0.1727476395733393, -0.7517521072702925, -0.4379035322670964, 0.06641406016914835, -0.06887137188902281, -1.392525172881486, -0.07436785867832763, 0.2876275573093651, 0.559512763646924, 1.8288413706027853, 1.6558027145752545, 0.5134909316714728, 1.4181542587345501, -1.915131277970647, -0.3833869510502342, -1.502496619274899, 0.7726177841973921, -0.9951375658138588, 0.23871423826138674, 0.24805218868084622, 1.8470228340336776, -0.5564941122141293, -1.242739371729406, -0.003258339704287477, -0.9023907554643903, -0.23632450642825178, -1.3013255764687925, -1.3094841123387602, 1.3065105301222508, 0.3827733218995477, 0.7644151376546342, 1.9782909680493985, -0.18921169079011202, 1.2318524104269684, -0.889394495334114, 1.0071560309222434, 0.858239545325463, -0.07150263183364743, -0.06942892425101893, 0.6136532967436661, -0.47607003594495123, 0.2492101850557934, -0.7735186025231902, -0.461603704510832, -1.1733968640666972, -2.1169158710193168, -0.8725045332628079, -0.5655468622550015, -0.10334288174002133, -1.6792541861069117, 0.14703502485162118, 1.2906026522079699, 1.0933049666390324, 1.2225295399284382, 0.540398518406143, 0.2931329401793403, 0.036028336668939835, -0.592098257196758, 1.9437358271248317, 0.7426137801696233, -0.5395198080439663, 1.9609988585474492, 0.8907304997987153, 0.9220825404455932, 0.7566729624438389, 0.6819660490765143, -1.4182931015560978, 1.426612039599828, 1.023666928658245, -0.7433342156674022, 1.5525775597163043, -1.5637775966495602, 0.6521644627222645, 0.0649403500799842, 1.4178439846558408, -0.2783597621120535, 1.7159807175117443, -1.4194002087604258, -1.309836711359355, 0.6205167196686882, 0.22369354551031922, 1.4273984239121844, 0.9189348284591222, -0.93370585999156, 1.998436765048037, -1.6616269470007419, -0.4963170266386619, -0.34860635433239917, -1.316882559361631, 1.4516628662488462, 0.937131756621715, -1.5588885325526247, 1.946167442498175, 0.4673103544195354, 1.7818556653176292, 0.14092089153818063, -0.9049052828774036, -0.9218337762242795, 0.5343029758350554, -1.3937780065481564, -1.5425066248903898, 0.7491167661448075, 0.7678460845854144, -0.8261271168818235, 1.3362006715529688, -0.22922965544835394, 0.427908143137258, -0.733314907845521, 1.2898060396647837, 0.476051361441258, -1.946259397644297, 1.490302525219215, -0.9991942207810307, -0.833538576158865, -1.8194810975021394, -1.0969836321910376, -0.5791146343594389], [1.435477034232162, -0.5590790922046036, 0.8212165713662154, -1.440361365928494, 0.6337431723597011, 0.3180402261876769, 0.951532878727062, -0.059544279904349295, 1.824433360433467, -1.1628724305207276, 1.8261869381070337, 0.17563395605913223, -1.8898249793143773, 0.9940663764906361, -0.9662348856087104, -1.6521345671354022, -1.081009377809334, -0.4670784904311369, -1.7598594355856276, -1.4489542947628906, -1.348380006586832, 0.36066295079378374, 0.5031553774255344, 0.5297501977187742, 1.1862618885977523, -1.431040425303355, -0.4138754237878568, -1.3634822975141594, -0.9792721836542841, 1.1599449458592042, 1.947483262006752, -0.4818260122906426, 1.2646144714031133, 0.06376296738722509, 0.24801062603314258, 0.017520270421411032, 0.6241175036647835, -0.722289101734537, 0.7618755427645504, -1.2352526293256678, -1.8867968475293186, -0.9306781649384265, 1.249521776555934, -1.3343999555135164, 1.6426878108472915, 0.154979158511938, 0.17244261105242445, 1.4496966866397634, 0.513110544095926, 0.2178094380396839, -1.2800136310848014, 1.540204247390356, -1.581765410275354, -1.8738773409733445, 0.8262465647870063, -0.6560138639705522, 0.6853497094656937, 0.0632318603427664, 0.8801528094357131, -0.2380007109729791, -0.9666138936675439, -0.39130749340827187, -1.0451523608204307, 0.03721273045397509, 1.9750200422393538, -1.0804835664879315, -1.5817693661635233, -0.962904815073407, -1.8184055169661562, 1.4730473055246538, 1.5638087803868361, 1.2930666182133215, -0.5265057238158394, 0.3409452427323709, 1.0683576078555868, 0.6668419166458185, -0.6343652650694074, 0.43440243178551746, -1.3648057659340647, 1.436710228690004, -1.10714534892602, 0.9439374617197863, -0.2760326655929086, 0.9631155496691983, 0.6376478405677735, 0.7840685045783382, -1.5700046005846457, -0.997265230580786, -0.7951276775389409, 1.8283871388310364, -0.2585409351102012, -0.7572486207736175, 0.5065002019362883, 1.0461416786156592, 0.8021602234858825, -0.15786449292405913, 2.0735831804961857, 0.6039443994846276, 2.061857606540162, -0.09279737448470624, 1.3210119410065484, 0.30643290202476786, 1.4929380459316999, 0.2307559922886464, -1.7365534923378885, 0.29406689146735265, 0.2937110996721212, 0.03910778951991739, -1.4076201728236661, 0.39600318257224026, 0.2759426973182149, 1.934880971583273, -0.26332052708116604, 1.0926977447226556, 1.6012257248785207, 0.37319729598139023, -0.8861621668173255, -0.29553098301538683, 1.3018469689690184, 1.6113914319192442, -0.6891350119601255, 0.010947683338091405, 1.4839441312110047, 1.958696795803701, 1.722117134131024, 0.9004482897166558, -1.4276881722720114, 0.15900510990541142, 0.8720542725338171, 0.6155980150821811, 0.9778700941961054, -0.546212521122534, 1.1922802513807769, -0.06486211857444008, 0.5623082242887557, 0.5692981791588091, 1.4516875253607484, 0.3005916776076144, 0.23330801938158574, -1.2107162411759052, 0.8465756110500768, -1.4706377139915339, -0.04535180390193993, -1.4439897828314474, -1.0932399365366736, -0.4452956191694487, 0.7107984709162039, -0.18535610783736547, 0.7057293445721811, -1.1132265676366042, 0.5744250648773845, -0.7246049722829414, 0.4384358400882838, -1.2245749667968624, -0.8931034377529347, 0.5137888616307438, -0.2788706966619766, -0.15156571413715644, 1.6851345433456297, -0.004435738977620347, -0.6505549091666163, -1.5506117208395243, -1.821174176253248, 0.839036381043247, -1.9214071942431987, -1.4860703624482225, 0.03851303949637659, -1.2319428904634009, -1.8662637288386135, 1.5207524043645424, 1.8374311157644176, 1.3076611986419362, 1.7089185840415655, 1.1854083527380164, 0.8624694290127459, -0.4592730186263137, 1.2353708109936123, 0.9082519831893939, -1.118021321480278, 1.0686529633912807, -0.42592268193011934, 1.751041261335121, 1.0047409907170655, 1.695196303146906, 1.9914416704681452, -0.7255000750699746, -1.2119690052536756, -0.07713003293222302, 0.4243393359594173, -0.8966760419177279, -1.5079543128132897, -1.780889480215443, -0.5156254813113889, -0.33643356722936857, -0.5893850491498289, 1.141999316483425, 0.9295285587155728, -0.3401355974480792, 1.186075840472232, 0.32507642428497124, -0.6078680096195046, 1.4883690123450861, -0.7398346465858076, 1.5760772371068468, 1.1855978653645867, -0.8815422003387329, -1.5076853989073453, 0.7727866353505427, -1.0540678070039762, -0.9798331851815307, 1.332282524605375, 1.6320040863783387, 0.7533763550981294, -0.43921904368293646, 1.4101235655812856, 1.2509324367957528, 1.1719398116981652, -0.9572616968671128, -1.0651622922504895, 0.291557393248178, 0.3681034502326899, -0.711448586532092, -1.0370134395942325, 0.9057609769865295, -1.456759603294524, 0.09906444829043162, 1.3537947373756214, -0.04345661304158172, 1.6272930167307307, 0.3630276656153107, 1.7251942495726271, -1.2341119232880438, -0.840748048636476, -0.6777807513076457, -1.271158874938809, 0.1732188584829328, 0.3418790551219182, -1.9874321195632718, -0.2088898509752395, -1.862882105860447, -0.9633444536032907, -0.12151988419116817, -0.039984303176079504, -1.2196624388112791, -1.1413802027005138, 1.8378382181225477, 0.20471122852282225, 0.023672521189978896, -0.31511024712473984, -1.272802029543947, 0.16439906732880183, -0.7257866244448824, 1.6968731133872061, 0.7525204131489769, 0.8138469113928578, 0.8463785511726922, -1.9980253639971517, 0.21548765506548814, -0.9187892413431978, -0.7891706581251825, 0.7546270309732677, 0.4312351471774676, -1.4716649076322488, 0.4248257630228322, 0.2772266309061337, 0.7139244464733137, -2.614400799280683, 0.2195405514876063, -1.8768021553435346, -2.219240700780313, 1.5254999149738353, -1.3720229197699594, 0.09628888114080789, -1.7240405794696607, 1.798897203119597, 0.3962312687519503, 0.7532310872587117, -1.3884438473924714, -1.279456752730227, 0.14853524356761927, -0.47537249143187865, 1.0629890726479279, 0.2560368996490646, 1.5391580057632068, -1.7417023310765747, -2.1277850590436973, 0.6016935325204316, -1.3896618302948427, 0.23809447327248964, 1.2289000810585091, -0.638927279698871, 0.28771540229589887, 0.10435580814163696, -0.7862228560712478, -2.810876519741829, -0.1628485867224265, -0.01589859150492561, -1.357077621392658, -0.86208385772137, -1.2133268328618383, -0.053652243580176534, 2.050834135107228, -1.2486931384794908, 0.7020677027637069, 1.4096115136958998, -1.1544213376266508, -0.7830204793738252, -0.7415122545652136, -0.7102073761571631, -1.7155929891531214, -0.7827925075994642, 1.1413386238554581, 1.6260927309963171, -0.5875154065175919, 0.36079539739926725, 0.6627045822232625, -1.665953676649805, -0.276855969466888, 1.1416257941452228, -1.2045284588801526, -0.761205042720768, -0.8111863543080919, -0.2727820139041861, -1.1690993951090185, -1.7623882039310217, 1.1838132092416174, 1.0391558297376846, -0.4468461838692988, -0.6623136001844528, -0.69245600686753, -1.335363837229957, 0.5164386891525384, 1.7960065515924526, -1.3078756176457769, 1.6156423676996519, 0.44951545044581287, -1.0760414455570335, 0.8496607815111515, -0.6813596066175837, 1.3770315395362287, -0.7806072606564739, 0.9208896464762376, 0.9728654720139261, 1.3725544326262684, 0.2969501983997916, -0.5107508774587015, 0.35125701869070136, 1.1123187739071525, 1.2825279755121277, -0.8407948854916949, 1.3874075399593735, -1.58962739744161, 0.26766689438742164, -0.30905630674022116, 1.6157831482550447, -0.329388960034541, 1.1476797521192583, -0.6312833297796563, -1.3568085442491382, 0.8986761264485398, -0.12413211050019037, 0.25522000748161827, 0.8165395698399008, -0.211909779657728, -1.2676921362780542, 1.3237136932165319, -0.28124873151602675, 1.7831533497843817, -0.7623385912192111, -0.33974107345529303, 1.7250018228396822, 1.5101178652057479, 1.2963805492342055, 0.8505989521017288, 1.5553895327122536, 0.6930690032727113, 0.8928398622249503, -0.36840996291968403, 0.45970888612456284, 0.4030203171063395, -1.1365773920202416, -0.9053649867614485, 1.7763358873144564, 0.1924637515501545, 0.015473555119487755, -1.2270855432739947, -0.7141781450339855, -1.7449858450802054, -0.8016245298310877, 0.7235349835532169, -0.15837509056712795, 0.8975130316216622, -0.923171907950973, -0.27163916069313915, -1.8459686709118641, -0.7033939227079042, 0.8685506243160047, -1.4581959935423712, 0.013337121378455523, -1.2963654328128849, 2.2029277441050814, 0.5349814367604724, 1.1946675723516782, 2.1570985451848217, 1.0710693038815111, 1.104021617900363, 2.080410784049231, 0.08816820576102866, -0.34657340131475267, -1.092746674639936, 1.149328796650326, -1.4474718166609815, 2.157325311636741, -1.7359849241698335, -0.7709237473924812, -1.7480979084244346, 2.024581430922044, 0.41702999027998383, 1.4820268756644095, 0.317570830213807, -1.9695332025555738, 0.5327693598954668, -1.1257390253044144, 1.3662610021760253, 0.7749478518933315, 0.02514317153014281, -0.40712585240979293, -1.194618439955257, -0.5159900205784047, 0.6822308187500027, 2.7219058848384936, 1.2919710115653409, 1.1241609565156379, -0.8827784208388313, -1.0368802894806917, 1.2461836343371304, 2.131735108741555, -0.16811954292586503, 0.42730389278912884, -1.840437632107036, 1.9403789812696246, 1.4579090375867456, -0.8035887383001539, 1.5691036398250664, 0.2530046997450505, 1.4711775910482359, 1.489576204438265, 0.7741821590127406, -1.4792432682498364, 1.0579566555508397, 0.4374489434928157, -0.7557466374430487, -0.22245201028621459, -0.184636297205188, 1.616569146879569, 0.44758209103195357, 0.721574562589696, 0.7161735811965033, 2.074501113541342, 2.482945718123642, -0.461363190936147, -0.055792844375506016, 1.5995866982952625, 0.6418628231873336, -1.2205619391530287, 1.405412604609618, -1.1077287550885064, -1.5140551754608957, -1.8975392672069555, -0.8314552067006957, 1.2471493458072316, -0.05101531161449397, -0.7327858948117009, -1.7927839169469337, -1.645252678712997, 0.5772194662572095, 0.5776399615213972, 1.5475514848379046, 0.016853439459304495, -1.2107841022441803, 1.2645749840249476, 0.7849682216795306, -0.5573197387082606, 0.19693541033042172, 0.4108686959338801, 0.9923564837758255, -0.9231116482136807, 0.22822080969826056, 1.0986990846681763, -1.685152699158452, -0.5651067017606086, -0.27900060427331297, -0.8742185983661994, 0.36368952907199126, -0.9540587584806491, 1.9683265738620166, -0.32494279885082483, -0.36090658467785475, 0.5621954812926583, -1.7295428009675842, 1.0433275509378621, 1.759675572510457, 0.25948837714359974, -0.0606427434314054, -1.8355574675013038, -0.5944745384196499, -0.810993578950396, -0.9968358687592697, -0.45025343172937204, 0.35052577121742, -1.2416119860544823, -0.01027035056017906, 2.36868690246298, 0.1681254651627938, 0.9210065722680334, 1.6166887070130938, -1.134456645348492, -1.36259569231021, 0.8659179582146849, -0.2095647422481633, -0.6833974433115021, 1.6582721127768716, -1.3246987651694173, 2.0089231307465396, 1.286646048842087, 0.05925141990990618, 1.2338942940853093, -0.8054347481636693, -0.06012748708767979, 1.0093823486927505, -0.812466539977002, 0.12163867790957494, 1.8839348568625098, 0.8348142347162651, -0.3304652140684989, -0.7231531817237945, -0.5388894787613924, -0.9737503007910838, 0.4198024484176285, -0.4141788659172171, 1.4105450716316879, 0.9576769649538096, 1.8657946643794485, -0.8173185195901222, -0.2197867096656687, -2.0109887063081073, -1.2417972161540114, 1.1918878518023692, -0.005627925828817601, -1.2571539653682013, 2.3088856432456475, 1.711627677010708, 0.905821046167982, 0.6332345836063473, -1.2786473790315946, 1.4042606211008792, 0.45707218127163374, 0.5726772999554288, -1.2294016239553638, -0.6505848091759987, -1.9783938412383901, -0.6774950191660059, 0.9735522457973688, -0.8046110500120291, 0.7097039322125768, 1.690830814893975, -0.6524629636699268, 1.0282355473840117, -0.6099760616564146, 1.3968867528784363, 0.9699315323857056, -0.6974313084460226, -1.4769593655299125, 1.0360788156263319, -1.941617732871775, 0.9670421149519765, -0.6536876717590989, 1.4423000777140187, 1.8837890416099328, 1.1745036690699204, 0.4457016990389107, 1.0517406097876794, -1.4444374031246585, -1.622970045301074, -0.5300951803249672, -0.7216189165064257, 1.4782421976605296, 1.564592190611776, 1.6753639450121853, -0.6377515560955915, 0.9533831436779435, 0.2471556522373387, -1.8514381222622192, -1.044641013475506, -0.32716536491359943, -1.2121717335006796, 1.5953521954976224, 0.6896277724519234, -0.4661596736620523, 1.8376430369494796, -1.644867406365317, -0.03420303552437946, -1.5178063283545287, -1.5004670591392666, 0.5325163931800848, -0.4023767150538167, -0.621109041397582, 1.8052695919345743, 1.3205126565467717, -0.14382361277364664, -0.2695049415065129, 1.6051638315675096, 1.1282493019141417, 1.8435684879175185, -0.965081715143326, 1.7583914424493061, -0.9530892744836544, -0.5645608618187442, 0.302293757009402, 1.8940649318103, 1.3414139792850543, -0.20129290578645717, -1.0404047308637507, 1.1808071986951296, -0.49284626728545716, -1.1372029674477566, -1.8427286275018504, 1.2470564122964105, 0.41149101445374403, -0.30844550439187535, 0.5105321537582547, -0.08689788852332293, -0.6402630192181283, 1.7468898665176085, -1.102108584451136, -0.5299930028973847, 0.49318509658968934, 0.7471089473076734, 0.44602176230136226, -0.641311242715919, -0.4622948697012281, 0.8952086565447009, -1.3354717509080585, 1.439645985465708, 0.4668551286868139, -1.626811065926208, 0.7668176899384657, -0.9643470487028132, -0.3302874579710478, -0.17362500171683276, -0.9171827352333395, -1.7975863336540896, 0.5500847125747632, -0.569463222660047, 1.1228445330641657, 0.806825849660984, 0.9537203870134549, -0.06618714591318077, 1.1397221877177797, -1.4910640789338847, 1.5263687409318651, -0.6868711126004129, -1.1896520201395138, -0.7146785269813105, -0.11148922014383499, -1.2961611651672138, 0.31205532956845694, 1.1574764326384595, -1.7447211195158168, -0.590850281143183, 0.8427993324317984, -1.9851603771124346, 0.19160247439432965, 1.4617558679806986, 1.4455718730427598, -0.4529341629921728, -1.2438310126730932, 1.3279214714535892, -0.7277207296033434, -0.9919275730862677, 1.0919619512127263, -0.27006775572812614, -0.6034255967792431, 1.3604866545206247, 0.32557179431827804, 1.3206741211731834, 0.04550671477911228, -1.792485222848814, 0.9333675472558018, -0.9682191041782833, 1.3645115627855025, 1.8048073594756096, -0.5570327374040754, -0.43675393459961964, -1.730288122252903, -0.7385158019868417, 0.9650427301848081, 1.1098229850203114, -0.7858974450874281, -1.5132957480851634, -1.88992031891904, 1.0820681401154082, -1.3927797388036045, 0.5935526188648425, 1.5926435347674979, -0.07195123265283929, 1.4664163608624499, 1.587142090395079, 1.671728535610498, -1.0809494276458316, -1.3903749510873682, 1.4626803472698395, -2.0466300485616387, -0.18742001595685018, -1.6559114334988494, 1.0403510272848104, 1.2279769549392172, -0.6652468751344833, -1.7972153931637975, -0.36184511122414825, 1.5572246385937747, 0.059388625467800084, 0.82512738778858, 0.33741133312075366, -0.635217862175195, 0.7487590929824309, 0.940694942212713, -1.3553426791485101, -1.860844695109285, 0.22726318186659533, -1.2975687032832677, -0.31260534703325815, -1.8075404243482762, -0.9408953094011295, 0.533401722399708, -1.6972437668234412, -0.979705692268018, -0.8924644018759984, 1.3526523944982807, 0.7133741656284724, -1.5417381803810601, 0.03503950553673226, -1.9649672124747952, 1.7507120676432084, -1.1826352959979214, -1.7835256908243657, -0.8043923316713295, 1.109080823241827, 1.0205952851152216, 0.5525239536869126, -1.8578102932819216, 0.3240755244711256, 0.33075160213501065, -1.6407872969453703, -1.9220105255150246, -0.165845853311541, 1.5774684270257175, 0.613012703800663, 1.2312481382034104, 1.182830490642171, 0.3568492556787204, 1.7944111242040506, -0.7657414405932673, 1.5319751938826252, 1.948957765370707, -0.16267427743324137, 0.8563553166572059, 1.4838491294855252, 0.12655127673202538, 0.13881006698741824, 1.7322654086799016, -1.6039260448651362, 0.016156324272754576, 1.6290329103870633, -0.33567316016826715, 0.1750376233248837, 1.6167024644156884, -1.946892717698363, 0.7807608600097324, -0.8720058576055569, -0.015141618572042326, 1.1779667564579128, -0.6712589265808018, -0.079988202516724], [1.9597541287479467, 1.1819661287371965, 0.14398924662149204, -0.10174538175938874, -1.6204627490652737, -1.098165189637574, 1.7009440849438846, -1.0250828799157845, -0.416111648690503, -0.5448624758693015, 0.44752730396599105, -1.4621309654012529, -0.1185474597679813, 1.2335884973462168, -1.000673787346177, 0.34242496815599277, 1.5748046798761868, -0.10765673003961718, 1.945136921555147, 1.3372957534804213, -1.377190346082719, -1.6372256256811704, -0.48722544192166817, 1.1055797451016343, 0.5127772798717336, 1.8581497137206222, -1.8767227595861544, 1.8320559039096742, 1.1529685500703133, 0.8876651591005529, -0.42930154184835523, -0.03974013594656878, -0.9617531075454653, -0.8108342754855427, -0.42369638852097796, 0.5718123544306218, -0.8664163080653869, -1.1819174197124773, -0.29595467317749435, 0.2668661069511314, -0.45229585163013203, 1.162929636865257, -0.6097872886208768, -1.3050243242086794, 1.1632955795788125, 1.4582569983505715, -0.9365886636711008, -1.104184220750396, -0.0603513912836516, -0.1888822400964587, -0.04756466015668435, -1.9674541533460355, -1.2980379911162379, -1.2071868868353581, 1.19907931128049, -1.4473286108416135, 0.30750813582336356, -1.7625037356334503, -0.0882332026041517, -0.3575154419156564, 0.9993453715610562, 1.7882393830932364, -1.8072584232397166, -1.4846228368491574, -0.1757171418384056, -1.2415575572189714, 1.8242432479964072, 0.31671086248520347, -0.569270194567007, -0.5773503239130959, -1.9672938287977813, -1.7318281969007663, 1.2860492280152982, 1.0969013613853202, -0.9982037713532194, -1.1784292660826996, 0.24045546769916595, 0.8329506942741688, 1.8269775761572884, -1.8309442912854221, -0.6373905583022474, 0.6194181589861966, 1.5351281455820454, 1.6879607234225378, -0.1366027522671911, -0.7485011535848627, 1.6290797659656946, -0.8916613711499016, 1.719000085617466, 0.9759103758427805, 0.002728201570423988, 1.8091640786448595, 0.6600269425309402, -0.26771653844785087, -0.9219777260734002, 0.717962147117942, 0.16945698479745233, 1.5763887749336045, -1.7295019852818552, 0.6419963481932026, -0.4303235137524562, 1.8329028979854631, 0.4619509934026629, -0.34446438891934766, 1.3578216868295416, 0.5657067374538816, 1.1225799454290353, 0.03448332603021528, -0.8273919358851194, -0.9784015079437469, -0.21442034589405684, -1.8155537958860801, -0.3838892751445364, 1.7302486521726412, 0.1997190110765978, 1.9146770968708793, -0.6498695152792976, -0.5624809043225164, -0.5475598280726046, 0.39653649392193363, -1.660235561655689, -1.781026713775726, 0.758529697013764, -0.1927586865149531, -0.7565541356411916, 0.705642343506483, -0.36098609710008417, 0.7364656702002425, 1.0187624385970535, 0.7740227994361751, -1.0028679188171579, 1.1681618840574541, -0.4956060350284376, -0.5308981958649353, -0.3217013558914351, -1.03177425175636, 1.9268009593337054, 0.22175801943367576, -1.4220702695553724, 1.4091740590984627, 1.7629484231057635, -0.31922631929000644, 1.826292026742034, 0.39588472256737056, 1.9140556567302054, -1.7264944987087192, 1.5258343571542552, 1.4881720020831357, 0.0048699985202370665, -0.08910007922113937, 1.3430791954189765, -0.9208629044234712, -0.07607331518591126, -1.764181145620253, 0.05231423938206679, -0.21265943946477564, -1.1859482012279605, 0.19326887368672682, -0.15162220749528227, -1.2321818694521007, 1.5624012090926258, 1.2734199141626275, 1.900323752452782, -0.9552719433274569, 1.6146952016013048, -1.7708153295905726, 0.3128679150268187, -0.3091680020035193, 1.3596479259211045, 0.13422993397156752, -0.7598493623800756, 1.1470109741208072, 0.14671837779467461, -1.9653605019040277, 1.001578853503348, -0.6283215534941117, 1.3055751742565889, -0.4531597187070035, -0.4829881607831644, -1.4701918828310703, -1.1209058272560273, -1.8128621612166202, -1.367829878489644, 0.0773445658754311, -1.999217224158309, -1.1854452804702793, 0.5689582474648587, 1.9810888914560343, -1.4738863491893326, -0.7692162370406089, -1.476965411541201, 2.1165598408262785, 1.2373079799276738, -0.14704580913717238, 1.4458949748903394, -1.184061905327594, 1.3897189979950961, 1.6033999353265098, 0.9942890383951689, 0.8592722996142191, 0.3704393461494509, 1.1728314487282683, 0.7209921754291893, 1.1514827899752769, 0.23714164913086858, 1.8487392826579003, -1.6359600373486074, 1.0889916201214465, -1.159921620289238, -0.03670874433044666, -0.9565598295586637, -1.36022193601593, 0.4231329241301611, 1.1153918921503279, 1.612269084923293, -1.644910818640148, -1.023215565567384, 0.7843003064707645, -0.27254107994849636, 1.3129023645059494, -0.0868069268317204, -1.4351748198432774, -0.7617231059663561, -1.3520455625466214, -1.996142982377526, 0.6135913805507054, 1.8339487377442092, 1.4682416117827508, 0.10478873947066022, 1.0202050666454703, 1.0602509295311398, -0.737840612774659, 0.05279663076384638, -0.6384248936188998, 1.4033221798294653, 0.0038881368798498843, -0.3143479159556332, -2.3055011051932888, -1.3669458730787047, -1.1162014869645078, 0.9284848817331455, 0.7047580318735449, 0.6242396781170947, 2.335461366756206, 1.9881522069819064, -0.11021667406298716, 0.34952535939296425, 1.4004511562966018, 1.1564044172817756, 0.08989682688648984, -1.0885960994351744, -1.5884388880528282, 1.4296785587283933, 1.395715926462374, 0.7335405430537172, 0.6597115211607782, -0.37624036774956165, 1.064208329148319, -0.5712216960092787, 0.6896312509678586, 1.814976485048651, -0.30845934662419694, -0.46522529374905114, -1.45560067763092, 1.061931494203968, -0.398122146389533, -0.9976189742450017, 1.8741553287696953, -1.0314001648918762, 1.6148375950373597, 2.25302292782894, -0.3587698514683287, 0.21722661117558692, 1.0395214178323247, 1.8166040934992054, -1.510063311728454, -1.868324654269571, -1.664673962017952, 0.9755912870676718, -0.7066872952245201, -0.047890323673079736, -1.8919910652997531, 1.8352370198641925, 1.0577255860811612, 1.4229092193483828, -1.8376060455819176, 0.8264509617592797, 0.5488154125959884, -1.733453466678731, 1.5540291549042726, 1.236742459632452, -0.4730552601776531, 0.9717508797826891, -0.8038778792408261, 1.1169180012744762, 2.261316321618357, 1.5871263663517639, 0.35087530297535974, -0.8757978357379264, 1.1303904810656458, -0.5357097450633836, -0.9543265322756805, 1.2484098110613608, -1.8065322937242458, 1.8834074390945872, 0.8427833894904759, 1.4582731981174708, -1.8121999892777054, -0.33058324729396826, -1.4112675775355943, -1.2132503437401732, -1.6767891902767922, 0.8166988894387216, -0.6721174375973196, -0.0947059046259912, 0.34662935292456204, 1.472341605072392, -0.10024713563577704, 0.25537808044145055, -0.5411857852405593, 1.4931763422166269, -1.3159447445885772, 1.256840445661342, 0.35401333615202724, 1.713278225580451, -1.0813053799368624, -1.252650311064642, -1.2752181046857844, 0.2546782600734045, -0.4427770263536052, -1.0064423181407904, -1.463837114658678, 1.7262754696322031, 1.9761398987101884, 1.6623021265247229, -1.3356347771266448, 1.134167068322049, -0.19665928063078358, -0.5313416413247338, 0.20208896020553946, 1.6221687730577186, 1.6523955789354927, -1.4447307977999828, -1.0837971809250324, 0.03885520527558775, 1.8677409436639505, -0.4264960943649963, -0.5947238208611623, -1.601108319417497, -0.3612390825742252, -2.2214297373278873, -1.8346021477566212, -0.37967888885895723, 1.6029360885547685, -1.390976417879556, -1.6959321709100166, 0.821052904473546, -0.3604092764678047, 1.8054427791124268, 0.8529402132540403, -1.4840137583177162, -1.8305206677334558, 1.7266630639734297, -0.4283457633784527, 0.6180026831820897, -0.09436081410618484, 0.322835162769028, 0.5470346808221983, 1.6878799001275444, 1.813464781037282, 0.4267557126993608, -0.7468987707745836, 1.1691806941005412, 0.7500693286021525, -0.0869934568419149, 1.0451518467691865, -0.26794526514322303, -1.5781293680403672, 0.07981376257785172, 0.003770279589555723, -0.9332474957641154, 0.9884421580987001, 0.06061849246031281, 0.44997264059584824, -1.2787223639059222, -1.4763943310561485, -1.100926004110283, 0.132923330976256, -0.7388156514343248, 1.4616569515890547, -1.4829858952830812, 1.3942365059416038, -1.798193275211919, -0.5486965334536873, 0.02407490423044957, 1.2665833999897897, 0.2235395123458921, 1.1683962619029522, 2.009439736575958, -0.374035513079552, -0.12784068863938047, -0.2791150159207042, 1.2920652755480175, -2.4641728336969395, 0.39314346994831467, 1.4533427394906968, -1.4357607820683917, -0.48557672955214715, -0.7919213987641222, 0.8886981340280418, -0.9061155561301911, 1.3881041959981457, 0.38502981823373356, -0.744275797301008, 1.5987676241374913, 1.4181354231932308, 0.4858648958654626, 0.4828833343321367, -1.9007821210498708, 1.3217013350889888, 1.9701807378629188, 1.9079679207524314, -1.6723825348586596, -1.028424868836404, -0.3545951850379847, 0.9136512453924742, 1.728182287840582, -0.352550123920717, 0.5977429609046757, -1.0320105929232006, 1.7086256502440278, 1.0754758203870536, -0.2345747642135998, -0.7471014518283268, 1.4133038053453109, -0.3108691225710142, -0.7366603243876014, -1.174128312265132, 1.8279690161210593, 1.8761120279987917, -0.3792411567851397, -0.2445291349065756, 0.06120243149582559, -1.5492273308174154, -1.3966310350207027, 1.5586555455246487, 1.517571232548549, -1.681721714533975, -1.4453732656709226, 0.3821748003238738, -1.6859148530877823, 0.8327817038472473, 1.9523180077783875, -0.0858857811376183, -1.463537739868558, 0.9579996143517042, 1.9096246891223934, -0.7124850728507426, 1.3521124971930474, -1.6726227408214274, -1.027126288778344, 0.9122475508822163, -0.6717780308094681, -0.3980166565976, 0.23376222466778032, 0.4880327079087057, -1.137015192366296, 1.0365862036350009, -0.7301545495363337, 0.15833965394114233, -0.5994806390542169, 1.128173578442326, -1.5486806810225817, 1.096163208673596, -0.3459619178901894, -0.11018181070331513, -0.7834702482651865, 1.013544501141375, -1.9046220643972351, -1.9015683839476463, 0.9881726292907179, 0.5306632972680279, 1.702570669606273, 0.726113450705478, 1.651275523086739, -1.12716722482254, -1.858982827801007, -1.325466633606129, 0.08557580220828766, 0.7199209335622214, 1.7107657162428782, 2.22877878298082, -1.0911621364459207, -0.9158172437119039, 0.6213922350378027, -0.10449571144687826, -1.0535778791040944, 1.2160350022741604, -1.5661368644167308, -1.317702661831415, -1.7051992030030863, -1.1412033996589501, -1.6601844471442029, -0.6679091523482984, 1.0260234666027033, 0.11445569059816453, 0.2560956939564676, -0.9601349193216779, -1.6893510293570655, 1.7086305315365515, 1.8615253839285435, 0.6799847942050631, 0.3211842145974701, 0.29647696915877775, 0.6371596863203643, 0.589248478604831, -1.156049849154452, -1.5252337450608426, 1.8978785598204249, -0.9571351275843365, 1.5715884625033787, -1.3754197830326065, -0.7396820007980301, -0.7053998144515343, 0.5076052539186284, 1.3508573731966118, -0.5865379759777146, 1.722842243013692, -0.1733968688535999, -1.5825821617075744, -0.6494348583740425, -1.3485837902402185, -1.2979868194710047, -0.4514911025355998, -1.4400731701193494, -1.767911619892239, 0.4406633615085188, -1.6319848513066129, 1.188601913766061, 1.3863337154761253, 0.025275084305494473, -0.10379816264858291, 0.03392613935585777, -0.9855823890807341, 0.8257346522247325, 1.4522958069291154, 0.09771802654535977, -1.632672235166901, -1.7778991302827696, 0.4729352472126878, 0.815986011456831, -0.605240651365352, -1.8368871158431246, 1.6561416187610363, -0.9003323930372519, -0.06880142728488013, 0.6369975800781973, -0.19154618776419138, -1.5205822600430605, -1.2539461894737225, -0.7597816711200234, -0.8042225536928223, 0.6653793282424221, -0.48020380701121196, -1.8289630521870721, -0.7271424556920997, -1.6188310661457368, -1.6448479535151892, 1.2969074901682198, -1.1695876861909331, -0.6538016454376719, -0.21577699089061686, -0.8676621186176848, 1.4448545708306242, 0.9575926830116878, -0.09585380403173031, -1.0075992004412717, 1.5843851674825067, -1.9361430603804881, -1.6754283364840028, -1.8880525361074743, 0.14734772223128603, -0.7010773487074439, 1.046198747859481, 0.8844252060890279, -1.698665189649268, 1.5022139817268856, 1.191398257779055, 0.34405101147942757, 0.06576773397947948, -0.2938911763977135, -0.27015667671078053, -1.3042409751929231, 1.1850355002307504, 0.6678747324916003, -0.06136398738834265, 1.8462428167981593, -0.15018500963303794, 0.17962074666810066, 2.301558795944818, -1.5251066796666315, -0.7573522440264873, -0.6455461885045009, -1.453183552696346, -1.0923399163091807, 0.24634281222098467, -1.2338997285420277, 1.3359132142021128, -0.9867146071781782, -1.0285220692542592, 0.2539814552878931, -0.9820562628438788, -0.915471564141691, 0.8658531273671258, -1.0003132868296412, -1.5286367108411643, -0.8879185540511818, -1.9156647341439315, 1.837726586521976, -1.7674122443774418, 0.683769659412849, -0.5530854378754148, -0.6676684929441519, -0.1823218469700651, -1.192955173585701, -1.3861479468630564, 1.3401183158866377, 0.11826221979254728, -0.1342987202203027, -1.618479419341004, -0.32024197391402554, 0.933674039208713, -0.7716637475941767, 0.7562576348356881, -1.0796484706549052, 1.0262998481614911, -1.2054786429345805, 0.7427671337427175, 0.9527669364927931, -1.3543195930909055, -0.9866966369048636, -1.4551507940992916, 1.1340503918614242, -1.9909376334844362, 1.234731699923623, -0.4168752764787764, 0.703670962043408, 0.7605705438527394, -0.508112916168513, 0.08236104563508935, -1.532951293806292, -0.0753035100678656, 1.5305712786635244, 0.8666832975365139, 1.0928736164311277, -1.4333258471077917, -0.2566347052798524, 0.3110883188615453, -1.424865617981514, -0.13396159719163456, 0.00858434097334116, 1.2151761156368708, -0.7077426322448996, 1.4013615134002, -0.7709766028165747, -1.5673937712001498, 0.37220767100758967, 0.8933212264376427, -0.1838444216037888, -1.5532034308417728, -0.5355142394695799, 1.1641793552049675, -1.020492537858222, -1.149751469171754, 0.7881125691384144, -1.7528407290239099, -1.418231991667639, 2.042495086043374, 1.2904555985223172, 0.25901201662743994, -0.18998909942426637, 1.3928502874408615, -1.1008741570411482, 0.9573819347061553, 0.7518854777959374, 1.4933995546516676, -0.7597337840880054, -0.41320513680030885, 0.6509061623159559, -0.9628095141779076, -0.2651367956968917, 0.6900513296317953, -1.4688637338732498, -0.47568951158347583, 1.8714485330522546, -1.803357829137114, -0.1448362575825955, 1.3176761039158127, -0.721170626438227, 1.2579815688724056, 0.3328156255173371, 0.7989431095433774, -0.5942676700253091, 0.17907124868381907, -1.8801263753838717, -1.4556536446219495, -0.5407486272424025, -0.04109982135104503, -0.5519418180440866, -1.5021435057367218, 1.4368115387142024, -1.7278634948052314, -0.7702246655710476, -0.6503634148721019, -0.6764416070666621, -1.3187486703920743, -1.6988405224434848, 0.8631751522893598, -0.9940584350147148, 0.9168019230638146, -1.522715114314798, -1.0472372127628577, -1.973454439561308, -1.7882500588032322, 0.5427662731234113, -1.8504807714421165, -1.8293274595314906, -0.5477323110214241, 1.543308893743069, -1.7450566211543208, -1.8428290757560624, 1.5282334520471474, -1.7735871553374591, -0.8647576915674763, -1.1423922814225564, -0.42728660824027626, -0.2068587064095504, -1.741180939861468, 0.2023170338542702, -0.17398359368354713, 0.8959304273736787, -0.22953904908040199, -0.8199631459198896, 1.7110909386870778, 1.2226382746020588, 1.657557473582745, 0.5865202264907764, -1.8078941270075746, 0.9876085587436129, 0.9215798888768206, 0.9879308121493412, 1.732288168788225, 1.5164218004355665, -0.6891933589936368, -0.38264388902350843, -1.2113021981329517, 0.028148018750544512, -0.3006059384748738, -0.8081073450586227, 0.09081385816652521, -0.47162378747091793, -1.8917423441815986, 1.4938274540500003, -1.533703328072337, -1.2469761028008604, 0.11642104135887064, 0.35058531688216943, 0.6473758771281041, -1.699010299411421, 0.9076921838445389, 0.2609306132198958, -1.3508706870548868, -1.147275939000237, 0.8054921907044195, 1.9980586317049558, -0.8141072911558767, 1.2617720335148994, -0.6175651409789816, 1.1072064625210378, -0.18839883094269871, -0.8175617264237061, -1.275799709796309, -1.313149009200742, 0.8530894307781738], [0.08320552971027073, -1.8613198105616706, -0.04763505775217247, -1.0285431549766302, 1.9285543703216876, 0.13481584901493004, -1.6739133387858787, -0.7333273520318571, -0.12640035335595323, 1.2647559053370583, 1.9983663646773078, 1.5150025912027378, 1.3478390520599925, -0.9233356246145993, -0.6636803690544039, 1.8591414969608198, -1.284856388181093, -0.3693528868473499, 0.2418343563687726, 0.458584685429718, -0.04568600558169145, 0.05569961152630176, 0.343185212077159, -0.5006027373888395, -1.816462223296154, 1.4727417109937329, -0.19659023864143732, 1.8821075202175903, 0.619297187821465, -0.40545145690351747, -1.1428040444860583, -1.5456920917289394, 0.575050971407451, 0.41063542840555334, -1.0936849873055712, -0.02948964806515885, 1.3501887712332585, 1.3261044397076656, -1.644076303296622, -1.4637093723437806, 1.4204090932990987, 1.7022621190757692, -1.318559933209056, -0.46909199760064363, -1.1852520275699767, -1.258699675936997, 0.11565556847816184, 1.87004950230812, -1.8013814091833802, 1.7827331061201757, -0.6281268791788468, -0.07492837964702297, -0.20345210775093792, -0.29136597094994254, 1.9878485017646494, -0.5935018447735749, 1.0774069757456743, 0.6578521908407513, 0.23690725182187658, -1.7192343429849397, 0.8813368517934138, 0.4268054886319069, -1.3079258987633982, 1.7704170851448204, -1.3341629618047801, 0.804801495800831, 0.07528855664399144, -0.2946277075900949, -1.5081439186127101, -2.0077287247875915, -1.0632136244712738, -1.7862936936393714, 0.6345523473034226, -0.08157170243906241, 1.8621714436166177, 0.200571786471529, 0.14531775574155895, -0.5264090418752709, -0.39404357209736823, -1.6185376482497826, -0.9849998367248439, -0.1435712419762412, 1.3171729328121855, 1.8677338997707675, 1.7604050906577888, -1.0937361306323234, 0.17805796841361707, 0.7607421297203559, -0.36493888703205635, 1.7924971198217934, 1.5868276805794117, 1.8021223432093691, -0.8244833164217669, -2.0135993850034186, 0.43245522463671726, 0.07833650290927015, -0.5444581830963701, -2.079923922930233, 1.627490497644138, -0.8105011928250206, 1.4143912303885884, 0.27017401472244795, 1.579270594641349, 0.31540711782029357, -1.5483014284919516, -1.0992825658660508, -1.9829906923622178, 1.5767731789708608, 1.6548767772484547, -0.13314168455508946, -1.9124413895660035, 1.1820300475622254, -1.3281608380699081, 1.4463593076536934, 1.3984317148206284, 1.7147048459178706, -1.8702499356030327, -1.304495172460383, -0.5885217525734168, 1.7365540421515742, 0.8538106037385057, -1.4275975219942814, -1.6085862118188052, 0.6909762501857261, 0.437924349421916, -1.770943696825676, 0.4732822089951987, 0.2747437373117001, -1.6851675024995927, -0.7053313051004343, -0.3263225654235893, 1.198866441044374, 1.2256493454186055, -0.9888454835897442, 0.6137095473965443, -1.7091164108655672, 0.015636897669408845, -0.07567364037118474, -0.3921505698722746, -1.445498656907799, -0.08266260217858745, -1.6973493653713518, 0.9621447745391412, -0.7702035987331304, 1.8097448845009982, -1.0125165904109679, -0.46601568210741, 1.2293731739741325, -1.3180957233343016, -1.9087173737584684, 1.113845560585175, 1.0221664307690255, -0.3591506420103623, 0.14227048544819645, -1.7893900047178626, -0.2795761501239217, 0.09599486946049621, -0.3805368419108487, 0.05697880890792421, -0.5365154674231288, -0.5981253575985183, 1.6315126007797316, -0.8516752321765592, 1.948874199818337, -0.731028636695388, -1.130446405647368, -0.21648913009892465, -0.5109629886859653, -1.9454306412096631, 1.8244912731513874, 0.23169339299007582, 0.6960458028444727, 1.3645710610428032, 0.8400768094161479, -0.13914683353283977, -2.04930019468295, 1.6285049856371823, 0.3927185635776871, -1.1311882197491845, -0.9556684294526653, -0.6488822321575473, 0.4538542942445613, -0.5735962946392476, 1.5065799159767292, -1.321280811852991, 0.7817117335655063, 0.2278045504322061, -0.5183466167776258, 1.2188795776160002, -1.6774443886823163, -0.668280316511022, 0.5849196045542333, -0.08900895038431489, 0.44341411247165186, 1.252151018626985, 0.7537586434638709, -1.2484027206072073, 1.3220664741025216, -0.05843732110508464, 0.6973557093658035, -1.4824955417283432, 1.6000382322811126, -1.8457299332192139, 1.0541889690370634, 0.11581586255593132, 1.353510758443958, -1.068730059877021, -0.4449890432690739, -0.11747619840742418, 1.791740319671527, -0.5553958352605772, 0.26308803390869323, -0.5292593779501074, 0.7656718287364133, -0.18082746344478273, -0.336247579029553, -1.3119787287300517, 0.770523115416204, -0.7164132187444896, -1.0425918546046922, 1.7201026272802158, 0.03247109866051031, 0.8751485265303766, -1.7096654438013932, -1.9674155804296067, 1.100554826663426, 0.5756869996027011, -1.8016302299312172, 1.2363787012058782, 1.6428262218847192, -0.08633972768543402, -1.6209777268353318, 0.740119462110744, 0.9647345809379285, -1.0238985140563857, 0.5282795160353648, -1.0282213615638016, 0.611788031731932, 0.8572152352799672, 0.41242561014437273, 0.6355699623845331, 0.0235323254083194, 1.3533799189054245, -0.009494565083550482, 0.1220991418410906, 1.0697674477560593, -2.2861044503172265, -1.0771475577635297, 0.3442965619818179, -1.5462379254331367, -0.2679224326541409, -1.9297820762590665, 1.2769094853129443, -0.12281409141048917, 0.8463107263585788, 1.283975522972337, -0.08515740959507094, 0.5721916822514184, -1.3778340551897663, -1.954287973879912, -0.250362308520999, -1.7653217061197006, -1.6884161448237802, -0.46065889704775487, -0.13801794734951744, -1.9934249790079905, -1.226289409838263, -0.43943945837927356, 1.0326093105014573, -0.9556445213260175, 0.5498699590897679, -1.582878030102936, 1.4372829723921778, -2.123151253924632, 1.0143430942256892, -0.2400997902818204, -1.1180769156291426, 0.10732999090151008, 1.9910366154910344, 1.9795168589240701, -0.7454672166802649, 0.1482786456097934, 1.3489159286440382, -0.6606884333553609, 1.2246917997617897, -1.754046376361854, -1.572577291284948, 0.25172052625477825, -0.732058536958362, -0.887373549722704, -1.1621643921822873, 0.24253101226142718, -1.2583400600627608, 1.0593510245989155, 0.9290205137835541, 0.24337065991645712, -0.7464057379056286, -0.29088361601626034, -0.5488116893227785, 0.6640212391623614, -1.1635263981238613, -0.5461844741493779, -1.7358730911034006, 1.7897970587527317, 0.5580540099671674, -0.7577420755421176, 1.1334238858659496, -1.9655850561956982, 1.4077135383286767, -0.30777358396802806, -0.5285040848933705, -1.0806476366078557, -0.44789493015939963, -0.8121361398964533, -0.2937948063026034, 0.055377538377328415, 1.4984850785239998, 0.5601335391608904, -0.42604620566988294, -1.2377663967770094, -0.0005187441262418818, -0.9582036692659212, 0.9958302663443167, -0.017278769189923562, 0.3964318842471541, -0.44358414326480594, -1.0158576636624757, -0.1651998715549856, 0.3621090139065157, -0.3958438140529466, 0.42530695527090095, 0.6217039975260737, 0.987073575263528, -1.346989146715288, -1.75302500413215, -0.1418160906828765, -0.7990024448102444, -0.7244143618475973, 1.4167877903796364, 0.17540144515758857, 0.36361410616894246, 0.960335339855128, 0.7617919756958919, 0.3014774999575383, 0.20783603928007738, 0.7122912731591858, -1.1732210723276857, -1.4315314561683252, 1.107359492021907, -0.09505670262372343, 1.1937185598378346, 2.5163488148817406, -0.8813526859727807, 0.7253206208541029, 1.9773260923866973, -1.2194521940829965, 1.4467621266208486, 0.014506910211722396, 0.7892911411579252, -1.4259146260073647, 0.8242306709922085, -0.6382460969642624, 0.504821565477729, -0.393538771298456, 0.7458049032267641, -0.9555540593872751, -1.2886627011632177, 1.2156093156804684, 1.9991302049204704, 1.9908159019434604, -0.9882788461044405, 0.4974024619676448, -0.6489506435053937, -0.32348131734643565, -0.29679834017845136, -0.5868752662049957, 1.5302391769253418, 1.4224893079096996, 0.48811271563221403, 2.063362881325997, -1.1797344947308739, 1.8241459399439561, -0.297194615449553, 1.9243576067613375, 1.2040573725488353, 0.7805336040461217, 1.3466061435582652, -0.07532114289003093, -1.6726274878534466, -1.977739976540565, -1.3242969918999592, 1.9525535641104195, -0.45101257295472186, 1.0801560567985158, -0.4271853761901379, -1.8983722087054737, 1.1017818932106067, -0.8309090917562825, 0.10613030859299774, 1.060725505187368, -0.12480263380880098, -0.0004593309842457131, -0.1977078126259955, 0.522399782977652, 1.5860786400788383, 1.0821393450517942, 0.7274946823549348, 2.2858731875468474, 2.020352441396083, -0.29219005063286924, 1.4099496238443177, -0.3211826740206012, -0.5574548214115252, 0.04831709718155668, -1.47713838036954, -1.4178181705606918, 0.7663715349218775, 1.8350127308837563, -0.833114932685715, 1.4809618657492691, -1.9687384273500146, 0.8431286367215236, -1.3005632383855652, 0.5272632456979675, 1.6885329617987754, -1.2906848975517093, 1.5528139505450405, -1.0776209174408602, 1.4808640021056303, 1.5221310918707784, 1.571805752401297, 0.9422091738731424, -0.9259391730111578, -0.34090418357867486, 2.0496738629669853, -1.3911069551794588, 1.1633088783109262, -0.07178905164436582, 0.8417728408905446, 1.08345142021695, -1.186582834217219, 0.7487508981709873, -1.531322731386421, 0.0564598787853986, 0.7459485068240375, 1.0799125069937545, 1.5876284203979945, 0.44259723425610115, 0.7875027545350739, 0.7360331877684723, -1.5086344253330057, -0.722886368478349, -0.642475485569903, 0.15267950875438985, 1.255432013045028, -1.6391904748649138, 1.2972298749561397, -1.6921197398455678, -0.18261468497861247, -0.7155148962246682, 1.138293243291348, 0.36303132902900026, 1.8908949308218512, 0.5503626803941848, 1.1615529231784736, 0.3549313632296895, 1.218471827282077, -1.885763089830708, -0.5941804331777747, -0.11897194425204989, 0.10967104974241736, 0.3564751442593189, -1.8796319310651006, -1.875235432887295, 0.009559113652428305, 0.3718598405527304, 1.9898049583009003, 1.829067195362016, -0.6234683711593678, 0.355168021543534, 0.5838191613430801, -1.1131910475665299, 1.6291781830337102, 0.4163346132172806, -0.33833718577126953, 0.8909158175494031, 0.5394205589938089, -0.36097137049643974, 0.8280245254863239, -0.33147968742185235, 0.016809193131326672, -1.0163433645651028, 0.41767759866643966, -1.5871514020838033, -1.1087196387130398, 0.23219080942383585, -1.5162105742637226, -0.9816454897488934, -1.705605840204494, 0.8345188250592785, -0.34320480553207144, 0.9604868022821917, 1.439475719246343, -1.477431601073319, -0.5248390883066817, -1.8494463820601679, 0.7568465342715067, -1.4843339679480814, 0.7681893039075076, -1.18941759013206, -2.2090638237642106, 0.7925999605582809, -1.2728425549191291, 1.1968952613633999, 1.2242445582603132, -0.7072617415764748, -1.55621641927932, 1.7770765523456487, 1.366451308962848, -1.9148746386690094, -0.6264209909165279, 1.5087744689483304, 1.289406523466929, 0.7642362340642368, 0.18266410440320408, 0.9159385885733557, -1.5420827489916002, -0.9605170892286943, -0.2649713890484016, 1.6121488967406161, 1.6095116049598028, -0.8561914217459042, -0.9169049203605, -1.198272348106191, -1.2312186875924787, 1.0528721420502, 1.086871556478336, 0.1139718245544624, -2.024571159617585, -0.7061835956242078, -0.14644203257704463, -1.6925518254864012, -2.1280362812215374, 0.35313778622371517, -2.6172206906743742, -1.8976969629505467, 1.5128183775636408, 1.2657467917455791, -1.6821157382732272, -0.7114153552174912, -2.4176190460512177, 0.26405324938814706, -0.8556874810986239, 0.518859462711727, -1.456305622148723, 0.1265028283376464, 0.028962487520845834, 0.945860629907161, 1.097720336473973, 1.6380371340415398, 0.7307840940790187, -0.41567322936372897, -0.7405143385393804, 1.6896914759306265, -0.23588456560420057, 0.348741449211615, -1.2813628961966688, -1.3198423219978825, -2.2110330080183482, -1.396080843325703, 0.21712341443121894, 0.7030076561895019, -1.532088895652415, -1.2061341167600765, -1.0513393008979488, -1.8945223672877676, -0.49104034938018293, -1.8406893893657261, -1.0948769440418762, 0.9985110940030675, -1.771626306023118, 0.5485102411748877, -0.9601169269727067, -0.18788398892447414, 1.341731778334812, 0.7898126022692147, 1.4694212139874785, -0.6402349458320877, -1.2319696847006048, 1.0215094396488216, -1.5753727181611756, 0.8403559911707953, -1.874830718847324, 1.0442889404636577, -1.6000089741639514, -1.229475122089533, -1.5032608876304168, -1.3951718752560216, -0.37764154827549584, -1.3281353403257175, -2.1379478496077406, -1.650466873835102, -0.026923315370625985, 1.3547384821344812, 0.8226493717846044, 0.183853059053453, -0.8663439846280229, 1.6938551508739204, -1.7325555616901203, -0.33919808041881083, -1.6020836346331138, -1.9603743010267347, 0.34546103633105085, 1.9262966266300372, -0.0008880021580748667, 1.9736134596490638, 1.6073662825189683, 0.19912455274060212, -1.1844979182310977, -1.2927888949964712, -1.3844044623275547, -0.9133338056108755, 1.1809883040615665, 0.04426319222135849, 0.2414932424266229, -1.1156995734627526, -0.7646497587172721, 0.28947982286161916, 0.5238482317367757, 0.0060271596909363505, -1.7573652796809747, -0.8656590917303311, -0.4843663464293556, -0.6606336134908463, -0.911143686360984, 0.4185108887574491, 1.7729409530915334, -0.9214330953968694, -1.4909928596732742, 0.5401928274196277, -0.13099678121222136, -1.4016919621444812, 1.3252887513040548, -1.9699547732031233, -1.9603018667569012, 1.0649452578146232, -1.6994087542030172, -1.645971189619165, -0.11427292211778788, 2.187631066938097, -1.1622995313355513, 1.8500625933876773, 1.1713033021504993, 1.0581713446624632, -0.5217503304558528, -1.2165093387742687, -0.5313619038672168, -0.17111781533158998, -0.9718655168485018, -0.5947631770061986, 1.3936919578709397, -0.7989762606652184, 1.9747839812620887, -1.157665281624, 0.5368637547762886, -0.9429288003349208, -1.5520043888772375, 1.6499422928390721, -1.7590709777787445, 0.5494756244735941, -0.11485406230899856, -0.5200608527238666, -0.7957454407468498, -0.8797940159408553, 1.6114543634118836, 1.7820862364372572, -1.896409342629608, 0.2045306771526429, -0.8847104170137668, 0.10787055244023404, 0.10062280515548704, -0.04183755245336144, 0.07550176937943276, 1.1075107517386744, -1.2324416402415383, 0.8368736365296323, -0.32904550036994223, -0.6301096361601364, -1.9888485468537294, -0.20151983234012938, 1.6462817273927213, -0.1428476456665233, -1.1875665750603588, -1.3756333257509172, 1.3371522736184431, 1.5799134051970196, 0.4037636636580294, -0.259884921470076, 1.216040843602078, 1.8829090939802695, 1.0735129789779525, -1.4398606392329807, -0.9220790242652922, -0.02521729695180329, 0.8545434116567336, 0.11863981014536332, 2.050765375072034, -0.8479373843246478, 0.3652873091993491, 0.025572265648491254, 0.6263570248724061, 1.8121557945903526, -1.440056856210935, -0.07167152918789081, 0.4037239504451027, 0.7872268084505843, -0.01641919148382672, 0.42627479357202236, 1.5744303238769457, -1.4610637783878948, 2.0384442667072173, 0.9055943867324318, 0.952961948372827, 1.9376160235192357, 0.51385023040394, 0.8538900466430959, -0.49556610223818687, -1.5277135966272661, 1.153231029315958, -1.3338760082302694, 0.492208715312104, 1.9659598170396468, 0.2661145992259907, -0.9836315660567108, -1.3987843981110542, -1.0715665802364727, 0.9894580515336361, 0.1255330753534487, -0.6354059629643125, -1.8648009278206363, 0.3252205346307892, -1.7160909936319197, 0.08323918348367672, -1.0080810538394598, 1.222154416815701, -1.5848682122614777, -0.0019753972945613677, -0.23132153220746257, 0.44231865677599375, -0.6417443944769715, -0.922253125675043, 1.0017132029144449, 0.5444014297935361, 0.29688951137564323, -1.1657244943520753, 0.3448898403116556, 1.403557050151385, -1.4719576504067717, 1.1018304542091353, -1.5217959476042648, 0.2541544578328456, -1.0225639168945213, -0.3632390897780733, 1.5879474598279664, -1.3064959798275375, 1.7430312502345604, 1.291804468966148, -1.49702728786012, -0.6704589725115518, -0.4496455857842602, -0.9392912112496055, -0.043955761304350846, -1.4240943534564396, 1.6257963773454076, 0.637675536448892, 0.3107909294010018, 0.2762963892983621, 0.007886692963364573, 0.5329017346724945, -1.6529552651131043, 0.18778033933477456, 0.7712526061341358, 0.33942985786057545, 1.8701213575798068], [-1.9129086691274901, 0.8809556342582905, -0.13886426462177281, 1.5737536101846183, -1.2257660253348925, -0.93576229026502, -0.6622467696498466, 1.2269045189409673, 1.9612790473945054, -0.7064086352873891, -0.5525701510944643, 0.20740143907755826, -1.1334598422783175, 1.7357070670534416, -0.2757535625858513, -0.8488034631649104, -0.8885203197855458, -0.26835779259187253, 0.5845526526456131, 1.6974678417879772, -0.9840055615598362, -1.8541176200692728, -0.969295622442059, -0.44084600670614416, -1.8203581179378872, 1.2550863384410111, 0.4947432592679717, 0.7958051744630739, 1.7374833337928934, 1.7302603700272323, 0.8259130836386266, -0.5281722274368192, -0.2155448809345497, 1.7062183699953675, -0.3238750740617072, -1.4006407437028219, 1.6506548015176334, -0.4921970389177537, 1.1725985318870378, 0.3158108178928268, 0.7160457238757222, 0.12457421191259874, -0.8018021797353025, -1.7819208211241453, -1.9366261750918186, 0.8492130986305312, -1.383344375412245, -1.4321179284845242, 0.30407973960791673, 0.8546146907016909, -1.4639633394321523, 0.8699500822045169, -0.34230453839469455, -0.4139519512194725, 0.35742535616523075, -0.47083066114325556, -1.7658897051769276, -0.8158644249780278, -1.3412807251745051, 0.8821991925029393, -1.750968868268611, 1.2494525982770652, -0.4554230827375963, 0.49049556573612674, -0.29551174315079215, -1.1234805448003662, -0.36605482493867353, -0.3953523203398826, -1.1950700484779089, 0.0767406918169098, -1.892962516420148, -0.2659519087700623, -0.7439930808378923, -1.0229952741232478, 0.34100505699383554, 1.3391584409697417, -0.4791060482635664, -1.2095031612810752, -0.8545385515123355, 1.631984139831226, 0.14045545237988363, 1.1443233201284868, 1.4550322673107057, -0.5812700409748004, -0.09466572981394972, 1.7234916260367399, -1.6419334077449468, -0.9064795719087083, 1.4791283306009129, -0.05561766683355085, 0.375582431089943, -0.7879527996539868, 1.1560286244887827, 0.5862370279370157, -1.7938372311982214, 0.8722679169467912, -2.106007462478445, 1.4021330041042104, -1.837984623190327, -1.3302352601317469, -0.4662744492492113, 1.5570943982152876, 1.914337238306769, -1.3188271898352564, 0.7149950475700158, 0.9483136854924151, 1.032066691218267, 0.32396670200545347, 1.393969223029676, 1.6576329411927426, 0.2824832546619132, -1.754953876801817, 0.876206238978066, -0.22271464570905003, 1.15461618196637, -1.7000180728208385, -1.9016359475473255, 0.4979442254369939, -0.47471338510119276, 1.0813934511118144, 0.25615790926437293, -0.7729605646403533, 1.0468703092868428, -1.7843942603566412, 1.6328624631755142, 1.2814591151031545, 1.5867124580095529, -0.8620237995146449, -1.585623559482628, -0.18262126347417407, -1.738829313249069, 0.9528582283827721, -1.0692100735463255, 0.5992814562845037, -0.2879492740733766, -0.06367470904112554, -0.7637821037397095, -0.6171071983553293, -0.903512795517003, 1.5897203510474207, 0.579085115605162, 0.07741976835791853, 1.4411014984552808, -0.28779044897848527, -0.2307643182847615, 0.6921022893163867, -0.007671689570915131, -1.0197438774697347, 1.909191835543039, 1.2057999206190275, 0.0947695665553549, 2.0275326978351043, -0.9595463234727087, 0.8973220849294169, -0.6279697546110262, 1.8408113715823096, 0.006234697015818238, 0.19098625181074408, 0.6621107103543249, 0.38245910089773644, -0.8285194746476274, -0.6919413065286515, -0.6001054052124748, -1.446665922755948, 1.025523594371336, -0.036263919830585155, 0.29619534507560313, 0.07755513576884564, 0.4783930338447795, 1.7446509311728897, 0.03220610222414831, 0.704563437861565, -1.485029171545926, -0.9645100357510054, 1.673725485352611, -0.38802923516249227, -0.2523958606690117, -0.14948240552826078, -1.1234774206122489, -1.4954216629542334, 0.6037042778105576, -0.9068152661333133, 0.3620886083979407, -1.1914508734064269, 0.9322834818404606, 1.8450164337690977, -0.6057247259374605, -1.6243170235172377, 0.8422003420864493, -0.12608483512202176, 0.5481120874149175, -0.4902779711224699, 1.034446009493684, 1.2883329674415531, -0.3416487525099336, 0.13843444604145044, -0.4072603416002898, -1.847106876132389, 0.8079280913270513, 0.015542653734118218, 0.6889888825191627, -1.455865278446679, 1.8486046586343314, -0.2772352619147483, 1.8369123536848295, -0.5539115085738285, -0.14430352454318773, 0.8099118432303981, 1.7118379123383805, -1.3415431105665567, -0.05454609032189151, -0.49426329917521233, -0.7496071635451665, 1.4309248183174208, -1.3439919645751104, 0.3780388858579641, 0.21150875052625184, 1.7526221730891935, -0.21865659147421931, 0.18704519499451788, 0.7085703295358128, -1.7948053733342773, -1.4908277715928377, 1.221311161051528, -0.11267225688709825, -0.2974412164266014, 0.698416144712522, -0.576515755380458, -0.03169921046475097, 0.7020522428160216, 1.6760507032372527, -1.0313957910889777, 0.10135746383174084, 0.2700804351602088, -1.0234683759169534, -0.04287386291934994, 0.36442777130075027, 1.5865868650077666, -0.41368115123537375, 1.547335438893364, 1.260030836951637, 0.7524555671178482, -0.6742634613131187, 1.4303937318592737, -0.20258179400933934, 1.6169202163519434, -1.8710416518699369, 1.669708642396437, -0.6372716212983782, 0.06624709708542166, 1.4264654314201977, 0.07333552255999273, 0.20847390988466058, 1.6496610383277992, -1.6676512604995308, 0.7275274821900882, -1.7196398448403047, 1.0097970787870014, 1.2975725985732247, 0.6759955578902636, 1.7038339524961894, 1.131071786082065, 0.6885927934344134, 0.025347331204011225, -1.4499402494431552, 0.14814479874114153, 1.3497007738822628, -0.22687956850806051, -1.039147927298628, 1.6041869210171984, 0.653872916018678, 1.841544725938416, -0.3995910035100131, 1.9642625662584468, 0.6622670856265594, 1.6763358092969796, 1.8810447317833376, -1.3501455494896706, 0.8906119000337379, 1.7540200158840826, -1.195863793597422, -0.6840879006077044, 0.7810398332061158, -0.84324282210623, -0.5928151105425795, 0.9842821338313624, 0.3029208681456053, 1.4147183592316357, 1.0717481232557868, -1.1380334330583983, -2.21957484805146, 0.3176590317926321, -1.9219686914255156, -0.11865189044898346, 1.6505572118021477, 0.9536059320300634, -1.026944722783983, 1.1549174096665544, -0.798658535627318, 1.667948075139178, 0.8798627392712535, -1.3309880447430174, 0.343947446453265, -0.9756329922005291, -2.026930528599798, -1.028342126898481, 1.0609818997680451, -0.41778668967359733, 0.5014865239950619, 1.0049709372604168, 1.6044716568882365, -0.4467334793539308, 1.9133489816196965, 0.8744778046714361, -0.8491509339241211, -0.0856900617055443, 1.3612954975816505, -0.7417005103777001, 0.8570846360661952, 0.35391285925650706, -1.332662452295285, 0.835530489839137, -0.7304385341136288, -0.8774787195421359, -0.49481295213846027, 0.556596871843629, 0.6035176057505734, -1.2509245223765884, 0.29416324012789513, -1.4950809934402538, -1.4725949970876158, -0.7167422974951999, 1.5407352607041378, 0.841543257118214, 1.3574972192972368, -0.4017188280392571, -1.4459548631107142, 0.19346686892911696, 1.0483344157477583, 1.9426743474057138, -0.7018396887758503, 0.009140250517841045, -0.8494707074573005, -0.336785636988078, 0.359642339297662, 0.8669652118385309, -1.5219679473008845, -0.35632912693864044, -0.2749982967257615, 0.5625790754753915, -0.37586305366612965, -1.043226293448773, -0.14608469053884926, 0.5544474708365232, -0.9350026273186126, -1.1576018977670801, -1.787744906974352, -0.06734227142693924, -0.9815980788120824, -1.4675749876287378, -0.3165914836910364, -1.590385794647438, 1.3157910531876706, 1.495591881171227, -1.8633549821369197, 1.1761871847947316, 0.29934947198677886, 0.6448063546869063, -0.26588687700098584, -1.1842679211136935, -0.14905655879982913, -0.9484720573916842, -0.4867364525048839, -2.22414910273127, -0.4637824901074376, 0.11695557078439757, -1.0037785708611644, 1.7850122422630543, -0.39104532029074296, 0.7239136510660803, -1.1747518358294993, 1.4823016286404596, 1.5407270411639253, -1.4279386375480532, -1.8604246665718323, -1.0814353574721332, -2.2223319420580476, 1.3323781241489254, 1.7394091255256374, 1.5765055420243432, -0.052182020594876324, 0.49795788553411324, 1.2457931833888551, -0.3537986003882359, -1.3119550338905062, -0.41264062874366775, -1.3774961348776018, -1.6716152905357917, -0.15608178966922712, -0.25296698499666437, -2.3197834719532433, -0.9028187220624808, -0.07921828955959895, 1.5088774298467476, -1.4994240642063736, 1.1922771287609544, 1.108025348428447, -1.3737026314603495, 0.9149638848162256, 1.171805245176714, -0.5176188242740221, 1.6625455459223897, -1.9040103787180045, 0.3509510067100621, -1.9341140966244723, 0.5308921682708277, -1.9393964371756804, -1.4080938505350078, 0.2893128064424245, -1.1893075656132914, 1.0806287610223695, -1.7940104875176464, 1.5054385549732885, -0.09322877605765907, -1.0078490073371342, -1.672019464752823, -0.06121483030591312, 0.11347858948788304, 1.2550243653170097, -0.0040661759007429065, 1.4213356134376982, 1.861721214549712, -0.296204841118867, 1.7054251314231417, 1.3815190337552112, 2.1460914768144743, -0.6228050587539701, -1.3981398936258072, 0.2752965518385286, -1.0248027618467652, -0.009143080839925561, -1.1258465707618497, 1.4591897644882685, -1.6753420169344766, -0.8602161582703897, -1.2249100612374932, -1.7592983420709392, -0.4986192434421481, -1.5022787085385882, 0.003285408929222461, 1.9291736373276007, -0.5591979480460193, -0.1081261846139529, -1.6188848121539332, 0.2593437981161291, -1.6800359594270935, 1.2619934707123857, 0.7276200571650402, 0.6043396790551872, 1.4314451548258427, 1.4004000560778365, -1.1301016874471723, 1.1961406786301607, 1.4986873654448405, 0.653814454457237, 1.4714060711614148, 0.607546787928433, -0.4621994365785398, -1.5841991477396962, -0.4125009999339086, 0.2767388397468206, -1.5954358047949357, 0.19790136529778657, -0.6352881499167561, 1.73670586228918, 0.6252186101026962, -1.5512680677184645, 0.5534136020884017, 1.621505067468831, -0.9349037887639602, -0.44269042097680633, -0.4452997200349853, 0.41089744402443834, -1.129387322476584, -0.48138575272994927, 0.7967718359569277, -0.9563836314217132, -0.5513420314426262, 0.07678355489130832, 2.2030616495459063, 1.4896643122897346, -1.0145886288468042, 0.45540281602874244, -0.1862150137580183, 0.8425604942613231, 0.4183632004085355, -1.1124758935843866, 1.1680541466679024, -0.23518610363778156, -0.7231648363196992, -0.5495824715672989, -0.21466429972738313, 0.6373998065896045, 0.7552478884173986, -0.9550025261793, -0.5705860162670209, 0.6894176036150438, 1.9578457245545355, 1.2937348727566214, 1.6513279700168246, 0.6336514302250869, -1.131954004586044, -1.014707858267826, -0.7117990231500099, 1.1504493114771237, 0.5121743056891883, -0.4766636816997495, 1.8120544478185758, -0.4380611963918842, -1.1299812838079237, 0.345272962904728, 0.8977331208689701, -0.6296417772221533, -1.3793322303919189, -1.1149160205528543, -1.8463609725094197, -1.1644464386124216, -0.8504634411056515, -1.0486701413173034, -0.918252055306448, -1.4910011448997516, 0.9640844769581428, -1.9622824200969768, -0.9289599434935655, 0.0942052724812787, -0.735640299839366, -1.691188273988455, -1.1475328610208915, -0.7126501499406721, -1.106259577032694, 0.29512710852720236, 0.39605317933840756, 1.6150928798381672, 0.5678294902665377, -1.4110638176168757, -1.8614941652282202, -1.856113562948999, 1.3129830079037734, -1.0306264442166266, -0.8858886631979581, -0.4198977094734846, -0.5866321738906504, 1.9239044452177052, -0.5339333593481127, 0.7008452075464411, -1.6467444525216173, 1.7887321094879942, 0.7741480869978632, -0.9406086385648046, 1.689096301352426, 1.0081002046002663, 0.5933532966440649, 0.6558506601773041, 0.011349560746776377, 0.3882071578580689, -1.2273680802633395, 1.6853498360146284, 0.16262629196110115, -0.3869741200052923, -0.017865023500141183, 0.5352574087265795, 1.5373760276444342, 1.169318855690454, -0.21293394091476006, -0.4016893531120673, 0.8044131842341933, -0.5189243433960007, -1.509359538305061, -0.9690292167935317, -1.2435533710829714, -1.154583167639307, 1.2486259703200038, 1.7981379596577005, -0.9044955733773111, 1.4516538757871897, 1.6374558588830475, -1.1135320031694376, 1.6321734497201175, -1.4892870294134857, -1.0330556940117264, 1.3475614569827108, -1.2352819246994569, 1.0239082317181554, 0.22907972752438688, -1.3377386182947568, -0.07726177328846362, 0.31684271105338485, 1.257242087944165, -0.4002850053135018, 0.8240960470823697, -1.2306922314871658, -0.7356466299379893, -1.4798467984827641, 0.11522030982734455, 0.6364112302796647, 1.052573240688236, 1.082535075471466, -0.9871731938725983, -0.29219464031243736, 1.8532117600050293, 0.3854528576931148, -0.21153649739051258, 1.7676635751707317, -1.1976756206348311, 0.9862996253701529, -0.5024401505409558, 0.07853051785940549, -1.0953142553328583, -1.0022681651979144, -1.7090515369221042, 0.8822106205130653, 0.9334454573950801, 1.9819635627011176, -1.6483718539505754, 0.8553153471086484, 0.2843507874484415, 1.094764762177172, 0.7555130772317669, -0.02020116526945607, -1.0619380801038854, -0.24383019956234553, -1.8063470288705044, 0.40991515323992256, -1.8057818615436358, -1.346161260693605, -1.7807566323630422, -1.2509853545218628, -0.8373520124519378, 0.40657928583867015, -0.500648716128952, -1.1899247279190865, -0.311298156223307, -0.16173799198771954, 1.9028611799032187, -1.4798001599539394, 0.706933651943082, -0.0345313761692101, 0.2101804784858434, -1.6489729013189645, 1.997312681115857, 1.859259743781904, -0.11410052080932047, 0.7144541844609413, 0.48667692637639887, -2.1309106748602433, 0.7246071414333635, 0.6833586418183163, -0.0979669765438642, 1.2305326497001168, 1.2125303233320006, -0.36037856969790905, 1.7912187762301737, 0.07436452898333741, 1.8374246290559686, 1.845667259182498, 1.3512791336308787, -0.03415836862353478, 1.5729906185069833, 0.810196500132057, 1.0199209151693653, -0.31027152896875226, 0.09576892140371429, -1.438286021950967, 0.2972282122551868, -0.8841622722644454, 0.8025043835344056, 1.1590768292951517, 1.8205233087240995, 0.6092061279594391, 1.0963280599718297, 0.8536565537606137, -0.6981250419993049, 1.4921112751667673, 0.7075008529710286, -0.0956167438998889, -2.0365383927163387, 1.555032830423275, 1.4703549300453298, -1.9345188041703016, 0.9192274869701739, 0.4207932646688039, -0.5389251484019123, -0.9734649525703715, -0.04615745158087919, -1.201734471675306, 0.8741627181081961, -0.2016889386106864, -1.926786778384216, -1.7299526670157497, 0.06203578924953623, 0.4034910435457886, -0.45871814395108945, -0.36016823177359697, -1.3049215780784815, -0.6123990066867468, 1.920592500181277, 0.26791308881282155, 1.5601131677956097, -1.9403239414227447, -2.008854884600874, -0.9643574374178034, -1.6608954104733558, -0.05536640041897881, 1.5233232985281833, -0.8388354508123257, -0.6085895201167395, 1.86892420833742, 1.8909789873513145, 1.3612903576027222, -0.3545338024796647, 1.9942661774514152, 1.4857643013179263, 0.09008937024217326, 1.8483838545656044, -0.6413147181377981, -0.5621189600494861, 1.0505998492817992, 0.7678295653571241, 1.8661181887646814, 0.17719368938003877, 0.01750727587897094, -0.9003812281546515, 1.980489004688926, 0.6721281312101018, 1.4216314273958401, -1.8935411727093148, 0.34233288109084936, 0.8968865737160623, -1.0750013035580022, -1.500009560883456, -0.24595289982498042, -0.05111678102395517, 1.2651071018745537, 1.5451052056683117, 1.7478150580705583, -0.23899653853633113, 1.4833538537212567, 1.0570555123635579, 1.3108531827203211, -0.3416157851847839, 1.7412304616908785, 0.950118565183282, 0.39382023105033287, -1.5855985288291634, -1.6428309446755476, 1.308793626204344, -0.6017486177037941, -1.4056120650362711, 1.5648330493701588, 1.8076108736169578, -0.9097625090568062, 1.6921767178510168, 1.093976116305333, 0.9739866185056075, 0.5870720408748707, 0.5939801679851339, -0.1823619007926921, 1.5995663326458707, -1.5466947094788905, 1.1712510873929098, -0.4059173543060518, 0.6916846779879379, 0.011839990383153828, 1.8548035237933187, -0.06454212120919953, 1.3693511302270445, -0.5664200281828841, -1.2467131598449455, -0.08965002959828774, -1.5397554924165837, 1.457148470280246, 1.5971359604461028, -0.3250660359629123, -0.5742851517422372], [1.155295174424193, -1.92598839568041, -0.2767143091725508, 1.2413816801824953, -0.9541684208469698, -0.23917137045569303, 1.394529801182912, 0.7172167941036811, -1.7903901671737579, 0.29428484937734645, -0.7295049247194512, 0.722084308939908, 1.040560325544152, -1.0835436040054496, 1.8480714105478127, 0.4542834402992523, 0.32269004617782526, 0.6771777943957451, 1.6275901967415116, -1.2734306509404512, 1.134559315749775, -0.18081797746086625, 1.9694945291363553, -0.49899137672144844, 1.071963259680674, -0.19147748224030492, -1.7156606509740864, 0.8280402918653342, 0.9729861717553683, -0.8624142486109236, -1.688091018274695, 1.3418791218584185, -1.4424613927053582, -1.9052864421060258, 0.0010052937951253412, -1.259971790923182, -0.5941535827348626, 1.0312657156049223, -1.3020663681683553, 0.9868154994327932, 1.6280277958846607, 0.6336745057407352, -1.1426093494241158, 0.3248113959348901, -1.417121778757248, -1.249337992633773, -0.3006229284331835, -1.4913725956388628, 0.21078894482486457, 0.9806326584255424, -0.18266565625369083, 1.7121117156062176, 1.5251152842831872, 1.1719326070519087, 1.8552855307862273, -0.8383635247872894, -1.7064688360737401, 1.0064280014746663, 0.34609203782108466, 1.0307791456526894, 1.1108679534271306, 0.18177463478944575, -1.96622161519019, 0.8085481428462777, -1.5518960227286507, 0.8682738115795892, -1.1298507786296246, 0.24618717688588324, -0.9984220058766685, -1.4697471932190285, -1.175612971015358, 1.5423200833367365, 1.0732277684178453, -0.18445271900886245, 0.844731915606838, 1.541820519288678, -0.8680497791236749, 0.38309947349566825, -1.2502117377443347, 0.016648626746997467, 0.31677088758403915, -1.681281168138964, -1.733005525354335, 1.7740813487785956, 1.3885700170209816, 0.2932068078350878, -0.40938935674021576, 1.6080186567714572, 1.0103856924785617, 1.7175691004686175, 1.860472319862645, 0.6554464856091626, 0.2595413667225262, 1.6266540373803198, 0.5725856503692619, -1.2457004281402742, -1.9425768151571163, 0.8372410133725332, 1.507212921941366, -1.6721605988770532, 0.9130553071247403, -0.7868974769204959, -0.17021185923642262, -1.6437950908151455, -1.613363803213242, 0.19439249971175482, 1.7306084433658666, -1.843567772021544, 0.1887702645249866, 0.7072544438366124, -1.8079394685829144, 0.3253742321602995, 1.7396469376615973, 1.094537662474613, -0.9924443347983689, -1.962640794190328, -0.8043624001644654, -0.9974191689655971, 1.0507491547601324, -1.8831080322670004, 1.3002493389815744, 0.45333413680552825, -0.43499932824754073, -0.4698875720945014, -2.0171296972912205, -2.018120428428978, 1.458094231477333, -0.8345658912990959, 1.6371899255024658, -0.26045516549585895, 0.5980556768933422, -1.5046412476847195, -0.5890069734994325, -1.6196733021006287, -0.4700443673271084, 1.831075010678517, 1.5683510814363137, -1.3381651926911808, 0.7279956909065692, 1.2184981788502753, 0.5080992460191016, -1.247436493625893, 1.6111837851512198, 0.38974204138741964, 0.7321454573993795, -0.03985377513357775, 0.6777241410768581, 1.482666838082631, -0.5239404204261248, -0.9536844206423065, -1.3364233347235321, 0.3691289757280085, 0.870304836157193, 1.1227989881241296, -1.9559324559511575, -0.5163929692831798, 0.24218245977760364, 0.49597710032633074, 0.8261377069782121, -1.7374787077029983, 1.6655125607286245, -0.5310962147955726, -1.8319790332112653, 